{"learner":{"attributes":{"scikit_learn":"{\"_estimator_type\": \"regressor\"}"},"feature_names":[],"feature_types":[],"gradient_booster":{"model":{"cats":{"enc":[],"feature_segments":[],"sorted_idx":[]},"gbtree_model_param":{"num_parallel_tree":"1","num_trees":"100"},"iteration_indptr":[0,1,2,3,4,5,6,7,8,9,10,11,12,13,14,15,16,17,18,19,20,21,22,23,24,25,26,27,28,29,30,31,32,33,34,35,36,37,38,39,40,41,42,43,44,45,46,47,48,49,50,51,52,53,54,55,56,57,58,59,60,61,62,63,64,65,66,67,68,69,70,71,72,73,74,75,76,77,78,79,80,81,82,83,84,85,86,87,88,89,90,91,92,93,94,95,96,97,98,99,100],"tree_info":[0,0,0,0,0,0,0,0,0,0,0,0,0,0,0,0,0,0,0,0,0,0,0,0,0,0,0,0,0,0,0,0,0,0,0,0,0,0,0,0,0,0,0,0,0,0,0,0,0,0,0,0,0,0,0,0,0,0,0,0,0,0,0,0,0,0,0,0,0,0,0,0,0,0,0,0,0,0,0,0,0,0,0,0,0,0,0,0,0,0,0,0,0,0,0,0,0,0,0,0],"trees":[{"base_weights":[-3.9116262E-12,2.0913547E-5,-2.6371607E-3,5.0229887E-3,3.2531084E-6,-1.8203316E-2,-1.5409283E-3,2.5783252E-2,3.7269124E-3,-9.746074E-3,7.769075E-6,-3.616732E-2,-8.511982E-3,-1.0044143E-3,-2.06353E-2,2.7583293E-3,7.4915093E-4,2.68857E-3,2.6240405E-2,-1.9574342E-2,2.528986E-3,7.739545E-4,-3.499478E-5,-9.50304E-4,-4.71237E-3,-2.4685194E-3,-1.3339447E-3,-4.1720015E-3,1.21326E-3,-2.699979E-3,-3.3411793E-3,1.0270389E-4,1.0767273E-3,3.0739687E-3,4.1216353E-4,-2.0048826E-4,-2.4307775E-3,8.084571E-4,-2.4212795E-4,6.1386825E-5,9.729606E-4,-2.411182E-6,-4.4743973E-4,2.6945115E-4,-3.77811E-4,-2.2923709E-4,-1.3656442E-3,1.1034313E-3,2.7247932E-5,7.3463906E-4,-8.497566E-4],"categories":[],"categories_nodes":[],"categories_segments":[],"categories_sizes":[],"default_left":[0,0,0,0,0,0,0,0,0,0,0,0,0,0,0,0,0,0,0,0,0,0,0,0,0,0,0,0,0,0,0,0,0,0,0,0,0,0,0,0,0,0,0,0,0,0,0,0,0,0,0],"id":0,"left_children":[1,3,5,7,9,11,13,15,17,19,21,23,25,27,29,-1,-1,31,33,35,37,39,41,-1,-1,43,-1,45,47,49,-1,-1,-1,-1,-1,-1,-1,-1,-1,-1,-1,-1,-1,-1,-1,-1,-1,-1,-1,-1,-1],"loss_changes":[1.9276864E-3,3.0633097E-3,4.6645836E-3,3.1865474E-3,1.5214946E-3,2.8258571E-3,2.622328E-3,2.3840927E-5,2.6411503E-3,1.9797846E-3,1.1317644E-3,1.3050456E-3,3.4634117E-4,1.77528E-3,1.513843E-3,0E0,0E0,1.4923192E-3,3.7089526E-4,6.9974083E-4,2.3958797E-4,2.6119212E-3,1.5805279E-3,0E0,0E0,5.7510344E-5,0E0,1.8227277E-3,1.3736726E-3,2.9540522E-4,0E0,0E0,0E0,0E0,0E0,0E0,0E0,0E0,0E0,0E0,0E0,0E0,0E0,0E0,0E0,0E0,0E0,0E0,0E0,0E0,0E0],"parents":[2147483647,0,0,1,1,2,2,3,3,4,4,5,5,6,6,7,7,8,8,9,9,10,10,11,11,12,12,13,13,14,14,17,17,18,18,19,19,20,20,21,21,22,22,25,25,27,27,28,28,29,29],"right_children":[2,4,6,8,10,12,14,16,18,20,22,24,26,28,30,-1,-1,32,34,36,38,40,42,-1,-1,44,-1,46,48,50,-1,-1,-1,-1,-1,-1,-1,-1,-1,-1,-1,-1,-1,-1,-1,-1,-1,-1,-1,-1,-1],"split_conditions":[2.2009984E-2,-1.1569119E3,-2.2342114E-2,-5.1444785E3,-1.1569119E3,-1.0546667E-2,1.064884E4,4.3388373E-1,1.064884E4,2.12734E0,-9.177976E-3,2.925109E1,-1.0828214E2,4.6548447E1,-3.791509E2,2.7583293E-3,7.4915093E-4,3.9103271E3,7.49408E-3,-8.804125E-3,6.302074E1,2.2009984E-2,1.4213033E3,-9.50304E-4,-4.71237E-3,-9.313888E3,-1.3339447E-3,6.9943056E-3,4.2797665E1,-8.462085E-3,-3.3411793E-3,1.0270389E-4,1.0767273E-3,3.0739687E-3,4.1216353E-4,-2.0048826E-4,-2.4307775E-3,8.084571E-4,-2.4212795E-4,6.1386825E-5,9.729606E-4,-2.411182E-6,-4.4743973E-4,2.6945115E-4,-3.77811E-4,-2.2923709E-4,-1.3656442E-3,1.1034313E-3,2.7247932E-5,7.3463906E-4,-8.497566E-4],"split_indices":[616,593,418,639,615,110,573,4,529,430,385,1,471,413,1,0,0,507,0,77,23,572,480,0,0,1,0,242,468,0,0,0,0,0,0,0,0,0,0,0,0,0,0,0,0,0,0,0,0,0,0],"split_type":[0,0,0,0,0,0,0,0,0,0,0,0,0,0,0,0,0,0,0,0,0,0,0,0,0,0,0,0,0,0,0,0,0,0,0,0,0,0,0,0,0,0,0,0,0,0,0,0,0,0,0],"sum_hessian":[3.495E4,3.4676E4,2.74E2,1.21E2,3.4555E4,1.7E1,2.57E2,6E0,1.15E2,1.5E1,3.454E4,5E0,1.2E1,2.51E2,6E0,5E0,1E0,1.11E2,4E0,8E0,7E0,1.825E3,3.2715E4,2E0,3E0,6E0,6E0,1.03E2,1.48E2,3E0,3E0,9.3E1,1.8E1,3E0,1E0,2E0,6E0,3E0,4E0,1.794E3,3.1E1,3.2636E4,7.9E1,1E0,5E0,8.7E1,1.6E1,1.2E1,1.36E2,1E0,2E0],"tree_param":{"num_deleted":"0","num_feature":"660","num_nodes":"51","size_leaf_vector":"1"}},{"base_weights":[-1.240014E-7,1.9015162E-5,-2.4135374E-3,4.587682E-3,2.8849277E-6,-1.6777705E-2,-1.4020312E-3,-1.368637E-4,9.314472E-3,-8.900525E-3,7.0090605E-6,-3.349437E-2,-7.77173E-3,-1.1318491E-3,-3.5419408E-3,-1.2321293E-2,1.388634E-3,4.7071823E-3,1.7866109E-2,-1.7591077E-3,-2.4259822E-2,-1.7852899E-5,1.3033391E-3,-8.8695035E-4,-4.3589426E-3,-1.095848E-2,-4.8123472E-4,-5.079238E-3,5.849741E-4,-2.9885958E-4,-1.5456653E-3,-5.3220487E-4,3.1472908E-4,2.4322942E-3,1.9291828E-4,2.8155376E-3,7.802879E-4,3.2313014E-4,-9.3919405E-4,-2.6875918E-3,-6.8977254E-4,7.192016E-5,-5.473019E-6,1.2093664E-3,8.882337E-5,-2.3318097E-4,-1.1745337E-3,2.5597858E-4,-1.8814362E-4,-3.696425E-4,-2.1056924E-3,1.339399E-3,6.6306966E-6],"categories":[],"categories_nodes":[],"categories_segments":[],"categories_sizes":[],"default_left":[0,0,0,0,0,0,0,0,0,0,0,0,0,0,0,0,0,0,0,0,0,0,0,0,0,0,0,0,0,0,0,0,0,0,0,0,0,0,0,0,0,0,0,0,0,0,0,0,0,0,0,0,0],"id":1,"left_children":[1,3,5,7,9,11,13,15,17,19,21,23,25,27,-1,29,31,33,35,37,39,41,43,-1,-1,45,47,49,51,-1,-1,-1,-1,-1,-1,-1,-1,-1,-1,-1,-1,-1,-1,-1,-1,-1,-1,-1,-1,-1,-1,-1,-1],"loss_changes":[1.6144573E-3,2.555462E-3,3.972074E-3,2.725771E-3,1.268919E-3,2.4495884E-3,2.3311586E-3,1.1695235E-3,2.319293E-3,1.7123189E-3,1.1132557E-3,1.1049192E-3,2.967553E-4,1.7446526E-3,0E0,1.586359E-4,6.7765015E-4,2.1872716E-3,1.9547152E-3,4.8743968E-4,4.172162E-5,9.212434E-4,2.9006875E-3,0E0,0E0,3.370375E-5,2.6106281E-5,1.6455082E-3,1.1949628E-3,0E0,0E0,0E0,0E0,0E0,0E0,0E0,0E0,0E0,0E0,0E0,0E0,0E0,0E0,0E0,0E0,0E0,0E0,0E0,0E0,0E0,0E0,0E0,0E0],"parents":[2147483647,0,0,1,1,2,2,3,3,4,4,5,5,6,6,7,7,8,8,9,9,10,10,11,11,12,12,13,13,15,15,16,16,17,17,18,18,19,19,20,20,21,21,22,22,25,25,26,26,27,27,28,28],"right_children":[2,4,6,8,10,12,14,16,18,20,22,24,26,28,-1,30,32,34,36,38,40,42,44,-1,-1,46,48,50,52,-1,-1,-1,-1,-1,-1,-1,-1,-1,-1,-1,-1,-1,-1,-1,-1,-1,-1,-1,-1,-1,-1,-1,-1],"split_conditions":[2.2009984E-2,-1.1569119E3,-2.2342114E-2,1.27316E3,-1.1569119E3,-1.0546667E-2,2.7340978E-2,-7.262897E2,-1.1744969E-4,1.1126621E3,1.534212E-2,2.925109E1,9.475087E1,-2.4815022E2,-3.5419408E-3,-9.545093E-3,-7.6226443E-3,-5.1444785E3,-7.93333E-3,-8.027941E1,5.957545E-3,-9.541453E-3,2.427956E1,-8.8695035E-4,-4.3589426E-3,-9.659258E-1,-9.313888E3,3.9103271E3,-2.4825209E2,-2.9885958E-4,-1.5456653E-3,-5.3220487E-4,3.1472908E-4,2.4322942E-3,1.9291828E-4,2.8155376E-3,7.802879E-4,3.2313014E-4,-9.3919405E-4,-2.6875918E-3,-6.8977254E-4,7.192016E-5,-5.473019E-6,1.2093664E-3,8.882337E-5,-2.3318097E-4,-1.1745337E-3,2.5597858E-4,-1.8814362E-4,-3.696425E-4,-2.1056924E-3,1.339399E-3,6.6306966E-6],"split_indices":[616,593,418,590,615,110,572,8,374,562,649,1,130,593,0,0,264,639,506,42,0,396,501,0,0,2,1,507,615,0,0,0,0,0,0,0,0,0,0,0,0,0,0,0,0,0,0,0,0,0,0,0,0],"split_type":[0,0,0,0,0,0,0,0,0,0,0,0,0,0,0,0,0,0,0,0,0,0,0,0,0,0,0,0,0,0,0,0,0,0,0,0,0,0,0,0,0,0,0,0,0,0,0,0,0,0,0,0,0],"sum_hessian":[3.495E4,3.4676E4,2.74E2,1.21E2,3.4555E4,1.7E1,2.57E2,6.1E1,6E1,1.5E1,3.454E4,5E0,1.2E1,2.56E2,1E0,6E0,5.5E1,4E1,2E1,1.1E1,4E0,3.3891E4,6.49E2,2E0,3E0,8E0,4E0,7.7E1,1.79E2,2E0,4E0,1.1E1,4.4E1,4E0,3.6E1,9E0,1.1E1,7E0,4E0,3E0,1E0,1.614E3,3.2277E4,2.3E1,6.26E2,1E0,7E0,1E0,3E0,7.2E1,5E0,6E0,1.73E2],"tree_param":{"num_deleted":"0","num_feature":"660","num_nodes":"53","size_leaf_vector":"1"}},{"base_weights":[-3.8987253E-7,1.7157801E-5,-2.2131181E-3,4.1630045E-3,2.520388E-6,-1.5465811E-2,-1.2799337E-3,2.1868933E-3,3.0586552E-3,-8.260062E-3,6.347689E-6,-3.1019244E-2,-7.0976242E-3,-8.1667155E-3,-5.3277225E-5,2.1596034E-3,2.2585684E-2,-1.6345356E-3,-2.2509314E-2,2.6782718E-3,-4.2140746E-6,-8.2782033E-4,-4.032022E-3,-1.0019044E-2,-4.1954423E-4,-1.26924515E-2,8.329343E-3,-1.0794587E-2,6.1831076E-4,4.4965377E-4,-2.698954E-4,2.632256E-3,3.8190943E-4,7.235881E-4,-5.395328E-4,-2.4860222E-3,-6.5528386E-4,1.2283338E-3,1.8634402E-5,-1.9066807E-6,1.8807182E-4,-2.2152193E-4,-1.0717621E-3,2.4317965E-4,-1.7403286E-4,-1.6984072E-3,1.7689618E-4,1.4006679E-3,-2.2689975E-4,-1.9562654E-3,-4.8443642E-5,-1.3830275E-3,1.11594345E-4],"categories":[],"categories_nodes":[],"categories_segments":[],"categories_sizes":[],"default_left":[0,0,0,0,0,0,0,0,0,0,0,0,0,0,0,0,0,0,0,0,0,0,0,0,0,0,0,0,0,0,0,0,0,0,0,0,0,0,0,0,0,0,0,0,0,0,0,0,0,0,0,0,0],"id":2,"left_children":[1,3,5,7,9,11,13,-1,15,17,19,21,23,25,27,29,31,33,35,37,39,-1,-1,41,43,45,47,49,51,-1,-1,-1,-1,-1,-1,-1,-1,-1,-1,-1,-1,-1,-1,-1,-1,-1,-1,-1,-1,-1,-1,-1,-1],"loss_changes":[1.3571235E-3,2.104345E-3,3.3811866E-3,2.318641E-3,1.0928302E-3,2.1226094E-3,2.1790757E-3,0E0,1.987698E-3,1.4737485E-3,9.7476627E-4,9.35304E-4,2.4941977E-4,3.017335E-3,1.5936962E-3,1.2837985E-3,2.5011366E-4,4.3935742E-4,2.4656067E-5,3.252889E-3,9.6327974E-4,0E0,0E0,2.5322195E-5,2.3062154E-5,1.953994E-3,5.733142E-4,1.1657245E-3,1.5109722E-3,0E0,0E0,0E0,0E0,0E0,0E0,0E0,0E0,0E0,0E0,0E0,0E0,0E0,0E0,0E0,0E0,0E0,0E0,0E0,0E0,0E0,0E0,0E0,0E0],"parents":[2147483647,0,0,1,1,2,2,3,3,4,4,5,5,6,6,8,8,9,9,10,10,11,11,12,12,13,13,14,14,15,15,16,16,17,17,18,18,19,19,20,20,23,23,24,24,25,25,26,26,27,27,28,28],"right_children":[2,4,6,8,10,12,14,-1,16,18,20,22,24,26,28,30,32,34,36,38,40,-1,-1,42,44,46,48,50,52,-1,-1,-1,-1,-1,-1,-1,-1,-1,-1,-1,-1,-1,-1,-1,-1,-1,-1,-1,-1,-1,-1,-1,-1],"split_conditions":[2.2009984E-2,-1.1569119E3,-2.2342114E-2,-5.1444785E3,-1.1569119E3,-1.0546667E-2,-1.8918337E3,2.1868933E-3,1.064884E4,1.1126621E3,-3.6590356E2,2.925109E1,9.475087E1,6.7909663E-3,-3.3094517E3,1.2352427E-3,7.49408E-3,-5.4649753E-3,5.957545E-3,-3.691478E-3,2.2009984E-2,-8.2782033E-4,-4.032022E-3,-9.659258E-1,-9.313888E3,4.3678185E1,-1.4449832E-3,-1.2468231E2,2.768401E1,4.4965377E-4,-2.698954E-4,2.632256E-3,3.8190943E-4,7.235881E-4,-5.395328E-4,-2.4860222E-3,-6.5528386E-4,1.2283338E-3,1.8634402E-5,-1.9066807E-6,1.8807182E-4,-2.2152193E-4,-1.0717621E-3,2.4317965E-4,-1.7403286E-4,-1.6984072E-3,1.7689618E-4,1.4006679E-3,-2.2689975E-4,-1.9562654E-3,-4.8443642E-5,-1.3830275E-3,1.11594345E-4],"split_indices":[616,593,418,639,615,110,595,0,529,562,658,1,130,396,12,429,0,33,0,220,308,0,0,2,1,570,121,360,303,0,0,0,0,0,0,0,0,0,0,0,0,0,0,0,0,0,0,0,0,0,0,0,0],"split_type":[0,0,0,0,0,0,0,0,0,0,0,0,0,0,0,0,0,0,0,0,0,0,0,0,0,0,0,0,0,0,0,0,0,0,0,0,0,0,0,0,0,0,0,0,0,0,0,0,0,0,0,0,0],"sum_hessian":[3.495E4,3.4676E4,2.74E2,1.21E2,3.4555E4,1.7E1,2.57E2,6E0,1.15E2,1.5E1,3.454E4,5E0,1.2E1,3.8E1,2.19E2,1.11E2,4E0,1.1E1,4E0,1.35E2,3.4405E4,2E0,3E0,8E0,4E0,3E1,8E0,1.2E1,2.07E2,7.5E1,3.6E1,3E0,1E0,3E0,8E0,3E0,1E0,2.7E1,1.08E2,3.4137E4,2.68E2,1E0,7E0,1E0,3E0,2.3E1,7E0,5E0,3E0,6E0,6E0,6E0,2.01E2],"tree_param":{"num_deleted":"0","num_feature":"660","num_nodes":"53","size_leaf_vector":"1"}},{"base_weights":[-5.182659E-7,1.5553269E-5,-2.0271076E-3,3.7908088E-3,2.2242737E-6,-1.4257228E-2,-1.1659864E-3,-4.179553E-4,8.006425E-3,3.5975393E-4,-7.697829E-5,-2.8727295E-2,-6.4820265E-3,-9.1527635E-4,-3.2799232E-3,-1.1532499E-2,9.788262E-4,3.992322E-3,1.5462224E-2,8.9064175E-3,3.254713E-4,-1.2856624E-2,-7.2908784E-5,-7.726323E-4,-3.7296198E-3,-1.7673803E-3,-1.027067E-3,-1.3973897E-2,-4.937394E-4,-3.089125E-4,-1.4292024E-3,-2.2032042E-4,4.0173787E-4,2.0627591E-3,1.6364122E-4,2.4388197E-3,6.735395E-4,2.5580442E-3,1.0009393E-4,-3.2304E-5,6.481711E-5,-1.9889423E-3,9.0672685E-5,-2.1700274E-4,-5.352445E-6,2.3102066E-4,-2.8320125E-4,4.2330567E-4,-2.0748393E-3,5.9221966E-5,-6.384241E-4],"categories":[],"categories_nodes":[],"categories_segments":[],"categories_sizes":[],"default_left":[0,0,0,0,0,0,0,0,0,0,0,0,0,0,0,0,0,0,0,0,0,0,0,0,0,0,0,0,0,0,0,0,0,0,0,0,0,0,0,0,0,0,0,0,0,0,0,0,0,0,0],"id":3,"left_children":[1,3,5,7,9,11,13,15,17,19,21,23,25,27,-1,29,31,33,35,37,39,41,43,-1,-1,45,-1,47,49,-1,-1,-1,-1,-1,-1,-1,-1,-1,-1,-1,-1,-1,-1,-1,-1,-1,-1,-1,-1,-1,-1],"loss_changes":[1.1383996E-3,1.7449509E-3,2.879571E-3,2.1679353E-3,9.785591E-4,1.8389272E-3,2.016119E-3,9.738129E-4,1.7638989E-3,1.8333443E-3,1.4703367E-3,7.915697E-4,2.1405524E-4,1.4078063E-3,0E0,1.18947995E-4,5.503021E-4,1.5730836E-3,1.4715404E-3,3.2697988E-3,1.3067101E-3,8.891879E-4,1.1495827E-3,0E0,0E0,3.6930447E-5,0E0,1.0745724E-3,1.6029918E-3,0E0,0E0,0E0,0E0,0E0,0E0,0E0,0E0,0E0,0E0,0E0,0E0,0E0,0E0,0E0,0E0,0E0,0E0,0E0,0E0,0E0,0E0],"parents":[2147483647,0,0,1,1,2,2,3,3,4,4,5,5,6,6,7,7,8,8,9,9,10,10,11,11,12,12,13,13,15,15,16,16,17,17,18,18,19,19,20,20,21,21,22,22,25,25,27,27,28,28],"right_children":[2,4,6,8,10,12,14,16,18,20,22,24,26,28,-1,30,32,34,36,38,40,42,44,-1,-1,46,-1,48,50,-1,-1,-1,-1,-1,-1,-1,-1,-1,-1,-1,-1,-1,-1,-1,-1,-1,-1,-1,-1,-1,-1],"split_conditions":[2.2009984E-2,-1.1569119E3,-2.2342114E-2,1.27316E3,-3.611004E-3,-1.0546667E-2,2.7340978E-2,-7.262897E2,-1.1744969E-4,1.8631285E1,-1.1569119E3,2.925109E1,-1.0828214E2,2.6897434E1,-3.2799232E-3,-9.545093E-3,-9.305511E1,-5.1444785E3,-7.93333E-3,-1.7008363E2,-3.10604E1,-1.0238103E2,-1.9196924E-2,-7.726323E-4,-3.7296198E-3,-9.313888E3,-1.027067E-3,3.6892372E1,9.6489545E-3,-3.089125E-4,-1.4292024E-3,-2.2032042E-4,4.0173787E-4,2.0627591E-3,1.6364122E-4,2.4388197E-3,6.735395E-4,2.5580442E-3,1.0009393E-4,-3.2304E-5,6.481711E-5,-1.9889423E-3,9.0672685E-5,-2.1700274E-4,-5.352445E-6,2.3102066E-4,-2.8320125E-4,4.2330567E-4,-2.0748393E-3,5.9221966E-5,-6.384241E-4],"split_indices":[616,593,418,590,396,110,572,8,374,644,615,1,471,512,0,0,166,639,506,74,75,64,594,0,0,1,0,6,418,0,0,0,0,0,0,0,0,0,0,0,0,0,0,0,0,0,0,0,0,0,0],"split_type":[0,0,0,0,0,0,0,0,0,0,0,0,0,0,0,0,0,0,0,0,0,0,0,0,0,0,0,0,0,0,0,0,0,0,0,0,0,0,0,0,0,0,0,0,0,0,0,0,0,0,0],"sum_hessian":[3.495E4,3.4676E4,2.74E2,1.21E2,3.4555E4,1.7E1,2.57E2,6.1E1,6E1,6.266E3,2.8289E4,5E0,1.2E1,2.56E2,1E0,6E0,5.5E1,4E1,2E1,2.4E1,6.242E3,8E0,2.8281E4,2E0,3E0,6E0,6E0,7E0,2.49E2,2E0,4E0,2.7E1,2.8E1,4E0,3.6E1,9E0,1.1E1,7E0,1.7E1,2.074E3,4.168E3,5E0,3E0,2.58E2,2.8023E4,1E0,5E0,2E0,5E0,2.11E2,3.8E1],"tree_param":{"num_deleted":"0","num_feature":"660","num_nodes":"51","size_leaf_vector":"1"}},{"base_weights":[-6.5932835E-7,-1.9269633E-5,1.5557136E-3,1.3420411E-6,-2.568723E-3,4.7071055E-3,-1.3683921E-3,-1.5151991E-3,2.4164696E-5,-2.6133195E-2,-1.6798668E-3,2.3225911E-2,4.01105E-3,-9.46152E-3,2.041376E-4,2.16466E-2,-1.6956585E-3,2.3638012E-3,7.762371E-6,-7.3778117E-3,-3.7407149E-3,-1.3769377E-3,-4.128096E-3,3.4243595E-3,6.40175E-3,4.923895E-3,-3.7000556E-3,-2.0439968E-2,-3.5780675E-3,-7.871663E-4,9.2246765E-3,2.8042141E-3,1.229987E-4,-1.1255838E-4,-9.0911984E-4,4.3669384E-5,1.1747533E-3,-6.9567756E-7,2.0749932E-4,1.1103635E-4,-9.777447E-4,-1.0745453E-3,-6.565413E-5,-3.29357E-4,1.073138E-3,1.1032522E-3,3.5126274E-4,-1.0264571E-3,3.2008282E-4,-2.6384422E-3,-6.8408437E-4,-1.4091631E-3,-1.4050998E-4,-1.1421611E-4,1.8644942E-3,1.9636282E-3,8.139937E-5],"categories":[],"categories_nodes":[],"categories_segments":[],"categories_sizes":[],"default_left":[0,0,0,0,0,0,0,0,0,0,0,0,0,0,0,0,0,0,0,0,0,0,0,0,0,0,0,0,0,0,0,0,0,0,0,0,0,0,0,0,0,0,0,0,0,0,0,0,0,0,0,0,0,0,0,0,0],"id":4,"left_children":[1,3,5,7,9,11,13,15,17,19,21,23,25,27,29,31,33,35,37,39,-1,41,-1,-1,43,45,47,49,51,53,55,-1,-1,-1,-1,-1,-1,-1,-1,-1,-1,-1,-1,-1,-1,-1,-1,-1,-1,-1,-1,-1,-1,-1,-1,-1,-1],"loss_changes":[1.0123708E-3,1.8149761E-3,3.8122376E-3,1.1859303E-3,5.757982E-3,2.4719737E-3,2.738169E-3,2.1600253E-3,1.2953844E-3,1.8384899E-3,3.1581726E-3,1.0783239E-3,1.3767541E-3,2.1875552E-3,1.6257806E-3,4.8780954E-4,2.1188525E-3,4.2444826E-3,1.0200177E-3,1.1269911E-4,0E0,1.7949401E-3,0E0,0E0,2.0325313E-4,1.4526639E-3,9.841751E-4,7.8958087E-4,5.2849506E-4,1.1526163E-3,1.5602529E-3,0E0,0E0,0E0,0E0,0E0,0E0,0E0,0E0,0E0,0E0,0E0,0E0,0E0,0E0,0E0,0E0,0E0,0E0,0E0,0E0,0E0,0E0,0E0,0E0,0E0,0E0],"parents":[2147483647,0,0,1,1,2,2,3,3,4,4,5,5,6,6,7,7,8,8,9,9,10,10,11,11,12,12,13,13,14,14,15,15,16,16,17,17,18,18,19,19,21,21,24,24,25,25,26,26,27,27,28,28,29,29,30,30],"right_children":[2,4,6,8,10,12,14,16,18,20,22,24,26,28,30,32,34,36,38,40,-1,42,-1,-1,44,46,48,50,52,54,56,-1,-1,-1,-1,-1,-1,-1,-1,-1,-1,-1,-1,-1,-1,-1,-1,-1,-1,-1,-1,-1,-1,-1,-1,-1,-1],"split_conditions":[1.1973572E3,1.075248E3,4.759793E1,-1.7429745E-2,-3.9755486E3,2.8974136E1,4.7940826E1,-9.313888E3,-2.2342114E-2,-1.4069627E2,6.297626E3,-1.070955E3,1.427455E-2,-2.615168E2,2.253883E3,4.964431E-3,1.5346879E-2,9.557389E2,2.2009984E-2,-2.860542E-2,-3.7407149E-3,-1.2600985E-2,-4.128096E-3,3.4243595E-3,-2.860542E-2,-3.121134E2,-5.7689194E-3,6.234898E-1,-1.0987999E3,1.4491768E4,4.772317E1,2.8042141E-3,1.229987E-4,-1.1255838E-4,-9.0911984E-4,4.3669384E-5,1.1747533E-3,-6.9567756E-7,2.0749932E-4,1.1103635E-4,-9.777447E-4,-1.0745453E-3,-6.565413E-5,-3.29357E-4,1.073138E-3,1.1032522E-3,3.5126274E-4,-1.0264571E-3,3.2008282E-4,-2.6384422E-3,-6.8408437E-4,-1.4091631E-3,-1.4050998E-4,-1.1421611E-4,1.8644942E-3,1.9636282E-3,8.139937E-5],"split_indices":[29,73,501,374,595,633,523,595,649,34,419,34,308,518,276,0,473,612,308,0,0,363,0,0,0,305,407,148,408,23,6,0,0,0,0,0,0,0,0,0,0,0,0,0,0,0,0,0,0,0,0,0,0,0,0,0,0],"split_type":[0,0,0,0,0,0,0,0,0,0,0,0,0,0,0,0,0,0,0,0,0,0,0,0,0,0,0,0,0,0,0,0,0,0,0,0,0,0,0,0,0,0,0,0,0,0,0,0,0,0,0,0,0,0,0,0,0],"sum_hessian":[3.495E4,3.4538E4,4.12E2,3.4262E4,2.76E2,1.98E2,2.14E2,5.07E2,3.3755E4,9E0,2.67E2,6E0,1.92E2,3.4E1,1.8E2,3E0,5.04E2,2.34E2,3.3521E4,4E0,5E0,2.66E2,1E0,3E0,3E0,1.72E2,2E1,1.1E1,2.3E1,1.63E2,1.7E1,2E0,1E0,4.69E2,3.5E1,1.95E2,3.9E1,3.3285E4,2.36E2,1E0,3E0,1.8E1,2.48E2,1E0,2E0,3.1E1,1.41E2,1E1,1E1,7E0,4E0,3E0,2E1,1.61E2,2E0,7E0,1E1],"tree_param":{"num_deleted":"0","num_feature":"660","num_nodes":"57","size_leaf_vector":"1"}},{"base_weights":[-6.708066E-7,-2.4123668E-5,1.1725553E-3,-3.4692046E-5,2.8627578E-3,5.7456135E-3,3.066352E-4,-9.326778E-4,8.806541E-7,1.5526621E-3,1.2366615E-2,4.9105785E-3,3.3613336E-3,5.1796425E-4,-1.9891176E-2,-8.0856076E-4,-2.3761094E-2,2.9667086E-4,-9.414635E-5,1.1546282E-2,-1.291148E-4,2.91427E-3,2.2752972E-3,6.7981705E-3,-2.6913995E-3,1.1602959E-3,-4.5100735E-3,-2.6795312E-3,-4.055271E-4,-6.8178296E-4,-5.7678717E-5,-2.3037083E-4,-5.160304E-3,-1.1705096E-6,1.0571759E-4,-8.400287E-6,-4.5851246E-4,2.014509E-3,5.8063626E-4,1.7217275E-4,-6.078385E-4,7.409376E-4,-5.6817902E-5,7.130272E-5,8.8787975E-4,-8.7603816E-4,5.467417E-4,-9.3790976E-4,1.4124336E-4,3.2207332E-4,-8.540271E-4],"categories":[],"categories_nodes":[],"categories_segments":[],"categories_sizes":[],"default_left":[0,0,0,0,0,0,0,0,0,0,0,0,0,0,0,0,0,0,0,0,0,0,0,0,0,0,0,0,0,0,0,0,0,0,0,0,0,0,0,0,0,0,0,0,0,0,0,0,0,0,0],"id":5,"left_children":[1,3,5,7,9,11,13,15,17,19,21,23,-1,25,27,29,31,33,35,37,39,41,-1,43,45,47,49,-1,-1,-1,-1,-1,-1,-1,-1,-1,-1,-1,-1,-1,-1,-1,-1,-1,-1,-1,-1,-1,-1,-1,-1],"loss_changes":[9.6172286E-4,1.0455736E-3,2.710772E-3,1.0906572E-3,1.5371691E-3,2.3714274E-3,2.4731609E-3,3.667036E-3,9.2318084E-4,1.8670724E-3,1.4063232E-3,1.5536861E-3,0E0,1.852603E-3,5.473371E-4,1.7997304E-3,4.0630293E-3,1.8729009E-3,1.1320007E-3,6.727334E-4,1.0675368E-3,1.4509563E-4,0E0,1.0825074E-3,1.1372423E-3,1.3631956E-3,2.0526897E-3,0E0,0E0,0E0,0E0,0E0,0E0,0E0,0E0,0E0,0E0,0E0,0E0,0E0,0E0,0E0,0E0,0E0,0E0,0E0,0E0,0E0,0E0,0E0,0E0],"parents":[2147483647,0,0,1,1,2,2,3,3,4,4,5,5,6,6,7,7,8,8,9,9,10,10,11,11,13,13,14,14,15,15,16,16,17,17,18,18,19,19,20,20,21,21,23,23,24,24,25,25,26,26],"right_children":[2,4,6,8,10,12,14,16,18,20,22,24,-1,26,28,30,32,34,36,38,40,42,-1,44,46,48,50,-1,-1,-1,-1,-1,-1,-1,-1,-1,-1,-1,-1,-1,-1,-1,-1,-1,-1,-1,-1,-1,-1,-1,-1],"split_conditions":[1.534212E-2,2.7340978E-2,-7.933334E-3,-1.1179978E-2,5.594123E3,1.4491768E4,1.064884E4,1.064884E4,-2.572897E-3,-1.7037081E3,4.241745E2,1.4186305E3,3.3613336E-3,7.25016E-3,3.0389348E3,-1.5809499E-2,2.2438976E2,2.3920909E-3,1.4213033E3,-1.8369701E-16,5.7938397E-3,3.4812395E-3,2.2752972E-3,-9.7949603E2,6.975002E2,-7.61711E3,2.5881904E-1,-2.6795312E-3,-4.055271E-4,-6.8178296E-4,-5.7678717E-5,-2.3037083E-4,-5.160304E-3,-1.1705096E-6,1.0571759E-4,-8.400287E-6,-4.5851246E-4,2.014509E-3,5.8063626E-4,1.7217275E-4,-6.078385E-4,7.409376E-4,-5.6817902E-5,7.130272E-5,8.8787975E-4,-8.7603816E-4,5.467417E-4,-9.3790976E-4,1.4124336E-4,3.2207332E-4,-8.540271E-4],"split_indices":[649,539,473,33,529,353,199,650,649,177,18,540,0,77,1,550,7,176,403,25,385,440,0,177,238,595,24,0,0,0,0,0,0,0,0,0,0,0,0,0,0,0,0,0,0,0,0,0,0,0,0],"split_type":[0,0,0,0,0,0,0,0,0,0,0,0,0,0,0,0,0,0,0,0,0,0,0,0,0,0,0,0,0,0,0,0,0,0,0,0,0,0,0,0,0,0,0,0,0,0,0,0,0,0,0],"sum_hessian":[3.495E4,3.4266E4,6.84E2,3.4142E4,1.24E2,1.08E2,5.76E2,1.3E3,3.2842E4,1.1E2,1.4E1,1.06E2,2E0,5.71E2,5E0,1.294E3,6E0,7.985E3,2.4857E4,1.5E1,9.5E1,8E0,6E0,8.5E1,2.1E1,5.07E2,6.4E1,3E0,2E0,4.7E1,1.247E3,4E0,2E0,5.682E3,2.303E3,2.4802E4,5.5E1,5E0,1E1,7.3E1,2.2E1,3E0,5E0,2.2E1,6.3E1,1.2E1,9E0,1.1E1,4.96E2,2.2E1,4.2E1],"tree_param":{"num_deleted":"0","num_feature":"660","num_nodes":"51","size_leaf_vector":"1"}},{"base_weights":[-6.55068E-7,5.5898487E-5,-4.797815E-4,3.122301E-5,2.4342558E-3,-5.237588E-3,-3.8633286E-4,4.3350505E-5,-3.635985E-3,1.4010121E-3,1.0092333E-2,-1.0760383E-2,-6.8841333E-4,-3.2743372E-4,-7.1947733E-3,-1.822004E-3,5.7425623E-5,-2.982547E-2,-1.3922813E-3,-9.306791E-3,2.0750107E-3,2.6629467E-2,4.0418617E-3,-2.0179987E-2,-5.561472E-3,1.1880482E-3,-1.7873578E-3,3.0029172E-3,-4.2666774E-4,-3.9567393E-3,-3.6097511E-3,-4.8604785E-4,9.804149E-5,7.170351E-7,6.551725E-5,-4.46375E-3,-3.8540683E-4,-5.1455423E-5,-2.1231936E-3,1.1034248E-3,-1.4453747E-3,1.7203881E-3,1.7219757E-4,7.3477667E-4,3.053142E-3,8.784446E-4,-3.408836E-4,-2.4793146E-3,3.8614628E-5,-8.234071E-4,1.3418209E-4,6.634462E-4,-3.2775276E-4,3.799556E-4,-2.5083767E-3,-3.9030372E-5,-8.290996E-4,4.8332885E-4,-7.5354776E-4],"categories":[],"categories_nodes":[],"categories_segments":[],"categories_sizes":[],"default_left":[0,0,0,0,0,0,0,0,0,0,0,0,0,0,0,0,0,0,0,0,0,0,0,0,0,0,0,0,0,0,0,0,0,0,0,0,0,0,0,0,0,0,0,0,0,0,0,0,0,0,0,0,0,0,0,0,0,0,0],"id":6,"left_children":[1,3,5,7,9,11,13,15,17,19,21,23,25,27,29,31,33,35,37,39,41,43,45,47,49,51,-1,53,55,57,-1,-1,-1,-1,-1,-1,-1,-1,-1,-1,-1,-1,-1,-1,-1,-1,-1,-1,-1,-1,-1,-1,-1,-1,-1,-1,-1,-1,-1],"loss_changes":[9.4706967E-4,1.8346E-3,1.6385895E-3,1.3762733E-3,2.5258241E-3,1.7764076E-3,1.4493054E-3,8.0983783E-4,5.9521417E-3,2.0689527E-3,3.6945506E-3,1.454863E-3,1.3111266E-3,1.1877193E-3,2.7584012E-3,1.9717484E-3,9.1954763E-4,2.9054773E-3,1.6433862E-3,1.9392911E-3,1.4017693E-3,5.28025E-4,1.054676E-3,1.0531973E-3,4.1694264E-4,9.216355E-4,0E0,2.4223006E-3,9.939716E-4,9.486802E-4,0E0,0E0,0E0,0E0,0E0,0E0,0E0,0E0,0E0,0E0,0E0,0E0,0E0,0E0,0E0,0E0,0E0,0E0,0E0,0E0,0E0,0E0,0E0,0E0,0E0,0E0,0E0,0E0,0E0],"parents":[2147483647,0,0,1,1,2,2,3,3,4,4,5,5,6,6,7,7,8,8,9,9,10,10,11,11,12,12,13,13,14,14,15,15,16,16,17,17,18,18,19,19,20,20,21,21,22,22,23,23,24,24,25,25,27,27,28,28,29,29],"right_children":[2,4,6,8,10,12,14,16,18,20,22,24,26,28,30,32,34,36,38,40,42,44,46,48,50,52,-1,54,56,58,-1,-1,-1,-1,-1,-1,-1,-1,-1,-1,-1,-1,-1,-1,-1,-1,-1,-1,-1,-1,-1,-1,-1,-1,-1,-1,-1,-1,-1],"split_conditions":[1.0293167E2,1.1973572E3,-1.7429745E-2,1.1320151E3,2.148214E3,-9.877387E-4,1.4213033E3,-2.2342114E-2,-2.515372E2,-1.7428745E-2,3.9459354E1,-1.0677545E3,1.2372747E-2,-1.7428745E-2,3.0352312E3,-1.9914503E0,6.9856434E-3,1.6582768E2,3.9103271E3,-1.977435E3,2.6897434E1,-1.7431183E-2,-5.641024E2,1.8757742E-2,4.4866955E1,-1.0886488E-3,-1.7873578E-3,2.7340978E-2,1.064884E4,-8.796855E2,-3.6097511E-3,-4.8604785E-4,9.804149E-5,7.170351E-7,6.551725E-5,-4.46375E-3,-3.8540683E-4,-5.1455423E-5,-2.1231936E-3,1.1034248E-3,-1.4453747E-3,1.7203881E-3,1.7219757E-4,7.3477667E-4,3.053142E-3,8.784446E-4,-3.408836E-4,-2.4793146E-3,3.8614628E-5,-8.234071E-4,1.3418209E-4,6.634462E-4,-3.2775276E-4,3.799556E-4,-2.5083767E-3,-3.9030372E-5,-8.290996E-4,4.8332885E-4,-7.5354776E-4],"split_indices":[438,29,352,51,496,77,139,374,570,572,622,408,429,638,485,185,462,78,364,89,369,0,43,363,369,616,0,572,595,397,0,0,0,0,0,0,0,0,0,0,0,0,0,0,0,0,0,0,0,0,0,0,0,0,0,0,0,0,0],"split_type":[0,0,0,0,0,0,0,0,0,0,0,0,0,0,0,0,0,0,0,0,0,0,0,0,0,0,0,0,0,0,0,0,0,0,0,0,0,0,0,0,0,0,0,0,0,0,0,0,0,0,0,0,0,0,0,0,0,0,0],"sum_hessian":[3.495E4,3.1261E4,3.689E3,3.0941E4,3.2E2,7E1,3.619E3,3.084E4,1.01E2,2.83E2,3.7E1,3.1E1,3.9E1,3.589E3,3E1,2.3E2,3.061E4,7E0,9.4E1,1.6E1,2.67E2,9E0,2.8E1,1E1,2.1E1,3.6E1,3E0,1.03E2,3.486E3,2.8E1,2E0,1.1E2,1.2E2,2.8237E4,2.373E3,4E0,3E0,9.1E1,3E0,3E0,1.3E1,5E0,2.62E2,2E0,7E0,1.7E1,1.1E1,8E0,2E0,1.5E1,6E0,1.6E1,2E1,1.01E2,2E0,3.471E3,1.5E1,8E0,2E1],"tree_param":{"num_deleted":"0","num_feature":"660","num_nodes":"59","size_leaf_vector":"1"}},{"base_weights":[-9.594465E-7,1.3294797E-5,-1.7983902E-3,3.2349168E-3,1.9204715E-6,-1.2409578E-2,-1.0511042E-3,-3.8322984E-4,6.859346E-3,-7.167221E-3,5.241289E-6,-2.4573637E-2,-5.8408147E-3,-8.1274204E-4,-3.1155085E-3,-1.0664297E-2,9.08747E-4,3.3448217E-3,1.33944005E-2,-1.4457769E-2,1.930547E-3,6.5656245E-4,-3.1111496E-5,-6.895812E-4,-3.1688598E-3,-8.242992E-3,-3.487324E-4,-2.1620116E-3,2.8948623E-3,-2.8800077E-4,-1.3202013E-3,-4.9925706E-4,2.4622373E-4,-1.2196022E-3,5.3545355E-4,2.0968036E-3,5.966838E-4,-1.9157559E-3,-3.7936424E-4,6.4237346E-4,-2.0501125E-4,3.7234917E-5,5.002717E-4,-1.868199E-4,-1.1417321E-6,-4.0225257E-4,-9.682804E-4,1.9335514E-4,-1.4026913E-4,-1.5335323E-4,-1.6189667E-3,2.0588583E-3,2.0593994E-4],"categories":[],"categories_nodes":[],"categories_segments":[],"categories_sizes":[],"default_left":[0,0,0,0,0,0,0,0,0,0,0,0,0,0,0,0,0,0,0,0,0,0,0,0,0,0,0,0,0,0,0,0,0,0,0,0,0,0,0,0,0,0,0,0,0,0,0,0,0,0,0,0,0],"id":7,"left_children":[1,3,5,7,9,11,13,15,17,19,21,23,25,27,-1,29,31,33,35,37,39,41,43,-1,-1,45,47,49,51,-1,-1,-1,-1,-1,-1,-1,-1,-1,-1,-1,-1,-1,-1,-1,-1,-1,-1,-1,-1,-1,-1,-1,-1],"loss_changes":[8.9550397E-4,1.27069E-3,2.1675942E-3,1.602502E-3,8.227264E-4,1.2947207E-3,1.8259962E-3,8.332311E-4,1.356222E-3,1.0891547E-3,8.1785937E-4,5.3614355E-4,1.6863385E-4,1.2919161E-3,0E0,1.00258214E-4,5.256807E-4,1.3458425E-3,1.0562139E-3,3.7839543E-4,1.562562E-4,2.2536758E-3,1.1836411E-3,0E0,0E0,1.5740807E-5,1.473934E-5,1.6414139E-3,9.775889E-4,0E0,0E0,0E0,0E0,0E0,0E0,0E0,0E0,0E0,0E0,0E0,0E0,0E0,0E0,0E0,0E0,0E0,0E0,0E0,0E0,0E0,0E0,0E0,0E0],"parents":[2147483647,0,0,1,1,2,2,3,3,4,4,5,5,6,6,7,7,8,8,9,9,10,10,11,11,12,12,13,13,15,15,16,16,17,17,18,18,19,19,20,20,21,21,22,22,25,25,26,26,27,27,28,28],"right_children":[2,4,6,8,10,12,14,16,18,20,22,24,26,28,-1,30,32,34,36,38,40,42,44,-1,-1,46,48,50,52,-1,-1,-1,-1,-1,-1,-1,-1,-1,-1,-1,-1,-1,-1,-1,-1,-1,-1,-1,-1,-1,-1,-1,-1],"split_conditions":[2.2009984E-2,-1.1569119E3,-2.2342114E-2,1.27316E3,-1.1569119E3,-1.0546667E-2,2.7340978E-2,-7.262897E2,-1.1744969E-4,2.12734E0,-9.177976E-3,2.925109E1,9.475087E1,7.140426E1,-3.1155085E-3,-9.545093E-3,-7.6226443E-3,-8.660254E-1,-7.93333E-3,5.129082E1,6.302074E1,1.31836785E-2,-1.9284813E-2,-6.895812E-4,-3.1688598E-3,-9.0368646E2,-9.313888E3,4.2132817E3,-1.9284813E-2,-2.8800077E-4,-1.3202013E-3,-4.9925706E-4,2.4622373E-4,-1.2196022E-3,5.3545355E-4,2.0968036E-3,5.966838E-4,-1.9157559E-3,-3.7936424E-4,6.4237346E-4,-2.0501125E-4,3.7234917E-5,5.002717E-4,-1.868199E-4,-1.1417321E-6,-4.0225257E-4,-9.682804E-4,1.9335514E-4,-1.4026913E-4,-1.5335323E-4,-1.6189667E-3,2.0588583E-3,2.0593994E-4],"split_indices":[616,593,418,590,615,110,572,8,374,430,385,1,130,655,0,0,264,3,506,122,23,539,275,0,0,12,1,507,198,0,0,0,0,0,0,0,0,0,0,0,0,0,0,0,0,0,0,0,0,0,0,0,0],"split_type":[0,0,0,0,0,0,0,0,0,0,0,0,0,0,0,0,0,0,0,0,0,0,0,0,0,0,0,0,0,0,0,0,0,0,0,0,0,0,0,0,0,0,0,0,0,0,0,0,0,0,0,0,0],"sum_hessian":[3.495E4,3.4676E4,2.74E2,1.21E2,3.4555E4,1.7E1,2.57E2,6.1E1,6E1,1.5E1,3.454E4,5E0,1.2E1,2.56E2,1E0,6E0,5.5E1,4E1,2E1,8E0,7E0,1.825E3,3.2715E4,2E0,3E0,8E0,4E0,1.88E2,6.8E1,2E0,4E0,1.1E1,4.4E1,4E0,3.6E1,9E0,1.1E1,5E0,3E0,3E0,4E0,1.714E3,1.11E2,3.46E2,3.2369E4,3E0,5E0,1E0,3E0,1.81E2,7E0,2E0,6.6E1],"tree_param":{"num_deleted":"0","num_feature":"660","num_nodes":"53","size_leaf_vector":"1"}},{"base_weights":[-1.1255537E-6,4.040935E-5,-5.84796E-4,2.5624904E-5,2.0524773E-3,-4.7167417E-4,-1.23897325E-2,-1.5072902E-5,6.3789345E-4,8.575259E-3,5.288812E-4,-3.2318095E-4,-6.76393E-3,-1.5167317E-3,-4.1131612E-2,-1.5576743E-3,5.7728694E-6,5.639384E-4,1.9157857E-2,1.6016247E-2,3.0214053E-3,1.07818E-3,-7.892E-3,-4.937907E-4,4.2493595E-3,-3.6860202E-3,-4.2209495E-3,3.6964302E-3,-9.492167E-3,-1.2115435E-3,-4.451176E-3,2.020491E-3,-1.7703426E-4,1.1940196E-4,-2.3308019E-6,5.9745176E-5,-2.2078003E-3,5.871886E-4,2.5955064E-3,6.135879E-4,1.8241954E-3,1.4916775E-3,-3.601229E-5,1.8672358E-4,-3.356494E-4,3.0933533E-4,-1.189749E-3,-2.6226256E-3,-4.6982455E-5,2.3365703E-4,1.6209241E-3,-2.1489484E-3,-2.6614798E-4,8.1355404E-4,-1.358752E-4,-1.3185994E-3,-3.425299E-4],"categories":[],"categories_nodes":[],"categories_segments":[],"categories_sizes":[],"default_left":[0,0,0,0,0,0,0,0,0,0,0,0,0,0,0,0,0,0,0,0,0,0,0,0,0,0,0,0,0,0,0,0,0,0,0,0,0,0,0,0,0,0,0,0,0,0,0,0,0,0,0,0,0,0,0,0,0],"id":8,"left_children":[1,3,5,7,9,11,13,15,17,19,21,23,25,27,29,31,33,35,37,39,41,43,45,47,49,-1,51,53,55,-1,-1,-1,-1,-1,-1,-1,-1,-1,-1,-1,-1,-1,-1,-1,-1,-1,-1,-1,-1,-1,-1,-1,-1,-1,-1,-1,-1],"loss_changes":[8.473301E-4,9.7060215E-4,3.0949463E-3,8.07178E-4,2.360729E-3,2.1477703E-3,6.8128444E-3,9.767693E-4,2.75451E-3,1.8112855E-3,9.058715E-4,1.7565885E-3,3.9007294E-3,7.419002E-4,4.9195252E-5,1.9101956E-3,1.0356838E-3,1.5399116E-3,5.700544E-4,3.0589476E-4,1.0914342E-3,6.4662186E-4,5.648238E-4,1.3253207E-3,1.8151416E-3,0E0,1.2892943E-3,2.578998E-4,1.117037E-4,0E0,0E0,0E0,0E0,0E0,0E0,0E0,0E0,0E0,0E0,0E0,0E0,0E0,0E0,0E0,0E0,0E0,0E0,0E0,0E0,0E0,0E0,0E0,0E0,0E0,0E0,0E0,0E0],"parents":[2147483647,0,0,1,1,2,2,3,3,4,4,5,5,6,6,7,7,8,8,9,9,10,10,11,11,12,12,13,13,14,14,15,15,16,16,17,17,18,18,19,19,20,20,21,21,22,22,23,23,24,24,26,26,27,27,28,28],"right_children":[2,4,6,8,10,12,14,16,18,20,22,24,26,28,30,32,34,36,38,40,42,44,46,48,50,-1,52,54,56,-1,-1,-1,-1,-1,-1,-1,-1,-1,-1,-1,-1,-1,-1,-1,-1,-1,-1,-1,-1,-1,-1,-1,-1,-1,-1,-1,-1],"split_conditions":[8.286937E-3,2.2009984E-2,1.064884E4,1.4165428E2,3.609005E1,1.27316E3,1E0,-1.7429745E-2,1.064884E4,-1.3189136E2,1.5346879E-2,1.1973572E3,-2.8388947E-2,8.660254E-1,-8.660254E-1,-9.313888E3,-6.831365E2,8.4105736E1,-1.5275559E-3,2.768401E1,-4.6906755E-3,1.0894742E2,-1.0987999E3,1.8631285E1,1.7215037E3,-3.6860202E-3,3.4957108E1,1.2540403E-4,-5.284663E-3,-1.2115435E-3,-4.451176E-3,2.020491E-3,-1.7703426E-4,1.1940196E-4,-2.3308019E-6,5.9745176E-5,-2.2078003E-3,5.871886E-4,2.5955064E-3,6.135879E-4,1.8241954E-3,1.4916775E-3,-3.601229E-5,1.8672358E-4,-3.356494E-4,3.0933533E-4,-1.189749E-3,-2.6226256E-3,-4.6982455E-5,2.3365703E-4,1.6209241E-3,-2.1489484E-3,-2.6614798E-4,8.1355404E-4,-1.358752E-4,-1.3185994E-3,-3.425299E-4],"split_indices":[121,308,650,295,193,436,5,374,628,657,528,62,418,46,2,595,415,446,77,215,572,262,1,204,276,0,611,220,154,0,0,0,0,0,0,0,0,0,0,0,0,0,0,0,0,0,0,0,0,0,0,0,0,0,0,0,0],"split_type":[0,0,0,0,0,0,0,0,0,0,0,0,0,0,0,0,0,0,0,0,0,0,0,0,0,0,0,0,0,0,0,0,0,0,0,0,0,0,0,0,0,0,0,0,0,0,0,0,0,0,0,0,0,0,0,0,0],"sum_hessian":[3.495E4,3.2629E4,2.321E3,3.2392E4,2.37E2,2.3E3,2.1E1,3.0374E4,2.018E3,4.4E1,1.93E2,2.248E3,5.2E1,1.6E1,5E0,4.04E2,2.997E4,2.011E3,7E0,1.8E1,2.6E1,1.82E2,1.1E1,2.168E3,8E1,3E0,4.9E1,1E1,6E0,1E0,4E0,3E0,4.01E2,7.15E2,2.9255E4,2.009E3,2E0,3E0,4E0,4E0,1.4E1,5E0,2.1E1,1.55E2,2.7E1,3E0,8E0,1E0,2.167E3,7E1,1E1,3E0,4.6E1,5E0,5E0,3E0,3E0],"tree_param":{"num_deleted":"0","num_feature":"660","num_nodes":"57","size_leaf_vector":"1"}},{"base_weights":[-1.2333982E-6,8.262527E-6,-2.3795099E-3,-1.397953E-5,1.1348733E-3,-1.3936701E-3,-1.1827367E-2,2.6642596E-5,-5.977905E-4,5.2558575E-3,3.7375352E-4,3.7885061E-3,-3.3289657E-3,-4.623072E-3,-1.5752169E-3,1.6591934E-5,3.621092E-3,-4.9146125E-4,-1.3584008E-2,3.5289777E-3,1.7205393E-2,5.7224784E-4,-1.838009E-2,-3.181351E-3,8.0516655E-3,-1.2154036E-2,-2.3553823E-3,-1.6703432E-4,-5.681851E-4,-6.092375E-7,1.1014123E-4,1.9339726E-3,1.8298723E-4,-3.4421966E-5,-7.711864E-4,-1.2875955E-4,-3.7962236E-3,1.5020637E-5,7.6281955E-4,3.240196E-3,9.406227E-4,-8.0237274E-5,2.5343784E-4,-6.526536E-4,-2.8058134E-3,2.448782E-4,-4.939459E-4,-8.6724656E-5,1.0081826E-3,-1.4194482E-3,-3.341655E-4,2.5090753E-4,-3.7937725E-4],"categories":[],"categories_nodes":[],"categories_segments":[],"categories_sizes":[],"default_left":[0,0,0,0,0,0,0,0,0,0,0,0,0,0,0,0,0,0,0,0,0,0,0,0,0,0,0,0,0,0,0,0,0,0,0,0,0,0,0,0,0,0,0,0,0,0,0,0,0,0,0,0,0],"id":9,"left_children":[1,3,5,7,9,11,13,15,17,19,21,23,25,27,-1,29,31,33,35,37,39,41,43,45,47,49,51,-1,-1,-1,-1,-1,-1,-1,-1,-1,-1,-1,-1,-1,-1,-1,-1,-1,-1,-1,-1,-1,-1,-1,-1,-1,-1],"loss_changes":[7.8935095E-4,8.7236485E-4,1.278173E-3,8.09668E-4,2.1120787E-3,1.2863004E-3,2.9475708E-4,1.1531007E-3,3.0601143E-3,2.1060007E-3,2.132361E-3,1.0655916E-3,7.704233E-4,9.267082E-6,0E0,7.833412E-4,2.4704526E-3,2.3405144E-3,5.346886E-3,1.2869338E-3,1.2359871E-3,1.525943E-3,5.051929E-4,1.5067296E-4,4.0709355E-4,1.14397495E-4,6.042628E-4,0E0,0E0,0E0,0E0,0E0,0E0,0E0,0E0,0E0,0E0,0E0,0E0,0E0,0E0,0E0,0E0,0E0,0E0,0E0,0E0,0E0,0E0,0E0,0E0,0E0,0E0],"parents":[2147483647,0,0,1,1,2,2,3,3,4,4,5,5,6,6,7,7,8,8,9,9,10,10,11,11,12,12,13,13,15,15,16,16,17,17,18,18,19,19,20,20,21,21,22,22,23,23,24,24,25,25,26,26],"right_children":[2,4,6,8,10,12,14,16,18,20,22,24,26,28,-1,30,32,34,36,38,40,42,44,46,48,50,52,-1,-1,-1,-1,-1,-1,-1,-1,-1,-1,-1,-1,-1,-1,-1,-1,-1,-1,-1,-1,-1,-1,-1,-1,-1,-1],"split_conditions":[2.7340978E-2,1.534212E-2,3.2140122E3,8.286937E-3,-7.933334E-3,-4.3313474E2,3.7886203E2,1.4213033E3,1.064884E4,4.2132817E3,1.064884E4,-1.7605643E3,-1.7429745E-2,-3.394505E2,-1.5752169E-3,2.2394513E2,3.8776733E1,1.27316E3,1E0,7.219714E2,-1.3502831E3,4.32759E1,0E0,-2.2342114E-2,-5.840592E2,3.995539E1,4.715846E1,-1.6703432E-4,-5.681851E-4,-6.092375E-7,1.1014123E-4,1.9339726E-3,1.8298723E-4,-3.4421966E-5,-7.711864E-4,-1.2875955E-4,-3.7962236E-3,1.5020637E-5,7.6281955E-4,3.240196E-3,9.406227E-4,-8.0237274E-5,2.5343784E-4,-6.526536E-4,-2.8058134E-3,2.448782E-4,-4.939459E-4,-8.6724656E-5,1.0081826E-3,-1.4194482E-3,-3.341655E-4,2.5090753E-4,-3.7937725E-4],"split_indices":[396,649,485,121,473,338,7,458,650,353,199,309,352,1,0,625,600,436,5,249,320,10,2,209,67,100,380,0,0,0,0,0,0,0,0,0,0,0,0,0,0,0,0,0,0,0,0,0,0,0,0,0,0],"split_type":[0,0,0,0,0,0,0,0,0,0,0,0,0,0,0,0,0,0,0,0,0,0,0,0,0,0,0,0,0,0,0,0,0,0,0,0,0,0,0,0,0,0,0,0,0,0,0,0,0,0,0,0,0],"sum_hessian":[3.495E4,3.4812E4,1.38E2,3.4139E4,6.73E2,1.26E2,1.2E1,3.1919E4,2.22E3,1.04E2,5.69E2,3.4E1,9.2E1,5E0,7E0,3.1831E4,8.8E1,2.203E3,1.7E1,9.2E1,1.2E1,5.64E2,5E0,1.3E1,2.1E1,8E0,8.4E1,2E0,3E0,3.118E4,6.51E2,8E0,8E1,2.16E3,4.3E1,1.2E1,5E0,5.1E1,4.1E1,3E0,9E0,3.32E2,2.32E2,3E0,2E0,3E0,1E1,4E0,1.7E1,6E0,2E0,1.9E1,6.5E1],"tree_param":{"num_deleted":"0","num_feature":"660","num_nodes":"53","size_leaf_vector":"1"}},{"base_weights":[-1.2345546E-6,1.2007607E-5,-1.6710426E-3,2.1421272E-6,2.9261003E-3,-7.490043E-3,-4.999771E-4,2.5004065E-3,-6.4893975E-6,2.2211209E-2,1.4969461E-3,-1.0932846E-2,5.997332E-3,-1.6259478E-2,2.9027063E-4,2.556895E-4,1.3598971E-2,-1.66544E-3,1.0590301E-5,2.690111E-3,5.427671E-4,2.0944963E-3,-3.181801E-3,-2.0230439E-2,-5.660784E-3,1.2581305E-3,-3.1029033E-3,-5.119021E-3,-2.4690025E-3,7.4651267E-4,-1.0489017E-2,-1.6824534E-3,1.14262104E-4,1.870497E-3,3.6018543E-4,-6.942296E-5,-9.199245E-4,5.193112E-6,-4.9122278E-5,-8.0526527E-4,4.3261462E-4,-2.511991E-3,-7.383307E-4,-9.272295E-4,3.1727148E-4,-4.4146273E-4,-7.568781E-5,-6.848625E-4,1.7644992E-4,1.5902401E-4,-3.71742E-4,-1.1792676E-4,-1.7700962E-3],"categories":[],"categories_nodes":[],"categories_segments":[],"categories_sizes":[],"default_left":[0,0,0,0,0,0,0,0,0,0,0,0,0,0,0,0,0,0,0,0,0,0,0,0,0,0,0,0,0,0,0,0,0,0,0,0,0,0,0,0,0,0,0,0,0,0,0,0,0,0,0,0,0],"id":10,"left_children":[1,3,5,7,9,11,13,15,17,19,21,23,25,27,29,31,33,35,37,-1,-1,39,-1,41,43,-1,45,47,-1,49,51,-1,-1,-1,-1,-1,-1,-1,-1,-1,-1,-1,-1,-1,-1,-1,-1,-1,-1,-1,-1,-1,-1],"loss_changes":[7.72852E-4,9.969202E-4,1.8702236E-3,7.4528373E-4,3.1914343E-3,2.2015492E-3,2.869119E-3,2.961186E-3,9.7593846E-4,4.836945E-4,2.2564519E-3,1.6991273E-3,6.381956E-4,9.0673263E-4,1.0897822E-3,1.534123E-3,9.53533E-4,2.5618493E-3,7.0729724E-4,0E0,0E0,2.5031294E-3,0E0,6.3113496E-4,8.2697533E-4,0E0,1.20453515E-5,8.3518986E-5,0E0,8.043761E-4,5.833985E-4,0E0,0E0,0E0,0E0,0E0,0E0,0E0,0E0,0E0,0E0,0E0,0E0,0E0,0E0,0E0,0E0,0E0,0E0,0E0,0E0,0E0,0E0],"parents":[2147483647,0,0,1,1,2,2,3,3,4,4,5,5,6,6,7,7,8,8,9,9,10,10,11,11,12,12,13,13,14,14,15,15,16,16,17,17,18,18,21,21,23,23,24,24,26,26,27,27,29,29,30,30],"right_children":[2,4,6,8,10,12,14,16,18,20,22,24,26,28,30,32,34,36,38,-1,-1,40,-1,42,44,-1,46,48,-1,50,52,-1,-1,-1,-1,-1,-1,-1,-1,-1,-1,-1,-1,-1,-1,-1,-1,-1,-1,-1,-1,-1,-1],"split_conditions":[2.2009984E-2,1.4213033E3,-1.8918337E3,-3.6590356E2,-7.61711E3,6.7909663E-3,2.8410664E1,7.6505176E2,-1.9196924E-2,4.3388373E-1,1.4491768E4,-2.571566E-3,1.6615377E3,3.1550093E0,5.594123E3,-1.7605643E3,2.3921134E-3,8.564301E-3,1.2791254E2,2.690111E-3,5.427671E-4,-1.4250359E2,-3.181801E-3,9.616972E2,4.320194E-3,1.2581305E-3,-1.3229705E-3,3.0490516E-3,-2.4690025E-3,7.7543054E-3,8.660254E-1,-1.6824534E-3,1.14262104E-4,1.870497E-3,3.6018543E-4,-6.942296E-5,-9.199245E-4,5.193112E-6,-4.9122278E-5,-8.0526527E-4,4.3261462E-4,-2.511991E-3,-7.383307E-4,-9.272295E-4,3.1727148E-4,-4.4146273E-4,-7.568781E-5,-6.848625E-4,1.7644992E-4,1.5902401E-4,-3.71742E-4,-1.1792676E-4,-1.7700962E-3],"split_indices":[616,623,595,658,639,396,237,40,594,4,463,33,133,9,474,287,341,396,438,0,0,9,0,254,561,0,0,11,0,385,24,0,0,0,0,0,0,0,0,0,0,0,0,0,0,0,0,0,0,0,0,0,0],"split_type":[0,0,0,0,0,0,0,0,0,0,0,0,0,0,0,0,0,0,0,0,0,0,0,0,0,0,0,0,0,0,0,0,0,0,0,0,0,0,0,0,0,0,0,0,0,0,0,0,0,0,0,0,0],"sum_hessian":[3.495E4,3.4676E4,2.74E2,3.456E4,1.16E2,4.5E1,2.29E2,1.18E2,3.4442E4,7E0,1.09E2,3.6E1,9E0,1E1,2.19E2,9.9E1,1.9E1,3.5E2,3.4092E4,5E0,2E0,1.08E2,1E0,1.2E1,2.4E1,5E0,4E0,5E0,5E0,2.11E2,8E0,4E0,9.5E1,1.2E1,7E0,3.11E2,3.9E1,3.1498E4,2.594E3,1.9E1,8.9E1,8E0,4E0,1.7E1,7E0,2E0,2E0,4E0,1E0,1.78E2,3.3E1,4E0,4E0],"tree_param":{"num_deleted":"0","num_feature":"660","num_nodes":"53","size_leaf_vector":"1"}},{"base_weights":[-1.365459E-6,3.0243924E-4,-6.975076E-5,8.26321E-3,2.6878645E-4,-2.0806934E-3,-5.0248753E-5,2.230947E-2,1.1748127E-3,5.529879E-3,2.3063828E-4,4.617308E-3,-3.3821254E-3,-7.657097E-4,-9.121658E-6,2.6207448E-3,1.0885139E-3,7.605895E-3,-3.2104766E-3,1.7462993E-2,-2.3657692E-4,-6.4962375E-4,4.5864063E-4,1.1203366E-3,2.0650757E-2,-2.3715226E-3,-1.5904883E-2,-1.6344488E-2,-6.8369793E-4,1.463154E-3,-3.8453316E-5,9.3569746E-4,1.568438E-4,1.0699967E-4,-6.4208143E-4,1.0056983E-3,3.0263618E-3,-3.4959146E-4,1.190333E-3,-1.3099073E-3,-4.9494818E-5,3.9805254E-5,4.5233066E-4,1.1871894E-3,-2.1424753E-4,3.1318126E-4,2.5968438E-3,-9.857387E-5,-9.4306533E-4,1.82338E-5,-2.0868822E-3,-2.8758585E-3,-3.1443135E-4,-1.1355638E-3,-6.201009E-5,1.8047409E-4,-4.6278714E-4,-2.9240557E-6,-2.8034273E-4],"categories":[],"categories_nodes":[],"categories_segments":[],"categories_sizes":[],"default_left":[0,0,0,0,0,0,0,0,0,0,0,0,0,0,0,0,0,0,0,0,0,0,0,0,0,0,0,0,0,0,0,0,0,0,0,0,0,0,0,0,0,0,0,0,0,0,0,0,0,0,0,0,0,0,0,0,0,0,0],"id":11,"left_children":[1,3,5,7,9,11,13,15,17,19,21,23,25,27,29,-1,-1,31,33,35,37,39,41,43,45,47,49,51,53,55,57,-1,-1,-1,-1,-1,-1,-1,-1,-1,-1,-1,-1,-1,-1,-1,-1,-1,-1,-1,-1,-1,-1,-1,-1,-1,-1,-1,-1],"loss_changes":[7.261551E-4,1.7182468E-3,1.118768E-3,2.6620585E-3,1.2824087E-3,2.4040723E-3,8.3145045E-4,1.1551427E-4,5.602595E-4,3.1694733E-3,1.2749551E-3,2.4999473E-3,2.8730545E-3,1.9512842E-3,1.1540266E-3,0E0,0E0,6.990068E-5,1.7177143E-4,1.1176625E-3,1.3077909E-3,2.510309E-3,1.2406331E-3,1.358487E-3,6.6395267E-4,2.0841435E-3,1.3613575E-3,1.2205197E-3,1.030697E-3,1.094433E-3,6.673371E-4,0E0,0E0,0E0,0E0,0E0,0E0,0E0,0E0,0E0,0E0,0E0,0E0,0E0,0E0,0E0,0E0,0E0,0E0,0E0,0E0,0E0,0E0,0E0,0E0,0E0,0E0,0E0,0E0],"parents":[2147483647,0,0,1,1,2,2,3,3,4,4,5,5,6,6,7,7,8,8,9,9,10,10,11,11,12,12,13,13,14,14,17,17,18,18,19,19,20,20,21,21,22,22,23,23,24,24,25,25,26,26,27,27,28,28,29,29,30,30],"right_children":[2,4,6,8,10,12,14,16,18,20,22,24,26,28,30,-1,-1,32,34,36,38,40,42,44,46,48,50,52,54,56,58,-1,-1,-1,-1,-1,-1,-1,-1,-1,-1,-1,-1,-1,-1,-1,-1,-1,-1,-1,-1,-1,-1,-1,-1,-1,-1,-1,-1],"split_conditions":[-3.611004E-3,1.8631285E1,-1.9196924E-2,-1.7008363E2,-2.8388947E-2,-1.7590984E3,-1.4336952E2,3.058541E2,-2.7804782E2,-2.4763231E1,4.0883404E1,7.477873E-3,1.4272806E-2,-2.2342114E-2,-1.7504002E2,2.6207448E-3,1.0885139E-3,1.9446286E-4,-5.274351E2,-3.0351154E2,5.4388046E1,-2.8388947E-2,1.8757742E-2,-7.633768E1,-2.2252093E-1,7.6505176E2,-2.2252093E-1,-4.692969E-3,-2.2342114E-2,1.9630035E3,2.7340978E-2,9.3569746E-4,1.568438E-4,1.0699967E-4,-6.4208143E-4,1.0056983E-3,3.0263618E-3,-3.4959146E-4,1.190333E-3,-1.3099073E-3,-4.9494818E-5,3.9805254E-5,4.5233066E-4,1.1871894E-3,-2.1424753E-4,3.1318126E-4,2.5968438E-3,-9.857387E-5,-9.4306533E-4,1.82338E-5,-2.0868822E-3,-2.8758585E-3,-3.1443135E-4,-1.1355638E-3,-6.201009E-5,1.8047409E-4,-4.6278714E-4,-2.9240557E-6,-2.8034273E-4],"split_indices":[396,644,594,74,473,507,570,56,276,152,50,429,396,352,504,0,0,0,353,1,72,539,550,339,5,18,280,22,275,89,77,0,0,0,0,0,0,0,0,0,0,0,0,0,0,0,0,0,0,0,0,0,0,0,0,0,0,0,0],"split_type":[0,0,0,0,0,0,0,0,0,0,0,0,0,0,0,0,0,0,0,0,0,0,0,0,0,0,0,0,0,0,0,0,0,0,0,0,0,0,0,0,0,0,0,0,0,0,0,0,0,0,0,0,0,0,0,0,0,0,0],"sum_hessian":[3.495E4,6.421E3,2.8529E4,2.6E1,6.395E3,2.73E2,2.8256E4,8E0,1.8E1,4.5E1,6.35E3,4.4E1,2.29E2,1.535E3,2.6721E4,5E0,3E0,7E0,1.1E1,1.4E1,3.1E1,1.306E3,5.044E3,3.7E1,7E0,2.13E2,1.6E1,7E0,1.528E3,5.21E2,2.62E4,5E0,2E0,5E0,6E0,1E1,4E0,2.5E1,6E0,1.5E1,1.291E3,4.971E3,7.3E1,8E0,2.9E1,2E0,5E0,1.79E2,3.4E1,4E0,1.2E1,3E0,4E0,8E0,1.52E3,4.94E2,2.7E1,2.6114E4,8.6E1],"tree_param":{"num_deleted":"0","num_feature":"660","num_nodes":"59","size_leaf_vector":"1"}},{"base_weights":[-1.1118397E-6,9.1453904E-4,-2.3164694E-5,6.693701E-3,4.0115495E-4,-1.9373036E-3,-8.584615E-6,5.059715E-3,5.7268394E-3,6.9349576E-3,-4.1755735E-5,-3.762682E-3,2.402387E-3,4.8608854E-6,-1.8693955E-3,2.4784836E-3,3.3873708E-3,1.2700603E-2,-1.0828064E-3,-1.5423171E-2,1.3359053E-4,-1.8154634E-2,-2.996646E-3,2.5122726E-2,1.1417959E-3,-4.5419863E-5,5.9634E-4,-8.948027E-4,-7.448449E-3,8.414834E-4,-2.255751E-4,7.233241E-4,2.1818532E-3,-7.1787357E-4,3.2207448E-4,-8.130725E-4,-2.0682937E-3,-2.4096806E-5,7.4996526E-4,3.058087E-5,-2.7435825E-3,-2.1114056E-4,-1.3797593E-3,4.6740985E-4,4.3234304E-3,-1.4143806E-3,2.2173133E-4,-8.482878E-5,-1.5405842E-6,-2.6517094E-4,7.442691E-5,5.2268933E-5,-3.5233522E-4,-2.6918176E-4,-1.4730882E-3],"categories":[],"categories_nodes":[],"categories_segments":[],"categories_sizes":[],"default_left":[0,0,0,0,0,0,0,0,0,0,0,0,0,0,0,0,0,0,0,0,0,0,0,0,0,0,0,0,0,0,0,0,0,0,0,0,0,0,0,0,0,0,0,0,0,0,0,0,0,0,0,0,0,0,0],"id":12,"left_children":[1,3,5,7,9,11,13,15,-1,17,19,21,23,25,27,-1,29,31,33,35,37,39,41,43,45,47,49,51,53,-1,-1,-1,-1,-1,-1,-1,-1,-1,-1,-1,-1,-1,-1,-1,-1,-1,-1,-1,-1,-1,-1,-1,-1,-1,-1],"loss_changes":[7.057768E-4,2.4361312E-3,9.5249346E-4,5.2470076E-3,2.188071E-3,2.0528063E-3,8.474958E-4,2.0931985E-3,0E0,2.2326764E-3,1.9142856E-3,1.9521022E-3,2.1766764E-3,1.0002134E-3,1.3146002E-3,0E0,1.7779584E-3,1.2380099E-3,5.740379E-4,1.3868522E-4,1.9386406E-3,1.5504039E-3,1.6345571E-3,1.2793462E-3,1.2479161E-3,7.469308E-4,1.2680413E-3,7.768388E-4,1.2073822E-3,0E0,0E0,0E0,0E0,0E0,0E0,0E0,0E0,0E0,0E0,0E0,0E0,0E0,0E0,0E0,0E0,0E0,0E0,0E0,0E0,0E0,0E0,0E0,0E0,0E0,0E0],"parents":[2147483647,0,0,1,1,2,2,3,3,4,4,5,5,6,6,7,7,9,9,10,10,11,11,12,12,13,13,14,14,16,16,17,17,18,18,19,19,20,20,21,21,22,22,23,23,24,24,25,25,26,26,27,27,28,28],"right_children":[2,4,6,8,10,12,14,16,-1,18,20,22,24,26,28,-1,30,32,34,36,38,40,42,44,46,48,50,52,54,-1,-1,-1,-1,-1,-1,-1,-1,-1,-1,-1,-1,-1,-1,-1,-1,-1,-1,-1,-1,-1,-1,-1,-1,-1,-1],"split_conditions":[-1.4502826E-2,-1.4502826E-2,-2.2342114E-2,1E0,-2.6648506E3,2.7883183E-3,2.2009984E-2,-2.9406301E3,5.7268394E-3,1.3452905E2,-3.6590356E2,-1.7428745E-2,-7.818315E-1,7.2433813E-3,9.23135E-3,2.4784836E-3,2.223445E2,8.09434E1,-3.5530368E2,-2.5881904E-1,1.4272806E-2,4.772317E1,1.5347621E-2,-2.237818E-2,-8.180031E-3,2.8410664E1,-1.5784375E-2,1.8267584E1,-2.1098615E-3,8.414834E-4,-2.255751E-4,7.233241E-4,2.1818532E-3,-7.1787357E-4,3.2207448E-4,-8.130725E-4,-2.0682937E-3,-2.4096806E-5,7.4996526E-4,3.058087E-5,-2.7435825E-3,-2.1114056E-4,-1.3797593E-3,4.6740985E-4,4.3234304E-3,-1.4143806E-3,2.2173133E-4,-8.482878E-5,-1.5405842E-6,-2.6517094E-4,7.442691E-5,5.2268933E-5,-3.5233522E-4,-2.6918176E-4,-1.4730882E-3],"split_indices":[616,638,275,47,507,264,88,34,0,210,185,627,147,429,330,0,221,375,558,25,187,6,220,0,616,589,242,295,341,0,0,0,0,0,0,0,0,0,0,0,0,0,0,0,0,0,0,0,0,0,0,0,0,0,0],"split_type":[0,0,0,0,0,0,0,0,0,0,0,0,0,0,0,0,0,0,0,0,0,0,0,0,0,0,0,0,0,0,0,0,0,0,0,0,0,0,0,0,0,0,0,0,0,0,0,0,0,0,0,0,0,0,0],"sum_hessian":[3.495E4,8.21E2,3.4129E4,6.6E1,7.55E2,2.57E2,3.3872E4,6.5E1,1E0,4.7E1,7.08E2,1.81E2,7.6E1,3.363E4,2.42E2,4E0,6.1E1,2.7E1,2E1,7E0,7.01E2,8E0,1.73E2,3E0,7.3E1,3.0996E4,2.634E3,2.07E2,3.5E1,3.2E1,2.9E1,1.8E1,9E0,8E0,1.2E1,4E0,3E0,6.68E2,3.3E1,3E0,5E0,1.61E2,1.2E1,2E0,1E0,4E0,6.9E1,1.116E3,2.988E4,1.14E2,2.52E3,1.35E2,7.2E1,2.2E1,1.3E1],"tree_param":{"num_deleted":"0","num_feature":"660","num_nodes":"55","size_leaf_vector":"1"}},{"base_weights":[-8.247024E-7,1.1730822E-5,-1.5725285E-3,1.3563596E-3,-3.8025714E-6,-9.708616E-4,-1.2805925E-2,9.490453E-3,2.3374405E-4,-2.4075909E-3,5.842543E-6,-4.180984E-3,2.3172746E-4,-4.2664813E-4,-1.6143305E-2,1.363195E-2,1.1364291E-3,3.9599268E-4,-1.8610929E-3,-1.0867721E-3,-1.3934299E-2,1.946085E-3,-6.3945777E-6,-7.9215355E-3,-2.2039002E-4,2.03099E-3,-8.4849744E-5,-2.1321709E-4,2.34496E-4,-5.2146544E-4,-1.799249E-3,-4.8559104E-4,1.5026339E-3,-6.726265E-4,6.03665E-4,1.1758042E-4,-3.430474E-4,-6.039822E-5,-3.0234966E-3,-2.0428773E-3,-1.8702079E-4,1.4112362E-3,1.0890007E-4,-6.4197884E-5,3.2442683E-6,-1.5540803E-3,-3.146899E-4,-4.376506E-4,1.3270749E-4,-4.738515E-5,7.003468E-4],"categories":[],"categories_nodes":[],"categories_segments":[],"categories_sizes":[],"default_left":[0,0,0,0,0,0,0,0,0,0,0,0,0,0,0,0,0,0,0,0,0,0,0,0,0,0,0,0,0,0,0,0,0,0,0,0,0,0,0,0,0,0,0,0,0,0,0,0,0,0,0],"id":13,"left_children":[1,3,5,7,9,11,13,15,17,19,21,23,25,27,29,31,33,35,-1,37,39,41,43,45,47,-1,49,-1,-1,-1,-1,-1,-1,-1,-1,-1,-1,-1,-1,-1,-1,-1,-1,-1,-1,-1,-1,-1,-1,-1,-1],"loss_changes":[6.8972626E-4,7.242497E-4,1.8597449E-3,3.613839E-3,7.947894E-4,1.0201299E-3,5.7151355E-4,1.6452204E-3,1.074445E-3,2.0706393E-3,8.1069284E-4,1.0649202E-3,1.2284876E-3,2.3908016E-5,1.2847502E-4,8.9790253E-4,6.95596E-4,1.0394548E-3,0E0,1.7267227E-3,1.0586928E-3,2.216122E-3,8.3758554E-4,1.2971261E-3,2.3733993E-4,0E0,5.299759E-4,0E0,0E0,0E0,0E0,0E0,0E0,0E0,0E0,0E0,0E0,0E0,0E0,0E0,0E0,0E0,0E0,0E0,0E0,0E0,0E0,0E0,0E0,0E0,0E0],"parents":[2147483647,0,0,1,1,2,2,3,3,4,4,5,5,6,6,7,7,8,8,9,9,10,10,11,11,12,12,13,13,14,14,15,15,16,16,17,17,19,19,20,20,21,21,22,22,23,23,24,24,26,26],"right_children":[2,4,6,8,10,12,14,16,18,20,22,24,26,28,30,32,34,36,-1,38,40,42,44,46,48,-1,50,-1,-1,-1,-1,-1,-1,-1,-1,-1,-1,-1,-1,-1,-1,-1,-1,-1,-1,-1,-1,-1,-1,-1,-1],"split_conditions":[1.064884E4,-8.5689264E2,2.1192741E2,4.3587734E1,-7.9306866E2,-2.024891E-3,-2.8388947E-2,1.6546844E2,8.481737E3,1.0894742E2,-2.2342114E-2,4.2961037E-4,-1.7431183E-2,-5.4649753E-3,-3.6590356E2,-7.61711E3,-3.4850934E2,5.1287937E1,-1.8610929E-3,4.624521E3,5.1072857E1,-1.7428745E-2,-8.804125E-3,-7.548329E0,-1.2749889E3,2.03099E-3,8.48226E1,-2.1321709E-4,2.34496E-4,-5.2146544E-4,-1.799249E-3,-4.8559104E-4,1.5026339E-3,-6.726265E-4,6.03665E-4,1.1758042E-4,-3.430474E-4,-6.039822E-5,-3.0234966E-3,-2.0428773E-3,-1.8702079E-4,1.4112362E-3,1.0890007E-4,-6.4197884E-5,3.2442683E-6,-1.5540803E-3,-3.146899E-4,-4.376506E-4,1.3270749E-4,-4.738515E-5,7.003468E-4],"split_indices":[342,527,658,658,538,187,330,217,177,328,473,132,121,0,405,463,540,259,0,23,270,627,33,548,188,0,493,0,0,0,0,0,0,0,0,0,0,0,0,0,0,0,0,0,0,0,0,0,0,0,0],"split_type":[0,0,0,0,0,0,0,0,0,0,0,0,0,0,0,0,0,0,0,0,0,0,0,0,0,0,0,0,0,0,0,0,0,0,0,0,0,0,0,0,0,0,0,0,0,0,0,0,0,0,0],"sum_hessian":[3.495E4,3.4674E4,2.76E2,3.95E2,3.4279E4,2.63E2,1.3E1,4.7E1,3.48E2,1.36E2,3.4143E4,7.1E1,1.92E2,3E0,1E1,3.1E1,1.6E1,3.46E2,2E0,1.23E2,1.3E1,2.13E2,3.393E4,3.6E1,3.5E1,2E0,1.9E2,2E0,1E0,2E0,8E0,2E0,2.9E1,6E0,1E1,2.88E2,5.8E1,1.22E2,1E0,8E0,5E0,1.3E1,2E2,1.953E3,3.1977E4,1.3E1,2.3E1,9E0,2.6E1,1.81E2,9E0],"tree_param":{"num_deleted":"0","num_feature":"660","num_nodes":"51","size_leaf_vector":"1"}},{"base_weights":[-9.3627835E-7,-2.7584827E-5,7.2782557E-4,-1.9755433E-3,-1.3854516E-5,7.326631E-3,5.289234E-4,-1.8156594E-2,-6.365732E-4,-4.5725315E-6,-2.4711867E-3,-1.3180072E-3,1.17038665E-2,6.6281E-3,3.6659173E-4,-2.9410383E-2,-3.6349846E-3,1.2780951E-2,-1.3397129E-3,1.2757548E-3,-1.9245965E-5,2.6141594E-3,-3.884505E-3,9.053383E-3,-6.9334456E-3,-4.3075015E-3,1.4196324E-2,3.4222207E-3,1.7130796E-2,-4.290514E-3,6.2265387E-4,-4.136145E-3,-1.4549427E-3,3.2452797E-4,-1.3046635E-3,1.7558074E-3,3.5367892E-4,7.471417E-4,-2.4162706E-4,8.923177E-4,8.685971E-5,-3.0094836E-4,-8.9655845E-7,-4.3462086E-4,6.139924E-4,-1.4464305E-3,-3.1678742E-4,1.045307E-3,1.7273187E-4,-8.1614184E-4,-1.7570278E-4,-6.4889406E-4,1.1184074E-4,1.8243727E-3,5.33883E-4,5.6872837E-4,-3.2146956E-4,2.6181648E-3,8.274126E-4,-1.9751904E-4,-1.7448476E-3,3.1341107E-5,3.3974438E-4],"categories":[],"categories_nodes":[],"categories_segments":[],"categories_sizes":[],"default_left":[0,0,0,0,0,0,0,0,0,0,0,0,0,0,0,0,0,0,0,0,0,0,0,0,0,0,0,0,0,0,0,0,0,0,0,0,0,0,0,0,0,0,0,0,0,0,0,0,0,0,0,0,0,0,0,0,0,0,0,0,0,0,0],"id":14,"left_children":[1,3,5,7,9,11,13,15,17,19,21,23,25,27,29,31,33,35,37,39,41,43,45,47,49,51,53,55,57,59,61,-1,-1,-1,-1,-1,-1,-1,-1,-1,-1,-1,-1,-1,-1,-1,-1,-1,-1,-1,-1,-1,-1,-1,-1,-1,-1,-1,-1,-1,-1,-1,-1],"loss_changes":[6.787841E-4,9.018237E-4,1.6144579E-3,5.1016044E-3,7.6372246E-4,1.3776524E-3,1.1836975E-3,2.8347098E-3,2.083255E-3,6.2673335E-4,9.157435E-4,8.198899E-4,1.0189342E-3,9.851564E-4,1.3955215E-3,1.1742581E-3,6.251317E-4,4.236662E-4,2.000562E-3,1.1692306E-3,1.0138656E-3,7.1382266E-4,7.04778E-4,3.3215154E-5,4.286866E-5,5.460241E-5,6.5544713E-4,3.941087E-4,3.444925E-4,1.8238972E-3,9.496923E-4,0E0,0E0,0E0,0E0,0E0,0E0,0E0,0E0,0E0,0E0,0E0,0E0,0E0,0E0,0E0,0E0,0E0,0E0,0E0,0E0,0E0,0E0,0E0,0E0,0E0,0E0,0E0,0E0,0E0,0E0,0E0,0E0],"parents":[2147483647,0,0,1,1,2,2,3,3,4,4,5,5,6,6,7,7,8,8,9,9,10,10,11,11,12,12,13,13,14,14,15,15,16,16,17,17,18,18,19,19,20,20,21,21,22,22,23,23,24,24,25,25,26,26,27,27,28,28,29,29,30,30],"right_children":[2,4,6,8,10,12,14,16,18,20,22,24,26,28,30,32,34,36,38,40,42,44,46,48,50,52,54,56,58,60,62,-1,-1,-1,-1,-1,-1,-1,-1,-1,-1,-1,-1,-1,-1,-1,-1,-1,-1,-1,-1,-1,-1,-1,-1,-1,-1,-1,-1,-1,-1,-1,-1],"split_conditions":[4.2132817E3,-1.9196924E-2,-1.02007825E3,-2.73439E2,2.7340978E-2,-7.61711E3,-1.3777501E2,2.8351732E1,2.8974136E1,-1.9284813E-2,3.6648483E1,-1.72997E1,-1.7429745E-2,1.3186829E-2,-3.4802725E2,-8.197808E1,-2.377685E1,-6.831365E2,-1.7528389E2,-1.9196924E-2,-2.8388947E-2,-1.7358227E1,-4.7134738E2,7.0710677E-1,2.403917E1,-7.630601E-3,3.933035E1,3.2381974E-3,-2.6992023E2,6.791098E-3,8.304762E1,-4.136145E-3,-1.4549427E-3,3.2452797E-4,-1.3046635E-3,1.7558074E-3,3.5367892E-4,7.471417E-4,-2.4162706E-4,8.923177E-4,8.685971E-5,-3.0094836E-4,-8.9655845E-7,-4.3462086E-4,6.139924E-4,-1.4464305E-3,-3.1678742E-4,1.045307E-3,1.7273187E-4,-8.1614184E-4,-1.7570278E-4,-6.4889406E-4,1.1184074E-4,1.8243727E-3,5.33883E-4,5.6872837E-4,-3.2146956E-4,2.6181648E-3,8.274126E-4,-1.9751904E-4,-1.7448476E-3,3.1341107E-5,3.3974438E-4],"split_indices":[639,638,657,581,396,650,141,251,369,286,182,372,319,187,516,64,177,481,559,462,594,603,593,2,166,0,471,517,1,275,493,0,0,0,0,0,0,0,0,0,0,0,0,0,0,0,0,0,0,0,0,0,0,0,0,0,0,0,0,0,0,0,0],"split_type":[0,0,0,0,0,0,0,0,0,0,0,0,0,0,0,0,0,0,0,0,0,0,0,0,0,0,0,0,0,0,0,0,0,0,0,0,0,0,0,0,0,0,0,0,0,0,0,0,0,0,0,0,0,0,0,0,0,0,0,0,0,0,0],"sum_hessian":[3.495E4,3.3718E4,1.232E3,2.35E2,3.3483E4,3.5E1,1.197E3,1.7E1,2.18E2,3.3358E4,1.25E2,1.2E1,2.3E1,3E1,1.167E3,9E0,8E0,1E1,2.08E2,3.77E2,3.2981E4,2.7E1,9.8E1,4E0,8E0,3E0,2E1,2.4E1,6E0,6E1,1.107E3,4E0,5E0,5E0,3E0,6E0,4E0,2.2E1,1.86E2,1.8E1,3.59E2,1.12E2,3.2869E4,9E0,1.8E1,5E0,9.3E1,3E0,1E0,6E0,2E0,2E0,1E0,1.3E1,7E0,1.8E1,6E0,2E0,4E0,5.2E1,8E0,9.97E2,1.1E2],"tree_param":{"num_deleted":"0","num_feature":"660","num_nodes":"63","size_leaf_vector":"1"}},{"base_weights":[-8.624961E-7,1.381451E-5,-1.2313065E-3,-1.6323127E-6,1.3288786E-3,-1.5132024E-2,-8.833202E-4,8.7040185E-5,-2.2580121E-4,1.79694E-2,1.0733937E-3,-2.766869E-2,-2.1627983E-3,-3.5413962E-3,4.3914473E-4,-1.6636193E-3,1.08110544E-4,-1.8165654E-3,-1.5486636E-4,5.101716E-4,1.9522595E-3,1.4604774E-2,7.92354E-4,-3.4116271E-3,-1.1998214E-3,1.6845316E-3,-6.571639E-4,3.7845657E-3,-4.93635E-3,-2.7140142E-5,1.1420501E-2,-1.0421765E-3,-9.085971E-5,1.8591776E-4,8.543445E-6,-1.5901935E-3,-1.4275937E-4,-1.876553E-5,3.2278197E-4,-2.6714834E-4,1.7454453E-3,-1.0181814E-4,2.674575E-4,-2.8983597E-5,3.803817E-4,2.9672314E-5,1.9405676E-3,-1.143834E-3,-3.0544837E-4,2.692338E-5,-1.2618509E-3,1.6840593E-3,1.5482753E-4],"categories":[],"categories_nodes":[],"categories_segments":[],"categories_sizes":[],"default_left":[0,0,0,0,0,0,0,0,0,0,0,0,0,0,0,0,0,0,0,0,0,0,0,0,0,0,0,0,0,0,0,0,0,0,0,0,0,0,0,0,0,0,0,0,0,0,0,0,0,0,0,0,0],"id":15,"left_children":[1,3,5,7,9,11,13,15,17,19,21,23,25,27,29,31,33,35,37,-1,-1,39,41,-1,-1,43,-1,45,47,49,51,-1,-1,-1,-1,-1,-1,-1,-1,-1,-1,-1,-1,-1,-1,-1,-1,-1,-1,-1,-1,-1,-1],"loss_changes":[6.312052E-4,7.016326E-4,1.9795846E-3,6.786415E-4,1.6855237E-3,1.5660664E-3,1.4181857E-3,9.0258394E-4,1.0916775E-3,2.0317617E-5,1.4943584E-3,9.584939E-5,1.12843714E-4,1.3880788E-3,1.3828288E-3,1.9147957E-3,9.5972716E-4,2.240047E-3,1.0282306E-3,0E0,0E0,4.4048345E-4,1.3283683E-3,0E0,0E0,1.7839478E-5,0E0,1.1928894E-3,1.347716E-3,9.7365316E-4,5.6251825E-4,0E0,0E0,0E0,0E0,0E0,0E0,0E0,0E0,0E0,0E0,0E0,0E0,0E0,0E0,0E0,0E0,0E0,0E0,0E0,0E0,0E0,0E0],"parents":[2147483647,0,0,1,1,2,2,3,3,4,4,5,5,6,6,7,7,8,8,9,9,10,10,11,11,12,12,13,13,14,14,15,15,16,16,17,17,18,18,21,21,22,22,25,25,27,27,28,28,29,29,30,30],"right_children":[2,4,6,8,10,12,14,16,18,20,22,24,26,28,30,32,34,36,38,-1,-1,40,42,-1,-1,44,-1,46,48,50,52,-1,-1,-1,-1,-1,-1,-1,-1,-1,-1,-1,-1,-1,-1,-1,-1,-1,-1,-1,-1,-1,-1],"split_conditions":[1.8757742E-2,1.8757742E-2,2.4281641E1,2.1273512E-3,2.1431757E1,-5.3183224E1,-5.534179E2,-1.7429745E-2,-1.1165216E-2,-2.860542E-2,-2.2342114E-2,-4.7119873E3,8.660254E-1,-1.5857584E3,1.8757742E-2,-2.668275E3,-1.7428745E-2,2.3164099E1,1.27316E3,5.101716E-4,1.9522595E-3,-7.382874E2,-6.649708E1,-3.4116271E-3,-1.1998214E-3,-1.8279954E-3,-6.571639E-4,2.560945E-3,4.4735443E1,1.6956892E-2,-1.5273107E-3,-1.0421765E-3,-9.085971E-5,1.8591776E-4,8.543445E-6,-1.5901935E-3,-1.4275937E-4,-1.876553E-5,3.2278197E-4,-2.6714834E-4,1.7454453E-3,-1.0181814E-4,2.674575E-4,-2.8983597E-5,3.803817E-4,2.9672314E-5,1.9405676E-3,-1.143834E-3,-3.0544837E-4,2.692338E-5,-1.2618509E-3,1.6840593E-3,1.5482753E-4],"split_indices":[132,550,39,396,6,570,628,374,528,0,198,1,3,254,627,232,649,655,458,0,0,1,518,0,0,0,0,275,468,539,66,0,0,0,0,0,0,0,0,0,0,0,0,0,0,0,0,0,0,0,0,0,0],"split_type":[0,0,0,0,0,0,0,0,0,0,0,0,0,0,0,0,0,0,0,0,0,0,0,0,0,0,0,0,0,0,0,0,0,0,0,0,0,0,0,0,0,0,0,0,0,0,0,0,0,0,0,0,0],"sum_hessian":[3.495E4,3.4539E4,4.11E2,3.4139E4,4E2,9E0,4.02E2,2.4463E4,9.676E3,5E0,3.95E2,4E0,5E0,1.33E2,2.69E2,2.9E2,2.4173E4,4.12E2,9.264E3,1E0,4E0,7E0,3.88E2,2E0,2E0,3E0,2E0,2.1E1,1.12E2,2.59E2,1E1,2.2E1,2.68E2,3.08E2,2.3865E4,1E1,4.02E2,9.176E3,8.8E1,1E0,6E0,1.98E2,1.9E2,2E0,1E0,1.8E1,3E0,2.4E1,8.8E1,2.54E2,5E0,6E0,4E0],"tree_param":{"num_deleted":"0","num_feature":"660","num_nodes":"53","size_leaf_vector":"1"}},{"base_weights":[-8.350037E-7,3.105771E-5,-5.5103796E-4,1.35465E-5,1.7200487E-3,-1.3115013E-2,-3.6441596E-4,2.1826054E-5,-2.4395827E-3,4.6711117E-3,-4.8315214E-4,-2.9100662E-2,-6.4007174E-3,-2.3400952E-4,-7.46852E-3,1.580153E-3,6.226653E-6,5.632531E-3,-3.4854796E-3,1.0591581E-2,2.9682508E-3,-1.3946162E-3,8.557056E-3,-3.1842962E-3,-4.952286E-4,-1.6395887E-3,-2.2524842E-3,-2.0212878E-3,1.1622669E-4,-3.6561596E-3,-2.884898E-2,9.356429E-4,8.963836E-5,6.861482E-5,-2.3322928E-6,8.3893974E-4,-2.6677674E-4,-1.5821068E-4,-7.7470543E-4,1.5825797E-3,1.7242055E-4,9.0304884E-4,1.4204277E-4,-7.512414E-4,-1.5348494E-5,1.8768666E-4,2.1604623E-3,-5.246381E-4,2.3462948E-4,-4.0528736E-5,-5.0360314E-4,3.0661606E-6,7.4065704E-4,-2.2474007E-5,-1.7344382E-3,-3.2865056E-3,-6.39234E-4],"categories":[],"categories_nodes":[],"categories_segments":[],"categories_sizes":[],"default_left":[0,0,0,0,0,0,0,0,0,0,0,0,0,0,0,0,0,0,0,0,0,0,0,0,0,0,0,0,0,0,0,0,0,0,0,0,0,0,0,0,0,0,0,0,0,0,0,0,0,0,0,0,0,0,0,0,0],"id":16,"left_children":[1,3,5,7,9,11,13,15,17,19,21,23,25,27,29,31,33,35,37,39,41,43,45,-1,-1,-1,47,49,51,53,55,-1,-1,-1,-1,-1,-1,-1,-1,-1,-1,-1,-1,-1,-1,-1,-1,-1,-1,-1,-1,-1,-1,-1,-1,-1,-1],"loss_changes":[6.133185E-4,9.770881E-4,4.4853487E-3,6.641966E-4,2.2063619E-3,2.8190413E-3,1.7473352E-3,7.9221936E-4,9.483178E-4,1.430413E-3,1.6186995E-3,3.720806E-4,8.3377666E-4,1.1614086E-3,2.665864E-3,1.7090621E-3,6.483252E-4,3.198575E-4,7.8265707E-4,1.4579534E-3,1.0568658E-3,1.3503991E-3,1.528335E-3,0E0,0E0,0E0,2.3260183E-4,1.4789941E-3,9.679086E-4,1.4052031E-3,2.4085306E-4,0E0,0E0,0E0,0E0,0E0,0E0,0E0,0E0,0E0,0E0,0E0,0E0,0E0,0E0,0E0,0E0,0E0,0E0,0E0,0E0,0E0,0E0,0E0,0E0,0E0,0E0],"parents":[2147483647,0,0,1,1,2,2,3,3,4,4,5,5,6,6,7,7,8,8,9,9,10,10,11,11,12,12,13,13,14,14,15,15,16,16,17,17,18,18,19,19,20,20,21,21,22,22,26,26,27,27,28,28,29,29,30,30],"right_children":[2,4,6,8,10,12,14,16,18,20,22,24,26,28,30,32,34,36,38,40,42,44,46,-1,-1,-1,48,50,52,54,56,-1,-1,-1,-1,-1,-1,-1,-1,-1,-1,-1,-1,-1,-1,-1,-1,-1,-1,-1,-1,-1,-1,-1,-1,-1,-1],"split_conditions":[9.229533E-3,1.1973572E3,3.056575E1,2.7340978E-2,4.6090157E1,-2.754178E-3,1.4213033E3,-1.9292045E-2,2.6897434E1,-1.1323923E3,1.8048789E3,8.858264E1,-9.1716135E-3,-1.3124313E3,1.7186227E3,-1.3808978E2,-9.999492E-3,1.429683E-3,6.952781E2,-3.0162547E0,-7.93333E-3,-5.122813E2,2.985473E-3,-3.1842962E-3,-4.952286E-4,-1.6395887E-3,-4.050534E1,3.5485183E-3,2.7340978E-2,1.6593777E3,-3.0105321E-3,9.356429E-4,8.963836E-5,6.861482E-5,-2.3322928E-6,8.3893974E-4,-2.6677674E-4,-1.5821068E-4,-7.7470543E-4,1.5825797E-3,1.7242055E-4,9.0304884E-4,1.4204277E-4,-7.512414E-4,-1.5348494E-5,1.8768666E-4,2.1604623E-3,-5.246381E-4,2.3462948E-4,-4.0528736E-5,-5.0360314E-4,3.0661606E-6,7.4065704E-4,-2.2474007E-5,-1.7344382E-3,-3.2865056E-3,-6.39234E-4],"split_indices":[473,29,589,396,501,154,304,99,204,639,276,8,330,397,573,515,385,407,485,316,638,318,396,0,0,0,8,484,649,650,0,0,0,0,0,0,0,0,0,0,0,0,0,0,0,0,0,0,0,0,0,0,0,0,0,0,0],"split_type":[0,0,0,0,0,0,0,0,0,0,0,0,0,0,0,0,0,0,0,0,0,0,0,0,0,0,0,0,0,0,0,0,0,0,0,0,0,0,0,0,0,0,0,0,0,0,0,0,0,0,0,0,0,0,0,0,0],"sum_hessian":[3.495E4,3.3036E4,1.914E3,3.2698E4,3.38E2,2.7E1,1.887E3,3.2589E4,1.09E2,1.44E2,1.94E2,7E0,2E1,1.854E3,3.3E1,3.22E2,3.2267E4,1.2E1,9.7E1,3.1E1,1.13E2,1.77E2,1.7E1,6E0,1E0,5E0,1.5E1,3.03E2,1.551E3,2.9E1,4E0,2.5E1,2.97E2,1.343E3,3.0924E4,9E0,3E0,6.8E1,2.9E1,1.9E1,1.2E1,2.2E1,9.1E1,2.9E1,1.48E2,1.2E1,5E0,9E0,6E0,1.98E2,1.05E2,1.534E3,1.7E1,2.4E1,5E0,3E0,1E0],"tree_param":{"num_deleted":"0","num_feature":"660","num_nodes":"57","size_leaf_vector":"1"}},{"base_weights":[-9.2259E-7,8.2517625E-4,-2.0818643E-5,1.263814E-4,4.684183E-3,-1.4115105E-3,-4.9936366E-6,-6.883759E-3,5.978184E-4,2.845213E-2,3.4668946E-3,-6.8190475E-3,-5.6285155E-4,8.322421E-6,-1.8719509E-3,-2.3659328E-2,-2.4986516E-3,9.808102E-3,2.6168814E-4,1.2396468E-2,5.436522E-3,2.1120214E-3,2.6828477E-3,-1.15328105E-2,-1.6617147E-3,1.1292291E-3,-3.1479837E-3,-3.7960537E-5,5.555847E-4,-7.3351036E-3,-9.919703E-4,-1.0730001E-3,-3.185679E-3,2.073875E-4,-1.0748034E-3,-1.4646114E-4,1.8592082E-3,-8.712292E-6,6.3992216E-4,1.3962662E-3,3.065846E-4,6.0071104E-4,-5.7532015E-5,-1.5548576E-3,-1.7736615E-4,-9.805497E-4,7.4420954E-5,5.5534434E-5,1.7036684E-3,-1.8241713E-3,-2.2844593E-4,-1.7924189E-6,-1.02286765E-4,5.0552195E-4,4.676216E-5,-1.6149707E-3,-4.7781653E-4,-7.159023E-4,-3.6675356E-5],"categories":[],"categories_nodes":[],"categories_segments":[],"categories_sizes":[],"default_left":[0,0,0,0,0,0,0,0,0,0,0,0,0,0,0,0,0,0,0,0,0,0,0,0,0,0,0,0,0,0,0,0,0,0,0,0,0,0,0,0,0,0,0,0,0,0,0,0,0,0,0,0,0,0,0,0,0,0,0],"id":17,"left_children":[1,3,5,7,9,11,13,15,17,19,21,23,25,27,29,31,33,35,37,39,-1,-1,41,43,45,47,49,51,53,55,57,-1,-1,-1,-1,-1,-1,-1,-1,-1,-1,-1,-1,-1,-1,-1,-1,-1,-1,-1,-1,-1,-1,-1,-1,-1,-1,-1,-1],"loss_changes":[5.7447556E-4,2.2160574E-3,7.51116E-4,2.3075887E-3,3.546847E-3,1.7583973E-3,8.389833E-4,3.1776417E-3,2.0221225E-3,1.8223738E-3,1.6181024E-3,1.244979E-3,1.4601807E-3,8.4876776E-4,1.1417088E-3,6.1206473E-4,1.3802288E-3,2.3046741E-3,1.3535679E-3,3.0260417E-5,0E0,0E0,1.2706836E-3,1.0305641E-3,5.167238E-4,1.8346063E-3,1.67879E-3,6.0970127E-4,1.0318661E-3,6.666011E-4,7.955136E-4,0E0,0E0,0E0,0E0,0E0,0E0,0E0,0E0,0E0,0E0,0E0,0E0,0E0,0E0,0E0,0E0,0E0,0E0,0E0,0E0,0E0,0E0,0E0,0E0,0E0,0E0,0E0,0E0],"parents":[2147483647,0,0,1,1,2,2,3,3,4,4,5,5,6,6,7,7,8,8,9,9,10,10,11,11,12,12,13,13,14,14,15,15,16,16,17,17,18,18,19,19,22,22,23,23,24,24,25,25,26,26,27,27,28,28,29,29,30,30],"right_children":[2,4,6,8,10,12,14,16,18,20,22,24,26,28,30,32,34,36,38,40,-1,-1,42,44,46,48,50,52,54,56,58,-1,-1,-1,-1,-1,-1,-1,-1,-1,-1,-1,-1,-1,-1,-1,-1,-1,-1,-1,-1,-1,-1,-1,-1,-1,-1,-1,-1],"split_conditions":[-1.4502826E-2,6.799029E-3,-1.9284813E-2,-1.3414544E-2,-1.9284813E-2,-8.045458E1,2.2009984E-2,-1.4502826E-2,-9.52478E2,7.818315E-1,-2.8388947E-2,-3.9587338E-3,5.0406586E1,7.2433813E-3,-2.8855435E2,1.8966842E-3,3.386167E2,-8.450962E-3,1.4272806E-2,8.660254E-1,5.436522E-3,2.1120214E-3,-1.485223E-3,1.15571915E2,-1.7590984E3,1.27316E3,-2.0098483E2,1.4272806E-2,-9.145396E2,-1.5809499E-2,-1.6124352E2,-1.0730001E-3,-3.185679E-3,2.073875E-4,-1.0748034E-3,-1.4646114E-4,1.8592082E-3,-8.712292E-6,6.3992216E-4,1.3962662E-3,3.065846E-4,6.0071104E-4,-5.7532015E-5,-1.5548576E-3,-1.7736615E-4,-9.805497E-4,7.4420954E-5,5.5534434E-5,1.7036684E-3,-1.8241713E-3,-2.2844593E-4,-1.7924189E-6,-1.02286765E-4,5.0552195E-4,4.676216E-5,-1.6149707E-3,-4.7781653E-4,-7.159023E-4,-3.6675356E-5],"split_indices":[616,22,275,440,242,625,88,495,615,4,649,517,501,429,230,154,573,484,187,3,0,0,396,53,529,7,657,396,19,154,614,0,0,0,0,0,0,0,0,0,0,0,0,0,0,0,0,0,0,0,0,0,0,0,0,0,0,0,0],"split_type":[0,0,0,0,0,0,0,0,0,0,0,0,0,0,0,0,0,0,0,0,0,0,0,0,0,0,0,0,0,0,0,0,0,0,0,0,0,0,0,0,0,0,0,0,0,0,0,0,0,0,0,0,0,0,0,0,0,0,0],"sum_hessian":[3.495E4,8.21E2,3.4129E4,6.96E2,1.25E2,3.83E2,3.3746E4,4.3E1,6.53E2,5E0,1.2E2,5.1E1,3.32E2,3.3508E4,2.38E2,8E0,3.5E1,2.2E1,6.31E2,4E0,1E0,4E0,1.16E2,2.6E1,2.5E1,2.01E2,1.31E2,3.0896E4,2.612E3,3.2E1,2.06E2,4E0,4E0,2.3E1,1.2E1,1E1,1.2E1,5.98E2,3.3E1,3E0,1E0,5.7E1,5.9E1,1.8E1,8E0,5E0,2E1,1.95E2,6E0,6E0,1.25E2,3.0281E4,6.15E2,4.9E1,2.563E3,6E0,2.6E1,1.8E1,1.88E2],"tree_param":{"num_deleted":"0","num_feature":"660","num_nodes":"59","size_leaf_vector":"1"}},{"base_weights":[-7.821628E-7,1.0422932E-5,-1.4137214E-3,6.352802E-4,-1.9920903E-5,-1.2117077E-3,-2.8382733E-3,8.36389E-3,4.928436E-4,-3.6903606E-5,1.5864748E-3,-4.284212E-3,6.0683076E-4,5.3210403E-3,1.9141309E-2,7.9050247E-4,-2.3885255E-3,-8.482453E-4,-1.01155165E-5,7.651212E-4,8.8629285E-3,-1.4930003E-2,-2.964778E-3,8.679962E-3,-1.5860194E-4,-2.2643156E-4,7.436361E-4,5.1502994E-4,2.0909451E-3,8.8999904E-4,6.399782E-5,2.0044592E-4,-7.876847E-4,-3.0108806E-4,-2.3498911E-5,2.5169537E-4,-2.2538936E-6,2.9571009E-5,1.0039747E-3,4.1934242E-4,2.188667E-3,-3.2267146E-4,-1.8915398E-3,-1.6367125E-4,-1.0909429E-3,2.1146832E-3,3.318442E-5,-2.6811784E-4,2.1256173E-4],"categories":[],"categories_nodes":[],"categories_segments":[],"categories_sizes":[],"default_left":[0,0,0,0,0,0,0,0,0,0,0,0,0,0,0,0,0,0,0,0,0,0,0,0,0,0,0,0,0,0,0,0,0,0,0,0,0,0,0,0,0,0,0,0,0,0,0,0,0],"id":18,"left_children":[1,3,5,7,9,11,-1,13,15,17,19,21,23,25,27,29,31,33,35,37,39,41,43,45,47,-1,-1,-1,-1,-1,-1,-1,-1,-1,-1,-1,-1,-1,-1,-1,-1,-1,-1,-1,-1,-1,-1,-1,-1],"loss_changes":[5.5336306E-4,6.5750827E-4,1.4638384E-3,1.7638223E-3,9.02294E-4,1.5335658E-3,0E0,8.491762E-4,1.3552834E-3,7.112897E-4,2.061102E-3,1.3884708E-3,1.0704194E-3,4.019293E-4,4.0738843E-5,1.7410904E-3,3.5840848E-3,1.3865496E-3,9.94708E-4,1.355358E-3,2.0367238E-3,4.5202975E-4,9.528379E-4,1.554106E-3,9.2187594E-4,0E0,0E0,0E0,0E0,0E0,0E0,0E0,0E0,0E0,0E0,0E0,0E0,0E0,0E0,0E0,0E0,0E0,0E0,0E0,0E0,0E0,0E0,0E0,0E0],"parents":[2147483647,0,0,1,1,2,2,3,3,4,4,5,5,7,7,8,8,9,9,10,10,11,11,12,12,13,13,14,14,15,15,16,16,17,17,18,18,19,19,20,20,21,21,22,22,23,23,24,24],"right_children":[2,4,6,8,10,12,-1,14,16,18,20,22,24,26,28,30,32,34,36,38,40,42,44,46,48,-1,-1,-1,-1,-1,-1,-1,-1,-1,-1,-1,-1,-1,-1,-1,-1,-1,-1,-1,-1,-1,-1,-1,-1],"split_conditions":[2.2009984E-2,-9.999492E-3,2.7340978E-2,-2.73439E2,1.8757742E-2,-1.9936748E2,-2.8382733E-3,1.27316E3,1.7186227E3,-1.1826106E-2,2.1483054E3,-1.0546667E-2,-1.2459301E2,-2.273981E2,-1.7431183E-2,-2.2342114E-2,6.234898E-1,-5.6057028E-3,-1.02007825E3,1E0,2.293834E-3,-7.941945E-3,1.1083071E-2,-1.0228995E2,3.489027E1,-2.2643156E-4,7.436361E-4,5.1502994E-4,2.0909451E-3,8.8999904E-4,6.399782E-5,2.0044592E-4,-7.876847E-4,-3.0108806E-4,-2.3498911E-5,2.5169537E-4,-2.2538936E-6,2.9571009E-5,1.0039747E-3,4.1934242E-4,2.188667E-3,-3.2267146E-4,-1.8915398E-3,-1.6367125E-4,-1.0909429E-3,2.1146832E-3,3.318442E-5,-2.6811784E-4,2.1256173E-4],"split_indices":[616,396,572,636,462,571,0,656,419,550,56,187,582,129,0,616,434,517,635,13,121,55,132,240,393,0,0,0,0,0,0,0,0,0,0,0,0,0,0,0,0,0,0,0,0,0,0,0,0],"split_type":[0,0,0,0,0,0,0,0,0,0,0,0,0,0,0,0,0,0,0,0,0,0,0,0,0,0,0,0,0,0,0,0,0,0,0,0,0,0,0,0,0,0,0,0,0,0,0,0,0],"sum_hessian":[3.495E4,3.4676E4,2.74E2,1.605E3,3.3071E4,2.73E2,1E0,2.8E1,1.577E3,3.2726E4,3.45E2,1.01E2,1.72E2,2.3E1,5E0,1.43E3,1.47E2,1.045E3,3.1681E4,3.11E2,3.4E1,1E1,9.1E1,1.4E1,1.58E2,5E0,1.8E1,1E0,4E0,2.5E1,1.405E3,8.2E1,6.5E1,2.3E2,8.15E2,1.54E2,3.1527E4,2.97E2,1.4E1,2.6E1,8E0,3E0,7E0,7.9E1,1.2E1,5E0,9E0,7.5E1,8.3E1],"tree_param":{"num_deleted":"0","num_feature":"660","num_nodes":"49","size_leaf_vector":"1"}},{"base_weights":[-6.2264684E-7,-2.4528625E-5,6.531375E-4,-2.3350765E-3,-1.48948775E-5,4.9984717E-4,7.481593E-3,-1.9765086E-2,-1.1289767E-3,-2.686989E-6,-1.6229961E-3,1.4348135E-2,4.4187438E-4,2.0565106E-2,2.764156E-3,-4.0575583E-4,-2.5238357E-2,8.862495E-3,-2.2949567E-3,4.7621135E-5,-3.9396874E-4,-1.0346164E-3,-1.1593577E-2,1.6706949E-4,1.7099822E-3,7.164755E-4,-2.4668092E-3,7.4973423E-4,2.4292741E-3,-2.4373403E-3,1.1521256E-2,1.9825897E-4,-2.5912235E-4,-3.3709821E-3,-1.5107811E-3,1.6986768E-3,6.459449E-5,-5.1943756E-5,-1.2228735E-3,4.9998666E-6,-1.7515811E-3,-2.0418924E-4,-2.1278429E-5,-4.2890126E-4,-1.116504E-5,2.8911047E-5,-1.4860594E-3,7.214323E-4,5.087498E-5,-2.3275667E-3,-1.6182724E-4,-6.644751E-4,1.5488111E-4,-1.2296413E-4,1.3518475E-3],"categories":[],"categories_nodes":[],"categories_segments":[],"categories_sizes":[],"default_left":[0,0,0,0,0,0,0,0,0,0,0,0,0,0,0,0,0,0,0,0,0,0,0,0,0,0,0,0,0,0,0,0,0,0,0,0,0,0,0,0,0,0,0,0,0,0,0,0,0,0,0,0,0,0,0],"id":19,"left_children":[1,3,5,7,9,11,13,15,17,19,21,23,25,27,29,31,33,35,37,39,41,43,45,-1,-1,47,49,-1,-1,51,53,-1,-1,-1,-1,-1,-1,-1,-1,-1,-1,-1,-1,-1,-1,-1,-1,-1,-1,-1,-1,-1,-1,-1,-1],"loss_changes":[5.4625736E-4,7.505242E-4,1.286886E-3,2.9208122E-3,6.59222E-4,9.626688E-4,1.6096121E-3,9.433895E-4,1.5581205E-3,6.560688E-4,1.4722266E-3,1.4585303E-4,9.6263696E-4,1.588522E-4,9.846316E-4,2.0796288E-5,9.1462396E-5,9.235763E-4,2.0925242E-3,1.2340612E-3,1.1332667E-3,7.204083E-4,5.477894E-4,0E0,0E0,1.4810762E-3,1.7986705E-3,0E0,0E0,2.4509066E-4,2.203536E-4,0E0,0E0,0E0,0E0,0E0,0E0,0E0,0E0,0E0,0E0,0E0,0E0,0E0,0E0,0E0,0E0,0E0,0E0,0E0,0E0,0E0,0E0,0E0,0E0],"parents":[2147483647,0,0,1,1,2,2,3,3,4,4,5,5,6,6,7,7,8,8,9,9,10,10,11,11,12,12,13,13,14,14,15,15,16,16,17,17,18,18,19,19,20,20,21,21,22,22,25,25,26,26,29,29,30,30],"right_children":[2,4,6,8,10,12,14,16,18,20,22,24,26,28,30,32,34,36,38,40,42,44,46,-1,-1,48,50,-1,-1,52,54,-1,-1,-1,-1,-1,-1,-1,-1,-1,-1,-1,-1,-1,-1,-1,-1,-1,-1,-1,-1,-1,-1,-1,-1],"split_conditions":[4.2132817E3,-2.2342114E-2,1.5347621E-2,-3.6590356E2,1.064884E4,-3.0328625E2,-5.4643857E-3,7.121404E2,3.2624405E1,9.7536194E1,1.5346879E-2,-4.3621785E-3,6.791098E-3,-1.34567255E-2,3.741462E2,-5.28585E-3,-5.609338E-3,-1.3229236E-3,1.0107117E-2,3.7497394E2,-8.804125E-3,-3.4498577E-3,-2.4329941E3,1.6706949E-4,1.7099822E-3,-6.403854E2,2.6092485E1,7.4973423E-4,2.4292741E-3,7.4562286E2,-2.6685776E3,1.9825897E-4,-2.5912235E-4,-3.3709821E-3,-1.5107811E-3,1.6986768E-3,6.459449E-5,-5.1943756E-5,-1.2228735E-3,4.9998666E-6,-1.7515811E-3,-2.0418924E-4,-2.1278429E-5,-4.2890126E-4,-1.116504E-5,2.8911047E-5,-1.4860594E-3,7.214323E-4,5.087498E-5,-2.3275667E-3,-1.6182724E-4,-6.644751E-4,1.5488111E-4,-1.2296413E-4,1.3518475E-3],"split_indices":[639,638,187,592,342,196,209,7,17,449,473,0,275,0,496,0,11,286,297,416,44,418,232,0,0,591,457,0,0,133,12,0,0,0,0,0,0,0,0,0,0,0,0,0,0,0,0,0,0,0,0,0,0,0,0],"split_type":[0,0,0,0,0,0,0,0,0,0,0,0,0,0,0,0,0,0,0,0,0,0,0,0,0,0,0,0,0,0,0,0,0,0,0,0,0,0,0,0,0,0,0,0,0,0,0,0,0,0,0,0,0,0,0],"sum_hessian":[3.495E4,3.3718E4,1.232E3,1.39E2,3.3579E4,1.206E3,2.6E1,8E0,1.31E2,3.3327E4,2.52E2,4E0,1.202E3,6E0,2E1,2E0,6E0,1.3E1,1.18E2,2.9531E4,3.796E3,2.39E2,1.3E1,1E0,3E0,1.099E3,1.03E2,2E0,4E0,1.3E1,7E0,1E0,1E0,2E0,4E0,6E0,7E0,1.01E2,1.7E1,2.9528E4,3E0,3.75E2,3.421E3,5.2E1,1.87E2,3E0,1E1,3.3E1,1.066E3,3E0,1E2,6E0,7E0,1E0,6E0],"tree_param":{"num_deleted":"0","num_feature":"660","num_nodes":"55","size_leaf_vector":"1"}},{"base_weights":[-6.8241695E-7,-9.849064E-5,1.5955538E-4,2.9545852E-3,-1.0949732E-4,1.2272509E-4,2.2163084E-3,1.0213138E-3,1.5998699E-2,-1.2417164E-3,-7.834789E-5,-1.787417E-3,1.5935695E-4,2.8463008E-3,1.8658477E-3,7.959147E-3,-7.313822E-4,2.965259E-3,8.878654E-3,-9.935991E-4,-1.6845418E-2,-3.5929817E-5,-8.512924E-4,-1.364807E-3,-1.839391E-2,1.2740488E-4,2.5850215E-3,1.0536868E-3,9.937282E-3,2.0191805E-4,1.361066E-3,5.9188064E-4,-2.1307547E-4,1.1633774E-3,4.088616E-5,-1.32803E-4,6.067668E-4,-3.0759375E-3,4.376222E-5,1.8191447E-4,-5.746255E-6,-1.4518591E-3,-7.373485E-5,-1.0983914E-4,-2.2045514E-3,-2.9060495E-4,-2.0910273E-3,1.6877662E-5,-1.4170661E-4,6.360744E-4,7.578179E-5,-3.4921506E-4,2.3070292E-4,1.5402106E-3,2.3857648E-4],"categories":[],"categories_nodes":[],"categories_segments":[],"categories_sizes":[],"default_left":[0,0,0,0,0,0,0,0,0,0,0,0,0,0,0,0,0,0,0,0,0,0,0,0,0,0,0,0,0,0,0,0,0,0,0,0,0,0,0,0,0,0,0,0,0,0,0,0,0,0,0,0,0,0,0],"id":20,"left_children":[1,3,5,7,9,11,13,15,17,19,21,23,25,-1,27,29,31,-1,33,35,37,39,41,43,45,47,49,51,53,-1,-1,-1,-1,-1,-1,-1,-1,-1,-1,-1,-1,-1,-1,-1,-1,-1,-1,-1,-1,-1,-1,-1,-1,-1,-1],"loss_changes":[5.477878E-4,7.2966964E-4,1.0032747E-3,1.9506497E-3,7.626433E-4,9.1104105E-4,2.0901277E-3,8.448552E-4,7.0888805E-4,2.2248896E-3,6.900991E-4,1.6943226E-3,9.895645E-4,0E0,1.5038043E-3,4.424947E-4,5.337526E-4,0E0,1.8192577E-4,1.3564783E-3,2.17774E-3,7.9720333E-4,1.6945438E-3,1.2981049E-3,1.730721E-4,8.057943E-4,1.1404159E-3,1.2102269E-3,8.2987593E-4,0E0,0E0,0E0,0E0,0E0,0E0,0E0,0E0,0E0,0E0,0E0,0E0,0E0,0E0,0E0,0E0,0E0,0E0,0E0,0E0,0E0,0E0,0E0,0E0,0E0,0E0],"parents":[2147483647,0,0,1,1,2,2,3,3,4,4,5,5,6,6,7,7,8,8,9,9,10,10,11,11,12,12,14,14,15,15,16,16,18,18,19,19,20,20,21,21,22,22,23,23,24,24,25,25,26,26,27,27,28,28],"right_children":[2,4,6,8,10,12,14,16,18,20,22,24,26,-1,28,30,32,-1,34,36,38,40,42,44,46,48,50,52,54,-1,-1,-1,-1,-1,-1,-1,-1,-1,-1,-1,-1,-1,-1,-1,-1,-1,-1,-1,-1,-1,-1,-1,-1,-1,-1],"split_conditions":[1.117137E-3,-2.8509628E-2,1.6940877E-2,8.293262E-3,-1.1826106E-2,-1.7429745E-2,-9.313888E3,-1.1168029E-2,9.235756E-3,1.4213033E3,8.860782E-3,5.594123E3,1.8757742E-2,2.8463008E-3,1.8371796E2,1.275113E1,-1.8382417E2,2.965259E-3,1.6956892E-2,1.8757742E-2,-1.7286829E2,-7.9306866E2,-3.6590356E2,1.064884E4,-8.660254E-1,1.1661322E-2,4.142038E1,4.072019E1,1.9904512E-3,2.0191805E-4,1.361066E-3,5.9188064E-4,-2.1307547E-4,1.1633774E-3,4.088616E-5,-1.32803E-4,6.067668E-4,-3.0759375E-3,4.376222E-5,1.8191447E-4,-5.746255E-6,-1.4518591E-3,-7.373485E-5,-1.0983914E-4,-2.2045514E-3,-2.9060495E-4,-2.0910273E-3,1.6877662E-5,-1.4170661E-4,6.360744E-4,7.578179E-5,-3.4921506E-4,2.3070292E-4,1.5402106E-3,2.3857648E-4],"split_indices":[561,242,627,110,550,374,298,429,110,480,473,606,308,0,273,133,64,0,0,583,78,32,394,650,2,308,193,94,198,0,0,0,0,0,0,0,0,0,0,0,0,0,0,0,0,0,0,0,0,0,0,0,0,0,0],"split_type":[0,0,0,0,0,0,0,0,0,0,0,0,0,0,0,0,0,0,0,0,0,0,0,0,0,0,0,0,0,0,0,0,0,0,0,0,0,0,0,0,0,0,0,0,0,0,0,0,0,0,0,0,0,0,0],"sum_hessian":[3.495E4,2.1703E4,1.3247E4,7.7E1,2.1626E4,1.3015E4,2.32E2,6.8E1,9E0,5.78E2,2.1048E4,2.44E2,1.2771E4,2E0,2.3E2,1.3E1,5.5E1,2E0,7E0,5.7E2,8E0,1.9954E4,1.094E3,2.39E2,5E0,1.2606E4,1.65E2,2.1E2,2E1,7E0,6E0,9E0,4.6E1,5E0,2E0,5.45E2,2.5E1,4E0,4E0,2.28E2,1.9726E4,8E0,1.086E3,2.37E2,2E0,1E0,4E0,1.2278E4,3.28E2,5.3E1,1.12E2,4.5E1,1.65E2,1.1E1,9E0],"tree_param":{"num_deleted":"0","num_feature":"660","num_nodes":"55","size_leaf_vector":"1"}},{"base_weights":[-5.3974856E-7,-8.354921E-6,1.9567995E-3,2.5168749E-5,-4.8137843E-4,-4.910449E-4,5.2842335E-3,1.3064411E-5,1.7019012E-3,-3.9102734E-4,-9.835478E-3,1.8738591E-3,-5.034394E-3,1.1575384E-2,2.0065524E-3,-2.2093987E-5,5.425154E-4,7.739112E-3,5.227385E-4,-3.27788E-4,-9.330765E-3,-2.3852373E-3,-3.468925E-3,1.47439E-3,8.277018E-4,-1.5089155E-2,-2.7298857E-3,4.3359203E-3,1.6040366E-2,1.5033028E-3,5.440536E-4,-1.22009034E-4,7.694424E-9,4.8848353E-5,1.4002931E-3,-3.0678845E-4,1.072324E-3,8.6991924E-5,-1.0616304E-3,-4.300254E-4,-1.93715E-5,-3.3508925E-4,-1.6540474E-3,7.4315445E-5,-1.3520396E-3,2.0115243E-4,-6.9008284E-4,-1.682451E-3,-4.0738657E-4,1.9232188E-4,-5.1766395E-4,-3.9376746E-4,5.862329E-4,1.8100083E-3,7.395911E-4,-1.0081842E-3,2.1375513E-4],"categories":[],"categories_nodes":[],"categories_segments":[],"categories_sizes":[],"default_left":[0,0,0,0,0,0,0,0,0,0,0,0,0,0,0,0,0,0,0,0,0,0,0,0,0,0,0,0,0,0,0,0,0,0,0,0,0,0,0,0,0,0,0,0,0,0,0,0,0,0,0,0,0,0,0,0,0],"id":21,"left_children":[1,3,5,7,9,11,13,15,17,19,21,23,25,27,29,31,33,35,37,39,41,43,-1,-1,45,47,49,51,53,-1,55,-1,-1,-1,-1,-1,-1,-1,-1,-1,-1,-1,-1,-1,-1,-1,-1,-1,-1,-1,-1,-1,-1,-1,-1,-1,-1],"loss_changes":[5.346599E-4,5.5205874E-4,1.1347556E-3,6.597922E-4,1.9433869E-3,8.797451E-4,1.1933759E-3,6.008556E-4,1.6546473E-3,1.2876199E-3,3.990922E-3,7.148572E-4,6.076041E-4,5.76932E-4,7.538694E-4,8.039658E-4,1.4550155E-3,1.2583775E-3,7.672185E-4,1.207105E-3,6.3438504E-4,6.370803E-4,0E0,0E0,4.8049074E-4,2.7036527E-5,2.8319578E-4,1.3674394E-4,7.979479E-5,0E0,6.4804696E-4,0E0,0E0,0E0,0E0,0E0,0E0,0E0,0E0,0E0,0E0,0E0,0E0,0E0,0E0,0E0,0E0,0E0,0E0,0E0,0E0,0E0,0E0,0E0,0E0,0E0,0E0],"parents":[2147483647,0,0,1,1,2,2,3,3,4,4,5,5,6,6,7,7,8,8,9,9,10,10,11,11,12,12,13,13,14,14,15,15,16,16,17,17,18,18,19,19,20,20,21,21,24,24,25,25,26,26,27,27,28,28,30,30],"right_children":[2,4,6,8,10,12,14,16,18,20,22,24,26,28,30,32,34,36,38,40,42,44,-1,-1,46,48,50,52,54,-1,56,-1,-1,-1,-1,-1,-1,-1,-1,-1,-1,-1,-1,-1,-1,-1,-1,-1,-1,-1,-1,-1,-1,-1,-1,-1,-1],"split_conditions":[2.7340978E-2,8.286937E-3,8.714905E1,2.2009984E-2,1.064884E4,3.9017051E-3,-4.9218237E-3,1.4165428E2,-4.4894788E2,1.1394683E3,1E0,-1.9196924E-2,-3.3094517E3,-5.2833236E-3,-6.070494E2,-5.641024E2,1.064884E4,-1.4529248E-2,1.8757742E-2,3.262874E1,2.560945E-3,2.3495625E1,-3.468925E-3,1.47439E-3,9.659258E-1,9.659258E-1,-2.242149E2,3.2774924E2,1.02608E3,1.5033028E-3,-7.0710677E-1,-1.22009034E-4,7.694424E-9,4.8848353E-5,1.4002931E-3,-3.0678845E-4,1.072324E-3,8.6991924E-5,-1.0616304E-3,-4.300254E-4,-1.93715E-5,-3.3508925E-4,-1.6540474E-3,7.4315445E-5,-1.3520396E-3,2.0115243E-4,-6.9008284E-4,-1.682451E-3,-4.0738657E-4,1.9232188E-4,-5.1766395E-4,-3.9376746E-4,5.862329E-4,1.8100083E-3,7.395911E-4,-1.0081842E-3,2.1375513E-4],"split_indices":[539,121,45,308,650,649,275,295,360,646,82,627,298,242,85,197,628,209,253,215,275,295,0,0,36,3,133,29,95,0,58,0,0,0,0,0,0,0,0,0,0,0,0,0,0,0,0,0,0,0,0,0,0,0,0,0,0],"split_type":[0,0,0,0,0,0,0,0,0,0,0,0,0,0,0,0,0,0,0,0,0,0,0,0,0,0,0,0,0,0,0,0,0,0,0,0,0,0,0,0,0,0,0,0,0,0,0,0,0,0,0,0,0,0,0,0,0],"sum_hessian":[3.495E4,3.4812E4,1.38E2,3.2509E4,2.303E3,8E1,5.8E1,3.2277E4,2.32E2,2.282E3,2.1E1,5.3E1,2.7E1,1.9E1,3.9E1,3.0268E4,2.009E3,3.7E1,1.95E2,2.267E3,1.5E1,1.7E1,4E0,3E0,5E1,4E0,2.3E1,8E0,1.1E1,3E0,3.6E1,5.49E2,2.9719E4,2.002E3,7E0,8E0,2.9E1,1.9E2,5E0,7.3E1,2.194E3,9E0,6E0,1.4E1,3E0,4.4E1,6E0,3E0,1E0,8E0,1.5E1,1E0,7E0,8E0,3E0,4E0,3.2E1],"tree_param":{"num_deleted":"0","num_feature":"660","num_nodes":"57","size_leaf_vector":"1"}},{"base_weights":[-6.015366E-7,-3.8926206E-5,3.8767394E-4,-2.6012636E-3,-2.8979648E-5,6.7145075E-3,2.4965004E-4,3.2879932E-5,-1.0768204E-2,-1.6965228E-5,-1.8561922E-3,5.251138E-3,5.1648454E-3,9.2215985E-3,2.0853375E-4,1.0334003E-2,-1.4568352E-3,-2.048463E-2,-4.885759E-3,-1.6966348E-3,-5.5241126E-6,-1.3683843E-3,-1.7969696E-2,1.2385694E-3,1.1376683E-2,-4.0592845E-3,1.70509E-2,-2.7712209E-3,3.15315E-4,1.8345093E-4,1.4354436E-3,-6.5670174E-4,2.696832E-5,-7.132508E-4,-2.4600113E-3,-1.3664478E-3,-1.0485547E-4,-1.3945111E-3,-8.960039E-5,-8.258759E-5,1.7978681E-6,-9.808977E-4,-6.876542E-5,-2.6645293E-3,-6.9705746E-4,2.9202807E-4,-1.5047331E-3,1.8170159E-3,5.1834557E-4,-6.1784225E-4,3.2682024E-4,1.8870799E-3,7.120834E-4,-1.680261E-4,-1.3076409E-3,1.3431533E-3,2.8854016E-5],"categories":[],"categories_nodes":[],"categories_segments":[],"categories_sizes":[],"default_left":[0,0,0,0,0,0,0,0,0,0,0,0,0,0,0,0,0,0,0,0,0,0,0,0,0,0,0,0,0,0,0,0,0,0,0,0,0,0,0,0,0,0,0,0,0,0,0,0,0,0,0,0,0,0,0,0,0],"id":22,"left_children":[1,3,5,7,9,11,13,15,17,19,21,23,-1,25,27,29,31,33,35,37,39,41,43,45,47,49,51,53,55,-1,-1,-1,-1,-1,-1,-1,-1,-1,-1,-1,-1,-1,-1,-1,-1,-1,-1,-1,-1,-1,-1,-1,-1,-1,-1,-1,-1],"loss_changes":[5.201045E-4,8.106991E-4,2.7403424E-3,2.64644E-3,6.9565594E-4,4.13437E-3,1.1320545E-3,1.4575544E-3,1.6146069E-3,6.0502795E-4,1.6024917E-3,1.6081341E-3,0E0,1.5249345E-3,9.7482884E-4,3.8372644E-4,7.340654E-4,4.289942E-4,6.5938674E-4,2.0762915E-3,6.029564E-4,1.1538996E-3,3.8681075E-4,1.166858E-3,9.997282E-4,1.1336007E-4,2.8269831E-5,1.1697381E-3,1.0342272E-3,0E0,0E0,0E0,0E0,0E0,0E0,0E0,0E0,0E0,0E0,0E0,0E0,0E0,0E0,0E0,0E0,0E0,0E0,0E0,0E0,0E0,0E0,0E0,0E0,0E0,0E0,0E0,0E0],"parents":[2147483647,0,0,1,1,2,2,3,3,4,4,5,5,6,6,7,7,8,8,9,9,10,10,11,11,13,13,14,14,15,15,16,16,17,17,18,18,19,19,20,20,21,21,22,22,23,23,24,24,25,25,26,26,27,27,28,28],"right_children":[2,4,6,8,10,12,14,16,18,20,22,24,-1,26,28,30,32,34,36,38,40,42,44,46,48,50,52,54,56,-1,-1,-1,-1,-1,-1,-1,-1,-1,-1,-1,-1,-1,-1,-1,-1,-1,-1,-1,-1,-1,-1,-1,-1,-1,-1,-1,-1],"split_conditions":[6.799029E-3,-2.8388947E-2,-1.9196924E-2,7.899187E2,2.2009984E-2,4.624521E3,-2.8388947E-2,-1.0512974E-2,-4.921275E-3,-2.2342114E-2,1.27316E3,1.2726923E-3,5.1648454E-3,5.635118E2,2.9979845E1,-3.6888528E-3,-3.0265125E2,3.3292142E-4,-1.2852661E2,-1.381306E2,-1.2600526E-2,-3.6693384E2,3.609005E1,4.215632E3,4.7836987E1,4.3311766E-3,1.1973572E3,6.1164927E-3,1.8631285E1,1.8345093E-4,1.4354436E-3,-6.5670174E-4,2.696832E-5,-7.132508E-4,-2.4600113E-3,-1.3664478E-3,-1.0485547E-4,-1.3945111E-3,-8.960039E-5,-8.258759E-5,1.7978681E-6,-9.808977E-4,-6.876542E-5,-2.6645293E-3,-6.9705746E-4,2.9202807E-4,-1.5047331E-3,1.8170159E-3,5.1834557E-4,-6.1784225E-4,3.2682024E-4,1.8870799E-3,7.120834E-4,-1.680261E-4,-1.3076409E-3,1.3431533E-3,2.8854016E-5],"split_indices":[22,594,616,177,132,199,649,506,22,275,612,286,0,447,567,110,294,66,9,559,550,580,6,111,479,0,7,143,644,0,0,0,0,0,0,0,0,0,0,0,0,0,0,0,0,0,0,0,0,0,0,0,0,0,0,0,0],"split_type":[0,0,0,0,0,0,0,0,0,0,0,0,0,0,0,0,0,0,0,0,0,0,0,0,0,0,0,0,0,0,0,0,0,0,0,0,0,0,0,0,0,0,0,0,0,0,0,0,0,0,0,0,0,0,0,0,0],"sum_hessian":[3.495E4,3.1811E4,3.139E3,1.22E2,3.1689E4,6.6E1,3.073E3,9.3E1,2.9E1,3.1483E4,2.06E2,6.5E1,1E0,1.3E1,3.06E3,1.1E1,8.2E1,1E1,1.9E1,2.12E2,3.1271E4,2.01E2,5E0,4E1,2.5E1,5E0,8E0,1.05E2,2.955E3,4E0,7E0,2E1,6.2E1,3E0,7E0,5E0,1.4E1,1.2E1,2E2,8.7E2,3.0401E4,1.4E1,1.87E2,2E0,3E0,3.7E1,3E0,1.1E1,1.4E1,4E0,1E0,6E0,2E0,9.6E1,9E0,5E0,2.95E3],"tree_param":{"num_deleted":"0","num_feature":"660","num_nodes":"57","size_leaf_vector":"1"}},{"base_weights":[-5.739751E-7,3.310925E-4,-4.2976753E-5,5.141578E-3,2.6704845E-4,-2.4238203E-5,-1.3380017E-3,8.09273E-3,-6.5938723E-3,-6.5823677E-3,3.0926013E-4,2.8330209E-5,-4.6778988E-4,-9.3203137E-4,-9.857374E-3,3.2116894E-3,1.4422357E-2,-1.60948E-2,-1.0191743E-3,-2.086429E-3,-2.682769E-3,6.6554807E-3,2.5984424E-4,-6.0002953E-6,8.2160346E-4,-4.4577807E-4,-1.4607069E-3,-1.3579682E-3,6.534608E-3,-2.4040325E-2,-3.5270355E-3,1.0435793E-3,-8.017584E-5,7.539405E-4,2.04676E-3,-1.8159117E-3,-4.950925E-4,9.1471804E-5,-4.5472343E-4,2.5269436E-4,-9.330967E-4,1.7193881E-3,3.3044696E-4,2.4437965E-4,1.6224965E-5,-1.9533695E-4,1.8629206E-6,7.614702E-4,6.488835E-5,-8.865831E-5,2.4696948E-5,-4.2410038E-4,-2.9427498E-5,2.6297919E-4,2.0065987E-3,-2.9179452E-3,-9.174716E-4,4.5701463E-4,-6.886933E-4],"categories":[],"categories_nodes":[],"categories_segments":[],"categories_sizes":[],"default_left":[0,0,0,0,0,0,0,0,0,0,0,0,0,0,0,0,0,0,0,0,0,0,0,0,0,0,0,0,0,0,0,0,0,0,0,0,0,0,0,0,0,0,0,0,0,0,0,0,0,0,0,0,0,0,0,0,0,0,0],"id":23,"left_children":[1,3,5,7,9,11,13,15,17,19,21,23,25,27,29,31,33,35,37,-1,39,41,43,45,47,49,-1,51,53,55,57,-1,-1,-1,-1,-1,-1,-1,-1,-1,-1,-1,-1,-1,-1,-1,-1,-1,-1,-1,-1,-1,-1,-1,-1,-1,-1,-1,-1],"loss_changes":[4.915504E-4,1.2192521E-3,7.519985E-4,1.8542834E-3,1.1328044E-3,7.1231835E-4,1.5195191E-3,1.251277E-3,5.6620943E-4,1.2806765E-3,1.2175634E-3,7.4383273E-4,1.0009436E-3,1.3541478E-3,1.7108666E-3,7.33206E-4,5.9465016E-4,2.1135202E-6,5.8742542E-5,0E0,7.162828E-4,1.0026119E-3,8.2211825E-4,1.2557487E-3,1.3244123E-3,9.874691E-4,0E0,1.2284847E-3,1.1624943E-3,1.9066432E-4,4.3955975E-4,0E0,0E0,0E0,0E0,0E0,0E0,0E0,0E0,0E0,0E0,0E0,0E0,0E0,0E0,0E0,0E0,0E0,0E0,0E0,0E0,0E0,0E0,0E0,0E0,0E0,0E0,0E0,0E0],"parents":[2147483647,0,0,1,1,2,2,3,3,4,4,5,5,6,6,7,7,8,8,9,9,10,10,11,11,12,12,13,13,14,14,15,15,16,16,17,17,18,18,20,20,21,21,22,22,23,23,24,24,25,25,27,27,28,28,29,29,30,30],"right_children":[2,4,6,8,10,12,14,16,18,20,22,24,26,28,30,32,34,36,38,-1,40,42,44,46,48,50,-1,52,54,56,58,-1,-1,-1,-1,-1,-1,-1,-1,-1,-1,-1,-1,-1,-1,-1,-1,-1,-1,-1,-1,-1,-1,-1,-1,-1,-1,-1,-1],"split_conditions":[-5.609338E-3,-1.02007825E3,1.6956892E-2,3.4214985E3,-2.8388947E-2,9.7536194E1,1.4272806E-2,7.209354E2,3.8779156E1,-1.3777501E2,-2.8388947E-2,9.64778E-3,1.4491768E4,3.4214985E3,-1.0681428E3,7.395389E2,4.8926388E1,-5.061203E1,9.557389E2,-2.086429E-3,2.9471542E2,3.9459354E1,-1.3414544E-2,-1.7428745E-2,-1.7428745E-2,1.001255E2,-1.4607069E-3,-7.018317E2,3.6320486E-3,-2.3362879E-3,6.693332E1,1.0435793E-3,-8.017584E-5,7.539405E-4,2.04676E-3,-1.8159117E-3,-4.950925E-4,9.1471804E-5,-4.5472343E-4,2.5269436E-4,-9.330967E-4,1.7193881E-3,3.3044696E-4,2.4437965E-4,1.6224965E-5,-1.9533695E-4,1.8629206E-6,7.614702E-4,6.488835E-5,-8.865831E-5,2.4696948E-5,-4.2410038E-4,-2.9427498E-5,2.6297919E-4,2.0065987E-3,-2.9179452E-3,-9.174716E-4,4.5701463E-4,-6.886933E-4],"split_indices":[297,657,132,606,616,449,506,29,182,163,495,561,287,397,397,623,83,1,7,0,386,622,561,594,594,254,0,617,341,0,163,0,0,0,0,0,0,0,0,0,0,0,0,0,0,0,0,0,0,0,0,0,0,0,0,0,0,0,0],"split_type":[0,0,0,0,0,0,0,0,0,0,0,0,0,0,0,0,0,0,0,0,0,0,0,0,0,0,0,0,0,0,0,0,0,0,0,0,0,0,0,0,0,0,0,0,0,0,0,0,0,0,0,0,0,0,0,0,0,0,0],"sum_hessian":[3.495E4,3.961E3,3.0989E4,5.1E1,3.91E3,3.0548E4,4.41E2,4.1E1,1E1,2.3E1,3.887E3,2.7312E4,3.236E3,4.22E2,1.9E1,2.4E1,1.7E1,3E0,7E0,4E0,1.9E1,2.9E1,3.858E3,2.618E4,1.132E3,3.232E3,4E0,4E2,2.2E1,5E0,1.4E1,8E0,1.6E1,9E0,8E0,2E0,1E0,5E0,2E0,1.1E1,8E0,6E0,2.3E1,1.64E2,3.694E3,3.26E2,2.5854E4,2.7E1,1.105E3,1.975E3,1.257E3,1.07E2,2.93E2,1.8E1,4E0,3E0,2E0,4E0,1E1],"tree_param":{"num_deleted":"0","num_feature":"660","num_nodes":"59","size_leaf_vector":"1"}},{"base_weights":[-5.883829E-7,-1.7248969E-5,8.328553E-4,-2.1856916E-4,7.394123E-5,9.837025E-4,-1.3918303E-2,-1.9464515E-3,-1.6313297E-4,1.9767182E-3,5.602268E-5,3.3736164E-3,2.7679864E-5,-3.8478994E-3,-2.6062874E-3,-2.4614176E-2,-1.5949726E-3,-1.3259237E-4,-2.9796525E-3,1.5376612E-3,4.90651E-3,1.16177784E-4,-4.0794612E-4,2.961851E-3,2.8602062E-3,9.915417E-4,-2.7047447E-3,-5.468999E-4,1.3182494E-4,-2.9825624E-3,-1.8841882E-4,-6.317283E-4,-8.793981E-5,-6.4447045E-6,-1.02836966E-4,-1.8820133E-3,-1.7325037E-4,1.0762546E-3,7.080296E-5,4.2385645E-6,5.3112984E-5,-2.033978E-5,-2.3207538E-4,5.0354935E-4,-4.128155E-5,7.7302626E-5,1.6351528E-3,-1.2186313E-3,-1.4221939E-4],"categories":[],"categories_nodes":[],"categories_segments":[],"categories_sizes":[],"default_left":[0,0,0,0,0,0,0,0,0,0,0,0,0,0,0,0,0,0,0,0,0,0,0,0,0,0,0,0,0,0,0,0,0,0,0,0,0,0,0,0,0,0,0,0,0,0,0,0,0],"id":24,"left_children":[1,3,5,7,9,11,13,15,17,19,21,23,25,27,-1,29,31,33,35,37,-1,39,41,43,-1,45,47,-1,-1,-1,-1,-1,-1,-1,-1,-1,-1,-1,-1,-1,-1,-1,-1,-1,-1,-1,-1,-1,-1],"loss_changes":[4.8533207E-4,6.291044E-4,1.5379334E-3,1.0229774E-3,8.0402003E-4,1.5512938E-3,7.55818E-4,2.6058601E-3,8.9006533E-4,4.4729407E-3,6.521946E-4,1.9305958E-3,1.2826502E-3,4.9083705E-5,0E0,5.360837E-4,1.1028107E-3,6.251364E-4,2.1602476E-3,1.668443E-3,0E0,6.3335634E-4,1.0488917E-3,1.3456661E-3,0E0,1.1956615E-3,1.5270641E-3,0E0,0E0,0E0,0E0,0E0,0E0,0E0,0E0,0E0,0E0,0E0,0E0,0E0,0E0,0E0,0E0,0E0,0E0,0E0,0E0,0E0,0E0],"parents":[2147483647,0,0,1,1,2,2,3,3,4,4,5,5,6,6,7,7,8,8,9,9,10,10,11,11,12,12,13,13,15,15,16,16,17,17,18,18,19,19,21,21,22,22,23,23,25,25,26,26],"right_children":[2,4,6,8,10,12,14,16,18,20,22,24,26,28,-1,30,32,34,36,38,-1,40,42,44,-1,46,48,-1,-1,-1,-1,-1,-1,-1,-1,-1,-1,-1,-1,-1,-1,-1,-1,-1,-1,-1,-1,-1,-1],"split_conditions":[1.534212E-2,-2.7107584E1,1.064884E4,2.768401E1,-1.9196924E-2,-3.2213626E-3,4.3219257E1,-2.237818E-2,1.8371796E2,2.7340978E-2,7.854735E1,1.4491768E4,6.301852E2,0E0,-2.6062874E-3,-1.2600985E-2,-4.5708544E-3,6.422201E-3,-1.9453613E2,-3.1293047E3,4.90651E-3,4.070911E-3,1.5329697E3,-1.053207E1,2.8602062E-3,1.4491768E4,-8.804125E-3,-5.468999E-4,1.3182494E-4,-2.9825624E-3,-1.8841882E-4,-6.317283E-4,-8.793981E-5,-6.4447045E-6,-1.02836966E-4,-1.8820133E-3,-1.7325037E-4,1.0762546E-3,7.080296E-5,4.2385645E-6,5.3112984E-5,-2.033978E-5,-2.3207538E-4,5.0354935E-4,-4.128155E-5,7.7302626E-5,1.6351528E-3,-1.2186313E-3,-1.4221939E-4],"split_indices":[649,75,199,578,616,473,6,165,9,253,427,353,518,2,0,0,176,55,570,507,0,176,276,526,0,430,154,0,0,0,0,0,0,0,0,0,0,0,0,0,0,0,0,0,0,0,0,0,0],"split_type":[0,0,0,0,0,0,0,0,0,0,0,0,0,0,0,0,0,0,0,0,0,0,0,0,0,0,0,0,0,0,0,0,0,0,0,0,0,0,0,0,0,0,0,0,0,0,0,0,0],"sum_hessian":[3.495E4,3.4266E4,6.84E2,1.0682E4,2.3584E4,6.78E2,6E0,3.31E2,1.0351E4,2.19E2,2.3365E4,1.93E2,4.85E2,4E0,2E0,4E0,3.27E2,1.0241E4,1.1E2,2.18E2,1E0,2.0684E4,2.681E3,1.91E2,2E0,3.59E2,1.26E2,3E0,1E0,3E0,1E0,4.2E1,2.85E2,9.518E3,7.23E2,7E0,1.03E2,1.7E1,2.01E2,1.7562E4,3.122E3,2.423E3,2.58E2,1.18E2,7.3E1,3.55E2,4E0,1.4E1,1.12E2],"tree_param":{"num_deleted":"0","num_feature":"660","num_nodes":"49","size_leaf_vector":"1"}},{"base_weights":[-5.1649727E-7,2.1112576E-4,-6.8208115E-5,1.5119524E-4,2.822039E-3,-2.0673263E-3,-5.528985E-5,-8.6247775E-5,7.286515E-4,2.738955E-2,2.2814397E-3,-8.979565E-4,-6.552097E-3,-5.873312E-4,-1.5241E-5,-1.9843194E-3,-9.529136E-6,9.505645E-3,5.9172366E-4,3.5363303E-3,1.7341497E-4,9.67203E-3,1.6736827E-3,-2.5295492E-4,-8.999681E-3,-1.2075759E-2,-2.7392171E-3,-4.5875533E-4,-1.0736058E-2,3.094395E-3,-2.4160367E-5,-1.9285647E-3,-1.5099146E-4,-9.287941E-5,1.5394891E-5,1.5883185E-3,-9.069579E-5,6.835661E-5,-5.7574065E-4,3.18991E-4,1.4134882E-3,1.2650884E-4,9.99388E-4,-1.1996622E-4,4.5827898E-4,-1.0965397E-3,-7.578772E-5,-4.2975842E-4,-1.4757271E-3,3.2380407E-4,-4.687707E-4,-6.9075037E-4,-3.358028E-5,-4.3139598E-4,-2.024666E-3,4.3896097E-4,-1.4621321E-3,-2.0516853E-4,-1.2712925E-6],"categories":[],"categories_nodes":[],"categories_segments":[],"categories_sizes":[],"default_left":[0,0,0,0,0,0,0,0,0,0,0,0,0,0,0,0,0,0,0,0,0,0,0,0,0,0,0,0,0,0,0,0,0,0,0,0,0,0,0,0,0,0,0,0,0,0,0,0,0,0,0,0,0,0,0,0,0,0,0],"id":25,"left_children":[1,3,5,7,9,11,13,15,17,19,21,23,25,27,29,31,33,35,37,-1,-1,39,41,43,45,47,49,51,53,55,57,-1,-1,-1,-1,-1,-1,-1,-1,-1,-1,-1,-1,-1,-1,-1,-1,-1,-1,-1,-1,-1,-1,-1,-1,-1,-1,-1,-1],"loss_changes":[5.0073664E-4,1.324903E-3,6.8378705E-4,1.1354951E-3,2.4609368E-3,8.85657E-4,5.606591E-4,8.5461E-4,2.894354E-3,7.569536E-4,8.2375674E-4,7.084085E-4,7.040588E-4,2.398666E-3,6.788296E-4,1.8422665E-3,8.480206E-4,2.4714565E-3,1.3900108E-3,0E0,0E0,3.5991345E-4,5.7888485E-4,5.869082E-4,1.537E-4,2.2858102E-4,2.7140477E-4,1.4407403E-3,1.317451E-3,1.670378E-3,5.663668E-4,0E0,0E0,0E0,0E0,0E0,0E0,0E0,0E0,0E0,0E0,0E0,0E0,0E0,0E0,0E0,0E0,0E0,0E0,0E0,0E0,0E0,0E0,0E0,0E0,0E0,0E0,0E0,0E0],"parents":[2147483647,0,0,1,1,2,2,3,3,4,4,5,5,6,6,7,7,8,8,9,9,10,10,11,11,12,12,13,13,14,14,15,15,16,16,17,17,18,18,21,21,22,22,23,23,24,24,25,25,26,26,27,27,28,28,29,29,30,30],"right_children":[2,4,6,8,10,12,14,16,18,20,22,24,26,28,30,32,34,36,38,-1,-1,40,42,44,46,48,50,52,54,56,58,-1,-1,-1,-1,-1,-1,-1,-1,-1,-1,-1,-1,-1,-1,-1,-1,-1,-1,-1,-1,-1,-1,-1,-1,-1,-1,-1,-1],"split_conditions":[-2.572897E-3,5.594123E3,-3.0328625E2,2.3920909E-3,2.3164099E1,4.426465E-3,3.2963806E1,-3.7547295E3,-1.02007825E3,-2.571566E-3,-9.145396E2,3.2140767E3,-4.1677076E-3,9.6489545E-3,-2.8388947E-2,-1.8483968E2,-2.9314136E2,-7.200804E2,2.2009984E-2,3.5363303E-3,1.7341497E-4,2.342159E-3,7.722476E1,7.4876538E-3,1.392237E-3,-9.145396E2,-8.327922E2,-1.2612045E-2,5E-1,1.6998521E2,2.3164099E1,-1.9285647E-3,-1.5099146E-4,-9.287941E-5,1.5394891E-5,1.5883185E-3,-9.069579E-5,6.835661E-5,-5.7574065E-4,3.18991E-4,1.4134882E-3,1.2650884E-4,9.99388E-4,-1.1996622E-4,4.5827898E-4,-1.0965397E-3,-7.578772E-5,-4.2975842E-4,-1.4757271E-3,3.2380407E-4,-4.687707E-4,-6.9075037E-4,-3.358028E-5,-4.3139598E-4,-2.024666E-3,4.3896097E-4,-1.4621321E-3,-2.0516853E-4,-1.2712925E-6],"split_indices":[649,254,361,176,226,253,578,529,657,0,294,265,352,473,484,625,239,639,44,0,0,198,17,132,121,547,529,165,2,372,468,0,0,0,0,0,0,0,0,0,0,0,0,0,0,0,0,0,0,0,0,0,0,0,0,0,0,0,0],"split_type":[0,0,0,0,0,0,0,0,0,0,0,0,0,0,0,0,0,0,0,0,0,0,0,0,0,0,0,0,0,0,0,0,0,0,0,0,0,0,0,0,0,0,0,0,0,0,0,0,0,0,0,0,0,0,0,0,0,0,0],"sum_hessian":[3.495E4,8.469E3,2.6481E4,8.28E3,1.89E2,1.69E2,2.6312E4,5.868E3,2.412E3,3E0,1.86E2,1.35E2,3.4E1,1.841E3,2.4471E4,2.27E2,5.641E3,3.6E1,2.376E3,2E0,1E0,1.3E1,1.73E2,1.26E2,9E0,1.3E1,2.1E1,1.819E3,2.2E1,6.9E1,2.4402E4,5E0,2.22E2,8.51E2,4.79E3,2.2E1,1.4E1,2.343E3,3.3E1,6E0,7E0,1.66E2,7E0,1.06E2,2E1,7E0,2E0,4E0,9E0,5E0,1.6E1,3.3E1,1.786E3,1.4E1,8E0,6.5E1,4E0,1.36E2,2.4266E4],"tree_param":{"num_deleted":"0","num_feature":"660","num_nodes":"59","size_leaf_vector":"1"}},{"base_weights":[-5.190114E-7,2.4323528E-4,-5.53872E-5,2.3887781E-3,1.6063504E-4,-1.6057651E-3,-4.0351675E-5,1.1772521E-2,1.473882E-3,-4.4462606E-3,1.9059195E-4,-7.294438E-3,-6.0216954E-4,-5.8369584E-5,1.0204236E-3,8.644611E-3,2.2904987E-3,1.7841486E-3,-2.1356605E-3,-1.2788381E-2,1.6480022E-3,1.4051043E-4,3.2799041E-3,-1.292576E-2,2.3123627E-3,-1.2211435E-3,1.0950612E-2,-3.2790587E-5,-1.018512E-3,3.9962446E-4,7.902639E-3,2.894341E-4,1.0080807E-3,9.938424E-4,1.16980074E-4,-3.0019702E-3,-5.1772286E-4,9.13348E-4,-3.452183E-4,1.7326442E-5,-4.4384133E-4,-1.1019128E-3,4.1671545E-4,-2.5131109E-3,-7.106363E-4,5.991605E-4,-6.9802906E-4,-5.1280327E-5,-1.1009276E-3,2.0302914E-3,3.7365986E-4,-4.70451E-6,2.222717E-4,-1.1778989E-4,1.0431687E-3,-2.4820468E-4,1.0779741E-4,1.2106553E-3,1.7501297E-4],"categories":[],"categories_nodes":[],"categories_segments":[],"categories_sizes":[],"default_left":[0,0,0,0,0,0,0,0,0,0,0,0,0,0,0,0,0,0,0,0,0,0,0,0,0,0,0,0,0,0,0,0,0,0,0,0,0,0,0,0,0,0,0,0,0,0,0,0,0,0,0,0,0,0,0,0,0,0,0],"id":26,"left_children":[1,3,5,7,9,11,13,15,17,19,21,23,25,27,29,31,-1,33,-1,35,37,39,41,43,45,47,49,51,53,55,57,-1,-1,-1,-1,-1,-1,-1,-1,-1,-1,-1,-1,-1,-1,-1,-1,-1,-1,-1,-1,-1,-1,-1,-1,-1,-1,-1,-1],"loss_changes":[4.6746063E-4,1.1377382E-3,6.649909E-4,2.0259144E-3,8.544293E-4,1.5599083E-3,5.401342E-4,5.3324364E-4,1.5823143E-3,2.0546382E-3,9.5043296E-4,2.2479475E-3,1.6866762E-3,6.8237615E-4,2.0134496E-3,1.1947588E-4,0E0,1.0704392E-3,0E0,2.0741348E-3,9.4778603E-4,9.079859E-4,1.2892269E-3,1.668131E-3,5.8886193E-4,1.5404867E-3,7.337475E-4,8.703076E-4,1.3281208E-3,8.510505E-4,9.875319E-4,0E0,0E0,0E0,0E0,0E0,0E0,0E0,0E0,0E0,0E0,0E0,0E0,0E0,0E0,0E0,0E0,0E0,0E0,0E0,0E0,0E0,0E0,0E0,0E0,0E0,0E0,0E0,0E0],"parents":[2147483647,0,0,1,1,2,2,3,3,4,4,5,5,6,6,7,7,8,8,9,9,10,10,11,11,12,12,13,13,14,14,15,15,17,17,19,19,20,20,21,21,22,22,23,23,24,24,25,25,26,26,27,27,28,28,29,29,30,30],"right_children":[2,4,6,8,10,12,14,16,18,20,22,24,26,28,30,32,-1,34,-1,36,38,40,42,44,46,48,50,52,54,56,58,-1,-1,-1,-1,-1,-1,-1,-1,-1,-1,-1,-1,-1,-1,-1,-1,-1,-1,-1,-1,-1,-1,-1,-1,-1,-1,-1,-1],"split_conditions":[-3.611004E-3,-1.9453613E2,-1.9196924E-2,-1.5809499E-2,-2.8388947E-2,-7.93333E-3,1.5346879E-2,9.659258E-1,1.064884E4,-1.4333922E2,1.8757742E-2,7.2551865E1,1.6956892E-2,1.2377403E-2,2.6036248E3,6.172228E2,2.2904987E-3,-1.1181491E-2,-2.1356605E-3,-8.465557E-3,1.1984144E2,2.7340978E-2,-2.2270854E3,-1.0512974E-2,1.2343309E-3,1.5346879E-2,4.0192673E1,2.2009984E-2,1.064884E4,-4.691541E-3,1.0513831E-3,2.894341E-4,1.0080807E-3,9.938424E-4,1.16980074E-4,-3.0019702E-3,-5.1772286E-4,9.13348E-4,-3.452183E-4,1.7326442E-5,-4.4384133E-4,-1.1019128E-3,4.1671545E-4,-2.5131109E-3,-7.106363E-4,5.991605E-4,-6.9802906E-4,-5.1280327E-5,-1.1009276E-3,2.0302914E-3,3.7365986E-4,-4.70451E-6,2.222717E-4,-1.1778989E-4,1.0431687E-3,-2.4820468E-4,1.0779741E-4,1.2106553E-3,1.7501297E-4],"split_indices":[396,647,594,649,539,517,462,57,463,30,550,383,407,132,56,7,0,264,0,132,529,506,595,627,66,396,644,572,89,319,11,0,0,0,0,0,0,0,0,0,0,0,0,0,0,0,0,0,0,0,0,0,0,0,0,0,0,0,0],"split_type":[0,0,0,0,0,0,0,0,0,0,0,0,0,0,0,0,0,0,0,0,0,0,0,0,0,0,0,0,0,0,0,0,0,0,0,0,0,0,0,0,0,0,0,0,0,0,0,0,0,0,0,0,0,0,0,0,0,0,0],"sum_hessian":[3.495E4,6.421E3,2.8529E4,2.37E2,6.184E3,2.73E2,2.8256E4,2E1,2.17E2,3.9E1,6.145E3,4E1,2.33E2,2.7785E4,4.71E2,1.7E1,3E0,2.15E2,2E0,1.6E1,2.3E1,6.048E3,9.7E1,2.5E1,1.5E1,2.22E2,1.1E1,2.7065E4,7.2E2,4.33E2,3.8E1,4E0,1.3E1,1.4E1,2.01E2,4E0,1.2E1,9E0,1.4E1,6.006E3,4.2E1,5E0,9.2E1,7E0,1.8E1,1.1E1,4E0,2.08E2,1.4E1,4E0,7E0,2.6896E4,1.69E2,7.11E2,9E0,8.2E1,3.51E2,2.2E1,1.6E1],"tree_param":{"num_deleted":"0","num_feature":"660","num_nodes":"59","size_leaf_vector":"1"}},{"base_weights":[-5.009486E-7,8.9591154E-4,-1.4805804E-5,6.4831707E-3,4.911854E-4,1.8369876E-5,-4.8777706E-4,-1.4885858E-4,1.2127838E-2,5.8849966E-3,1.3207101E-4,-1.4689471E-5,5.986052E-4,-4.006269E-4,-9.739818E-3,-5.5726273E-3,5.894091E-3,1.4952479E-2,6.634216E-4,9.045275E-3,-1.9721426E-3,-4.4905827E-3,5.605704E-4,-6.329875E-6,-2.6008962E-3,4.502486E-3,4.2912381E-4,-3.4215982E-4,-8.487893E-3,-3.086223E-3,-3.0414078E-2,-9.7434426E-4,-2.3932145E-4,1.0465885E-3,1.8638794E-4,4.4080513E-4,1.7046727E-3,-9.1233895E-5,1.2854465E-4,1.0851966E-3,2.1176544E-4,3.4013178E-4,-6.121336E-4,-8.4614E-4,1.6130059E-4,3.8329008E-4,-2.292923E-5,7.088033E-5,-3.3555104E-6,3.599736E-4,-3.507958E-4,8.799158E-5,1.1277723E-3,2.1632458E-4,8.3740415E-6,-4.1814093E-4,-2.262538E-5,-3.0791905E-4,-1.5002055E-3,-8.7039743E-4,2.874442E-4,-8.607705E-4,-3.3713747E-3],"categories":[],"categories_nodes":[],"categories_segments":[],"categories_sizes":[],"default_left":[0,0,0,0,0,0,0,0,0,0,0,0,0,0,0,0,0,0,0,0,0,0,0,0,0,0,0,0,0,0,0,0,0,0,0,0,0,0,0,0,0,0,0,0,0,0,0,0,0,0,0,0,0,0,0,0,0,0,0,0,0,0,0],"id":27,"left_children":[1,3,5,7,9,11,13,15,17,19,21,23,25,27,29,31,33,35,37,39,41,43,45,47,49,51,53,55,57,59,61,-1,-1,-1,-1,-1,-1,-1,-1,-1,-1,-1,-1,-1,-1,-1,-1,-1,-1,-1,-1,-1,-1,-1,-1,-1,-1,-1,-1,-1,-1,-1,-1],"loss_changes":[4.4819174E-4,1.2382746E-3,5.3983135E-4,1.3869224E-3,9.929013E-4,6.1669736E-4,1.8143428E-3,6.228057E-4,6.3773757E-4,8.124225E-4,9.57265E-4,6.575882E-4,1.1446815E-3,1.0538903E-3,2.794857E-3,1.0928928E-4,1.4632053E-4,2.7817953E-4,6.0735733E-6,2.6488898E-4,2.4377587E-4,1.0073339E-3,1.1433127E-3,5.9034396E-4,5.6381477E-4,1.7572282E-3,9.952519E-4,9.869364E-4,5.175364E-4,5.9427315E-4,6.957073E-5,0E0,0E0,0E0,0E0,0E0,0E0,0E0,0E0,0E0,0E0,0E0,0E0,0E0,0E0,0E0,0E0,0E0,0E0,0E0,0E0,0E0,0E0,0E0,0E0,0E0,0E0,0E0,0E0,0E0,0E0,0E0,0E0],"parents":[2147483647,0,0,1,1,2,2,3,3,4,4,5,5,6,6,7,7,8,8,9,9,10,10,11,11,12,12,13,13,14,14,15,15,16,16,17,17,18,18,19,19,20,20,21,21,22,22,23,23,24,24,25,25,26,26,27,27,28,28,29,29,30,30],"right_children":[2,4,6,8,10,12,14,16,18,20,22,24,26,28,30,32,34,36,38,40,42,44,46,48,50,52,54,56,58,60,62,-1,-1,-1,-1,-1,-1,-1,-1,-1,-1,-1,-1,-1,-1,-1,-1,-1,-1,-1,-1,-1,-1,-1,-1,-1,-1,-1,-1,-1,-1,-1,-1],"split_conditions":[-1.7428745E-2,-1.7428745E-2,8.286937E-3,6.393281E2,-1.5784375E-2,8.86499E-3,1.064884E4,-6.637714E1,1.0105701E-2,3.104815E-3,-1.4502826E-2,2.7340978E-2,-1.5809499E-2,1.1394683E3,1E0,-2.947731E-3,2.4479015E-3,-3.3094517E3,-6.4535913E3,4.1609365E-3,-2.0856732E2,9.332624E1,-5.144233E-3,-1.0522019E-2,3.2228012E1,5.3364613E1,-4.917689E-3,-6.8254736E2,2.560945E-3,3.058541E2,1.8631285E1,-9.7434426E-4,-2.3932145E-4,1.0465885E-3,1.8638794E-4,4.4080513E-4,1.7046727E-3,-9.1233895E-5,1.2854465E-4,1.0851966E-3,2.1176544E-4,3.4013178E-4,-6.121336E-4,-8.4614E-4,1.6130059E-4,3.8329008E-4,-2.292923E-5,7.088033E-5,-3.3555104E-6,3.599736E-4,-3.507958E-4,8.799158E-5,1.1277723E-3,2.1632458E-4,8.3740415E-6,-4.1814093E-4,-2.262538E-5,-3.0791905E-4,-1.5002055E-3,-8.7039743E-4,2.874442E-4,-8.607705E-4,-3.3713747E-3],"split_indices":[462,572,121,304,319,352,650,78,385,649,440,396,649,646,82,99,0,298,1,396,23,287,55,385,171,28,451,329,275,56,6,0,0,0,0,0,0,0,0,0,0,0,0,0,0,0,0,0,0,0,0,0,0,0,0,0,0,0,0,0,0,0,0],"split_type":[0,0,0,0,0,0,0,0,0,0,0,0,0,0,0,0,0,0,0,0,0,0,0,0,0,0,0,0,0,0,0,0,0,0,0,0,0,0,0,0,0,0,0,0,0,0,0,0,0,0,0,0,0,0,0,0,0,0,0,0,0,0,0],"sum_hessian":[3.495E4,5.48E2,3.4402E4,3.6E1,5.12E2,3.2148E4,2.254E3,1.7E1,1.9E1,3.1E1,4.81E2,3.0416E4,1.732E3,2.234E3,2E1,9E0,8E0,1.5E1,4E0,2.2E1,9E0,4E1,4.41E2,3.0319E4,9.7E1,7.1E1,1.661E3,2.219E3,1.5E1,1.6E1,4E0,3E0,6E0,3E0,5E0,3E0,1.2E1,1E0,3E0,1.7E1,5E0,4E0,5E0,2.4E1,1.6E1,8.5E1,3.56E2,1.111E3,2.9208E4,1.2E1,8.5E1,4.7E1,2.4E1,2.75E2,1.386E3,6.4E1,2.155E3,9E0,6E0,8E0,8E0,1E0,3E0],"tree_param":{"num_deleted":"0","num_feature":"660","num_nodes":"63","size_leaf_vector":"1"}},{"base_weights":[-5.2650944E-7,-2.2124432E-5,5.901149E-4,-3.489274E-3,-1.6871923E-5,1.1960348E-3,-7.5773883E-4,5.8914525E-3,-6.526714E-3,-3.0483161E-5,1.1507211E-3,9.962909E-4,7.2550233E-3,-7.4926615E-3,-3.2654507E-4,1.0461001E-2,-1.1831863E-3,-1.2811813E-2,7.6348434E-4,-2.296992E-5,-2.089356E-3,1.4823285E-3,-6.651797E-3,7.012111E-4,4.616367E-3,1.1327195E-2,-5.9979255E-3,-1.8666482E-2,-2.8885846E-4,5.4281816E-5,-9.769488E-3,1.2295779E-3,3.304443E-4,1.9746134E-4,-3.2557393E-4,-1.6249148E-3,1.4374887E-4,-1.5143802E-3,4.692588E-4,2.3089212E-4,-3.1437794E-6,-5.921472E-4,1.6528419E-4,1.4778444E-3,1.2981471E-4,-1.6744161E-3,-5.421624E-5,-5.3586493E-5,1.5749877E-4,1.0477997E-3,1.9802917E-4,4.1804937E-4,2.0391631E-3,-8.801614E-4,6.7419656E-5,-2.5362882E-3,-3.9552615E-4,5.064226E-4,-4.4202732E-4,6.080451E-4,-2.7358928E-5,-2.2950259E-3,-2.2021546E-4],"categories":[],"categories_nodes":[],"categories_segments":[],"categories_sizes":[],"default_left":[0,0,0,0,0,0,0,0,0,0,0,0,0,0,0,0,0,0,0,0,0,0,0,0,0,0,0,0,0,0,0,0,0,0,0,0,0,0,0,0,0,0,0,0,0,0,0,0,0,0,0,0,0,0,0,0,0,0,0,0,0,0,0],"id":28,"left_children":[1,3,5,7,9,11,13,15,17,19,21,23,25,27,29,31,33,35,37,39,41,43,45,47,49,51,53,55,57,59,61,-1,-1,-1,-1,-1,-1,-1,-1,-1,-1,-1,-1,-1,-1,-1,-1,-1,-1,-1,-1,-1,-1,-1,-1,-1,-1,-1,-1,-1,-1,-1,-1],"loss_changes":[4.4586996E-4,6.140059E-4,1.007887E-3,1.4916151E-3,5.3511583E-4,1.0226914E-3,1.109807E-3,4.3264002E-4,1.7967466E-3,5.147848E-4,1.0137609E-3,8.7803765E-4,1.5250834E-3,1.8459702E-3,1.2987321E-3,6.4414926E-5,4.5697074E-5,1.0519298E-3,1.2585897E-3,6.548948E-4,1.7449916E-3,8.942538E-4,9.774924E-4,8.266729E-4,9.372559E-4,1.2751501E-3,1.3687988E-4,7.8629307E-4,3.5412243E-4,6.8924425E-4,1.345866E-3,0E0,0E0,0E0,0E0,0E0,0E0,0E0,0E0,0E0,0E0,0E0,0E0,0E0,0E0,0E0,0E0,0E0,0E0,0E0,0E0,0E0,0E0,0E0,0E0,0E0,0E0,0E0,0E0,0E0,0E0,0E0,0E0],"parents":[2147483647,0,0,1,1,2,2,3,3,4,4,5,5,6,6,7,7,8,8,9,9,10,10,11,11,12,12,13,13,14,14,15,15,16,16,17,17,18,18,19,19,20,20,21,21,22,22,23,23,24,24,25,25,26,26,27,27,28,28,29,29,30,30],"right_children":[2,4,6,8,10,12,14,16,18,20,22,24,26,28,30,32,34,36,38,40,42,44,46,48,50,52,54,56,58,60,62,-1,-1,-1,-1,-1,-1,-1,-1,-1,-1,-1,-1,-1,-1,-1,-1,-1,-1,-1,-1,-1,-1,-1,-1,-1,-1,-1,-1,-1,-1,-1,-1],"split_conditions":[4.2132817E3,-2.8388947E-2,7.1807654E2,3.744618E1,1.8757742E-2,1.4272806E-2,3.056575E1,1.6543066E2,-9.92521E1,2.7340978E-2,8.639753E2,1.3176683E-2,5.105274E-3,3.5262936E1,1.3169788E2,4.3622982E1,2.0870395E2,6.53192E1,-1.8297966E3,-2.8509628E-2,-3.106528E-4,2.8410664E1,6.5686264E1,-1.4061584E2,-7.942723E2,-3.3824974E1,-9.877387E-4,-1.2882039E-3,-4.1138107E1,-7.61711E3,-4.3388373E-1,1.2295779E-3,3.304443E-4,1.9746134E-4,-3.2557393E-4,-1.6249148E-3,1.4374887E-4,-1.5143802E-3,4.692588E-4,2.3089212E-4,-3.1437794E-6,-5.921472E-4,1.6528419E-4,1.4778444E-3,1.2981471E-4,-1.6744161E-3,-5.421624E-5,-5.3586493E-5,1.5749877E-4,1.0477997E-3,1.9802917E-4,4.1804937E-4,2.0391631E-3,-8.801614E-4,6.7419656E-5,