{"learner":{"attributes":{"scikit_learn":"{\"_estimator_type\": \"regressor\"}"},"feature_names":[],"feature_types":[],"gradient_booster":{"model":{"cats":{"enc":[],"feature_segments":[],"sorted_idx":[]},"gbtree_model_param":{"num_parallel_tree":"1","num_trees":"100"},"iteration_indptr":[0,1,2,3,4,5,6,7,8,9,10,11,12,13,14,15,16,17,18,19,20,21,22,23,24,25,26,27,28,29,30,31,32,33,34,35,36,37,38,39,40,41,42,43,44,45,46,47,48,49,50,51,52,53,54,55,56,57,58,59,60,61,62,63,64,65,66,67,68,69,70,71,72,73,74,75,76,77,78,79,80,81,82,83,84,85,86,87,88,89,90,91,92,93,94,95,96,97,98,99,100],"tree_info":[0,0,0,0,0,0,0,0,0,0,0,0,0,0,0,0,0,0,0,0,0,0,0,0,0,0,0,0,0,0,0,0,0,0,0,0,0,0,0,0,0,0,0,0,0,0,0,0,0,0,0,0,0,0,0,0,0,0,0,0,0,0,0,0,0,0,0,0,0,0,0,0,0,0,0,0,0,0,0,0,0,0,0,0,0,0,0,0,0,0,0,0,0,0,0,0,0,0,0,0],"trees":[{"base_weights":[3.156451E-12,9.584726E-3,-7.7636054E-5,3.5134297E-2,6.188197E-3,-1.1431793E-2,-3.14612E-5,3.838595E-3,6.186365E-4,1.1856181E-2,-5.7123504E-3,-1.9184122E-2,3.1632343E-3,-2.9128152E-3,1.04531595E-4,3.244699E-3,1.9928746E-2,-5.8741943E-4,-2.1994645E-2,-2.5700461E-2,-6.1813334E-4,1.7735591E-3,-5.2839904E-3,-1.8965937E-2,-1.217138E-3,5.685825E-3,9.241757E-6,1.8968126E-3,-3.837094E-4,-1.3041421E-3,2.2119775E-3,4.0484066E-4,-1.2523084E-3,-4.5409502E-5,-2.7266261E-3,-3.2114447E-3,-8.58908E-4,2.3724954E-4,-5.39647E-4,4.5317566E-4,-8.735883E-4,-1.2843002E-3,-3.658807E-3,1.3732947E-3,-2.1113861E-4,2.6616474E-4,3.228128E-3,-8.6378196E-4,6.4132337E-6],"categories":[],"categories_nodes":[],"categories_segments":[],"categories_sizes":[],"default_left":[0,0,0,0,0,0,0,0,0,0,0,0,0,0,0,0,0,0,0,0,0,0,0,0,0,0,0,0,0,0,0,0,0,0,0,0,0,0,0,0,0,0,0,0,0,0,0,0,0],"id":0,"left_children":[1,3,5,7,9,11,13,-1,-1,15,17,19,21,23,25,27,29,31,33,35,37,-1,39,41,43,45,47,-1,-1,-1,-1,-1,-1,-1,-1,-1,-1,-1,-1,-1,-1,-1,-1,-1,-1,-1,-1,-1,-1],"loss_changes":[6.4827763E-3,5.857171E-3,4.5304378E-3,5.155597E-4,4.31721E-3,4.0207743E-3,3.373292E-3,0E0,0E0,2.9245564E-3,1.7394382E-3,2.766706E-3,1.6939625E-3,1.0538628E-2,4.3722084E-3,2.522484E-3,1.8777214E-3,9.913368E-4,5.5538584E-4,1.5899548E-3,1.12834714E-4,0E0,3.4453504E-4,3.522369E-3,4.734913E-3,1.1013335E-2,3.8375615E-3,0E0,0E0,0E0,0E0,0E0,0E0,0E0,0E0,0E0,0E0,0E0,0E0,0E0,0E0,0E0,0E0,0E0,0E0,0E0,0E0,0E0,0E0],"parents":[2147483647,0,0,1,1,2,2,3,3,4,4,5,5,6,6,9,9,10,10,11,11,12,12,13,13,14,14,15,15,16,16,17,17,18,18,19,19,20,20,22,22,23,23,24,24,25,25,26,26],"right_children":[2,4,6,8,10,12,14,-1,-1,16,18,20,22,24,26,28,30,32,34,36,38,-1,40,42,44,46,48,-1,-1,-1,-1,-1,-1,-1,-1,-1,-1,-1,-1,-1,-1,-1,-1,-1,-1,-1,-1,-1,-1],"split_conditions":[-4.4637717E-2,-2.6975615E-2,-5.328108E-2,1E0,1.8835562E3,3.3967435E2,-2.1387355E-2,3.838595E-3,6.186365E-4,1.2104104E3,5.5413647E-3,6.0960403E1,4.5207268E1,-1.691242E-2,-3.0388642E-2,-1.2172879E2,-7.818315E-1,4.3388373E-1,-3.9359618E-2,-5.1657995E-4,-1.6609115E3,1.7735591E-3,1.3766494E-3,3.879445E3,-2.8388718E-2,2.282425E3,-1.8252871E3,1.8968126E-3,-3.837094E-4,-1.3041421E-3,2.2119775E-3,4.0484066E-4,-1.2523084E-3,-4.5409502E-5,-2.7266261E-3,-3.2114447E-3,-8.58908E-4,2.3724954E-4,-5.39647E-4,4.5317566E-4,-8.735883E-4,-1.2843002E-3,-3.658807E-3,1.3732947E-3,-2.1113861E-4,2.6616474E-4,3.228128E-3,-8.6378196E-4,6.4132337E-6],"split_indices":[319,231,55,5,155,276,297,0,0,45,55,39,6,77,286,262,4,92,0,198,1,0,0,177,264,326,250,0,0,0,0,0,0,0,0,0,0,0,0,0,0,0,0,0,0,0,0,0,0],"split_type":[0,0,0,0,0,0,0,0,0,0,0,0,0,0,0,0,0,0,0,0,0,0,0,0,0,0,0,0,0,0,0,0,0,0,0,0,0,0,0,0,0,0,0,0,0,0,0,0,0],"sum_hessian":[8.71E3,6.9E1,8.641E3,7E0,6.2E1,3.4E1,8.607E3,6E0,1E0,4.2E1,2E1,2.2E1,1.2E1,3.87E2,8.22E3,2.1E1,2.1E1,1.6E1,4E0,1.6E1,6E0,4E0,8E0,3.6E1,3.51E2,1.37E2,8.083E3,6E0,1.5E1,1E0,2E1,1.2E1,4E0,1E0,3E0,1.1E1,5E0,4E0,2E0,2E0,6E0,2.8E1,8E0,1.9E1,3.32E2,1.24E2,1.3E1,5E1,8.033E3],"tree_param":{"num_deleted":"0","num_feature":"330","num_nodes":"49","size_leaf_vector":"1"}},{"base_weights":[-1.0392927E-7,8.6728055E-3,-7.035428E-5,2.5854861E-2,4.300497E-3,1.8700037E-5,-5.5583008E-3,3.5778158E-3,6.6607725E-3,2.073106E-2,7.878694E-4,-1.1082319E-2,5.2733973E-5,4.750641E-3,-9.107462E-3,1.155345E-3,-2.083055E-3,2.6097118E-3,6.157693E-3,-2.9273594E-3,1.9729933E-2,-1.5248595E-3,-4.2686374E-3,1.32769865E-5,9.572762E-3,1.5034925E-2,-4.228533E-3,-4.3298705E-3,-1.7878817E-2,-4.4709296E-4,1.3463471E-4,-4.313903E-5,8.497851E-4,-1.5154149E-5,-1.9094375E-3,2.1851398E-3,2.4398397E-4,1.2867E-3,-6.826503E-4,-2.4793684E-4,1.3587969E-5,4.774288E-3,5.8126677E-4,1.641985E-4,2.2190895E-3,-1.1004332E-3,1.341572E-3,-1.0525755E-3,2.9694298E-4,-3.128983E-3,-5.585516E-4],"categories":[],"categories_nodes":[],"categories_segments":[],"categories_sizes":[],"default_left":[0,0,0,0,0,0,0,0,0,0,0,0,0,0,0,0,0,0,0,0,0,0,0,0,0,0,0,0,0,0,0,0,0,0,0,0,0,0,0,0,0,0,0,0,0,0,0,0,0,0,0],"id":1,"left_children":[1,3,5,7,9,11,13,-1,15,17,19,21,23,25,27,-1,29,-1,31,33,35,37,-1,39,41,43,45,47,49,-1,-1,-1,-1,-1,-1,-1,-1,-1,-1,-1,-1,-1,-1,-1,-1,-1,-1,-1,-1,-1,-1],"loss_changes":[5.308004E-3,5.147579E-3,4.223668E-3,2.4282495E-3,3.2733902E-3,3.2138703E-3,5.092424E-3,0E0,2.8075083E-4,6.213174E-4,3.4357135E-3,7.7883257E-3,3.1852294E-3,3.3879734E-3,4.2389E-3,0E0,3.058637E-5,0E0,6.534388E-5,1.8370505E-3,2.4012849E-4,1.6901473E-3,0E0,2.5814772E-3,4.745799E-3,1.5928338E-3,2.5387092E-3,3.1065978E-3,5.760392E-3,0E0,0E0,0E0,0E0,0E0,0E0,0E0,0E0,0E0,0E0,0E0,0E0,0E0,0E0,0E0,0E0,0E0,0E0,0E0,0E0,0E0,0E0],"parents":[2147483647,0,0,1,1,2,2,3,3,4,4,5,5,6,6,8,8,9,9,10,10,11,11,12,12,13,13,14,14,16,16,18,18,19,19,20,20,21,21,23,23,24,24,25,25,26,26,27,27,28,28],"right_children":[2,4,6,8,10,12,14,-1,16,18,20,22,24,26,28,-1,30,-1,32,34,36,38,-1,40,42,44,46,48,50,-1,-1,-1,-1,-1,-1,-1,-1,-1,-1,-1,-1,-1,-1,-1,-1,-1,-1,-1,-1,-1,-1],"split_conditions":[-4.4637717E-2,-1.8486946E2,3.397424E-2,-4.96972E-3,-6.044114E3,-5.328108E-2,-1.2208806E-2,3.5778158E-3,-5.8951776E-4,3.7671682E3,9.5922217E2,1.5169761E3,5.210809E-2,-9.7043274E1,1.5739452E3,1.155345E-3,3.98245E-4,2.6097118E-3,-3.9359618E-2,1.3476672E-2,4.3679704E-3,-1.2339723E2,-4.2686374E-3,3.0222311E1,-3.9359618E-2,-1.6213655E-2,1.0608078E2,-5.685437E2,-3.495743E-4,-4.4709296E-4,1.3463471E-4,-4.313903E-5,8.497851E-4,-1.5154149E-5,-1.9094375E-3,2.1851398E-3,2.4398397E-4,1.2867E-3,-6.826503E-4,-2.4793684E-4,1.3587969E-5,4.774288E-3,5.8126677E-4,1.641985E-4,2.2190895E-3,-1.1004332E-3,1.341572E-3,-1.0525755E-3,2.9694298E-4,-3.128983E-3,-5.585516E-4],"split_indices":[319,320,264,297,23,220,66,0,0,133,54,29,0,185,243,0,0,0,0,55,0,119,0,303,231,99,86,210,198,0,0,0,0,0,0,0,0,0,0,0,0,0,0,0,0,0,0,0,0,0,0],"split_type":[0,0,0,0,0,0,0,0,0,0,0,0,0,0,0,0,0,0,0,0,0,0,0,0,0,0,0,0,0,0,0,0,0,0,0,0,0,0,0,0,0,0,0,0,0,0,0,0,0,0,0],"sum_hessian":[8.71E3,6.9E1,8.641E3,1.3E1,5.6E1,8.504E3,1.37E2,8E0,5E0,9E0,4.7E1,2.5E1,8.479E3,3.5E1,1.02E2,3E0,2E0,6E0,3E0,4E1,7E0,2E1,5E0,8.445E3,3.4E1,1.6E1,1.9E1,6.7E1,3.5E1,1E0,1E0,1E0,2E0,3.5E1,5E0,6E0,1E0,5E0,1.5E1,3.95E2,8.05E3,2E0,3.2E1,6E0,1E1,1.4E1,5E0,3.6E1,3.1E1,1.6E1,1.9E1],"tree_param":{"num_deleted":"0","num_feature":"330","num_nodes":"51","size_leaf_vector":"1"}},{"base_weights":[8.22573E-7,7.924691E-3,-6.336067E-5,2.9857617E-2,5.013768E-3,-1.0040714E-2,-2.2785534E-5,3.4858321E-3,9.903671E-4,9.878146E-3,-5.1853773E-3,-1.6940216E-2,2.9384564E-3,-5.867343E-5,8.769375E-3,2.2010626E-2,5.534649E-3,-6.483621E-4,-1.9574154E-2,-2.2634065E-2,-6.922635E-4,1.6305874E-3,-4.8143817E-3,6.0189347E-4,-5.2488246E-4,-5.3073927E-3,1.732871E-2,2.7505711E-3,9.915384E-4,5.158355E-5,1.8860837E-3,4.2104526E-4,-1.025793E-3,-4.0982075E-5,-2.4262783E-3,-2.8122603E-3,-7.884646E-4,2.1718255E-4,-5.2349904E-4,4.2205807E-4,-7.9987396E-4,3.9988567E-4,3.3094544E-5,-4.531401E-4,-2.588029E-5,1.8989538E-4,-1.2785018E-3,4.4447663E-3,1.0707419E-3],"categories":[],"categories_nodes":[],"categories_segments":[],"categories_sizes":[],"default_left":[0,0,0,0,0,0,0,0,0,0,0,0,0,0,0,0,0,0,0,0,0,0,0,0,0,0,0,0,0,0,0,0,0,0,0,0,0,0,0,0,0,0,0,0,0,0,0,0,0],"id":2,"left_children":[1,3,5,7,9,11,13,-1,-1,15,17,19,21,23,25,27,29,31,33,35,37,-1,39,41,43,45,47,-1,-1,-1,-1,-1,-1,-1,-1,-1,-1,-1,-1,-1,-1,-1,-1,-1,-1,-1,-1,-1,-1],"loss_changes":[4.4307383E-3,4.3194545E-3,3.4983335E-3,4.5304466E-4,3.17681E-3,3.184021E-3,2.7166153E-3,0E0,0E0,2.1441672E-3,1.3582332E-3,2.1121395E-3,1.4257634E-3,2.6407845E-3,4.3090424E-3,4.583788E-4,2.1973657E-3,8.3693943E-4,4.3932872E-4,1.15446E-3,1.02444894E-4,0E0,2.926943E-4,3.2642568E-3,5.357873E-3,7.786872E-4,3.4744549E-3,0E0,0E0,0E0,0E0,0E0,0E0,0E0,0E0,0E0,0E0,0E0,0E0,0E0,0E0,0E0,0E0,0E0,0E0,0E0,0E0,0E0,0E0],"parents":[2147483647,0,0,1,1,2,2,3,3,4,4,5,5,6,6,9,9,10,10,11,11,12,12,13,13,14,14,15,15,16,16,17,17,18,18,19,19,20,20,22,22,23,23,24,24,25,25,26,26],"right_children":[2,4,6,8,10,12,14,-1,-1,16,18,20,22,24,26,28,30,32,34,36,38,-1,40,42,44,46,48,-1,-1,-1,-1,-1,-1,-1,-1,-1,-1,-1,-1,-1,-1,-1,-1,-1,-1,-1,-1,-1,-1],"split_conditions":[-4.4637717E-2,-2.6975615E-2,-5.328108E-2,6.881447E1,1.8835562E3,3.3967435E2,5.210809E-2,3.4858321E-3,9.903671E-4,-1.3385661E-2,5.5413647E-3,6.0960403E1,4.5207268E1,-1.1410984E-3,-6.1021405E-3,2.783744E2,6.008489E1,2.2652464E-3,-3.9359618E-2,-5.1657995E-4,-1.6609115E3,1.6305874E-3,1.3766494E-3,-1.6895385E-2,-1.691242E-2,5.137847E2,-3.0388642E-2,2.7505711E-3,9.915384E-4,5.158355E-5,1.8860837E-3,4.2104526E-4,-1.025793E-3,-4.0982075E-5,-2.4262783E-3,-2.8122603E-3,-7.884646E-4,2.1718255E-4,-5.2349904E-4,4.2205807E-4,-7.9987396E-4,3.9988567E-4,3.3094544E-5,-4.531401E-4,-2.588029E-5,1.8989538E-4,-1.2785018E-3,4.4447663E-3,1.0707419E-3],"split_indices":[319,231,55,9,155,276,0,0,0,242,55,39,6,264,209,239,6,99,0,198,1,0,0,121,297,188,231,0,0,0,0,0,0,0,0,0,0,0,0,0,0,0,0,0,0,0,0,0,0],"split_type":[0,0,0,0,0,0,0,0,0,0,0,0,0,0,0,0,0,0,0,0,0,0,0,0,0,0,0,0,0,0,0,0,0,0,0,0,0,0,0,0,0,0,0,0,0,0,0,0,0],"sum_hessian":[8.71E3,6.9E1,8.641E3,7E0,6.2E1,3.4E1,8.607E3,5E0,2E0,4.2E1,2E1,2.2E1,1.2E1,8.573E3,3.4E1,1E1,3.2E1,1.6E1,4E0,1.6E1,6E0,4E0,8E0,3.547E3,5.026E3,1.3E1,2.1E1,6E0,4E0,2.4E1,8E0,1.1E1,5E0,1E0,3E0,1.1E1,5E0,4E0,2E0,2E0,6E0,2.61E2,3.286E3,3.12E2,4.714E3,7E0,6E0,3E0,1.8E1],"tree_param":{"num_deleted":"0","num_feature":"330","num_nodes":"49","size_leaf_vector":"1"}},{"base_weights":[1.7517843E-6,7.233421E-3,-5.682477E-5,2.1934513E-2,3.4957242E-3,2.1010133E-5,-4.853412E-3,3.0099945E-3,6.0306126E-3,8.71643E-3,-4.600816E-3,-7.005572E-3,7.0924165E-5,-3.3997823E-2,-3.7297143E-3,1.0555888E-3,-2.0132912E-3,1.1752086E-2,-1.1847926E-3,-1.2143816E-4,-2.0702288E-2,-5.248191E-3,-2.8200855E-3,3.4302329E-3,-4.3405467E-5,-1.4248901E-3,-4.241414E-3,-8.7419255E-3,3.4076856E-3,-4.2731749E-4,1.2532382E-4,-7.292872E-4,1.4053078E-3,-5.399164E-4,7.81033E-4,-4.1525863E-4,-2.3801567E-3,-2.257749E-3,1.9658174E-4,-2.6376767E-3,3.8513157E-4,-7.642961E-7,-9.745519E-4,-5.034432E-4,-1.9427311E-3,1.327707E-3,-2.444113E-4],"categories":[],"categories_nodes":[],"categories_segments":[],"categories_sizes":[],"default_left":[0,0,0,0,0,0,0,0,0,0,0,0,0,0,0,0,0,0,0,0,0,0,0,0,0,0,0,0,0,0,0,0,0,0,0,0,0,0,0,0,0,0,0,0,0,0,0],"id":3,"left_children":[1,3,5,7,9,11,13,-1,15,17,19,21,23,25,27,-1,29,31,-1,33,35,-1,37,39,41,-1,-1,43,45,-1,-1,-1,-1,-1,-1,-1,-1,-1,-1,-1,-1,-1,-1,-1,-1,-1,-1],"loss_changes":[3.6904449E-3,3.769699E-3,3.2265228E-3,1.6365503E-3,2.449473E-3,2.9834132E-3,4.392629E-3,0E0,2.3965733E-4,2.3241593E-3,1.656351E-3,1.1272432E-2,3.2439916E-3,2.2671139E-4,4.823527E-3,0E0,2.7501235E-5,1.4609778E-3,0E0,8.375414E-4,1.5762285E-4,0E0,5.3395764E-3,3.5908234E-3,2.834339E-3,0E0,0E0,3.0318582E-3,3.266655E-3,0E0,0E0,0E0,0E0,0E0,0E0,0E0,0E0,0E0,0E0,0E0,0E0,0E0,0E0,0E0,0E0,0E0,0E0],"parents":[2147483647,0,0,1,1,2,2,3,3,4,4,5,5,6,6,8,8,9,9,10,10,11,11,12,12,13,13,14,14,16,16,17,17,19,19,20,20,22,22,23,23,24,24,27,27,28,28],"right_children":[2,4,6,8,10,12,14,-1,16,18,20,22,24,26,28,-1,30,32,-1,34,36,-1,38,40,42,-1,-1,44,46,-1,-1,-1,-1,-1,-1,-1,-1,-1,-1,-1,-1,-1,-1,-1,-1,-1,-1],"split_conditions":[-4.4637717E-2,-1.8486946E2,3.397424E-2,-4.96972E-3,1.2246469E-16,-1.8252871E3,3.2920925E1,3.0099945E-3,-5.8951776E-4,6.862081E3,5.302131E3,-1.0593108E4,-2.4443405E-2,1.2246469E-16,2.3947787E2,1.0555888E-3,3.98245E-4,-7.818315E-1,-1.1847926E-3,7.1045306E2,1.4732727E2,-5.248191E-3,-1.6877013E3,-6.999084E2,5.210809E-2,-1.4248901E-3,-4.241414E-3,3.0019812E3,4.345946E1,-4.2731749E-4,1.2532382E-4,-7.292872E-4,1.4053078E-3,-5.399164E-4,7.81033E-4,-4.1525863E-4,-2.3801567E-3,-2.257749E-3,1.9658174E-4,-2.6376767E-3,3.8513157E-4,-7.642961E-7,-9.745519E-4,-5.034432E-4,-1.9427311E-3,1.327707E-3,-2.444113E-4],"split_indices":[319,320,264,297,13,250,314,0,0,34,298,89,121,13,210,0,0,4,0,221,7,0,8,42,198,0,0,34,182,0,0,0,0,0,0,0,0,0,0,0,0,0,0,0,0,0,0],"split_type":[0,0,0,0,0,0,0,0,0,0,0,0,0,0,0,0,0,0,0,0,0,0,0,0,0,0,0,0,0,0,0,0,0,0,0,0,0,0,0,0,0,0,0,0,0,0,0],"sum_hessian":[8.71E3,6.9E1,8.641E3,1.3E1,5.6E1,8.504E3,1.37E2,8E0,5E0,3.4E1,2.2E1,5.9E1,8.445E3,4E0,1.33E2,3E0,2E0,3E1,4E0,1.8E1,4E0,4E0,5.5E1,2.77E2,8.168E3,2E0,2E0,7.8E1,5.5E1,1E0,1E0,3E0,2.7E1,1.1E1,7E0,1E0,3E0,1E1,4.5E1,3E0,2.74E2,8.139E3,2.9E1,5.9E1,1.9E1,2E1,3.5E1],"tree_param":{"num_deleted":"0","num_feature":"330","num_nodes":"47","size_leaf_vector":"1"}},{"base_weights":[-3.5963635E-7,6.520086E-3,-5.3175056E-5,2.5599979E-2,3.993749E-3,-8.9018885E-3,-1.719014E-5,2.9980028E-3,8.3065557E-4,8.073575E-3,-4.550359E-3,-1.5079221E-2,2.711999E-3,-3.2577629E-3,7.0175556E-5,1.5784372E-3,1.4201732E-2,-1.5886122E-3,-2.1791304E-3,-2.0104306E-2,-7.212696E-4,-6.842709E-3,1.1879278E-2,-2.0652384E-2,-1.0888358E-3,8.739559E-3,3.486667E-5,8.7862014E-4,-7.9495006E-4,-1.109578E-3,1.5934746E-3,4.70107E-4,-7.719433E-4,-3.0987938E-3,-1.2987131E-3,1.9986907E-4,-5.014114E-4,-1.006246E-3,-1.9122806E-4,1.4335068E-3,-1.4277297E-4,-8.255467E-4,-3.567978E-3,2.6405196E-5,-3.0130101E-3,3.804737E-3,2.3745093E-4,3.0746104E-4,-6.4758237E-6],"categories":[],"categories_nodes":[],"categories_segments":[],"categories_sizes":[],"default_left":[0,0,0,0,0,0,0,0,0,0,0,0,0,0,0,0,0,0,0,0,0,0,0,0,0,0,0,0,0,0,0,0,0,0,0,0,0,0,0,0,0,0,0,0,0,0,0,0,0],"id":4,"left_children":[1,3,5,7,9,11,13,-1,-1,15,17,19,21,23,25,27,29,31,-1,33,35,37,39,41,43,45,47,-1,-1,-1,-1,-1,-1,-1,-1,-1,-1,-1,-1,-1,-1,-1,-1,-1,-1,-1,-1,-1,-1],"loss_changes":[3.0002415E-3,3.2719169E-3,2.7516345E-3,3.569373E-4,2.2328217E-3,2.5518944E-3,2.4372817E-3,0E0,0E0,1.6891225E-3,1.0377117E-3,1.6449476E-3,1.2199653E-3,8.503965E-3,2.5657841E-3,1.5806988E-3,1.1413088E-3,7.6894695E-4,0E0,9.143874E-4,9.1756214E-5,9.1881026E-5,2.492211E-4,4.3627806E-3,7.94445E-3,6.2522083E-3,2.5288647E-3,0E0,0E0,0E0,0E0,0E0,0E0,0E0,0E0,0E0,0E0,0E0,0E0,0E0,0E0,0E0,0E0,0E0,0E0,0E0,0E0,0E0,0E0],"parents":[2147483647,0,0,1,1,2,2,3,3,4,4,5,5,6,6,9,9,10,10,11,11,12,12,13,13,14,14,15,15,16,16,17,17,19,19,20,20,21,21,22,22,23,23,24,24,25,25,26,26],"right_children":[2,4,6,8,10,12,14,-1,-1,16,18,20,22,24,26,28,30,32,-1,34,36,38,40,42,44,46,48,-1,-1,-1,-1,-1,-1,-1,-1,-1,-1,-1,-1,-1,-1,-1,-1,-1,-1,-1,-1,-1,-1],"split_conditions":[-4.4637717E-2,-2.6975615E-2,-5.328108E-2,6.881447E1,1.8835562E3,3.3967435E2,-2.690573E-2,2.9980028E-3,8.3065557E-4,1.2104104E3,1.5291138E-2,6.0960403E1,-1.1144873E4,-1.691242E-2,1.691358E1,-9.327613E-4,-7.818315E-1,-4.3388373E-1,-2.1791304E-3,-1.1308664E-3,-1.6609115E3,5.9417427E1,1.0629256E-2,-1.7723183E2,1.6243328E3,-1.4371747E4,-2.4369465E-2,8.7862014E-4,-7.9495006E-4,-1.109578E-3,1.5934746E-3,4.70107E-4,-7.719433E-4,-3.0987938E-3,-1.2987131E-3,1.9986907E-4,-5.014114E-4,-1.006246E-3,-1.9122806E-4,1.4335068E-3,-1.4277297E-4,-8.255467E-4,-3.567978E-3,2.6405196E-5,-3.0130101E-3,3.804737E-3,2.3745093E-4,3.0746104E-4,-6.4758237E-6],"split_indices":[319,231,55,9,155,276,297,0,0,45,220,39,67,77,127,242,4,26,0,297,1,6,0,174,107,243,286,0,0,0,0,0,0,0,0,0,0,0,0,0,0,0,0,0,0,0,0,0,0],"split_type":[0,0,0,0,0,0,0,0,0,0,0,0,0,0,0,0,0,0,0,0,0,0,0,0,0,0,0,0,0,0,0,0,0,0,0,0,0,0,0,0,0,0,0,0,0,0,0,0,0],"sum_hessian":[8.71E3,6.9E1,8.641E3,7E0,6.2E1,3.4E1,8.607E3,5E0,2E0,4.2E1,2E1,2.2E1,1.2E1,2.25E2,8.382E3,2.1E1,2.1E1,1.8E1,2E0,1.6E1,6E0,6E0,6E0,2.4E1,2.01E2,3.3E1,8.349E3,1.2E1,9E0,1E0,2E1,9E0,9E0,5E0,1.1E1,4E0,2E0,3E0,3E0,5E0,1E0,1.4E1,1E1,1.93E2,8E0,5E0,2.8E1,2.64E2,8.085E3],"tree_param":{"num_deleted":"0","num_feature":"330","num_nodes":"49","size_leaf_vector":"1"}},{"base_weights":[-9.81133E-7,6.981576E-5,-4.3674614E-3,-6.1217994E-5,2.3443785E-3,4.705856E-3,-7.4662305E-3,-6.9693387E-3,-1.4029637E-5,1.3804692E-2,9.3713554E-4,1.3655228E-2,-3.1364025E-3,-3.2141304E-4,-1.2110931E-2,-4.8278175E-2,-2.782799E-3,9.760678E-3,-6.0365073E-5,8.800266E-3,4.9871165E-2,1.0762067E-4,1.0586411E-2,2.1771977E-3,1.9718045E-2,-9.122953E-3,1.2352707E-2,-4.5186183E-3,1.1917858E-2,-2.6906194E-2,-8.10212E-3,-1.3821239E-3,-5.34371E-3,1.2776963E-3,-5.974778E-4,2.9798513E-3,4.934666E-5,-1.0448521E-3,-2.786204E-6,2.7271043E-4,2.400698E-3,9.7287085E-4,5.5953916E-3,-2.176713E-3,5.7029363E-5,-6.2334456E-4,1.7153583E-3,-8.463882E-4,5.361358E-4,1.0895933E-3,2.5253815E-3,-1.9842125E-3,-4.789649E-4,1.6912081E-3,2.1559736E-4,-8.8235777E-4,4.502083E-4,4.0123053E-4,2.47495E-3,-3.6878788E-3,-1.6063476E-3,-3.2441348E-3,-5.9050566E-4],"categories":[],"categories_nodes":[],"categories_segments":[],"categories_sizes":[],"default_left":[0,0,0,0,0,0,0,0,0,0,0,0,0,0,0,0,0,0,0,0,0,0,0,0,0,0,0,0,0,0,0,0,0,0,0,0,0,0,0,0,0,0,0,0,0,0,0,0,0,0,0,0,0,0,0,0,0,0,0,0,0,0,0],"id":5,"left_children":[1,3,5,7,9,11,13,15,17,19,21,23,25,27,29,31,33,35,37,39,41,43,45,47,49,51,53,55,57,59,61,-1,-1,-1,-1,-1,-1,-1,-1,-1,-1,-1,-1,-1,-1,-1,-1,-1,-1,-1,-1,-1,-1,-1,-1,-1,-1,-1,-1,-1,-1,-1,-1],"loss_changes":[2.6931644E-3,2.555279E-3,3.943275E-3,2.6426455E-3,7.51858E-3,2.5694268E-3,3.4474032E-3,9.377411E-3,3.6479163E-3,8.766211E-3,3.3366191E-3,1.1400857E-3,1.9672199E-3,2.2114231E-3,3.5186214E-3,1.5023723E-4,2.6093272E-3,7.0417007E-3,2.706284E-3,4.182761E-3,9.20699E-4,3.9089434E-3,3.7520702E-3,2.825582E-4,2.620453E-4,6.017047E-4,2.4248235E-4,1.2824045E-3,1.016551E-3,8.1328955E-4,2.5356475E-3,0E0,0E0,0E0,0E0,0E0,0E0,0E0,0E0,0E0,0E0,0E0,0E0,0E0,0E0,0E0,0E0,0E0,0E0,0E0,0E0,0E0,0E0,0E0,0E0,0E0,0E0,0E0,0E0,0E0,0E0,0E0,0E0],"parents":[2147483647,0,0,1,1,2,2,3,3,4,4,5,5,6,6,7,7,8,8,9,9,10,10,11,11,12,12,13,13,14,14,15,15,16,16,17,17,18,18,19,19,20,20,21,21,22,22,23,23,24,24,25,25,26,26,27,27,28,28,29,29,30,30],"right_children":[2,4,6,8,10,12,14,16,18,20,22,24,26,28,30,32,34,36,38,40,42,44,46,48,50,52,54,56,58,60,62,-1,-1,-1,-1,-1,-1,-1,-1,-1,-1,-1,-1,-1,-1,-1,-1,-1,-1,-1,-1,-1,-1,-1,-1,-1,-1,-1,-1,-1,-1,-1,-1],"split_conditions":[3.397424E-2,1.9948475E-2,-1.2208806E-2,-1.8252871E3,-1.9439668E2,-9.7043274E1,-8.201729E2,-1.0593108E4,-1.7234048E3,2.2227546E-2,1.9253329E3,-1.6213655E-2,1.0608078E2,6.1206697E-3,-2.2252093E-1,-7.818315E-1,-1.9549696E-2,1.1402637E2,-5.328108E-2,1.665894E-2,-7.818315E-1,-5.817076E2,-6.0333413E3,3.257641E1,-7.2051995E-3,2.9094759E1,1.3039299E-2,4.3388373E-1,-2.1559335E2,2.2092047E2,-2.0367559E-2,-1.3821239E-3,-5.34371E-3,1.2776963E-3,-5.974778E-4,2.9798513E-3,4.934666E-5,-1.0448521E-3,-2.786204E-6,2.7271043E-4,2.400698E-3,9.7287085E-4,5.5953916E-3,-2.176713E-3,5.7029363E-5,-6.2334456E-4,1.7153583E-3,-8.463882E-4,5.361358E-4,1.0895933E-3,2.5253815E-3,-1.9842125E-3,-4.789649E-4,1.6912081E-3,2.1559736E-4,-8.8235777E-4,4.502083E-4,4.0123053E-4,2.47495E-3,-3.6878788E-3,-1.6063476E-3,-3.2441348E-3,-5.9050566E-4],"split_indices":[264,165,66,250,295,185,243,89,98,308,216,99,86,275,126,4,286,185,275,0,4,31,166,6,88,17,11,70,1,317,99,0,0,0,0,0,0,0,0,0,0,0,0,0,0,0,0,0,0,0,0,0,0,0,0,0,0,0,0,0,0,0,0],"split_type":[0,0,0,0,0,0,0,0,0,0,0,0,0,0,0,0,0,0,0,0,0,0,0,0,0,0,0,0,0,0,0,0,0,0,0,0,0,0,0,0,0,0,0,0,0,0,0,0,0,0,0,0,0,0,0,0,0,0,0,0,0,0,0],"sum_hessian":[8.71E3,8.572E3,1.38E2,8.106E3,4.66E2,3.5E1,1.03E2,5.4E1,8.052E3,5E1,4.16E2,1.6E1,1.9E1,4.1E1,6.2E1,4E0,5E1,3.7E1,8.015E3,4.5E1,5E0,3.84E2,3.2E1,6E0,1E1,1.4E1,5E0,3.1E1,1E1,1.2E1,5E1,1E0,3E0,8E0,4.2E1,1.1E1,2.6E1,2.4E1,7.991E3,3.3E1,1.2E1,1E0,4E0,7E0,3.77E2,9E0,2.3E1,1E0,5E0,5E0,5E0,3E0,1.1E1,3E0,2E0,2.1E1,1E1,7E0,3E0,5E0,7E0,3E0,4.7E1],"tree_param":{"num_deleted":"0","num_feature":"330","num_nodes":"63","size_leaf_vector":"1"}},{"base_weights":[-8.5859574E-7,-5.9445378E-5,4.801592E-3,-2.1896176E-5,-9.526722E-3,1.2975442E-2,2.2195193E-3,-8.003722E-3,1.1757368E-5,-2.4577662E-2,-3.125277E-3,4.3387557E-3,2.5496596E-2,7.213847E-3,-8.5976825E-4,-9.553757E-4,-1.5825085E-2,5.888317E-3,-3.4712742E-5,-1.1846322E-3,-3.493974E-3,1.1694903E-2,-5.677797E-3,1.987412E-3,-7.751072E-4,3.7661109E-3,1.1110069E-2,1.5721811E-2,1.7483763E-3,1.9745398E-3,-7.7937436E-3,1.4173969E-3,-4.4590232E-4,-2.7219635E-3,-8.8090554E-4,1.0361018E-4,1.646764E-3,-3.3887505E-4,5.5941136E-6,1.818909E-3,3.4671434E-4,8.3854924E-5,-7.1724603E-4,-3.5710508E-4,3.0820022E-4,2.9739432E-4,1.2142506E-3,1.6572146E-4,2.2546956E-3,9.818462E-4,-8.827991E-5,9.0619747E-4,-6.272061E-5,-9.610929E-4,2.6786397E-4],"categories":[],"categories_nodes":[],"categories_segments":[],"categories_sizes":[],"default_left":[0,0,0,0,0,0,0,0,0,0,0,0,0,0,0,0,0,0,0,0,0,0,0,0,0,0,0,0,0,0,0,0,0,0,0,0,0,0,0,0,0,0,0,0,0,0,0,0,0,0,0,0,0,0,0],"id":6,"left_children":[1,3,5,7,9,11,13,15,17,19,21,23,25,27,29,31,33,35,37,-1,-1,39,41,-1,43,-1,45,47,49,51,53,-1,-1,-1,-1,-1,-1,-1,-1,-1,-1,-1,-1,-1,-1,-1,-1,-1,-1,-1,-1,-1,-1,-1,-1],"loss_changes":[2.451213E-3,3.0594822E-3,2.1872756E-3,2.3032138E-3,3.1990125E-3,2.5929082E-3,1.2518987E-3,1.9694779E-3,2.3320718E-3,9.053233E-4,1.0121213E-3,1.2865361E-3,1.3316344E-3,1.4140132E-3,1.0176932E-3,1.1233597E-3,1.1192774E-3,3.4222587E-3,2.5764601E-3,0E0,0E0,1.5066622E-4,2.2028876E-4,0E0,1.5120136E-4,0E0,1.4289049E-5,1.1145498E-3,4.3334393E-4,6.879528E-4,3.1119812E-4,0E0,0E0,0E0,0E0,0E0,0E0,0E0,0E0,0E0,0E0,0E0,0E0,0E0,0E0,0E0,0E0,0E0,0E0,0E0,0E0,0E0,0E0,0E0,0E0],"parents":[2147483647,0,0,1,1,2,2,3,3,4,4,5,5,6,6,7,7,8,8,9,9,10,10,11,11,12,12,13,13,14,14,15,15,16,16,17,17,18,18,21,21,22,22,24,24,26,26,27,27,28,28,29,29,30,30],"right_children":[2,4,6,8,10,12,14,16,18,20,22,24,26,28,30,32,34,36,38,-1,-1,40,42,-1,44,-1,46,48,50,52,54,-1,-1,-1,-1,-1,-1,-1,-1,-1,-1,-1,-1,-1,-1,-1,-1,-1,-1,-1,-1,-1,-1,-1,-1],"split_conditions":[8.174425E1,5.210809E-2,-1.3875804E-3,-5.328108E-2,-5.6162784E-3,3.2443919E-3,4.8169224E-3,6.865886E2,-4.4637717E-2,5.793878E1,-2.840651E2,-2.6312412E3,-5.124456E-4,-1.2716375E3,9.7530096E2,3.8090477E1,-4.2387913E-3,1.6308816E3,-2.690573E-2,-1.1846322E-3,-3.493974E-3,-2.2252093E-1,-4.1398823E3,1.987412E-3,8.172455E2,3.7661109E-3,4.187512E-3,-1.0130401E-3,-4.3853077E1,-2.7796004E-3,5.6594867E2,1.4173969E-3,-4.4590232E-4,-2.7219635E-3,-8.8090554E-4,1.0361018E-4,1.646764E-3,-3.3887505E-4,5.5941136E-6,1.818909E-3,3.4671434E-4,8.3854924E-5,-7.1724603E-4,-3.5710508E-4,3.0820022E-4,2.9739432E-4,1.2142506E-3,1.6572146E-4,2.2546956E-3,9.818462E-4,-8.827991E-5,9.0619747E-4,-6.272061E-5,-9.610929E-4,2.6786397E-4],"split_indices":[248,198,132,55,253,0,242,221,319,39,108,12,55,89,228,6,11,271,297,0,0,5,122,0,254,0,0,209,317,176,251,0,0,0,0,0,0,0,0,0,0,0,0,0,0,0,0,0,0,0,0,0,0,0,0],"split_type":[0,0,0,0,0,0,0,0,0,0,0,0,0,0,0,0,0,0,0,0,0,0,0,0,0,0,0,0,0,0,0,0,0,0,0,0,0,0,0,0,0,0,0,0,0,0,0,0,0,0,0,0,0,0,0],"sum_hessian":[8.71E3,8.606E3,1.04E2,8.573E3,3.3E1,2.4E1,8E1,3.5E1,8.538E3,9E0,2.4E1,1.5E1,9E0,3E1,5E1,1.9E1,1.6E1,6.6E1,8.472E3,5E0,4E0,3E0,2.1E1,3E0,1.2E1,4E0,5E0,1.1E1,1.9E1,3.6E1,1.4E1,3E0,1.6E1,5E0,1.1E1,4.6E1,2E1,2.22E2,8.25E3,1E0,2E0,4E0,1.7E1,7E0,5E0,1E0,4E0,4E0,7E0,4E0,1.5E1,9E0,2.7E1,1.2E1,2E0],"tree_param":{"num_deleted":"0","num_feature":"330","num_nodes":"55","size_leaf_vector":"1"}},{"base_weights":[-4.7200334E-8,6.66966E-4,-3.8651822E-4,4.8488933E-3,4.9800216E-4,-1.5759012E-2,-3.361288E-4,1.7121283E-2,2.1805298E-3,1.2919626E-2,4.3692914E-4,-4.906549E-3,-2.738198E-3,-3.1668593E-3,-1.512959E-4,2.2686576E-2,-1.500595E-3,5.352286E-3,-1.2123672E-2,2.9875168E-3,3.9486047E-3,-6.8775257E-3,5.855603E-4,2.3044823E-3,-5.795741E-3,-8.559079E-4,-1.082943E-2,-1.9115151E-4,1.565236E-2,-9.019288E-5,2.5891839E-3,7.0401304E-4,-1.2388031E-3,-1.1224645E-3,7.2203396E-4,-6.5347215E-4,-3.1448558E-3,1.3228073E-3,-1.8957879E-4,2.3611588E-3,-9.431351E-4,4.476758E-5,7.694481E-4,-1.5263954E-4,3.375937E-4,-1.3325349E-4,-9.0997986E-4,-2.8660041E-3,-1.983365E-5,-2.6118632E-3,-3.96088E-4,-1.4999614E-5,-1.261125E-3,3.2417544E-3,1.12192814E-4],"categories":[],"categories_nodes":[],"categories_segments":[],"categories_sizes":[],"default_left":[0,0,0,0,0,0,0,0,0,0,0,0,0,0,0,0,0,0,0,0,0,0,0,0,0,0,0,0,0,0,0,0,0,0,0,0,0,0,0,0,0,0,0,0,0,0,0,0,0,0,0,0,0,0,0],"id":7,"left_children":[1,3,5,7,9,11,13,15,17,19,21,-1,23,25,27,29,31,33,35,37,-1,39,41,43,45,47,49,51,53,-1,-1,-1,-1,-1,-1,-1,-1,-1,-1,-1,-1,-1,-1,-1,-1,-1,-1,-1,-1,-1,-1,-1,-1,-1,-1],"loss_changes":[2.2457906E-3,2.2558616E-3,4.267458E-3,4.023319E-3,2.325613E-3,7.6718433E-3,2.8766645E-3,2.314039E-3,4.7379425E-3,3.8399436E-3,3.3296368E-3,0E0,2.2921115E-4,5.9582684E-3,3.2549815E-3,1.3086777E-3,6.4513297E-4,2.7132058E-3,1.8466031E-3,6.251707E-4,0E0,4.9723843E-3,2.9362044E-3,2.9780684E-5,1.2059443E-4,4.747948E-3,8.08769E-3,2.6310612E-3,3.130499E-3,0E0,0E0,0E0,0E0,0E0,0E0,0E0,0E0,0E0,0E0,0E0,0E0,0E0,0E0,0E0,0E0,0E0,0E0,0E0,0E0,0E0,0E0,0E0,0E0,0E0,0E0],"parents":[2147483647,0,0,1,1,2,2,3,3,4,4,5,5,6,6,7,7,8,8,9,9,10,10,12,12,13,13,14,14,15,15,16,16,17,17,18,18,19,19,21,21,22,22,23,23,24,24,25,25,26,26,27,27,28,28],"right_children":[2,4,6,8,10,12,14,16,18,20,22,-1,24,26,28,30,32,34,36,38,-1,40,42,44,46,48,50,52,54,-1,-1,-1,-1,-1,-1,-1,-1,-1,-1,-1,-1,-1,-1,-1,-1,-1,-1,-1,-1,-1,-1,-1,-1,-1,-1],"split_conditions":[-2.003269E-3,-2.568362E-2,-5.328108E-2,-2.1387355E-2,1.691358E1,-3.402923E-2,-1.691242E-2,-1.1898506E2,4.108758E3,1.0040825E-2,-1.4870089E3,-4.906549E-3,-1.0670713E3,2.2242512E3,2.441067E3,-3.9359618E-2,-1.184501E-2,2.7425526E1,6.846462E3,-6.7488877E-3,3.9486047E-3,-1.5389401E4,3.1479184E-2,-3.9359618E-2,-6.448679E-3,-3.9359618E-2,-1.3942464E2,5.210809E-2,3.785809E1,-9.019288E-5,2.5891839E-3,7.0401304E-4,-1.2388031E-3,-1.1224645E-3,7.2203396E-4,-6.5347215E-4,-3.1448558E-3,1.3228073E-3,-1.8957879E-4,2.3611588E-3,-9.431351E-4,4.476758E-5,7.694481E-4,-1.5263954E-4,3.375937E-4,-1.3325349E-4,-9.0997986E-4,-2.8660041E-3,-1.983365E-5,-2.6118632E-3,-3.96088E-4,-1.4999614E-5,-1.261125E-3,3.2417544E-3,1.12192814E-4],"split_indices":[264,231,33,286,127,66,297,273,12,297,140,0,133,309,326,297,0,237,243,11,0,309,154,0,176,198,306,198,28,0,0,0,0,0,0,0,0,0,0,0,0,0,0,0,0,0,0,0,0,0,0,0,0,0,0],"split_type":[0,0,0,0,0,0,0,0,0,0,0,0,0,0,0,0,0,0,0,0,0,0,0,0,0,0,0,0,0,0,0,0,0,0,0,0,0,0,0,0,0,0,0,0,0,0,0,0,0,0,0,0,0,0,0],"sum_hessian":[8.71E3,3.195E3,5.515E3,1.23E2,3.072E3,1.7E1,5.498E3,2.1E1,1.02E2,1.4E1,3.058E3,4E0,1.3E1,3.36E2,5.162E3,1.6E1,5E0,8.4E1,1.8E1,1.1E1,3E0,6E1,2.998E3,5E0,8E0,2.59E2,7.7E1,5.15E3,1.2E1,2E0,1.4E1,3E0,2E0,8E0,7.6E1,1.5E1,3E0,3E0,8E0,4E0,5.6E1,2.942E3,5.6E1,1E0,4E0,4E0,4E0,5E0,2.54E2,2.3E1,5.4E1,5.134E3,1.6E1,5E0,7E0],"tree_param":{"num_deleted":"0","num_feature":"330","num_nodes":"55","size_leaf_vector":"1"}},{"base_weights":[-5.592251E-7,5.324604E-5,-4.4110483E-3,2.1718708E-5,8.002131E-3,1.2405445E-3,-1.0652611E-2,-3.2527587E-5,4.439975E-3,3.9335466E-3,4.8145647E-3,2.317615E-2,-8.9250505E-4,3.1734565E-3,-1.46336425E-2,7.0565306E-7,-8.530187E-3,1.2435362E-2,2.0161571E-3,-5.652803E-3,1.1377625E-2,2.7261737E-3,3.416903E-4,-3.6196199E-3,8.499512E-3,-3.2725907E-3,5.68576E-3,-7.94167E-3,-2.4811354E-2,2.5128445E-4,-1.0895006E-5,-2.0888492E-3,-2.2488172E-4,4.9784314E-4,2.6726918E-3,6.588817E-4,-8.028353E-5,-1.0074863E-3,6.815546E-4,3.834277E-4,1.8537546E-3,-1.8945859E-4,-1.3366555E-3,-2.8100229E-4,1.6979184E-3,-5.1243464E-4,-9.472234E-5,6.102005E-4,1.1779013E-4,-1.8882264E-3,-3.4929416E-4,-2.7574308E-3,-4.568107E-4],"categories":[],"categories_nodes":[],"categories_segments":[],"categories_sizes":[],"default_left":[0,0,0,0,0,0,0,0,0,0,0,0,0,0,0,0,0,0,0,0,0,0,0,0,0,0,0,0,0,0,0,0,0,0,0,0,0,0,0,0,0,0,0,0,0,0,0,0,0,0,0,0,0],"id":8,"left_children":[1,3,5,7,9,11,13,15,17,-1,19,21,23,25,27,29,31,33,35,37,39,-1,-1,41,43,45,47,49,51,-1,-1,-1,-1,-1,-1,-1,-1,-1,-1,-1,-1,-1,-1,-1,-1,-1,-1,-1,-1,-1,-1,-1,-1],"loss_changes":[2.0674209E-3,2.1568018E-3,3.7170665E-3,2.0551097E-3,3.2064382E-3,2.64091E-3,2.7985396E-3,2.392257E-3,1.9903814E-3,0E0,2.2626505E-3,3.1048968E-4,1.3626468E-3,2.1294027E-4,2.4592075E-3,2.324968E-3,2.5147195E-3,2.4246492E-3,1.0494033E-3,7.854308E-4,1.0091176E-3,0E0,0E0,6.6404155E-4,1.1985255E-3,1.237015E-5,9.699783E-6,1.1508386E-3,7.130038E-4,0E0,0E0,0E0,0E0,0E0,0E0,0E0,0E0,0E0,0E0,0E0,0E0,0E0,0E0,0E0,0E0,0E0,0E0,0E0,0E0,0E0,0E0,0E0,0E0],"parents":[2147483647,0,0,1,1,2,2,3,3,4,4,5,5,6,6,7,7,8,8,10,10,11,11,12,12,13,13,14,14,15,15,16,16,17,17,18,18,19,19,20,20,23,23,24,24,25,25,26,26,27,27,28,28],"right_children":[2,4,6,8,10,12,14,16,18,-1,20,22,24,26,28,30,32,34,36,38,40,-1,-1,42,44,46,48,50,52,-1,-1,-1,-1,-1,-1,-1,-1,-1,-1,-1,-1,-1,-1,-1,-1,-1,-1,-1,-1,-1,-1,-1,-1],"split_conditions":[3.7594195E-2,5.210809E-2,1.170663E1,8.174425E1,-3.9359618E-2,-2.1355506E-2,-6.265447E3,5.210809E-2,-1.3875804E-3,3.9335466E-3,-2.222745E-3,6.668468E1,8.841689E-3,4.120155E1,1.0805889E3,-2.2293499E-2,-3.5057743E-3,7.0793265E-3,4.8169224E-3,2.7116277E3,1.7164598E-3,2.7261737E-3,3.416903E-4,1.849378E-2,4.002724E3,7.5056085E2,6.9380077E-3,-3.4512002E3,1.6784576E4,2.5128445E-4,-1.0895006E-5,-2.0888492E-3,-2.2488172E-4,4.9784314E-4,2.6726918E-3,6.588817E-4,-8.028353E-5,-1.0074863E-3,6.815546E-4,3.834277E-4,1.8537546E-3,-1.8945859E-4,-1.3366555E-3,-2.8100229E-4,1.6979184E-3,-5.1243464E-4,-9.472234E-5,6.102005E-4,1.1779013E-4,-1.8882264E-3,-3.4929416E-4,-2.7574308E-3,-4.568107E-4],"split_indices":[121,0,155,248,231,198,265,198,132,0,297,6,286,17,298,110,253,209,242,111,242,0,0,88,254,1,0,177,100,0,0,0,0,0,0,0,0,0,0,0,0,0,0,0,0,0,0,0,0,0,0,0,0],"split_type":[0,0,0,0,0,0,0,0,0,0,0,0,0,0,0,0,0,0,0,0,0,0,0,0,0,0,0,0,0,0,0,0,0,0,0,0,0,0,0,0,0,0,0,0,0,0,0,0,0,0,0,0,0],"sum_hessian":[8.71E3,8.606E3,1.04E2,8.573E3,3.3E1,5.5E1,4.9E1,8.47E3,1.03E2,2E0,3.1E1,4E0,5.1E1,1.1E1,3.8E1,8.438E3,3.2E1,2.3E1,8E1,1.2E1,1.9E1,3E0,1E0,4E1,1.1E1,3E0,8E0,2.4E1,1.4E1,3.52E2,8.086E3,1E1,2.2E1,1.6E1,7E0,3E1,5E1,9E0,3E0,1E1,9E0,3.5E1,5E0,5E0,6E0,1E0,2E0,7E0,1E0,6E0,1.8E1,1.2E1,2E0],"tree_param":{"num_deleted":"0","num_feature":"330","num_nodes":"53","size_leaf_vector":"1"}},{"base_weights":[8.768021E-8,-5.3652083E-3,4.3546443E-5,-1.256106E-3,-3.3076223E-2,7.169678E-3,-8.783372E-6,3.6163111E-3,-8.141618E-3,-1.8302932E-2,-4.696711E-3,-1.2288017E-3,1.916862E-2,6.870701E-5,-3.3765582E-3,-1.0329627E-2,8.467849E-3,-1.7295072E-2,3.978667E-3,-4.003421E-4,-2.036215E-3,6.1582997E-3,-1.5908482E-2,-4.0273466E-3,2.488325E-2,3.1549358E-3,-3.0404015E-5,-1.7417738E-2,-1.65262E-3,1.15515895E-5,-1.482262E-3,1.2871021E-3,4.92855E-5,-2.5269006E-5,-2.153461E-3,-7.1092526E-4,1.2914217E-3,3.1039685E-3,2.7915312E-4,-4.7462457E-4,-3.2818809E-3,-1.5884383E-3,5.8722676E-4,3.0112339E-3,1.0123313E-3,1.7770719E-3,2.3791923E-4,-8.173521E-4,6.8334714E-7,-2.9724701E-3,-5.7104573E-4,1.6550903E-4,-5.7980133E-4],"categories":[],"categories_nodes":[],"categories_segments":[],"categories_sizes":[],"default_left":[0,0,0,0,0,0,0,0,0,0,0,0,0,0,0,0,0,0,0,0,0,0,0,0,0,0,0,0,0,0,0,0,0,0,0,0,0,0,0,0,0,0,0,0,0,0,0,0,0,0,0,0,0],"id":9,"left_children":[1,3,5,7,9,11,13,15,17,19,-1,21,23,25,27,29,31,33,35,-1,-1,37,39,41,43,45,47,49,51,-1,-1,-1,-1,-1,-1,-1,-1,-1,-1,-1,-1,-1,-1,-1,-1,-1,-1,-1,-1,-1,-1,-1,-1],"loss_changes":[2.03137E-3,7.9291705E-3,3.2227437E-3,2.109486E-3,9.872913E-4,6.372246E-3,2.239356E-3,2.5908623E-3,2.9533156E-3,9.515649E-5,0E0,4.2187E-3,3.5466775E-3,2.5658114E-3,4.642997E-3,4.7101162E-4,9.76884E-4,1.0783351E-3,1.2807305E-3,0E0,0E0,2.0913684E-3,2.2980757E-3,7.975579E-4,1.3159635E-3,2.9169635E-3,2.4647028E-3,2.8559612E-3,2.3817306E-3,0E0,0E0,0E0,0E0,0E0,0E0,0E0,0E0,0E0,0E0,0E0,0E0,0E0,0E0,0E0,0E0,0E0,0E0,0E0,0E0,0E0,0E0,0E0,0E0],"parents":[2147483647,0,0,1,1,2,2,3,3,4,4,5,5,6,6,7,7,8,8,9,9,11,11,12,12,13,13,14,14,15,15,16,16,17,17,18,18,21,21,22,22,23,23,24,24,25,25,26,26,27,27,28,28],"right_children":[2,4,6,8,10,12,14,16,18,20,-1,22,24,26,28,30,32,34,36,-1,-1,38,40,42,44,46,48,50,52,-1,-1,-1,-1,-1,-1,-1,-1,-1,-1,-1,-1,-1,-1,-1,-1,-1,-1,-1,-1,-1,-1,-1,-1],"split_conditions":[-1.8252871E3,2.310401E-2,-1.6877013E3,5.404693E2,4.5933445E1,6.5052876E-4,2.9656885E-2,-1.8016297E-2,-5.253478E1,-1.0338437E2,-4.696711E-3,1.1683267E3,-4.0385876E3,-2.4443405E-2,-6.4378047E3,-2.2278795E2,-1.47222E2,-6.265447E3,-9.350633E-3,-4.003421E-4,-2.036215E-3,-3.402923E-2,3.6321808E1,-2.8549868E3,-1.6328529E3,-1.2053778E3,-1.4870089E3,-1.0105493E-3,2.652749E2,1.15515895E-5,-1.482262E-3,1.2871021E-3,4.92855E-5,-2.5269006E-5,-2.153461E-3,-7.1092526E-4,1.2914217E-3,3.1039685E-3,2.7915312E-4,-4.7462457E-4,-3.2818809E-3,-1.5884383E-3,5.8722676E-4,3.0112339E-3,1.0123313E-3,1.7770719E-3,2.3791923E-4,-8.173521E-4,6.8334714E-7,-2.9724701E-3,-5.7104573E-4,1.6550903E-4,-5.7980133E-4],"split_indices":[250,99,206,12,9,55,264,22,9,9,0,243,199,121,100,64,174,111,33,0,0,143,193,12,252,263,217,11,232,0,0,0,0,0,0,0,0,0,0,0,0,0,0,0,0,0,0,0,0,0,0,0,0],"split_type":[0,0,0,0,0,0,0,0,0,0,0,0,0,0,0,0,0,0,0,0,0,0,0,0,0,0,0,0,0,0,0,0,0,0,0,0,0,0,0,0,0,0,0,0,0,0,0,0,0,0,0,0,0],"sum_hessian":[8.71E3,6.9E1,8.641E3,6.1E1,8E0,6.2E1,8.579E3,3.6E1,2.5E1,5E0,3E0,3.7E1,2.5E1,8.387E3,1.92E2,9E0,2.7E1,1.4E1,1.1E1,1E0,4E0,2.5E1,1.2E1,5E0,2E1,2.6E2,8.127E3,2E1,1.72E2,3E0,6E0,1.7E1,1E1,3E0,1.1E1,5E0,6E0,2E0,2.3E1,8E0,4E0,2E0,3E0,1.4E1,6E0,1.2E1,2.48E2,3.6E1,8.091E3,9E0,1.1E1,9.6E1,7.6E1],"tree_param":{"num_deleted":"0","num_feature":"330","num_nodes":"53","size_leaf_vector":"1"}},{"base_weights":[-9.515497E-7,-1.1769861E-4,1.8649552E-3,4.5146007E-4,-5.194123E-4,1.2846254E-2,7.557774E-4,-6.3496535E-3,5.385972E-4,-2.4032433E-2,-4.801157E-4,3.981242E-3,8.688081E-3,2.1552235E-2,2.5355243E-4,6.4999354E-3,-1.5001305E-2,3.8671414E-3,2.9206325E-4,-3.8291486E-3,-4.327843E-3,-8.640803E-3,-3.9586617E-4,1.20089725E-2,-6.1489607E-4,6.8600327E-3,9.987393E-3,1.5511111E-3,-6.3760276E-3,-4.110254E-4,2.0276455E-3,-2.4994984E-3,-4.6499397E-4,2.1743837E-4,1.1217468E-3,-1.3162828E-3,3.3954373E-5,-1.0530951E-3,4.149036E-4,-1.920773E-4,-2.9200835E-3,-3.5768546E-5,-1.6819237E-3,1.7005353E-3,5.5458106E-4,-3.4385818E-4,1.5222823E-3,1.7661352E-3,-1.2188362E-4,8.495693E-5,1.5729622E-3,-4.5691407E-4,-3.075862E-3],"categories":[],"categories_nodes":[],"categories_segments":[],"categories_sizes":[],"default_left":[0,0,0,0,0,0,0,0,0,0,0,0,0,0,0,0,0,0,0,0,0,0,0,0,0,0,0,0,0,0,0,0,0,0,0,0,0,0,0,0,0,0,0,0,0,0,0,0,0,0,0,0,0],"id":10,"left_children":[1,3,5,7,9,11,13,15,17,19,21,-1,23,25,27,29,31,33,35,37,-1,39,41,43,45,-1,47,49,51,-1,-1,-1,-1,-1,-1,-1,-1,-1,-1,-1,-1,-1,-1,-1,-1,-1,-1,-1,-1,-1,-1,-1,-1],"loss_changes":[1.8978161E-3,1.8748442E-3,6.23874E-3,2.0142114E-3,4.4300393E-3,4.9242154E-3,4.8721167E-3,4.877825E-3,2.7486978E-3,2.9449393E-3,3.2967434E-3,0E0,1.3049394E-3,5.300002E-3,3.941127E-3,2.7144277E-3,2.5734287E-3,2.8497856E-3,1.9983032E-3,3.1103432E-4,0E0,6.713948E-3,2.973754E-3,9.067571E-4,5.889938E-4,0E0,8.8148774E-4,3.7962678E-3,3.163704E-3,0E0,0E0,0E0,0E0,0E0,0E0,0E0,0E0,0E0,0E0,0E0,0E0,0E0,0E0,0E0,0E0,0E0,0E0,0E0,0E0,0E0,0E0,0E0,0E0],"parents":[2147483647,0,0,1,1,2,2,3,3,4,4,5,5,6,6,7,7,8,8,9,9,10,10,12,12,13,13,14,14,15,15,16,16,17,17,18,18,19,19,21,21,22,22,23,23,24,24,26,26,27,27,28,28],"right_children":[2,4,6,8,10,12,14,16,18,20,22,-1,24,26,28,30,32,34,36,38,-1,40,42,44,46,-1,48,50,52,-1,-1,-1,-1,-1,-1,-1,-1,-1,-1,-1,-1,-1,-1,-1,-1,-1,-1,-1,-1,-1,-1,-1,-1],"split_conditions":[1.9253362E-2,-1.1410984E-3,-2.1387355E-2,-1.6877013E3,-7.1381104E2,-3.4260837E2,-3.9359618E-2,-7.62122E2,-1.6895385E-2,9.702334E2,-3.9359618E-2,3.981242E-3,1.4778744E3,-2.6975615E-2,4.7716914E3,-1.2709415E3,8.630266E1,3.0019812E3,-5.0260434E4,-1.0961799E-2,-4.327843E-3,7.803381E-3,2.441067E3,8.206444E2,9.749279E-1,6.8600327E-3,-4.3294537E-3,3.1547237E-2,3.8285806E2,-4.110254E-4,2.0276455E-3,-2.4994984E-3,-4.6499397E-4,2.1743837E-4,1.1217468E-3,-1.3162828E-3,3.3954373E-5,-1.0530951E-3,4.149036E-4,-1.920773E-4,-2.9200835E-3,-3.5768546E-5,-1.6819237E-3,1.7005353E-3,5.5458106E-4,-3.4385818E-4,1.5222823E-3,1.7661352E-3,-1.2188362E-4,8.495693E-5,1.5729622E-3,-4.5691407E-4,-3.075862E-3],"split_indices":[44,264,286,74,328,251,319,188,121,8,308,0,155,11,265,144,306,133,23,0,0,121,95,298,4,0,143,0,306,0,0,0,0,0,0,0,0,0,0,0,0,0,0,0,0,0,0,0,0,0,0,0,0],"split_type":[0,0,0,0,0,0,0,0,0,0,0,0,0,0,0,0,0,0,0,0,0,0,0,0,0,0,0,0,0,0,0,0,0,0,0,0,0,0,0,0,0,0,0,0,0,0,0,0,0,0,0,0,0],"sum_hessian":[8.71E3,8.198E3,5.12E2,3.392E3,4.806E3,4.6E1,4.66E2,4.2E1,3.35E3,7E0,4.799E3,5E0,4.1E1,1E1,4.56E2,1.7E1,2.5E1,2.3E2,3.12E3,4E0,3E0,4.8E1,4.751E3,3E1,1.1E1,1E0,9E0,3.82E2,7.4E1,1E1,7E0,1.2E1,1.3E1,1.88E2,4.2E1,1E1,3.11E3,2E0,2E0,3.7E1,1.1E1,4.741E3,1E1,1.6E1,1.4E1,1E1,1E0,5E0,4E0,3.65E2,1.7E1,7E1,4E0],"tree_param":{"num_deleted":"0","num_feature":"330","num_nodes":"53","size_leaf_vector":"1"}},{"base_weights":[-5.1688744E-7,-1.085873E-4,1.8610988E-3,-4.2570653E-5,-4.852646E-3,1.185448E-2,6.6595036E-4,-1.3591383E-4,2.552984E-3,-2.0758629E-2,-1.8197258E-3,5.450734E-3,3.4645308E-2,-1.5457299E-2,1.0491641E-3,2.7471245E-3,-2.2417931E-4,2.9620486E-3,-3.647737E-3,-9.440685E-3,-4.1821073E-3,-8.3653396E-4,-3.2019832E-3,-1.0825823E-2,8.55031E-3,1.2731283E-2,5.8395886E-3,-3.2164797E-3,-3.3014405E-3,7.1909637E-3,8.1859005E-5,1.1264696E-4,1.9950776E-3,-1.7163495E-5,-6.3199195E-4,3.3105852E-3,2.626101E-4,3.3014893E-4,-1.5470706E-3,1.277498E-3,-2.078552E-4,-1.595335E-3,1.3286612E-4,1.9916012E-4,1.7162481E-3,1.8994816E-3,-1.9516988E-4,-1.2587673E-5,-7.295325E-4,-5.619656E-4,9.39718E-4,-6.2992034E-4,1.3916075E-4],"categories":[],"categories_nodes":[],"categories_segments":[],"categories_sizes":[],"default_left":[0,0,0,0,0,0,0,0,0,0,0,0,0,0,0,0,0,0,0,0,0,0,0,0,0,0,0,0,0,0,0,0,0,0,0,0,0,0,0,0,0,0,0,0,0,0,0,0,0,0,0,0,0],"id":11,"left_children":[1,3,5,7,9,11,13,15,17,19,21,23,25,27,29,31,33,35,-1,37,-1,39,-1,41,43,45,-1,47,-1,49,51,-1,-1,-1,-1,-1,-1,-1,-1,-1,-1,-1,-1,-1,-1,-1,-1,-1,-1,-1,-1,-1,-1],"loss_changes":[1.7527298E-3,2.578574E-3,5.701134E-3,1.9681235E-3,5.4135225E-3,7.254439E-3,2.6606794E-3,1.9959365E-3,4.610441E-3,3.8960841E-3,2.8236941E-3,2.161032E-3,4.9817236E-3,2.0429434E-3,2.4886876E-3,6.4738416E-3,2.4360537E-3,2.7485478E-3,0E0,1.0499387E-3,0E0,1.6156936E-3,0E0,4.5745366E-4,1.9427843E-3,6.808435E-4,0E0,8.732432E-5,0E0,1.6637996E-3,3.0425698E-3,0E0,0E0,0E0,0E0,0E0,0E0,0E0,0E0,0E0,0E0,0E0,0E0,0E0,0E0,0E0,0E0,0E0,0E0,0E0,0E0,0E0,0E0],"parents":[2147483647,0,0,1,1,2,2,3,3,4,4,5,5,6,6,7,7,8,8,9,9,10,10,11,11,12,12,13,13,14,14,15,15,16,16,17,17,19,19,21,21,23,23,24,24,25,25,27,27,29,29,30,30],"right_children":[2,4,6,8,10,12,14,16,18,20,22,24,26,28,30,32,34,36,-1,38,-1,40,-1,42,44,46,-1,48,-1,50,52,-1,-1,-1,-1,-1,-1,-1,-1,-1,-1,-1,-1,-1,-1,-1,-1,-1,-1,-1,-1,-1,-1],"split_conditions":[1.9948475E-2,1.6290521E3,-1.9439668E2,7.5894966E1,-2.2252093E-1,2.2262523E-2,3.189026E1,-1.8153053E4,1.476897E3,9.611175E-3,1.0263137E4,-6.612432E3,5.197907E-4,-4.0263485E1,-1.0967002E-2,1.0119251E3,2.182154E3,-2.568362E-2,-3.647737E-3,6.5197174E1,-4.1821073E-3,-3.9889542E2,-3.2019832E-3,1.0667551E3,-2.563165E-3,6.724378E1,5.8395886E-3,-5.478322E-3,-3.3014405E-3,-7.818315E-1,-4.536087E3,1.1264696E-4,1.9950776E-3,-1.7163495E-5,-6.3199195E-4,3.3105852E-3,2.626101E-4,3.3014893E-4,-1.5470706E-3,1.277498E-3,-2.078552E-4,-1.595335E-3,1.3286612E-4,1.9916012E-4,1.7162481E-3,1.8994816E-3,-1.9516988E-4,-1.2587673E-5,-7.295325E-4,-5.619656E-4,9.39718E-4,-6.2992034E-4,1.3916075E-4],"split_indices":[165,239,295,292,71,0,215,309,7,99,34,12,99,152,275,40,326,11,0,50,0,317,0,7,176,6,0,0,0,92,34,0,0,0,0,0,0,0,0,0,0,0,0,0,0,0,0,0,0,0,0,0,0],"split_type":[0,0,0,0,0,0,0,0,0,0,0,0,0,0,0,0,0,0,0,0,0,0,0,0,0,0,0,0,0,0,0,0,0,0,0,0,0,0,0,0,0,0,0,0,0,0,0,0,0,0,0,0,0],"sum_hessian":[8.71E3,8.233E3,4.77E2,8.121E3,1.12E2,5E1,4.27E2,7.84E3,2.81E2,1.7E1,9.5E1,4E1,1E1,9E0,4.18E2,2.32E2,7.608E3,2.79E2,2E0,1.2E1,5E0,9.3E1,2E0,6E0,3.4E1,6E0,4E0,6E0,3E0,5.6E1,3.62E2,2.13E2,1.9E1,7.544E3,6.4E1,2E0,2.77E2,4E0,8E0,7E0,8.6E1,4E0,2E0,2E1,1.4E1,4E0,2E0,4E0,2E0,8E0,4.8E1,6.1E1,3.01E2],"tree_param":{"num_deleted":"0","num_feature":"330","num_nodes":"53","size_leaf_vector":"1"}},{"base_weights":[-7.3002974E-7,-4.8814705E-5,3.9408463E-3,8.631011E-4,-2.780128E-4,1.9033182E-2,2.833905E-3,1.2046129E-2,6.249358E-4,-5.261731E-3,-1.5170727E-4,2.6778337E-3,-2.1980314E-4,1.2576053E-2,1.0813625E-3,-1.7451381E-3,1.7417584E-2,9.419945E-4,-5.955947E-3,-3.930264E-3,-3.5704426E-2,-2.2259346E-4,6.77548E-3,-3.205711E-4,2.8760062E-4,6.366731E-3,2.8060004E-3,2.749478E-3,-4.477487E-3,5.903097E-4,-1.2103639E-3,8.686838E-4,2.687955E-3,-2.2045204E-4,1.510895E-4,-2.9883735E-4,-2.8375308E-3,-9.978149E-4,1.1533101E-4,-2.2077828E-4,-4.0919236E-3,-3.0228417E-5,4.0041204E-4,2.7686094E-3,3.9220313E-4,-3.625374E-4,1.0100253E-3,1.1223792E-3,1.21451965E-4,-7.408387E-4,2.0239544E-4],"categories":[],"categories_nodes":[],"categories_segments":[],"categories_sizes":[],"default_left":[0,0,0,0,0,0,0,0,0,0,0,0,0,0,0,0,0,0,0,0,0,0,0,0,0,0,0,0,0,0,0,0,0,0,0,0,0,0,0,0,0,0,0,0,0,0,0,0,0,0,0],"id":12,"left_children":[1,3,5,7,9,11,13,15,17,19,21,-1,23,25,27,29,31,33,35,37,39,41,43,-1,-1,45,-1,47,49,-1,-1,-1,-1,-1,-1,-1,-1,-1,-1,-1,-1,-1,-1,-1,-1,-1,-1,-1,-1,-1,-1],"loss_changes":[1.651183E-3,1.7991835E-3,1.7002267E-3,4.597507E-3,4.329334E-3,1.0497072E-3,1.67668E-3,2.6972461E-3,3.5401862E-3,6.750357E-3,3.2964E-3,0E0,3.695104E-5,1.2635218E-3,8.0049894E-4,9.429157E-4,1.9143624E-3,2.8978477E-3,5.1046303E-3,5.0536674E-3,1.13241E-3,2.2387712E-3,3.948795E-3,0E0,0E0,4.8428596E-4,0E0,8.4487785E-4,3.960957E-4,0E0,0E0,0E0,0E0,0E0,0E0,0E0,0E0,0E0,0E0,0E0,0E0,0E0,0E0,0E0,0E0,0E0,0E0,0E0,0E0,0E0,0E0],"parents":[2147483647,0,0,1,1,2,2,3,3,4,4,5,5,6,6,7,7,8,8,9,9,10,10,12,12,13,13,14,14,15,15,16,16,17,17,18,18,19,19,20,20,21,21,22,22,25,25,27,27,28,28],"right_children":[2,4,6,8,10,12,14,16,18,20,22,-1,24,26,28,30,32,34,36,38,40,42,44,-1,-1,46,-1,48,50,-1,-1,-1,-1,-1,-1,-1,-1,-1,-1,-1,-1,-1,-1,-1,-1,-1,-1,-1,-1,-1,-1],"split_conditions":[8.174425E1,-6.7488877E-3,-1.47222E2,-3.9359618E-2,-2.690573E-2,5.4231235E-3,-4.8618853E3,-5.255238E-3,2.7948169E-2,3.4149278E-2,3.7594195E-2,2.6778337E-3,-3.5348508E-4,9.0756E-3,1.0541486E3,-1.5208354E3,2.6420658E-3,-4.501632E3,1.8687941E3,-1.8172007E-3,-3.2395455E4,1.5582003E3,-1.8016297E-2,-3.205711E-4,2.8760062E-4,1.931037E3,2.8060004E-3,-5.9388755E-3,4.1064243E3,5.903097E-4,-1.2103639E-3,8.686838E-4,2.687955E-3,-2.2045204E-4,1.510895E-4,-2.9883735E-4,-2.8375308E-3,-9.978149E-4,1.1533101E-4,-2.2077828E-4,-4.0919236E-3,-3.0228417E-5,4.0041204E-4,2.7686094E-3,3.9220313E-4,-3.625374E-4,1.0100253E-3,1.1223792E-3,1.21451965E-4,-7.408387E-4,2.0239544E-4],"split_indices":[248,33,75,275,297,22,78,55,99,22,154,0,0,297,206,111,165,276,227,55,1,74,308,0,0,45,0,0,221,0,0,0,0,0,0,0,0,0,0,0,0,0,0,0,0,0,0,0,0,0,0],"split_type":[0,0,0,0,0,0,0,0,0,0,0,0,0,0,0,0,0,0,0,0,0,0,0,0,0,0,0,0,0,0,0,0,0,0,0,0,0,0,0,0,0,0,0,0,0,0,0,0,0,0,0],"sum_hessian":[8.71E3,8.606E3,1.04E2,1.728E3,6.878E3,6E0,9.8E1,3.5E1,1.693E3,1.69E2,6.709E3,4E0,2E0,1.4E1,8.4E1,1E1,2.5E1,1.616E3,7.7E1,1.63E2,6E0,6.642E3,6.7E1,1E0,1E0,1.1E1,3E0,6.5E1,1.9E1,6E0,4E0,1.4E1,1.1E1,2.47E2,1.369E3,6.9E1,8E0,7.4E1,8.9E1,1E0,5E0,6.52E3,1.22E2,7E0,6E1,3E0,8E0,9E0,5.6E1,1.3E1,6E0],"tree_param":{"num_deleted":"0","num_feature":"330","num_nodes":"51","size_leaf_vector":"1"}},{"base_weights":[-9.789744E-8,4.7795884E-3,-3.8813236E-5,1.5953688E-2,1.9512204E-3,-3.3746683E-3,2.8121047E-5,2.177821E-3,4.557957E-3,4.2467136E-3,-1.0763267E-2,-4.3824757E-3,5.4187436E-2,-2.1615282E-3,1.3233502E-4,-4.1507796E-4,7.12986E-3,1.5126859E-2,2.073193E-3,-1.720544E-2,7.856224E-4,-2.953755E-3,-2.2709697E-2,6.519401E-3,1.6087143E-3,-1.7581973E-2,-1.3573049E-3,2.3753019E-2,1.1478722E-4,8.104144E-4,1.6163618E-4,2.154527E-3,6.9667574E-4,-1.3965763E-4,1.0863998E-3,-2.0658665E-3,-5.714916E-4,-2.4402272E-3,-1.6383833E-4,-4.259946E-3,-2.4170883E-4,-2.8298353E-3,4.8315836E-4,-1.363633E-5,-8.431719E-4,5.0305266E-6,2.8483502E-3,-2.9368011E-5,7.360498E-5],"categories":[],"categories_nodes":[],"categories_segments":[],"categories_sizes":[],"default_left":[0,0,0,0,0,0,0,0,0,0,0,0,0,0,0,0,0,0,0,0,0,0,0,0,0,0,0,0,0,0,0,0,0,0,0,0,0,0,0,0,0,0,0,0,0,0,0,0,0],"id":13,"left_children":[1,3,5,7,9,11,13,-1,15,17,19,21,23,25,27,-1,29,31,33,35,-1,37,39,-1,-1,41,43,45,47,-1,-1,-1,-1,-1,-1,-1,-1,-1,-1,-1,-1,-1,-1,-1,-1,-1,-1,-1,-1],"loss_changes":[1.6121313E-3,2.1811833E-3,1.9297072E-3,8.299814E-4,1.7093116E-3,1.0099432E-2,1.9337573E-3,0E0,1.6398264E-4,1.1274018E-3,1.2147194E-3,4.331914E-3,2.0927563E-4,4.7507063E-3,3.350092E-3,0E0,1.3759331E-5,2.6889844E-4,1.296259E-3,1.5969295E-4,0E0,4.3894257E-3,4.7404147E-3,0E0,0E0,4.7003776E-3,3.168793E-3,6.713192E-4,2.051656E-3,0E0,0E0,0E0,0E0,0E0,0E0,0E0,0E0,0E0,0E0,0E0,0E0,0E0,0E0,0E0,0E0,0E0,0E0,0E0,0E0],"parents":[2147483647,0,0,1,1,2,2,3,3,4,4,5,5,6,6,8,8,9,9,10,10,11,11,12,12,13,13,14,14,16,16,17,17,18,18,19,19,21,21,22,22,25,25,26,26,27,27,28,28],"right_children":[2,4,6,8,10,12,14,-1,16,18,20,22,24,26,28,-1,30,32,34,36,-1,38,40,-1,-1,42,44,46,48,-1,-1,-1,-1,-1,-1,-1,-1,-1,-1,-1,-1,-1,-1,-1,-1,-1,-1,-1,-1],"split_conditions":[-4.4637717E-2,-1.8486946E2,-2.6990043E-2,-4.96972E-3,5.302131E3,3.1534974E-2,3.0222311E1,2.177821E-3,-2.5218913E2,-3.5519077E3,6.498207E1,7.062398E1,1.0619984E-3,-2.9410162E2,2.0857155E1,-4.1507796E-4,-5.8951776E-4,5.490268E1,5.5349536E2,-4.9557214E2,7.856224E-4,-2.690573E-2,9.243452E1,6.519401E-3,1.6087143E-3,1.2446653E2,1.1514901E4,0E0,2.033262E-3,8.104144E-4,1.6163618E-4,2.154527E-3,6.9667574E-4,-1.3965763E-4,1.0863998E-3,-2.0658665E-3,-5.714916E-4,-2.4402272E-3,-1.6383833E-4,-4.259946E-3,-2.4170883E-4,-2.8298353E-3,4.8315836E-4,-1.363633E-5,-8.431719E-4,5.0305266E-6,2.8483502E-3,-2.9368011E-5,7.360498E-5],"split_indices":[319,320,319,297,298,77,303,0,9,155,28,226,0,108,292,0,0,28,52,12,0,297,218,0,0,155,287,2,209,0,0,0,0,0,0,0,0,0,0,0,0,0,0,0,0,0,0,0,0],"split_type":[0,0,0,0,0,0,0,0,0,0,0,0,0,0,0,0,0,0,0,0,0,0,0,0,0,0,0,0,0,0,0,0,0,0,0,0,0,0,0,0,0,0,0,0,0,0,0,0,0],"sum_hessian":[8.71E3,6.9E1,8.641E3,1.3E1,5.6E1,1.69E2,8.472E3,8E0,5E0,4.8E1,8E0,1.67E2,2E0,3.84E2,8.088E3,1E0,4E0,7E0,4.1E1,6E0,2E0,1.56E2,1.1E1,1E0,1E0,1.8E1,3.66E2,5E0,8.083E3,3E0,1E0,3E0,4E0,3E1,1.1E1,4E0,2E0,8E0,1.48E2,5E0,6E0,1.2E1,6E0,3.13E2,5.3E1,1E0,4E0,4.877E3,3.206E3],"tree_param":{"num_deleted":"0","num_feature":"330","num_nodes":"49","size_leaf_vector":"1"}},{"base_weights":[5.314962E-7,4.7507452E-5,-3.85016E-3,2.0424658E-3,-4.1846495E-5,1.0313734E-3,-9.240474E-3,1.015398E-3,1.1814618E-2,-1.13865935E-4,2.9611704E-3,1.9602628E-2,-7.7415834E-4,2.838856E-3,-1.2720255E-2,1.5037441E-2,3.1112274E-4,3.6234744E-2,5.512703E-3,2.7609247E-4,-7.040048E-4,2.1763489E-2,2.0304567E-3,2.2919246E-3,3.168081E-4,-3.2993986E-3,7.918259E-3,-2.9206525E-3,5.0832094E-3,-6.859105E-3,-2.1640822E-2,2.2322384E-3,-8.245321E-5,9.086761E-5,-1.6557301E-3,1.5841917E-3,4.1223494E-3,1.4195386E-3,1.9574421E-5,2.422432E-5,1.3891524E-3,-3.5226294E-3,-6.281725E-5,2.2988359E-4,2.6996413E-3,-7.569451E-5,7.572511E-4,-1.8238484E-4,-1.3558591E-3,1.3257045E-3,-6.073574E-4,-4.847068E-4,-6.628248E-5,5.433594E-4,1.1400674E-4,-1.6237305E-3,-3.042973E-4,-2.402017E-3,-4.1167095E-4],"categories":[],"categories_nodes":[],"categories_segments":[],"categories_sizes":[],"default_left":[0,0,0,0,0,0,0,0,0,0,0,0,0,0,0,0,0,0,0,0,0,0,0,0,0,0,0,0,0,0,0,0,0,0,0,0,0,0,0,0,0,0,0,0,0,0,0,0,0,0,0,0,0,0,0,0,0,0,0],"id":14,"left_children":[1,3,5,7,9,11,13,15,17,19,21,23,25,27,29,31,33,35,37,39,41,43,45,-1,-1,47,49,51,53,55,57,-1,-1,-1,-1,-1,-1,-1,-1,-1,-1,-1,-1,-1,-1,-1,-1,-1,-1,-1,-1,-1,-1,-1,-1,-1,-1,-1,-1],"loss_changes":[1.5759149E-3,1.5343472E-3,2.7723948E-3,3.6915322E-3,1.7822316E-3,1.8929109E-3,2.137783E-3,3.3035728E-3,5.1865233E-3,1.8520473E-3,3.3332277E-3,1.999255E-4,1.1675485E-3,1.6996273E-4,1.8906696E-3,1.8672633E-3,3.2405762E-3,5.9083104E-5,1.3360201E-3,2.2300233E-3,8.360402E-3,8.546533E-4,2.8635992E-3,0E0,0E0,5.9592724E-4,9.769103E-4,1.4185302E-5,6.239876E-6,8.4530166E-4,5.2655535E-4,0E0,0E0,0E0,0E0,0E0,0E0,0E0,0E0,0E0,0E0,0E0,0E0,0E0,0E0,0E0,0E0,0E0,0E0,0E0,0E0,0E0,0E0,0E0,0E0,0E0,0E0,0E0,0E0],"parents":[2147483647,0,0,1,1,2,2,3,3,4,4,5,5,6,6,7,7,8,8,9,9,10,10,11,11,12,12,13,13,14,14,15,15,16,16,17,17,18,18,19,19,20,20,21,21,22,22,25,25,26,26,27,27,28,28,29,29,30,30],"right_children":[2,4,6,8,10,12,14,16,18,20,22,24,26,28,30,32,34,36,38,40,42,44,46,-1,-1,48,50,52,54,56,58,-1,-1,-1,-1,-1,-1,-1,-1,-1,-1,-1,-1,-1,-1,-1,-1,-1,-1,-1,-1,-1,-1,-1,-1,-1,-1,-1,-1],"split_conditions":[3.7594195E-2,-2.238641E-2,1.170663E1,5.530574E1,4.2569568E2,-2.1355506E-2,-6.265447E3,-4.4637717E-2,-1.1173783E2,2.2278318E1,-2.4443405E-2,6.668468E1,8.841689E-3,4.120155E1,1.0805889E3,3.5720234E1,1.6243328E3,4.4066177E2,-1.610113E-3,2.441067E3,-1.8252871E3,9.8933057E2,6.2953136E1,2.2919246E-3,3.168081E-4,5.8554404E3,1.5694569E3,7.5056085E2,6.9380077E-3,-3.4512002E3,1.6784576E4,2.2322384E-3,-8.245321E-5,9.086761E-5,-1.6557301E-3,1.5841917E-3,4.1223494E-3,1.4195386E-3,1.9574421E-5,2.422432E-5,1.3891524E-3,-3.5226294E-3,-6.281725E-5,2.2988359E-4,2.6996413E-3,-7.569451E-5,7.572511E-4,-1.8238484E-4,-1.3558591E-3,1.3257045E-3,-6.073574E-4,-4.847068E-4,-6.628248E-5,5.433594E-4,1.1400674E-4,-1.6237305E-3,-3.042973E-4,-2.402017E-3,-4.1167095E-4],"split_indices":[121,264,155,292,53,198,265,286,306,9,66,6,286,17,298,303,151,10,55,326,41,62,215,0,0,265,210,1,0,177,100,0,0,0,0,0,0,0,0,0,0,0,0,0,0,0,0,0,0,0,0,0,0,0,0,0,0,0,0],"split_type":[0,0,0,0,0,0,0,0,0,0,0,0,0,0,0,0,0,0,0,0,0,0,0,0,0,0,0,0,0,0,0,0,0,0,0,0,0,0,0,0,0,0,0,0,0,0,0,0,0,0,0,0,0,0,0,0,0,0,0],"sum_hessian":[8.71E3,8.606E3,1.04E2,3.68E2,8.238E3,5.5E1,4.9E1,3.34E2,3.4E1,8.046E3,1.92E2,4E0,5.1E1,1.1E1,3.8E1,1.5E1,3.19E2,6E0,2.8E1,4.845E3,3.201E3,8E0,1.84E2,3E0,1E0,4E1,1.1E1,3E0,8E0,2.4E1,1.4E1,1E1,5E0,3.09E2,1E1,2E0,4E0,1E1,1.8E1,4.834E3,1.1E1,6E0,3.195E3,2E0,6E0,1.23E2,6.1E1,3.6E1,4E0,8E0,3E0,1E0,2E0,7E0,1E0,6E0,1.8E1,1.2E1,2E0],"tree_param":{"num_deleted":"0","num_feature":"330","num_nodes":"59","size_leaf_vector":"1"}},{"base_weights":[1.2042215E-6,5.3990316E-5,-3.2544534E-3,2.5656875E-5,7.1690963E-3,6.5792967E-3,-5.57531E-3,-3.371216E-4,5.8121426E-4,1.1465501E-2,-2.8566136E-3,-1.2168721E-2,1.2515336E-2,-7.124514E-3,9.4377175E-3,-1.6491318E-2,-3.057375E-4,7.0803934E-3,3.9279868E-4,1.9626873E-2,3.0499664E-3,-5.459035E-3,3.062382E-4,-1.5591544E-3,-2.4077766E-4,2.0631166E-2,3.261747E-3,-1.165245E-3,-1.044766E-2,2.2514313E-3,2.1450862E-3,2.3656781E-4,-2.4910842E-3,1.0258384E-3,-3.6954058E-5,2.9368224E-3,4.693372E-4,-1.5263495E-5,2.3016515E-4,2.7438307E-3,7.242388E-4,9.971076E-4,-2.3473694E-6,-1.8971409E-4,-6.3301425E-4,6.782413E-4,2.497665E-3,7.750754E-4,-3.6752122E-4,7.107426E-4,-4.7988305E-4,-5.3806783E-4,-1.7567351E-3,-3.0381276E-4,6.032792E-4],"categories":[],"categories_nodes":[],"categories_segments":[],"categories_sizes":[],"default_left":[0,0,0,0,0,0,0,0,0,0,0,0,0,0,0,0,0,0,0,0,0,0,0,0,0,0,0,0,0,0,0,0,0,0,0,0,0,0,0,0,0,0,0,0,0,0,0,0,0,0,0,0,0,0,0],"id":15,"left_children":[1,3,5,7,9,11,13,15,17,19,21,23,25,27,29,31,33,35,37,39,41,43,-1,-1,-1,45,47,49,51,53,-1,-1,-1,-1,-1,-1,-1,-1,-1,-1,-1,-1,-1,-1,-1,-1,-1,-1,-1,-1,-1,-1,-1,-1,-1],"loss_changes":[1.497191E-3,1.7280938E-3,3.2090405E-3,1.721384E-3,1.497286E-3,3.1570974E-3,2.6954198E-3,2.6145473E-3,4.12884E-3,1.5885138E-3,1.8615855E-4,1.9632885E-4,1.5098187E-3,2.027589E-3,9.0133364E-4,1.6466002E-3,3.4804028E-3,4.916309E-3,3.4153317E-3,9.621675E-4,2.7676503E-4,1.281318E-5,0E0,0E0,0E0,4.925723E-4,3.710263E-4,1.1763667E-3,2.2864495E-3,1.7834223E-4,0E0,0E0,0E0,0E0,0E0,0E0,0E0,0E0,0E0,0E0,0E0,0E0,0E0,0E0,0E0,0E0,0E0,0E0,0E0,0E0,0E0,0E0,0E0,0E0,0E0],"parents":[2147483647,0,0,1,1,2,2,3,3,4,4,5,5,6,6,7,7,8,8,9,9,10,10,11,11,12,12,13,13,14,14,15,15,16,16,17,17,18,18,19,19,20,20,21,21,25,25,26,26,27,27,28,28,29,29],"right_children":[2,4,6,8,10,12,14,16,18,20,22,24,26,28,30,32,34,36,38,40,42,44,-1,-1,-1,46,48,50,52,54,-1,-1,-1,-1,-1,-1,-1,-1,-1,-1,-1,-1,-1,-1,-1,-1,-1,-1,-1,-1,-1,-1,-1,-1,-1],"split_conditions":[3.397424E-2,5.210809E-2,-6.602023E3,1.9702981E-3,1.5400644E2,-1.221001E-2,2.2236954E-2,-5.328108E-2,-3.9889542E2,-6.7488877E-3,3.7826842E-3,8.660254E-1,0E0,-4.3388373E-1,1E0,-1.0350661E2,-1.7234048E3,-1.42813325E-2,6.541878E-3,1.5829239E4,-3.402923E-2,9.4787244E2,3.062382E-4,-1.5591544E-3,-2.4077766E-4,6.8653326E2,1.3696716E3,-1.8413043E3,1.5739452E3,4.1539875E1,2.1450862E-3,2.3656781E-4,-2.4910842E-3,1.0258384E-3,-3.6954058E-5,2.9368224E-3,4.693372E-4,-1.5263495E-5,2.3016515E-4,2.7438307E-3,7.242388E-4,9.971076E-4,-2.3473694E-6,-1.8971409E-4,-6.3301425E-4,6.782413E-4,2.497665E-3,7.750754E-4,-3.6752122E-4,7.107426E-4,-4.7988305E-4,-5.3806783E-4,-1.7567351E-3,-3.0381276E-4,6.032792E-4],"split_indices":[264,33,243,165,31,297,198,220,328,99,187,2,158,125,38,152,98,154,77,34,165,7,0,0,0,23,111,111,243,6,0,0,0,0,0,0,0,0,0,0,0,0,0,0,0,0,0,0,0,0,0,0,0,0,0],"split_type":[0,0,0,0,0,0,0,0,0,0,0,0,0,0,0,0,0,0,0,0,0,0,0,0,0,0,0,0,0,0,0,0,0,0,0,0,0,0,0,0,0,0,0,0,0,0,0,0,0,0,0,0,0,0,0],"sum_hessian":[8.71E3,8.572E3,1.38E2,8.539E3,3.3E1,2.6E1,1.12E2,5.166E3,3.373E3,2.3E1,1E1,6E0,2E1,1.02E2,1E1,9E0,5.157E3,9.4E1,3.279E3,1.1E1,1.2E1,7E0,3E0,4E0,2E0,1E1,1E1,3.7E1,6.5E1,7E0,3E0,3E0,6E0,3E1,5.127E3,8E0,8.6E1,2.551E3,7.28E2,6E0,5E0,3E0,9E0,2E0,5E0,3E0,7E0,6E0,4E0,1.1E1,2.6E1,3.9E1,2.6E1,3E0,4E0],"tree_param":{"num_deleted":"0","num_feature":"330","num_nodes":"55","size_leaf_vector":"1"}},{"base_weights":[2.055683E-6,-3.2983953E-3,5.517677E-5,-1.4439909E-3,-1.734798E-2,6.2019834E-3,1.621623E-5,-4.2289146E-4,-1.8304655E-2,-3.6405236E-3,-7.961791E-3,1.338342E-2,-4.0592314E-3,-5.0535396E-5,2.8369832E-3,-9.127984E-3,1.3579732E-3,-2.1202646E-3,-4.583496E-5,-1.468191E-3,-1.1025067E-2,3.6710233E-3,8.739939E-3,7.034209E-4,-1.5045783E-2,-4.969319E-6,-4.12815E-3,3.2738887E-2,2.047623E-3,-1.9029316E-3,5.088013E-4,9.4385503E-4,-7.04932E-5,7.830801E-5,-3.230065E-4,-4.973244E-4,-1.3661513E-3,-8.52938E-5,1.41167E-3,7.678557E-4,-4.9470295E-4,-6.2702136E-4,-1.7301968E-3,-5.0027337E-4,3.6026665E-6,-7.368954E-4,5.914651E-4,6.1850636E-3,9.998288E-4,-1.4899147E-3,3.0550922E-4],"categories":[],"categories_nodes":[],"categories_segments":[],"categories_sizes":[],"default_left":[0,0,0,0,0,0,0,0,0,0,0,0,0,0,0,0,0,0,0,0,0,0,0,0,0,0,0,0,0,0,0,0,0,0,0,0,0,0,0,0,0,0,0,0,0,0,0,0,0,0,0],"id":16,"left_children":[1,3,5,7,9,11,13,15,17,-1,19,21,23,25,27,29,31,-1,-1,33,35,-1,37,39,41,43,45,47,49,-1,-1,-1,-1,-1,-1,-1,-1,-1,-1,-1,-1,-1,-1,-1,-1,-1,-1,-1,-1,-1,-1],"loss_changes":[1.5274254E-3,3.5703483E-3,2.0532259E-3,2.109878E-3,2.5721495E-3,4.033601E-3,1.604569E-3,1.8261988E-3,3.5231118E-4,0E0,2.225134E-4,3.145318E-3,1.2140613E-3,1.5467721E-3,4.5828265E-3,2.9119675E-3,1.640261E-3,0E0,0E0,2.236168E-5,5.9700338E-5,0E0,1.456242E-3,7.080013E-4,3.0108262E-5,1.6872302E-3,3.0378853E-3,2.6916922E-3,3.3406743E-3,0E0,0E0,0E0,0E0,0E0,0E0,0E0,0E0,0E0,0E0,0E0,0E0,0E0,0E0,0E0,0E0,0E0,0E0,0E0,0E0,0E0,0E0],"parents":[2147483647,0,0,1,1,2,2,3,3,4,4,5,5,6,6,7,7,8,8,10,10,11,11,12,12,13,13,14,14,15,15,16,16,19,19,20,20,22,22,23,23,24,24,25,25,26,26,27,27,28,28],"right_children":[2,4,6,8,10,12,14,16,18,-1,20,22,24,26,28,30,32,-1,-1,34,36,-1,38,40,42,44,46,48,50,-1,-1,-1,-1,-1,-1,-1,-1,-1,-1,-1,-1,-1,-1,-1,-1,-1,-1,-1,-1,-1,-1],"split_conditions":[-4.7945007E2,1.99752E-2,-4.3897897E2,4.6202217E3,4.6043804E1,1.4244852E-3,2.9698465E-2,-4.0330166E3,-7.45501E-3,-3.6405236E-3,-1.5355522E-2,3.5094585E1,3.275172E3,3.756248E-2,-3.9359618E-2,5.528596E-3,-1.6895385E-2,-2.1202646E-3,-4.583496E-5,1.7955187E3,2.9094759E1,3.6710233E-3,3.6627857E1,-4.2418917E-3,-6.8069766E3,-3.8351254E4,2.5944414E3,1.0619984E-3,-2.6975615E-2,-1.9029316E-3,5.088013E-4,9.4385503E-4,-7.04932E-5,7.830801E-5,-3.230065E-4,-4.973244E-4,-1.3661513E-3,-8.52938E-5,1.41167E-3,7.678557E-4,-4.9470295E-4,-6.2702136E-4,-1.7301968E-3,-5.0027337E-4,3.6026665E-6,-7.368954E-4,5.914651E-4,6.1850636E-3,9.998288E-4,-1.4899147E-3,3.0550922E-4],"split_indices":[31,143,20,100,204,187,242,320,0,0,99,171,320,264,319,209,132,0,0,7,6,0,94,319,1,78,210,0,11,0,0,0,0,0,0,0,0,0,0,0,0,0,0,0,0,0,0,0,0,0,0],"split_type":[0,0,0,0,0,0,0,0,0,0,0,0,0,0,0,0,0,0,0,0,0,0,0,0,0,0,0,0,0,0,0,0,0,0,0,0,0,0,0,0,0,0,0,0,0,0,0,0,0,0,0],"sum_hessian":[8.71E3,1.37E2,8.573E3,1.22E2,1.5E1,5.3E1,8.52E3,1.16E2,6E0,4E0,1.1E1,3.1E1,2.2E1,8.324E3,1.96E2,1.9E1,9.7E1,5E0,1E0,4E0,7E0,4E0,2.7E1,1.6E1,6E0,8.233E3,9.1E1,4E0,1.92E2,1.1E1,8E0,1.9E1,7.8E1,2E0,2E0,3E0,4E0,1E1,1.7E1,7E0,9E0,2E0,4E0,6.6E1,8.167E3,6.9E1,2.2E1,1E0,3E0,1E1,1.82E2],"tree_param":{"num_deleted":"0","num_feature":"330","num_nodes":"51","size_leaf_vector":"1"}},{"base_weights":[1.8312868E-6,6.2089306E-3,-2.3924524E-5,1.1348526E-3,3.139018E-2,-1.2572997E-3,1.4056083E-4,-1.7068841E-3,7.2731883E-3,-1.3904615E-4,3.82244E-3,-2.8257592E-2,-1.1233186E-3,9.842053E-3,9.343541E-5,-7.856669E-4,5.640332E-4,1.2375838E-4,9.683078E-3,-3.3297322E-3,-4.049333E-4,-9.206912E-3,-7.3088583E-4,1.1786353E-2,-3.007638E-3,1.7003813E-5,3.5899593E-3,-1.10352084E-4,6.2594644E-4,1.0502497E-3,2.3832834E-4,-1.5301346E-3,-9.3278715E-5,-5.9098814E-4,-2.7190315E-5,1.9727486E-5,2.1047753E-3,8.2232575E-5,-2.6627758E-5,3.917295E-3,2.4484194E-4],"categories":[],"categories_nodes":[],"categories_segments":[],"categories_sizes":[],"default_left":[0,0,0,0,0,0,0,0,0,0,0,0,0,0,0,0,0,0,0,0,0,0,0,0,0,0,0,0,0,0,0,0,0,0,0,0,0,0,0,0,0],"id":17,"left_children":[1,3,5,7,9,11,13,15,17,-1,-1,19,21,23,25,-1,27,-1,29,-1,-1,31,33,35,-1,37,39,-1,-1,-1,-1,-1,-1,-1,-1,-1,-1,-1,-1,-1,-1],"loss_changes":[1.3927664E-3,4.564155E-3,1.7602956E-3,5.5316405E-4,1.3973308E-3,3.6617545E-3,3.499304E-3,3.116758E-4,1.3346784E-4,0E0,0E0,4.751836E-4,3.2194662E-3,3.2261875E-3,2.0363452E-3,0E0,1.6836393E-4,0E0,1.684064E-5,0E0,0E0,2.355754E-3,2.3065272E-3,3.8597668E-3,0E0,1.7016326E-3,6.5250527E-3,0E0,0E0,0E0,0E0,0E0,0E0,0E0,0E0,0E0,0E0,0E0,0E0,0E0,0E0],"parents":[2147483647,0,0,1,1,2,2,3,3,4,4,5,5,6,6,7,7,8,8,11,11,12,12,13,13,14,14,16,16,18,18,21,21,22,22,23,23,25,25,26,26],"right_children":[2,4,6,8,10,12,14,16,18,-1,-1,20,22,24,26,-1,28,-1,30,-1,-1,32,34,36,-1,38,40,-1,-1,-1,-1,-1,-1,-1,-1,-1,-1,-1,-1,-1,-1],"split_conditions":[1.691358E1,8.912204E3,3.6627857E1,2.2966055E1,-3.0388642E-2,-5.328108E-2,-1.6328529E3,-1.2065984E2,-1.0038397E-2,-1.3904615E-4,3.82244E-3,-1.4201096E3,-2.6975615E-2,4.0821945E4,2.9698465E-2,-7.856669E-4,1.3642311E4,1.2375838E-4,-1.9948105E-3,-3.3297322E-3,-4.049333E-4,2.495228E-3,-1.955419E-2,-5.451053E2,-3.007638E-3,-6.65278E1,-3.402923E-2,-1.10352084E-4,6.2594644E-4,1.0502497E-3,2.3832834E-4,-1.5301346E-3,-9.3278715E-5,-5.9098814E-4,-2.7190315E-5,1.9727486E-5,2.1047753E-3,8.2232575E-5,-2.6627758E-5,3.917295E-3,2.4484194E-4],"split_indices":[127,210,94,94,0,165,219,10,154,0,0,8,99,309,242,0,78,0,0,0,0,297,176,23,0,20,99,0,0,0,0,0,0,0,0,0,0,0,0,0,0],"split_type":[0,0,0,0,0,0,0,0,0,0,0,0,0,0,0,0,0,0,0,0,0,0,0,0,0,0,0,0,0,0,0,0,0,0,0,0,0,0,0,0,0],"sum_hessian":[8.71E3,3.5E1,8.675E3,3E1,5E0,1.02E3,7.655E3,2.1E1,9E0,1E0,4E0,4E0,1.016E3,3.6E1,7.619E3,5E0,1.6E1,3E0,6E0,3E0,1E0,4.6E1,9.7E2,3.5E1,1E0,7.457E3,1.62E2,1.3E1,3E0,5E0,1E0,2.6E1,2E1,7.8E1,8.92E2,1.6E1,1.9E1,1.94E3,5.517E3,4E0,1.58E2],"tree_param":{"num_deleted":"0","num_feature":"330","num_nodes":"41","size_leaf_vector":"1"}},{"base_weights":[1.8988719E-6,-6.9478294E-5,2.1917433E-3,-1.8633325E-5,-6.6180234E-3,2.5187176E-2,1.8455174E-3,-4.2776795E-5,1.1190336E-2,-3.2710463E-2,-2.9049623E-3,2.981138E-3,5.6572846E-4,1.1761353E-3,1.0220926E-2,1.1053055E-4,-1.1504405E-3,2.4499884E-2,5.637617E-3,8.179305E-3,-4.7703604E-3,-7.030892E-3,3.6793177E-3,-6.326225E-4,3.4957407E-3,2.8049257E-2,4.010765E-3,-4.9694468E-6,2.243213E-4,-3.9091447E-4,-2.6401167E-5,2.9071174E-3,3.1073662E-4,7.324794E-4,-8.1478426E-4,1.4373838E-3,-2.1048801E-4,-3.2564596E-4,-1.983435E-3,7.36161E-5,9.105717E-4,-1.0820287E-3,-1.8509632E-5,9.113885E-5,9.0814376E-4,3.1351068E-3,7.421008E-4,8.3490054E-4,-1.1091208E-3],"categories":[],"categories_nodes":[],"categories_segments":[],"categories_sizes":[],"default_left":[0,0,0,0,0,0,0,0,0,0,0,0,0,0,0,0,0,0,0,0,0,0,0,0,0,0,0,0,0,0,0,0,0,0,0,0,0,0,0,0,0,0,0,0,0,0,0,0,0],"id":18,"left_children":[1,3,5,7,9,11,13,15,17,19,21,-1,-1,23,25,27,29,31,33,35,-1,37,39,41,43,45,47,-1,-1,-1,-1,-1,-1,-1,-1,-1,-1,-1,-1,-1,-1,-1,-1,-1,-1,-1,-1,-1,-1],"loss_changes":[1.3617241E-3,2.809065E-3,2.1429614E-3,2.2664084E-3,6.2023615E-3,1.9258936E-4,1.5129057E-3,1.4190846E-3,1.1921546E-3,5.2947104E-3,1.601513E-3,0E0,0E0,1.0636996E-3,2.1018374E-3,2.5085977E-3,2.4834892E-3,3.9862213E-4,3.8530043E-4,2.2137238E-4,0E0,1.6751386E-3,3.6062373E-4,6.499695E-4,1.5940533E-3,1.07896514E-4,1.1408563E-3,0E0,0E0,0E0,0E0,0E0,0E0,0E0,0E0,0E0,0E0,0E0,0E0,0E0,0E0,0E0,0E0,0E0,0E0,0E0,0E0,0E0,0E0],"parents":[2147483647,0,0,1,1,2,2,3,3,4,4,5,5,6,6,7,7,8,8,9,9,10,10,13,13,14,14,15,15,16,16,17,17,18,18,19,19,21,21,22,22,23,23,24,24,25,25,26,26],"right_children":[2,4,6,8,10,12,14,16,18,20,22,-1,-1,24,26,28,30,32,34,36,-1,38,40,42,44,46,48,-1,-1,-1,-1,-1,-1,-1,-1,-1,-1,-1,-1,-1,-1,-1,-1,-1,-1,-1,-1,-1,-1],"split_conditions":[7.644559E1,1.7441317E3,-5.328108E-2,1.6748899E3,-3.0388642E-2,7.911402E3,1.05790855E2,6.4986984E1,-8.437066E-3,-8.906885E-3,8.852631E2,2.981138E-3,5.6572846E-4,-4.735119E2,-4.8457085E3,2.3238881E2,-5.3797993E-3,8.660254E-1,1.665894E-2,4.187512E-3,-4.7703604E-3,-8.3262505E1,7.118194E2,-7.652222E-3,8.424374E2,1.1977129E-2,4.6186857E-3,-4.9694468E-6,2.243213E-4,-3.9091447E-4,-2.6401167E-5,2.9071174E-3,3.1073662E-4,7.324794E-4,-8.1478426E-4,1.4373838E-3,-2.1048801E-4,-3.2564596E-4,-1.983435E-3,7.36161E-5,9.105717E-4,-1.0820287E-3,-1.8509632E-5,9.113885E-5,9.0814376E-4,3.1351068E-3,7.421008E-4,8.3490054E-4,-1.1091208E-3],"split_indices":[50,162,253,219,308,1,328,83,286,110,166,0,0,67,265,119,297,2,11,0,0,251,276,0,40,0,55,0,0,0,0,0,0,0,0,0,0,0,0,0,0,0,0,0,0,0,0,0,0],"split_type":[0,0,0,0,0,0,0,0,0,0,0,0,0,0,0,0,0,0,0,0,0,0,0,0,0,0,0,0,0,0,0,0,0,0,0,0,0,0,0,0,0,0,0,0,0,0,0,0,0],"sum_hessian":[8.71E3,8.436E3,2.74E2,8.372E3,6.4E1,3E0,2.71E2,8.355E3,1.7E1,7E0,5.7E1,2E0,1E0,2.52E2,1.9E1,7.34E3,1.015E3,4E0,1.3E1,2E0,5E0,3.5E1,2.2E1,1.42E2,1.1E2,4E0,1.5E1,6.828E3,5.12E2,2.46E2,7.69E2,3E0,1E0,1.2E1,1E0,1E0,1E0,2.8E1,7E0,1.5E1,7E0,5E0,1.37E2,7.6E1,3.4E1,3E0,1E0,1.2E1,3E0],"tree_param":{"num_deleted":"0","num_feature":"330","num_nodes":"49","size_leaf_vector":"1"}},{"base_weights":[2.2965064E-6,-3.0604214E-3,5.1591207E-5,-1.3641283E-3,-1.5909398E-2,5.4612868E-3,1.7302376E-5,1.555081E-4,-1.0848655E-2,-3.322091E-3,-7.3704864E-3,1.19681265E-2,-3.8291554E-3,-1.0855973E-4,1.4526915E-3,-2.361799E-3,8.332698E-4,2.460178E-3,-1.51329255E-2,-1.3371758E-3,-3.8843115E-3,4.125622E-3,8.64038E-3,5.6171184E-4,-1.3945668E-2,-5.153944E-3,-5.2558233E-5,8.226617E-3,7.4360985E-4,-5.09408E-4,3.2721309E-4,-2.2610788E-5,3.1882766E-4,-2.0162053E-3,-5.905268E-4,7.378699E-5,-5.310345E-4,2.2564102E-3,4.2192783E-4,6.881755E-4,-4.550494E-4,-5.980138E-4,-1.5935851E-3,1.13741706E-4,-1.480948E-3,-4.701812E-4,-2.226909E-7,2.826886E-3,5.3203315E-4,3.5831694E-5,1.297301E-3],"categories":[],"categories_nodes":[],"categories_segments":[],"categories_sizes":[],"default_left":[0,0,0,0,0,0,0,0,0,0,0,0,0,0,0,0,0,0,0,0,0,0,0,0,0,0,0,0,0,0,0,0,0,0,0,0,0,0,0,0,0,0,0,0,0,0,0,0,0,0,0],"id":19,"left_children":[1,3,5,7,9,11,13,15,17,-1,19,21,23,25,27,-1,29,31,33,-1,35,-1,37,39,41,43,45,47,49,-1,-1,-1,-1,-1,-1,-1,-1,-1,-1,-1,-1,-1,-1,-1,-1,-1,-1,-1,-1,-1,-1],"loss_changes":[1.3153078E-3,2.986095E-3,1.5903151E-3,1.77449E-3,2.120289E-3,3.3102045E-3,1.539571E-3,1.743746E-3,1.0065464E-3,0E0,1.9911776E-4,2.7623586E-3,1.0294996E-3,2.2135011E-3,3.2937261E-3,0E0,1.5345466E-3,1.0500295E-5,4.8422976E-4,0E0,6.3240805E-5,0E0,1.7515409E-3,5.805745E-4,1.5671481E-5,5.24104E-3,1.8135137E-3,3.6357525E-3,2.9308656E-3,0E0,0E0,0E0,0E0,0E0,0E0,0E0,0E0,0E0,0E0,0E0,0E0,0E0,0E0,0E0,0E0,0E0,0E0,0E0,0E0,0E0,0E0],"parents":[2147483647,0,0,1,1,2,2,3,3,4,4,5,5,6,6,7,7,8,8,10,10,11,11,12,12,13,13,14,14,16,16,17,17,18,18,20,20,22,22,23,23,24,24,25,25,26,26,27,27,28,28],"right_children":[2,4,6,8,10,12,14,16,18,-1,20,22,24,26,28,-1,30,32,34,-1,36,-1,38,40,42,44,46,48,50,-1,-1,-1,-1,-1,-1,-1,-1,-1,-1,-1,-1,-1,-1,-1,-1,-1,-1,-1,-1,-1,-1],"split_conditions":[-4.7945007E2,1.99752E-2,-4.3897897E2,3.7671682E3,4.6043804E1,1.4244852E-3,1.5717788E-2,-1.6877013E3,-1.238621E3,-3.322091E-3,-5.7318173E-3,-4.127189E2,3.275172E3,-3.9359618E-2,-1.8820062E-2,-2.361799E-3,-1.7005084E3,-3.9359618E-2,5.3818016E1,-1.3371758E-3,-1.9843304E-3,4.125622E-3,3.7489532E1,-4.2418917E-3,-6.8069766E3,8.0302515E-4,-3.9359618E-2,-3.402923E-2,2.7740786E-2,-5.09408E-4,3.2721309E-4,-2.2610788E-5,3.1882766E-4,-2.0162053E-3,-5.905268E-4,7.378699E-5,-5.310345E-4,2.2564102E-3,4.2192783E-4,6.881755E-4,-4.550494E-4,-5.980138E-4,-1.5935851E-3,1.13741706E-4,-1.480948E-3,-4.701812E-4,-2.226909E-7,2.826886E-3,5.3203315E-4,3.5831694E-5,1.297301E-3],"split_indices":[31,143,20,100,204,187,165,239,206,0,319,53,320,308,286,0,144,0,281,0,77,0,237,319,1,66,187,308,308,0,0,0,0,0,0,0,0,0,0,0,0,0,0,0,0,0,0,0,0,0,0],"split_type":[0,0,0,0,0,0,0,0,0,0,0,0,0,0,0,0,0,0,0,0,0,0,0,0,0,0,0,0,0,0,0,0,0,0,0,0,0,0,0,0,0,0,0,0,0,0,0,0,0,0,0],"sum_hessian":[8.71E3,1.37E2,8.573E3,1.22E2,1.5E1,5.3E1,8.52E3,1.06E2,1.6E1,4E0,1.1E1,3.1E1,2.2E1,7.834E3,6.86E2,2E0,1.04E2,4E0,1.2E1,3E0,8E0,2E0,2.9E1,1.6E1,6E0,8.5E1,7.749E3,6.4E1,6.22E2,3E1,7.4E1,1E0,3E0,7E0,5E0,2E0,6E0,6E0,2.3E1,7E0,9E0,2E0,4E0,5.2E1,3.3E1,8.2E1,7.667E3,7E0,5.7E1,6.04E2,1.8E1],"tree_param":{"num_deleted":"0","num_feature":"330","num_nodes":"51","size_leaf_vector":"1"}},{"base_weights":[1.8061529E-6,-7.178133E-5,2.0029512E-3,6.703319E-5,-1.255558E-3,2.345123E-3,-3.3680298E-3,9.935042E-4,-1.7164265E-4,1.879702E-3,-2.0122516E-3,-8.037651E-3,2.9814844E-3,1.9007182E-2,8.8710064E-4,-8.774997E-3,-1.2825742E-4,-5.937735E-4,1.1936567E-2,1.225349E-2,-2.274687E-3,7.8735675E-4,-1.916733E-2,3.3930957E-3,2.7569847E-3,2.0568099E-4,2.3556317E-3,3.463095E-4,1.9929448E-5,-2.1910276E-3,-2.1022453E-4,-1.5466068E-5,1.1083431E-3,4.275145E-5,-1.9913423E-3,1.793E-4,3.038369E-3,2.1188115E-3,4.0208368E-4,3.1744433E-3,-2.3689042E-4,-4.124073E-4,7.5058866E-4,-2.7953365E-3,-8.305035E-4,1.6864749E-4,8.375407E-4],"categories":[],"categories_nodes":[],"categories_segments":[],"categories_sizes":[],"default_left":[0,0,0,0,0,0,0,0,0,0,0,0,0,0,0,0,0,0,0,0,0,0,0,0,0,0,0,0,0,0,0,0,0,0,0,0,0,0,0,0,0,0,0,0,0,0,0],"id":20,"left_children":[1,3,5,7,9,11,-1,13,15,17,19,21,23,25,27,29,31,33,35,37,39,41,43,-1,45,-1,-1,-1,-1,-1,-1,-1,-1,-1,-1,-1,-1,-1,-1,-1,-1,-1,-1,-1,-1,-1,-1],"loss_changes":[1.2829188E-3,1.3809103E-3,3.8518142E-3,1.6634822E-3,2.0962665E-3,2.0523737E-3,0E0,2.9368028E-3,2.231707E-3,4.285658E-3,2.6897406E-3,1.7830422E-3,1.921416E-3,6.4553483E-4,2.7154563E-3,2.5833927E-3,1.7639516E-3,2.7511118E-3,6.307589E-3,8.7102945E-4,2.3156228E-3,3.939283E-4,5.313384E-4,0E0,1.7240876E-3,0E0,0E0,0E0,0E0,0E0,0E0,0E0,0E0,0E0,0E0,0E0,0E0,0E0,0E0,0E0,0E0,0E0,0E0,0E0,0E0,0E0,0E0],"parents":[2147483647,0,0,1,1,2,2,3,3,4,4,5,5,7,7,8,8,9,9,10,10,11,11,12,12,13,13,14,14,15,15,16,16,17,17,18,18,19,19,20,20,21,21,22,22,24,24],"right_children":[2,4,6,8,10,12,-1,14,16,18,20,22,24,26,28,30,32,34,36,38,40,42,44,-1,46,-1,-1,-1,-1,-1,-1,-1,-1,-1,-1,-1,-1,-1,-1,-1,-1,-1,-1,-1,-1,-1,-1],"split_conditions":[7.5894966E1,1.2995347E-2,1.476897E3,-6.448679E-3,-1.3960976E2,-6.426401E-3,-3.3680298E-3,1.691358E1,1.691358E1,7.7758944E-3,-2.8388718E-2,1.00323334E3,-1.4811585E-2,4.605998E2,-4.3388373E-1,-2.1308916E3,8.349509E1,1.0949958E4,1.3622723E3,-6.448679E-3,2.4620089E1,1.0705E3,-2.2252093E-1,3.3930957E-3,4.4755415E3,2.0568099E-4,2.3556317E-3,3.463095E-4,1.9929448E-5,-2.1910276E-3,-2.1022453E-4,-1.5466068E-5,1.1083431E-3,4.275145E-5,-1.9913423E-3,1.793E-4,3.038369E-3,2.1188115E-3,4.0208368E-4,3.1744433E-3,-2.3689042E-4,-4.124073E-4,7.5058866E-4,-2.7953365E-3,-8.305035E-4,1.6864749E-4,8.375407E-4],"split_indices":[292,187,7,33,328,242,0,314,325,308,275,133,165,7,70,199,248,155,56,143,281,305,38,0,56,0,0,0,0,0,0,0,0,0,0,0,0,0,0,0,0,0,0,0,0,0,0],"split_type":[0,0,0,0,0,0,0,0,0,0,0,0,0,0,0,0,0,0,0,0,0,0,0,0,0,0,0,0,0,0,0,0,0,0,0,0,0,0,0,0,0,0,0,0,0,0,0],"sum_hessian":[8.71E3,8.402E3,3.08E2,7.521E3,8.81E2,3.06E2,2E0,1.54E3,5.981E3,1.71E2,7.1E2,1.7E1,2.89E2,8E0,1.532E3,2.9E1,5.952E3,1.38E2,3.3E1,1.2E1,6.98E2,1E1,7E0,1E0,2.88E2,2E0,6E0,3.22E2,1.21E3,9E0,2E1,5.939E3,1.3E1,1.32E2,6E0,2.2E1,1.1E1,5E0,7E0,1E0,6.97E2,6E0,4E0,3E0,4E0,2.43E2,4.5E1],"tree_param":{"num_deleted":"0","num_feature":"330","num_nodes":"47","size_leaf_vector":"1"}},{"base_weights":[2.3246773E-6,5.0444636E-5,-2.965551E-3,7.583619E-5,-6.1458107E-3,-2.7712116E-3,-2.402009E-3,2.0914818E-3,-1.0055172E-5,-1.5737697E-2,-1.0937914E-3,1.1615897E-2,-3.1327214E-3,8.6835097E-4,1.3777572E-2,-4.931048E-3,3.7864032E-5,-6.3259215E-3,-2.7649E-3,-2.5636717E-3,1.6356725E-3,-1.3137213E-3,1.7050488E-3,-1.3589857E-3,-1.1402482E-2,2.5943358E-4,-4.545035E-4,8.4997434E-4,4.991689E-3,-2.705643E-3,-3.0704626E-4,-1.52949E-5,1.1491696E-4,-8.4260973E-4,4.1876556E-4,5.588804E-4,-4.57413E-4,2.0862499E-4,-4.0568318E-4,-8.9300534E-4,2.3672059E-5,7.716879E-5,-1.4827067E-3],"categories":[],"categories_nodes":[],"categories_segments":[],"categories_sizes":[],"default_left":[0,0,0,0,0,0,0,0,0,0,0,0,0,0,0,0,0,0,0,0,0,0,0,0,0,0,0,0,0,0,0,0,0,0,0,0,0,0,0,0,0,0,0],"id":21,"left_children":[1,3,5,7,9,-1,11,13,15,17,19,21,23,25,27,29,31,33,-1,35,-1,37,-1,39,41,-1,-1,-1,-1,-1,-1,-1,-1,-1,-1,-1,-1,-1,-1,-1,-1,-1,-1],"loss_changes":[1.2442028E-3,1.3492779E-3,1.8718913E-3,1.4783486E-3,1.6788302E-3,0E0,1.4396885E-3,4.976508E-3,1.9317069E-3,1.1703728E-3,6.5753725E-4,5.1427E-4,1.9060607E-3,2.9736557E-3,5.870045E-3,3.1690518E-3,1.7205502E-3,2.119285E-4,0E0,4.025388E-4,0E0,3.6443056E-5,0E0,1.3189646E-3,9.703457E-4,0E0,0E0,0E0,0E0,0E0,0E0,0E0,0E0,0E0,0E0,0E0,0E0,0E0,0E0,0E0,0E0,0E0,0E0],"parents":[2147483647,0,0,1,1,2,2,3,3,4,4,6,6,7,7,8,8,9,9,10,10,11,11,12,12,13,13,14,14,15,15,16,16,17,17,19,19,21,21,23,23,24,24],"right_children":[2,4,6,8,10,-1,12,14,16,18,20,22,24,26,28,30,32,34,-1,36,-1,38,-1,40,42,-1,-1,-1,-1,-1,-1,-1,-1,-1,-1,-1,-1,-1,-1,-1,-1,-1,-1],"split_conditions":[3.4065943E-2,5.210809E-2,-5.328108E-2,-2.2293499E-2,-3.5057743E-3,-2.7712116E-3,3.7489532E1,8.557033E3,-3.9359618E-2,5.822004E1,1.5582003E3,-4.0573477E3,1.4807853E3,2.369309E3,1.8103271E2,-1.6213655E-2,9.561468E-3,5.793878E1,-2.7649E-3,-1.0795549E-3,1.6356725E-3,-1.4820647E-2,1.7050488E-3,4.534006E1,6.6885736E2,2.5943358E-4,-4.545035E-4,8.4997434E-4,4.991689E-3,-2.705643E-3,-3.0704626E-4,-1.52949E-5,1.1491696E-4,-8.4260973E-4,4.1876556E-4,5.588804E-4,-4.57413E-4,2.0862499E-4,-4.0568318E-4,-8.9300534E-4,2.3672059E-5,7.716879E-5,-1.4827067E-3],"split_indices":[121,198,275,110,253,0,259,210,55,39,8,1,265,155,64,110,308,39,0,253,0,0,0,171,183,0,0,0,0,0,0,0,0,0,0,0,0,0,0,0,0,0,0],"split_type":[0,0,0,0,0,0,0,0,0,0,0,0,0,0,0,0,0,0,0,0,0,0,0,0,0,0,0,0,0,0,0,0,0,0,0,0,0,0,0,0,0,0,0],"sum_hessian":[8.71E3,8.572E3,1.38E2,8.538E3,3.4E1,2E0,1.36E2,3.48E2,8.19E3,1.1E1,2.3E1,6E0,1.3E2,3.16E2,3.2E1,7.8E1,8.112E3,7E0,4E0,2.2E1,1E0,2E0,4E0,1.08E2,2.2E1,2.4E2,7.6E1,2.9E1,3E0,5E0,7.3E1,6.924E3,1.188E3,6E0,1E0,4E0,1.8E1,1E0,1E0,1.8E1,9E1,5E0,1.7E1],"tree_param":{"num_deleted":"0","num_feature":"330","num_nodes":"43","size_leaf_vector":"1"}},{"base_weights":[1.8332025E-6,-4.1528572E-3,3.5485886E-5,-8.9517067E-4,-2.360946E-2,5.155423E-3,-2.1121928E-6,3.6832332E-3,-7.2000693E-3,-8.057008E-3,-2.9123796E-3,-1.6556135E-3,1.3728348E-2,5.682072E-5,-2.9895722E-3,-7.559787E-3,7.1655167E-3,-1.5048573E-2,3.2105662E-3,-2.4399713E-4,-9.1160287E-4,5.170512E-3,-1.573874E-2,-4.0978147E-3,1.7781766E-2,2.1760068E-3,-3.2404154E-5,-2.5052216E-2,-2.0056467E-3,-1.7807435E-4,-1.4338405E-3,1.3292946E-3,1.7391364E-4,-1.0192567E-4,-1.8470964E-3,-6.171115E-4,1.0793356E-3,2.0835495E-3,1.1945396E-4,-6.0404406E-4,-2.8108272E-3,-1.5202274E-3,5.254983E-4,8.020691E-4,2.3483837E-3,-1.1736631E-4,5.0904107E-4,-3.5364975E-4,3.8416524E-6,-3.697153E-4,-3.2854811E-3,-1.2096161E-3,-2.2332548E-5],"categories":[],"categories_nodes":[],"categories_segments":[],"categories_sizes":[],"default_left":[0,0,0,0,0,0,0,0,0,0,0,0,0,0,0,0,0,0,0,0,0,0,0,0,0,0,0,0,0,0,0,0,0,0,0,0,0,0,0,0,0,0,0,0,0,0,0,0,0,0,0,0,0],"id":22,"left_children":[1,3,5,7,9,11,13,15,17,19,-1,21,23,25,27,29,31,33,35,-1,-1,37,39,41,43,45,47,49,51,-1,-1,-1,-1,-1,-1,-1,-1,-1,-1,-1,-1,-1,-1,-1,-1,-1,-1,-1,-1,-1,-1,-1,-1],"loss_changes":[1.2180888E-3,4.4157114E-3,1.6635943E-3,1.7873682E-3,6.2296353E-4,3.7013302E-3,1.5107623E-3,1.4636196E-3,2.1727204E-3,1.5514088E-6,0E0,3.5421723E-3,2.0960593E-3,1.5912134E-3,3.553282E-3,3.2703235E-4,9.07875E-4,7.013804E-4,9.2027866E-4,0E0,0E0,1.5321998E-3,1.2697747E-3,7.030342E-4,1.0917853E-3,3.3251531E-3,2.0042947E-3,1.0449048E-3,2.8748251E-3,0E0,0E0,0E0,0E0,0E0,0E0,0E0,0E0,0E0,0E0,0E0,0E0,0E0,0E0,0E0,0E0,0E0,0E0,0E0,0E0,0E0,0E0,0E0,0E0],"parents":[2147483647,0,0,1,1,2,2,3,3,4,4,5,5,6,6,7,7,8,8,9,9,11,11,12,12,13,13,14,14,15,15,16,16,17,17,18,18,21,21,22,22,23,23,24,24,25,25,26,26,27,27,28,28],"right_children":[2,4,6,8,10,12,14,16,18,20,-1,22,24,26,28,30,32,34,36,-1,-1,38,40,42,44,46,48,50,52,-1,-1,-1,-1,-1,-1,-1,-1,-1,-1,-1,-1,-1,-1,-1,-1,-1,-1,-1,-1,-1,-1,-1,-1],"split_conditions":[-1.8252871E3,1.923595E-2,-1.6877013E3,5.404693E2,-1.1830513E-2,-4.329867E-3,3.1547237E-2,-1.8016297E-2,-5.253478E1,-1.5363645E-2,-2.9123796E-3,1.1683267E3,-4.0385876E3,-2.238641E-2,-3.450582E2,7.81458E-3,-2.2293499E-2,-6.265447E3,-9.350633E-3,-2.4399713E-4,-9.1160287E-4,-1.691242E-2,3.6321808E1,-2.8549868E3,-1.184501E-2,-6.912647E-4,-1.238621E3,-4.3294537E-3,-4.413539E2,-1.7807435E-4,-1.4338405E-3,1.3292946E-3,1.7391364E-4,-1.0192567E-4,-1.8470964E-3,-6.171115E-4,1.0793356E-3,2.0835495E-3,1.1945396E-4,-6.0404406E-4,-2.8108272E-3,-1.5202274E-3,5.254983E-4,8.020691E-4,2.3483837E-3,-1.1736631E-4,5.0904107E-4,-3.5364975E-4,3.8416524E-6,-3.697153E-4,-3.2854811E-3,-1.2096161E-3,-2.2332548E-5],"split_indices":[250,99,206,12,110,55,55,22,9,0,0,243,199,264,317,11,143,111,33,0,0,0,193,12,22,165,239,143,252,0,0,0,0,0,0,0,0,0,0,0,0,0,0,0,0,0,0,0,0,0,0,0,0],"split_type":[0,0,0,0,0,0,0,0,0,0,0,0,0,0,0,0,0,0,0,0,0,0,0,0,0,0,0,0,0,0,0,0,0,0,0,0,0,0,0,0,0,0,0,0,0,0,0,0,0,0,0,0,0],"sum_hessian":[8.71E3,6.9E1,8.641E3,6E1,9E0,6.2E1,8.579E3,3.5E1,2.5E1,3E0,6E0,3.5E1,2.7E1,8.414E3,1.65E2,8E0,2.7E1,1.4E1,1.1E1,1E0,2E0,2.4E1,1.1E1,5E0,2.2E1,3.39E2,8.075E3,6E0,1.59E2,5E0,3E0,1.2E1,1.5E1,3E0,1.1E1,5E0,6E0,4E0,2E1,7E0,4E0,2E0,3E0,9E0,1.3E1,1.58E2,1.81E2,1.59E2,7.916E3,2E0,4E0,2.3E1,1.36E2],"tree_param":{"num_deleted":"0","num_feature":"330","num_nodes":"53","size_leaf_vector":"1"}},{"base_weights":[5.518644E-7,4.7330843E-5,-2.8846045E-3,3.261197E-3,-1.7675655E-6,-1.616392E-2,-1.0257999E-3,2.1204408E-3,2.6293289E-2,-5.7269875E-3,6.61369E-5,-2.8315233E-2,-2.2166143E-3,-3.753707E-4,-2.6917846E-3,-1.1484773E-3,9.837856E-3,4.840868E-3,4.613209E-3,5.9190183E-4,-1.36390515E-2,-1.875446E-3,1.6000142E-4,-1.1148724E-3,-3.1627275E-3,-7.0661968E-3,1.3858764E-3,7.151749E-3,-2.2149167E-3,6.0233794E-4,-5.354241E-4,2.469183E-3,6.166383E-4,9.44783E-4,-4.4900092E-4,2.732353E-4,-1.7700581E-3,-4.7498243E-4,-2.5085413E-3,-1.5234239E-3,-1.1787361E-4,2.1062032E-3,1.4422207E-5,-1.7136284E-4,-8.2791765E-4,-1.21459285E-4,2.9897594E-4,5.2067982E-5,1.8145678E-3,-7.498861E-5,-1.0951537E-3],"categories":[],"categories_nodes":[],"categories_segments":[],"categories_sizes":[],"default_left":[0,0,0,0,0,0,0,0,0,0,0,0,0,0,0,0,0,0,0,0,0,0,0,0,0,0,0,0,0,0,0,0,0,0,0,0,0,0,0,0,0,0,0,0,0,0,0,0,0,0,0],"id":23,"left_children":[1,3,5,7,9,11,13,15,17,19,21,23,25,27,-1,29,31,33,-1,35,37,39,41,-1,-1,43,45,47,49,-1,-1,-1,-1,-1,-1,-1,-1,-1,-1,-1,-1,-1,-1,-1,-1,-1,-1,-1,-1,-1,-1],"loss_changes":[1.1758137E-3,1.3527884E-3,3.4144467E-3,3.3335923E-3,3.2835247E-3,2.8183637E-3,2.0613316E-3,3.1395208E-3,2.3302226E-3,4.957624E-3,1.5215053E-3,1.5910156E-4,1.6702806E-4,1.6912649E-3,0E0,2.6866065E-3,1.8655716E-3,2.1436883E-4,0E0,2.2409973E-3,4.3578176E-3,3.5653166E-3,2.623325E-3,0E0,0E0,1.1782802E-5,2.8656428E-5,1.740188E-3,1.2461301E-3,0E0,0E0,0E0,0E0,0E0,0E0,0E0,0E0,0E0,0E0,0E0,0E0,0E0,0E0,0E0,0E0,0E0,0E0,0E0,0E0,0E0,0E0],"parents":[2147483647,0,0,1,1,2,2,3,3,4,4,5,5,6,6,7,7,8,8,9,9,10,10,11,11,12,12,13,13,15,15,16,16,17,17,19,19,20,20,21,21,22,22,25,25,26,26,27,27,28,28],"right_children":[2,4,6,8,10,12,14,16,18,20,22,24,26,28,-1,30,32,34,-1,36,38,40,42,-1,-1,44,46,48,50,-1,-1,-1,-1,-1,-1,-1,-1,-1,-1,-1,-1,-1,-1,-1,-1,-1,-1,-1,-1,-1,-1],"split_conditions":[1.6290521E3,-3.402923E-2,5.4457127E1,3.4149278E-2,-2.6990043E-2,6.6105515E1,1.0263137E4,2.3631404E3,8.660254E-1,-3.5348508E-4,3.0222311E1,-2.9152454E3,-1.042775E3,-3.8310906E3,-2.6917846E-3,4.0285297E1,3.9851562E1,2.3491904E-3,4.613209E-3,1.9256506E-2,1.0449004E3,-2.9410162E2,2.0857155E1,-1.1148724E-3,-3.1627275E-3,-1.8456458E3,-2.9974463E3,6.8601906E1,9.303593E-3,6.0233794E-4,-5.354241E-4,2.469183E-3,6.166383E-4,9.44783E-4,-4.4900092E-4,2.732353E-4,-1.7700581E-3,-4.7498243E-4,-2.5085413E-3,-1.5234239E-3,-1.1787361E-4,2.1062032E-3,1.4422207E-5,-1.7136284E-4,-8.2791765E-4,-1.21459285E-4,2.9897594E-4,5.2067982E-5,1.8145678E-3,-7.498861E-5,-1.0951537E-3],"split_indices":[239,319,292,44,319,39,34,34,2,33,303,12,144,287,0,116,292,0,0,121,144,108,292,0,0,1,1,6,319,0,0,0,0,0,0,0,0,0,0,0,0,0,0,0,0,0,0,0,0,0,0],"split_type":[0,0,0,0,0,0,0,0,0,0,0,0,0,0,0,0,0,0,0,0,0,0,0,0,0,0,0,0,0,0,0,0,0,0,0,0,0,0,0,0,0,0,0,0,0,0,0,0,0,0,0],"sum_hessian":[8.71E3,8.572E3,1.38E2,1.28E2,8.444E3,1.6E1,1.22E2,1.23E2,5E0,9.8E1,8.346E3,8E0,8E0,1.2E2,2E0,8.7E1,3.6E1,3E0,2E0,5.5E1,4.3E1,3.84E2,7.962E3,2E0,6E0,3E0,5E0,2.3E1,9.7E1,3.2E1,5.5E1,6E0,3E1,2E0,1E0,5E1,5E0,2.5E1,1.8E1,1.8E1,3.66E2,5E0,7.957E3,1E0,2E0,2E0,3E0,1.5E1,8E0,8.4E1,1.3E1],"tree_param":{"num_deleted":"0","num_feature":"330","num_nodes":"51","size_leaf_vector":"1"}},{"base_weights":[1.7133397E-7,2.5774753E-3,-5.1736915E-5,1.4626485E-3,2.0491404E-2,-5.2454933E-3,-1.2518777E-5,3.3477356E-4,8.676085E-3,2.9224919E-3,5.9129084E-3,-2.0982308E-2,-1.2104147E-3,3.6014524E-5,-3.0576156E-3,-9.766342E-3,1.2575111E-3,1.8709254E-2,3.7443175E-3,4.49604E-5,7.1663334E-4,-3.2533277E-2,-2.0839684E-3,-1.2941068E-2,6.0099806E-4,1.2202317E-5,6.221598E-3,-1.645147E-3,-1.3283471E-2,-1.2713937E-3,3.3144208E-4,2.0926502E-3,7.903446E-5,6.247794E-4,2.244428E-3,5.889643E-4,-8.128324E-5,-4.260145E-3,-1.1814737E-3,-6.7100034E-4,4.778734E-4,-4.641219E-4,-1.800565E-3,-1.4822154E-4,8.2487887E-4,-1.9643729E-5,7.132775E-5,-4.530442E-4,1.2899344E-3,8.8463136E-4,-2.4885833E-4,-2.120018E-3,-2.7167384E-4],"categories":[],"categories_nodes":[],"categories_segments":[],"categories_sizes":[],"default_left":[0,0,0,0,0,0,0,0,0,0,0,0,0,0,0,0,0,0,0,0,0,0,0,0,0,0,0,0,0,0,0,0,0,0,0,0,0,0,0,0,0,0,0,0,0,0,0,0,0,0,0,0,0],"id":24,"left_children":[1,3,5,7,9,11,13,15,17,-1,19,21,23,25,27,29,31,33,35,-1,-1,37,39,41,43,45,47,49,51,-1,-1,-1,-1,-1,-1,-1,-1,-1,-1,-1,-1,-1,-1,-1,-1,-1,-1,-1,-1,-1,-1,-1,-1],"loss_changes":[1.16552E-3,3.4050276E-3,1.7394423E-3,1.3232398E-3,1.1004107E-3,4.0385574E-3,1.2529141E-3,1.3358177E-3,1.0185341E-3,0E0,3.101719E-5,2.7700248E-3,1.1127284E-3,1.2290791E-3,1.8991586E-3,5.048207E-4,1.1871798E-3,1.8558E-4,1.612124E-4,0E0,0E0,1.165458E-3,2.225479E-4,2.1067867E-4,7.450976E-4,1.2162458E-3,2.3560203E-3,1.0661826E-3,1.2808647E-3,0E0,0E0,0E0,0E0,0E0,0E0,0E0,0E0,0E0,0E0,0E0,0E0,0E0,0E0,0E0,0E0,0E0,0E0,0E0,0E0,0E0,0E0,0E0,0E0],"parents":[2147483647,0,0,1,1,2,2,3,3,4,4,5,5,6,6,7,7,8,8,10,10,11,11,12,12,13,13,14,14,15,15,16,16,17,17,18,18,21,21,22,22,23,23,24,24,25,25,26,26,27,27,28,28],"right_children":[2,4,6,8,10,12,14,16,18,-1,20,22,24,26,28,30,32,34,36,-1,-1,38,40,42,44,46,48,50,52,-1,-1,-1,-1,-1,-1,-1,-1,-1,-1,-1,-1,-1,-1,-1,-1,-1,-1,-1,-1,-1,-1,-1,-1],"split_conditions":[-2.450252E4,9.749279E-1,-3.8351254E4,9.84306E-3,6.641997E1,-4.3388373E-1,3.4065943E-2,-4.5239944E2,-9.772227E-3,2.9224919E-3,-9.350633E-3,0E0,-1.5355522E-2,5.210809E-2,1.726924E-2,1.8060402E4,2.7425526E1,-1.002127E3,1.3622723E3,4.49604E-5,7.1663334E-4,-2.764943E-3,1.9851347E-4,4.3388373E-1,6.1697968E1,5.6817615E-3,-6.1021405E-3,-2.2293499E-2,5.461091E1,-1.2713937E-3,3.3144208E-4,2.0926502E-3,7.903446E-5,6.247794E-4,2.244428E-3,5.889643E-4,-8.128324E-5,-4.260145E-3,-1.1814737E-3,-6.7100034E-4,4.778734E-4,-4.641219E-4,-1.800565E-3,-1.4822154E-4,8.2487887E-4,-1.9643729E-5,7.132775E-5,-4.530442E-4,1.2899344E-3,8.8463136E-4,-2.4885833E-4,-2.120018E-3,-2.7167384E-4],"split_indices":[243,37,78,132,17,92,121,184,187,0,0,13,88,0,33,89,94,45,45,0,0,99,0,4,226,231,209,143,259,0,0,0,0,0,0,0,0,0,0,0,0,0,0,0,0,0,0,0,0,0,0,0,0],"split_type":[0,0,0,0,0,0,0,0,0,0,0,0,0,0,0,0,0,0,0,0,0,0,0,0,0,0,0,0,0,0,0,0,0,0,0,0,0,0,0,0,0,0,0,0,0,0,0,0,0,0,0,0,0],"sum_hessian":[8.71E3,1.71E2,8.539E3,1.62E2,9E0,6.3E1,8.476E3,1.41E2,2.1E1,5E0,4E0,1.2E1,5.1E1,8.344E3,1.32E2,1.1E1,1.3E2,6E0,1.5E1,1E0,3E0,7E0,5E0,6E0,4.5E1,8.313E3,3.1E1,1.17E2,1.5E1,9E0,2E0,2E0,1.28E2,2E0,4E0,1E1,5E0,4E0,3E0,3E0,2E0,3E0,3E0,3.6E1,9E0,6.407E3,1.906E3,1.2E1,1.9E1,8E0,1.09E2,8E0,7E0],"tree_param":{"num_deleted":"0","num_feature":"330","num_nodes":"53","size_leaf_vector":"1"}},{"base_weights":[1.7745263E-7,4.0479732E-4,-3.147472E-4,3.767353E-3,2.497468E-4,-9.872103E-3,-2.617278E-4,2.0350877E-2,1.8878315E-3,3.458315E-3,8.114389E-5,-3.2758825E-3,-5.646312E-3,-1.13433255E-2,-2.2517629E-4,-1.4706951E-3,2.8913766E-2,7.5986725E-3,3.619245E-4,-1.3006575E-2,4.4911955E-3,-7.171446E-3,1.5937797E-4,-6.852644E-4,-1.7596678E-3,-3.2774971E-3,-1.4681972E-3,-5.0877937E-4,9.942224E-4,4.3192185E-3,1.6182179E-3,1.6862846E-3,-5.4362044E-5,1.4742566E-4,-7.5968384E-4,-2.3483818E-3,-3.6647488E-4,1.3154651E-3,2.4931692E-4,-1.65894E-4,-2.4137138E-3,6.134405E-5,-1.009053E-4,-3.0899316E-4,8.5035537E-4,2.6482783E-4,-6.026052E-4,-1.8668115E-5,-2.2376094E-4,6.6502154E-4,1.4245117E-5],"categories":[],"categories_nodes":[],"categories_segments":[],"categories_sizes":[],"default_left":[0,0,0,0,0,0,0,0,0,0,0,0,0,0,0,0,0,0,0,0,0,0,0,0,0,0,0,0,0,0,0,0,0,0,0,0,0,0,0,0,0,0,0,0,0,0,0,0,0,0,0],"id":25,"left_children":[1,3,5,7,9,11,13,15,17,19,21,-1,23,25,27,-1,29,31,33,35,37,39,41,43,-1,-1,45,47,49,-1,-1,-1,-1,-1,-1,-1,-1,-1,-1,-1,-1,-1,-1,-1,-1,-1,-1,-1,-1,-1,-1],"loss_changes":[1.1101246E-3,1.9870275E-3,2.4798615E-3,5.197989E-3,1.9721105E-3,2.4263246E-3,1.9712509E-3,5.5285688E-3,1.3218101E-3,3.153556E-3,1.967183E-3,0E0,1.4108135E-3,3.3381234E-3,1.6805248E-3,0E0,1.846075E-3,2.4229784E-3,1.0823868E-3,9.905802E-4,2.9444909E-3,3.4203264E-3,1.819843E-3,4.2400425E-4,0E0,0E0,2.4110625E-4,2.194697E-3,4.4168024E-3,0E0,0E0,0E0,0E0,0E0,0E0,0E0,0E0,0E0,0E0,0E0,0E0,0E0,0E0,0E0,0E0,0E0,0E0,0E0,0E0,0E0,0E0],"parents":[2147483647,0,0,1,1,2,2,3,3,4,4,5,5,6,6,7,7,8,8,9,9,10,10,12,12,13,13,14,14,16,16,17,17,18,18,19,19,20,20,21,21,22,22,23,23,26,26,27,27,28,28],"right_children":[2,4,6,8,10,12,14,16,18,20,22,-1,24,26,28,-1,30,32,34,36,38,40,42,44,-1,-1,46,48,50,-1,-1,-1,-1,-1,-1,-1,-1,-1,-1,-1,-1,-1,-1,-1,-1,-1,-1,-1,-1,-1,-1],"split_conditions":[-7.516897E-4,2.955461E1,2.2966055E1,-1.6791135E4,-2.0367559E-2,-9.980698E3,-5.328108E-2,-6.982733E3,-1.1585844E-2,-1.6877013E3,2.6427418E1,-3.2758825E-3,9.749279E-1,-3.402923E-2,7.651901E-3,-1.4706951E-3,-1.1308664E-3,-1.7723183E2,1.4117828E3,-1.00085736E3,-1.3046846E2,1.5774394E2,5.0526573E-3,2.4295126E-3,-1.7596678E-3,-3.2774971E-3,5.4517865E2,1.2086312E3,-1.2951778E-2,4.3192185E-3,1.6182179E-3,1.6862846E-3,-5.4362044E-5,1.4742566E-4,-7.5968384E-4,-2.3483818E-3,-3.6647488E-4,1.3154651E-3,2.4931692E-4,-1.65894E-4,-2.4137138E-3,6.134405E-5,-1.009053E-4,-3.0899316E-4,8.5035537E-4,2.6482783E-4,-6.026052E-4,-1.8668115E-5,-2.2376094E-4,6.6502154E-4,1.4245117E-5],"split_indices":[264,182,325,309,110,1,33,67,308,30,116,0,15,66,44,0,198,119,249,67,317,295,198,0,0,0,265,139,22,0,0,0,0,0,0,0,0,0,0,0,0,0,0,0,0,0,0,0,0,0,0],"split_type":[0,0,0,0,0,0,0,0,0,0,0,0,0,0,0,0,0,0,0,0,0,0,0,0,0,0,0,0,0,0,0,0,0,0,0,0,0,0,0,0,0,0,0,0,0,0,0,0,0,0,0],"sum_hessian":[8.71E3,3.812E3,4.898E3,1.67E2,3.645E3,2.6E1,4.872E3,1.6E1,1.51E2,1.81E2,3.464E3,3E0,2.3E1,1.5E1,4.857E3,3E0,1.3E1,3.1E1,1.2E2,1E1,1.71E2,3.6E1,3.428E3,1.7E1,6E0,4E0,1.1E1,3.941E3,9.16E2,5E0,8E0,1.4E1,1.7E1,1.06E2,1.4E1,4E0,6E0,3.1E1,1.4E2,2.8E1,8E0,2.469E3,9.59E2,1.4E1,3E0,6E0,5E0,3.323E3,6.18E2,1.19E2,7.97E2],"tree_param":{"num_deleted":"0","num_feature":"330","num_nodes":"51","size_leaf_vector":"1"}},{"base_weights":[-5.239611E-7,6.552788E-4,-1.8430284E-4,5.2361186E-3,3.337644E-4,-6.528525E-5,-2.2962757E-3,-1.0036193E-3,1.2697623E-2,1.0724261E-2,1.678944E-4,7.0397286E-3,-9.739438E-5,-2.2023113E-2,-1.5591099E-3,8.454054E-3,-4.766616E-3,9.094368E-3,3.3630766E-2,-5.0644623E-3,1.6228335E-2,-1.532191E-3,1.301663E-3,2.8661385E-2,1.3409927E-3,-1.3986196E-4,4.8159445E-3,-4.247775E-3,-3.6652293E-2,5.167149E-3,-2.908223E-3,1.36795E-3,-6.018571E-4,1.21926205E-4,-1.0338937E-3,2.1299238E-4,1.5973616E-3,1.7419987E-3,5.4842066E-3,-9.6947094E-4,1.3673635E-3,2.0124232E-3,-2.6338632E-5,-1.724409E-5,-5.633765E-4,5.0652598E-5,4.3485803E-4,3.304872E-3,3.3623583E-4,7.9175923E-4,-5.8954064E-4,-3.1549984E-4,-7.0013216E-6,2.5036963E-4,2.3282024E-3,2.956043E-4,-1.0389648E-3,-4.203415E-3,-1.54651E-3,1.2852906E-3,-2.6908456E-4,-2.5810045E-4,-3.367902E-3],"categories":[],"categories_nodes":[],"categories_segments":[],"categories_sizes":[],"default_left":[0,0,0,0,0,0,0,0,0,0,0,0,0,0,0,0,0,0,0,0,0,0,0,0,0,0,0,0,0,0,0,0,0,0,0,0,0,0,0,0,0,0,0,0,0,0,0,0,0,0,0,0,0,0,0,0,0,0,0,0,0,0,0],"id":26,"left_children":[1,3,5,7,9,11,13,15,17,19,21,23,25,27,29,31,33,35,37,39,41,43,45,47,49,51,53,55,57,59,61,-1,-1,-1,-1,-1,-1,-1,-1,-1,-1,-1,-1,-1,-1,-1,-1,-1,-1,-1,-1,-1,-1,-1,-1,-1,-1,-1,-1,-1,-1,-1,-1],"loss_changes":[1.0499939E-3,2.8068935E-3,1.710368E-3,5.832472E-3,3.0711496E-3,1.4705651E-3,5.244391E-3,2.4959515E-3,3.993514E-3,2.5154517E-3,3.38669E-3,3.534833E-3,1.3392121E-3,3.2248115E-3,3.2001715E-3,1.5948493E-3,1.6803674E-3,2.3614848E-3,1.795466E-3,8.266581E-4,1.3545523E-3,3.919741E-3,2.5513407E-3,5.5484986E-4,1.1888589E-3,1.339428E-3,2.2901075E-3,3.4042678E-4,1.481222E-4,3.5978684E-3,2.8632265E-3,0E0,0E0,0E0,0E0,0E0,0E0,0E0,0E0,0E0,0E0,0E0,0E0,0E0,0E0,0E0,0E0,0E0,0E0,0E0,0E0,0E0,0E0,0E0,0E0,0E0,0E0,0E0,0E0,0E0,0E0,0E0,0E0],"parents":[2147483647,0,0,1,1,2,2,3,3,4,4,5,5,6,6,7,7,8,8,9,9,10,10,11,11,12,12,13,13,14,14,15,15,16,16,17,17,18,18,19,19,20,20,21,21,22,22,23,23,24,24,25,25,26,26,27,27,28,28,29,29,30,30],"right_children":[2,4,6,8,10,12,14,16,18,20,22,24,26,28,30,32,34,36,38,40,42,44,46,48,50,52,54,56,58,60,62,-1,-1,-1,-1,-1,-1,-1,-1,-1,-1,-1,-1,-1,-1,-1,-1,-1,-1,-1,-1,-1,-1,-1,-1,-1,-1,-1,-1,-1,-1,-1,-1],"split_conditions":[-5.9388755E-3,-2.2293499E-2,1.6013345E3,1.845062E-3,-1.6877013E3,-1.5784928E3,-1.6791135E4,-6.881672E-3,6.846462E3,-2.0347925E3,-1.8195468E-3,-5.7017046E3,3.756248E-2,-4.7461694E3,-7.818315E-1,5.1842513E-3,3.0178342E2,-2.6894442E-3,4.3180508E1,4.329538E1,4.769045E3,2.650795E3,7.4439403E-3,1E0,2.6427418E1,2.7425526E1,2.5946077E-2,-1.9871116E3,2.70912E3,4.728739E1,2.260835E4,1.36795E-3,-6.018571E-4,1.21926205E-4,-1.0338937E-3,2.1299238E-4,1.5973616E-3,1.7419987E-3,5.4842066E-3,-9.6947094E-4,1.3673635E-3,2.0124232E-3,-2.6338632E-5,-1.724409E-5,-5.633765E-4,5.0652598E-5,4.3485803E-4,3.304872E-3,3.3623583E-4,7.9175923E-4,-5.8954064E-4,-3.1549984E-4,-7.0013216E-6,2.5036963E-4,2.3282024E-3,2.956043E-4,-1.0389648E-3,-4.203415E-3,-1.54651E-3,1.2852906E-3,-2.6908456E-4,-2.5810045E-4,-3.367902E-3],"split_indices":[319,198,326,77,327,250,320,11,309,111,209,155,242,56,37,176,89,231,39,6,221,298,231,5,182,237,0,89,1,314,199,0,0,0,0,0,0,0,0,0,0,0,0,0,0,0,0,0,0,0,0,0,0,0,0,0,0,0,0,0,0,0,0],"split_type":[0,0,0,0,0,0,0,0,0,0,0,0,0,0,0,0,0,0,0,0,0,0,0,0,0,0,0,0,0,0,0,0,0,0,0,0,0,0,0,0,0,0,0,0,0,0,0,0,0,0,0,0,0,0,0,0,0,0,0,0,0,0,0],"sum_hessian":[8.71E3,1.906E3,6.804E3,1.24E2,1.782E3,6.442E3,3.62E2,6.8E1,5.6E1,2.7E1,1.755E3,2.8E1,6.414E3,1.2E1,3.5E2,1.9E1,4.9E1,4.9E1,7E0,7E0,2E1,7.02E2,1.053E3,5E0,2.3E1,6.36E3,5.4E1,6E0,6E0,5.8E1,2.92E2,1.4E1,5E0,2.4E1,2.5E1,2.5E1,2.4E1,5E0,2E0,6E0,1E0,1.6E1,4E0,5.28E2,1.74E2,8.36E2,2.17E2,4E0,1E0,1.2E1,1.1E1,1.43E2,6.217E3,4.9E1,5E0,3E0,3E0,4E0,2E0,2.9E1,2.9E1,2.9E2,2E0],"tree_param":{"num_deleted":"0","num_feature":"330","num_nodes":"63","size_leaf_vector":"1"}},{"base_weights":[4.6700188E-7,-5.7611378E-5,2.041884E-3,1.047546E-4,-1.1344409E-3,7.72392E-5,4.673376E-3,-2.628696E-5,1.836173E-3,-5.9395476E-4,-4.814699E-3,-6.241573E-4,1.3392739E-2,1.0092851E-3,9.191723E-3,9.063797E-6,-7.1081417E-3,9.545198E-3,8.8108523E-4,-5.9832195E-3,-1.5470137E-4,-3.4296815E-3,-2.7585026E-2,-1.0148606E-2,-1.7282253E-4,2.9662065E-4,1.8571861E-3,5.3572333E-3,-6.3202786E-4,-3.4824344E-3,1.3274527E-2,-4.0520267E-6,4.5244416E-4,-2.0543102E-3,-6.5428E-5,1.6271331E-3,2.8489309E-5,1.1701102E-4,-1.5667342E-3,-1.6064737E-3,1.0265246E-4,-1.8293578E-3,-3.251755E-6,-2.2754457E-4,-2.1468743E-3,-4.645817E-3,-6.9695077E-4,-3.6948728E-5,-1.9804563E-3,-3.996757E-4,6.1502215E-5,-5.4837437E-5,9.933054E-5,1.4948593E-4,7.525172E-4,7.1184244E-5,-4.6061818E-4,1.568117E-4,-8.794339E-4,7.0409564E-4,2.212196E-3],"categories":[],"categories_nodes":[],"categories_segments":[],"categories_sizes":[],"default_left":[0,0,0,0,0,0,0,0,0,0,0,0,0,0,0,0,0,0,0,0,0,0,0,0,0,0,0,0,0,0,0,0,0,0,0,0,0,0,0,0,0,0,0,0,0,0,0,0,0,0,0,0,0,0,0,0,0,0,0,0,0],"id":27,"left_children":[1,3,5,7,9,11,13,15,17,19,21,23,25,27,29,31,33,35,37,39,41,43,45,47,49,51,-1,53,55,57,59,-1,-1,-1,-1,-1,-1,-1,-1,-1,-1,-1,-1,-1,-1,-1,-1,-1,-1,-1,-1,-1,-1,-1,-1,-1,-1,-1,-1,-1,-1],"loss_changes":[1.0329128E-3,1.4811925E-3,1.2455967E-3,1.6703961E-3,2.2050727E-3,1.306542E-3,1.6959531E-3,1.7137028E-3,3.8055172E-3,2.2929423E-3,4.3836883E-3,5.6997524E-4,4.692761E-4,4.1729384E-4,2.4265486E-3,1.5253271E-3,2.9346093E-3,3.5456694E-3,2.2280356E-3,5.1753167E-3,1.9874058E-3,2.7620287E-3,2.788846E-3,5.5924297E-4,3.880794E-4,2.3107884E-6,0E0,1.2272512E-4,2.3293098E-4,3.3572712E-4,1.7745276E-3,0E0,0E0,0E0,0E0,0E0,0E0,0E0,0E0,0E0,0E0,0E0,0E0,0E0,0E0,0E0,0E0,0E0,0E0,0E0,0E0,0E0,0E0,0E0,0E0,0E0,0E0,0E0,0E0,0E0,0E0],"parents":[2147483647,0,0,1,1,2,2,3,3,4,4,5,5,6,6,7,7,8,8,9,9,10,10,11,11,12,12,13,13,14,14,15,15,16,16,17,17,18,18,19,19,20,20,21,21,22,22,23,23,24,24,25,25,27,27,28,28,29,29,30,30],"right_children":[2,4,6,8,10,12,14,16,18,20,22,24,26,28,30,32,34,36,38,40,42,44,46,48,50,52,-1,54,56,58,60,-1,-1,-1,-1,-1,-1,-1,-1,-1,-1,-1,-1,-1,-1,-1,-1,-1,-1,-1,-1,-1,-1,-1,-1,-1,-1,-1,-1,-1,-1],"split_conditions":[7.700017E1,6.4986984E1,-3.3047406E2,2.3238881E2,1.081816E-2,1.7222876E-2,8.5089185E2,3.7644386E-2,-5.694849E3,-9.590552E-3,9.339276E3,-7.652222E-3,5E-1,9.2484535E1,-1.7413627E-3,3.756248E-2,-1.1266331E-2,5.8363724E1,6.5630165E1,-2.2252093E-1,2.4620089E1,1.7441317E3,-1.6719742E-3,0E0,-1.2000584E-3,3.7944599E-3,1.8571861E-3,7.029151E1,7.0258354E1,6.671602E1,-2.4099607E1,-4.0520267E-6,4.5244416E-4,-2.0543102E-3,-6.5428E-5,1.6271331E-3,2.8489309E-5,1.1701102E-4,-1.5667342E-3,-1.6064737E-3,1.0265246E-4,-1.8293578E-3,-3.251755E-6,-2.2754457E-4,-2.1468743E-3,-4.645817E-3,-6.9695077E-4,-3.6948728E-5,-1.9804563E-3,-3.996757E-4,6.1502215E-5,-5.4837437E-5,9.933054E-5,1.4948593E-4,7.525172E-4,7.1184244E-5,-4.6061818E-4,1.568117E-4,-8.794339E-4,7.0409564E-4,2.212196E-3],"split_indices":[50,83,67,119,319,242,87,55,56,0,254,0,3,53,44,220,0,160,72,71,292,250,22,2,22,0,0,149,270,259,163,0,0,0,0,0,0,0,0,0,0,0,0,0,0,0,0,0,0,0,0,0,0,0,0,0,0,0,0,0,0],"split_type":[0,0,0,0,0,0,0,0,0,0,0,0,0,0,0,0,0,0,0,0,0,0,0,0,0,0,0,0,0,0,0,0,0,0,0,0,0,0,0,0,0,0,0,0,0,0,0,0,0,0,0,0,0,0,0,0,0,0,0,0,0],"sum_hessian":[8.71E3,8.47E3,2.4E2,7.361E3,1.109E3,1.38E2,1.02E2,6.844E3,5.17E2,9.68E2,1.41E2,1.32E2,6E0,5.7E1,4.5E1,6.811E3,3.3E1,5.6E1,4.61E2,7.2E1,8.96E2,1.34E2,7E0,5E0,1.27E2,2E0,4E0,1.5E1,4.2E1,1.1E1,3.4E1,6.738E3,7.3E1,1E1,2.3E1,3.2E1,2.4E1,4.54E2,7E0,2.9E1,4.3E1,5E0,8.91E2,1.27E2,7E0,3E0,4E0,3E0,2E0,2.1E1,1.06E2,1E0,1E0,6E0,9E0,3.2E1,1E1,6E0,5E0,2.1E1,1.3E1],"tree_param":{"num_deleted":"0","num_feature":"330","num_nodes":"61","size_leaf_vector":"1"}},{"base_weights":[-7.582858E-7,-5.3959717E-3,2.162858E-5,-2.1897197E-4,-1.1853536E-2,5.50227E-3,-5.7045725E-7,4.0213326E-3,-1.1489956E-3,-2.4706216E-3,-5.5104587E-3,2.48129E-3,3.689896E-3,-6.157336E-4,2.0388344E-4,5.096776E-5,1.0630113E-2,-7.721686E-4,-2.012284E-3,4.7866855E-4,1.6880628E-3,-7.076668E-4,1.1724558E-2,-5.0622313E-3,2.5548832E-4,-2.817185E-4,2.092367E-4,1.2775736E-3,-4.9000605E-6,-2.8062525E-4,9.7877906E-5,-2.5185273E-4,4.5918112E-4,-8.2972714E-5,7.908971E-4,-2.0274539E-4,1.6477517E-3,-1.012353E-3,8.426469E-5,2.8205034E-4,1.5679261E-5],"categories":[],"categories_nodes":[],"categories_segments":[],"categories_sizes":[],"default_left":[0,0,0,0,0,0,0,0,0,0,0,0,0,0,0,0,0,0,0,0,0,0,0,0,0,0,0,0,0,0,0,0,0,0,0,0,0,0,0,0,0],"id":28,"left_children":[1,3,5,7,9,11,13,15,-1,-1,17,19,-1,21,23,25,27,-1,29,31,-1,33,35,37,39,-1,-1,-1,-1,-1,-1,-1,-1,-1,-1,-1,-1,-1,-1,-1,-1],"loss_changes":[1.0522481E-3,1.2009135E-3,1.0555683E-3,1.0498455E-3,1.1682659E-3,3.22815E-3,1.0870516E-3,4.1928652E-4,0E0,0E0,7.728487E-5,9.4352174E-4,0E0,2.4542403E-3,1.7641826E-3,7.0300084E-5,1.3810612E-4,0E0,1.6995562E-5,3.814014E-4,0E0,2.2583585E-3,1.0792112E-3,1.8913706E-3,1.6260849E-3,0E0,0E0,0E0,0E0,0E0,0E0,0E0,0E0,0E0,0E0,0E0,0E0,0E0,0E0,0E0,0E0],"parents":[2147483647,0,0,1,1,2,2,3,3,4,4,5,5,6,6,7,7,10,10,11,11,13,13,14,14,15,15,16,16,18,18,19,19,21,21,22,22,23,23,24,24],"right_children":[2,4,6,8,10,12,14,16,-1,-1,18,20,-1,22,24,26,28,-1,30,32,-1,34,36,38,40,-1,-1,-1,-1,-1,-1,-1,-1,-1,-1,-1,-1,-1,-1,-1,-1],"split_conditions":[-5.328108E-2,9.739786E1,1.691358E1,1.7354299E3,3.0222311E1,-6.307922E2,-4.8583327E-3,-1.9844961E3,-1.1489956E-3,-2.4706216E-3,-4.9440173E2,5.195879E-3,3.689896E-3,2.441067E3,-3.9359618E-2,4.616624E1,1.0629256E-2,-7.721686E-4,9.339276E3,1.1193356E3,1.6880628E-3,3.4119613E4,-3.943968E3,-7.014605E-4,-2.238641E-2,-2.817185E-4,2.092367E-4,1.2775736E-3,-4.9000605E-6,-2.8062525E-4,9.7877906E-5,-2.5185273E-4,4.5918112E-4,-8.2972714E-5,7.908971E-4,-2.0274539E-4,1.6477517E-3,-1.012353E-3,8.426469E-5,2.8205034E-4,1.5679261E-5],"split_indices":[55,1,127,7,72,173,165,133,0,0,298,22,0,29,11,6,0,0,1,309,0,210,210,209,33,0,0,0,0,0,0,0,0,0,0,0,0,0,0,0,0],"split_type":[0,0,0,0,0,0,0,0,0,0,0,0,0,0,0,0,0,0,0,0,0,0,0,0,0,0,0,0,0,0,0,0,0,0,0,0,0,0,0,0,0],"sum_hessian":[8.71E3,3.5E1,8.675E3,2E1,1.5E1,3.4E1,8.641E3,1.5E1,5E0,4E0,1.1E1,3.2E1,2E0,2.155E3,6.486E3,1E1,5E0,6E0,5E0,2.9E1,3E0,2.14E3,1.5E1,6.2E1,6.424E3,4E0,6E0,4E0,1E0,4E0,1E0,1.7E1,1.2E1,2.111E3,2.9E1,4E0,1.1E1,3.3E1,2.9E1,2.37E2,6.187E3],"tree_param":{"num_deleted":"0","num_feature":"330","num_nodes":"41","size_leaf_vector":"1"}},{"base_weights":[-2.5386632E-7,-2.716615E-3,4.346646E-5,-4.6430146E-3,1.3389397E-2,1.9456388E-3,-5.205517E-5,-2.2479912E-2,-3.383714E-3,2.0683525E-2,2.0984614E-3,1.19421715E-2,1.0677783E-3,1.642095E-6,-3.3198714E-3,-3.317427E-3,-9.428446E-4,6.0947975E-3,-5.520626E-3,2.1897773E-3,5.484774E-4,5.518236E-4,-1.8459281E-3,1.9201541E-2,3.0289954E-3,7.793936E-4,2.7836903E-3,4.7053752E-5,-3.962664E-3,-1.8055493E-2,-1.8310505E-3,1.2004914E-3,-3.7759176E-4,-1.8693366E-4,-1.3891904E-3,-1.9727695E-5,-2.3297197E-4,2.5220502E-3,1.0380306E-3,-2.1515747E-4,1.2021874E-3,3.1577641E-4,-1.2083175E-4,-4.434661E-8,5.168301E-4,-1.3332925E-3,-1.3047771E-4,-4.1793365E-4,-2.7369985E-3,-6.0299126E-4,2.9892492E-4],"categories":[],"categories_nodes":[],"categories_segments":[],"categories_sizes":[],"default_left":[0,0,0,0,0,0,0,0,0,0,0,0,0,0,0,0,0,0,0,0,0,0,0,0,0,0,0,0,0,0,0,0,0,0,0,0,0,0,0,0,0,0,0,0,0,0,0,0,0,0,0],"id":29,"left_children":[1,3,5,7,9,11,13,15,17,19,21,23,25,27,29,-1,-1,31,33,-1,-1,-1,35,37,39,41,-1,43,45,47,49,-1,-1,-1,-1,-1,-1,-1,-1,-1,-1,-1,-1,-1,-1,-1,-1,-1,-1,-1,-1],"loss_changes":[1.0346383E-3,4.3438403E-3,1.5579851E-3,2.7092248E-3,1.1919593E-3,3.5852282E-3,1.4327407E-3,8.038343E-4,2.4034518E-3,4.5991037E-5,1.0460873E-4,2.0770715E-3,2.8963916E-3,1.4465132E-3,2.8628483E-3,0E0,0E0,1.3287452E-3,2.908363E-3,0E0,0E0,0E0,2.7308124E-6,6.9390703E-4,7.7127776E-4,1.7766333E-3,0E0,1.9323406E-3,2.248967E-3,1.4366037E-3,2.4670376E-3,0E0,0E0,0E0,0E0,0E0,0E0,0E0,0E0,0E0,0E0,0E0,0E0,0E0,0E0,0E0,0E0,0E0,0E0,0E0,0E0],"parents":[2147483647,0,0,1,1,2,2,3,3,4,4,5,5,6,6,7,7,8,8,9,9,10,10,11,11,12,12,13,13,14,14,17,17,18,18,22,22,23,23,24,24,25,25,27,27,28,28,29,29,30,30],"right_children":[2,4,6,8,10,12,14,16,18,20,22,24,26,28,30,-1,-1,32,34,-1,-1,-1,36,38,40,42,-1,44,46,48,50,-1,-1,-1,-1,-1,-1,-1,-1,-1,-1,-1,-1,-1,-1,-1,-1,-1,-1,-1,-1],"split_conditions":[-1.5784928E3,3.1175597E-2,-9.145689E2,-1.9901158E2,-4.952413E2,3.8799503E1,3.1547237E-2,3.6019314E1,-1.6877013E3,4.2178165E1,-1.4820647E-2,-3.8456845E-3,5.7408688E1,1.9253329E3,-3.2535373E2,-3.317427E-3,-9.428446E-4,7.823079E2,1.6697954E3,2.1897773E-3,5.484774E-4,5.518236E-4,6.5052876E-4,4.2440918E1,4.6202217E3,-1.9830025E-3,2.7836903E-3,1.8687941E3,4.141139E1,-2.9680636E-4,6.64244E1,1.2004914E-3,-3.7759176E-4,-1.8693366E-4,-1.3891904E-3,-1.9727695E-5,-2.3297197E-4,2.5220502E-3,1.0380306E-3,-2.1515747E-4,1.2021874E-3,3.1577641E-4,-1.2083175E-4,-4.434661E-8,5.168301E-4,-1.3332925E-3,-1.3047771E-4,-4.1793365E-4,-2.7369985E-3,-6.0299126E-4,2.9892492E-4],"split_indices":[63,297,41,185,45,325,55,72,195,17,0,198,61,117,328,0,0,100,304,0,0,0,0,259,144,88,0,18,182,275,72,0,0,0,0,0,0,0,0,0,0,0,0,0,0,0,0,0,0,0,0],"split_type":[0,0,0,0,0,0,0,0,0,0,0,0,0,0,0,0,0,0,0,0,0,0,0,0,0,0,0,0,0,0,0,0,0,0,0,0,0,0,0,0,0,0,0,0,0,0,0,0,0,0,0],"sum_hessian":[8.71E3,1.37E2,8.573E3,1.23E2,1.4E1,4.09E2,8.164E3,7E0,1.16E2,8E0,6E0,3.2E1,3.77E2,8.033E3,1.31E2,3E0,4E0,2.1E1,9.5E1,7E0,1E0,3E0,3E0,1.7E1,1.5E1,3.74E2,3E0,7.943E3,9E1,1.1E1,1.2E2,1.3E1,8E0,6.7E1,2.8E1,1E0,2E0,9E0,8E0,1E1,5E0,1.7E2,2.04E2,7.871E3,7.2E1,1.9E1,7.1E1,5E0,6E0,6.4E1,5.6E1],"tree_param":{"num_deleted":"0","num_feature":"330","num_nodes":"51","size_leaf_vector":"1"}},{"base_weights":[-9.718734E-8,-3.7655425E-3,3.0402845E-5,-2.7648225E-2,-1.8991948E-3,-7.3937254E-6,3.133427E-3,-3.0884203E-3,-7.3521596E-4,1.1819702E-2,-3.7271944E-3,3.3527787E-5,-3.8067175E-3,1.008109E-2,1.2541257E-3,-2.0434312E-4,1.4092068E-3,-1.4949864E-2,-2.1746305E-3,-9.66957E-5,1.0555085E-3,-1.6396873E-2,-1.1060701E-3,3.3561122E-3,2.401231E-2,1.0404585E-2,-2.883693E-4,-1.13963E-5,-2.0861432E-3,-2.9402899E-4,1.1566452E-3,2.992634E-6,-2.2243781E-4,3.9603678E-4,3.2886313E-5,-2.5069835E-3,-4.5901808E-4,-1.0079088E-3,2.0617622E-4,1.1631898E-3,-3.7180766E-5,5.306523E-4,2.6245522E-3,2.0415795E-3,2.8470063E-4,1.3972931E-4,-4.7409564E-4],"categories":[],"categories_nodes":[],"categories_segments":[],"categories_sizes":[],"default_left":[0,0,0,0,0,0,0,0,0,0,0,0,0,0,0,0,0,0,0,0,0,0,0,0,0,0,0,0,0,0,0,0,0,0,0,0,0,0,0,0,0,0,0,0,0,0,0],"id":30,"left_children":[1,3,5,7,9,11,13,-1,-1,15,17,19,21,23,25,-1,-1,27,29,31,33,35,37,39,41,43,45,-1,-1,-1,-1,-1,-1,-1,-1,-1,-1,-1,-1,-1,-1,-1,-1,-1,-1,-1,-1],"loss_changes":[1.0005397E-3,3.067628E-3,1.0135886E-3,1.0132231E-4,1.6992113E-3,1.3277207E-3,1.3452593E-3,0E0,0E0,2.8081296E-4,9.955002E-4,1.1245447E-3,3.0760067E-3,1.9805294E-3,1.174507E-3,0E0,0E0,6.1154645E-4,5.916209E-4,2.0193057E-3,2.014514E-3,1.5233089E-3,2.181082E-3,4.9794826E-4,1.5314529E-4,8.4980216E-4,5.4702465E-4,0E0,0E0,0E0,0E0,0E0,0E0,0E0,0E0,0E0,0E0,0E0,0E0,0E0,0E0,0E0,0E0,0E0,0E0,0E0,0E0],"parents":[2147483647,0,0,1,1,2,2,3,3,4,4,5,5,6,6,9,9,10,10,11,11,12,12,13,13,14,14,17,17,18,18,19,19,20,20,21,21,22,22,23,23,24,24,25,25,26,26],"right_children":[2,4,6,8,10,12,14,-1,-1,16,18,20,22,24,26,-1,-1,28,30,32,34,36,38,40,42,44,46,-1,-1,-1,-1,-1,-1,-1,-1,-1,-1,-1,-1,-1,-1,-1,-1,-1,-1,-1,-1],"split_conditions":[-3.8351254E4,3.2216263E1,8.174425E1,7.651901E-3,-1.0607884E2,1.7441317E3,-3.1450782E-3,-3.0884203E-3,-7.3521596E-4,-1.5363645E-2,-1.5824232E-2,6.7069786E1,-1.1268981E-2,3.8285806E2,-3.8433794E3,-2.0434312E-4,1.4092068E-3,-6.593448E-3,1.849343E-2,6.706398E1,-4.0385876E3,6.234898E-1,6.801388E1,-3.5488389E3,-4.3388373E-1,1.4474025E-4,5.3934446E-3,-1.13963E-5,-2.0861432E-3,-2.9402899E-4,1.1566452E-3,2.992634E-6,-2.2243781E-4,3.9603678E-4,3.2886313E-5,-2.5069835E-3,-4.5901808E-4,-1.0079088E-3,2.0617622E-4,1.1631898E-3,-3.7180766E-5,5.306523E-4,2.6245522E-3,2.0415795E-3,2.8470063E-4,1.3972931E-4,-4.7409564E-4],"split_indices":[1,314,248,0,284,239,22,0,0,0,143,116,253,262,78,0,0,0,154,72,199,82,237,287,4,11,319,0,0,0,0,0,0,0,0,0,0,0,0,0,0,0,0,0,0,0,0],"split_type":[0,0,0,0,0,0,0,0,0,0,0,0,0,0,0,0,0,0,0,0,0,0,0,0,0,0,0,0,0,0,0,0,0,0,0,0,0,0,0,0,0,0,0,0,0,0,0],"sum_hessian":[8.71E3,6.9E1,8.641E3,4E0,6.5E1,8.538E3,1.03E2,3E0,1E0,7E0,5.8E1,8.448E3,9E1,2.1E1,8.2E1,1E0,6E0,6E0,5.2E1,7.494E3,9.54E2,1.5E1,7.5E1,1.5E1,6E0,1.1E1,7.1E1,2E0,4E0,5E1,2E0,7.074E3,4.2E2,1.9E2,7.64E2,8E0,7E0,1.9E1,5.6E1,4E0,1.1E1,1E0,5E0,4E0,7E0,5.2E1,1.9E1],"tree_param":{"num_deleted":"0","num_feature":"330","num_nodes":"47","size_leaf_vector":"1"}},{"base_weights":[-2.182076E-7,-4.8384492E-5,2.377193E-3,-3.1504114E-3,-1.177188E-6,-2.2444056E-2,3.0974832E-3,-2.245297E-3,