{"learner":{"attributes":{"scikit_learn":"{\"_estimator_type\": \"regressor\"}"},"feature_names":[],"feature_types":[],"gradient_booster":{"model":{"cats":{"enc":[],"feature_segments":[],"sorted_idx":[]},"gbtree_model_param":{"num_parallel_tree":"1","num_trees":"100"},"iteration_indptr":[0,1,2,3,4,5,6,7,8,9,10,11,12,13,14,15,16,17,18,19,20,21,22,23,24,25,26,27,28,29,30,31,32,33,34,35,36,37,38,39,40,41,42,43,44,45,46,47,48,49,50,51,52,53,54,55,56,57,58,59,60,61,62,63,64,65,66,67,68,69,70,71,72,73,74,75,76,77,78,79,80,81,82,83,84,85,86,87,88,89,90,91,92,93,94,95,96,97,98,99,100],"tree_info":[0,0,0,0,0,0,0,0,0,0,0,0,0,0,0,0,0,0,0,0,0,0,0,0,0,0,0,0,0,0,0,0,0,0,0,0,0,0,0,0,0,0,0,0,0,0,0,0,0,0,0,0,0,0,0,0,0,0,0,0,0,0,0,0,0,0,0,0,0,0,0,0,0,0,0,0,0,0,0,0,0,0,0,0,0,0,0,0,0,0,0,0,0,0,0,0,0,0,0,0],"trees":[{"base_weights":[-8.484914E-11,1.923135E-2,-7.979822E-5,7.528192E-3,5.350436E-2,1.375549E-2,-1.3421451E-4,9.634049E-4,4.6676062E-2,1.0208845E-3,5.764019E-3,-4.586111E-3,3.7293926E-2,-3.0714935E-5,-1.0195671E-2,-8.539881E-3,1.6072322E-2,5.445326E-3,1.1672237E-3,3.957341E-3,-1.1691247E-2,6.2849964E-3,1.8230913E-2,1.39016695E-2,-7.153524E-5,2.2661222E-2,-1.7257515E-2,1.401071E-4,-3.069019E-3,2.8971895E-3,6.405092E-4,1.6429464E-3,-2.0899267E-3,2.0525963E-3,-1.21226236E-4,-5.6993257E-4,1.7906588E-3,-1.8587004E-4,2.5817242E-5,3.570503E-3,-2.5396463E-3,-6.7641813E-4,-4.29189E-3],"categories":[],"categories_nodes":[],"categories_segments":[],"categories_sizes":[],"default_left":[0,0,0,0,0,0,0,0,0,0,0,0,0,0,0,0,0,0,0,0,0,0,0,0,0,0,0,0,0,0,0,0,0,0,0,0,0,0,0,0,0,0,0],"id":0,"left_children":[1,3,5,7,9,11,13,15,17,-1,-1,19,21,23,25,27,29,-1,-1,-1,31,-1,33,35,37,39,41,-1,-1,-1,-1,-1,-1,-1,-1,-1,-1,-1,-1,-1,-1,-1,-1],"loss_changes":[1.3369661E-2,1.4036897E-2,6.533704E-3,7.150961E-3,1.0231286E-3,1.4849942E-2,9.000131E-3,3.7268645E-3,4.5333523E-4,0E0,0E0,6.737851E-3,6.1618146E-3,4.866999E-3,2.0809738E-2,3.5661212E-3,1.0614637E-3,0E0,0E0,0E0,5.004213E-3,0E0,4.7111325E-4,2.0645652E-3,5.0278935E-3,1.0936466E-2,1.9366657E-2,0E0,0E0,0E0,0E0,0E0,0E0,0E0,0E0,0E0,0E0,0E0,0E0,0E0,0E0,0E0,0E0],"parents":[2147483647,0,0,1,1,2,2,3,3,4,4,5,5,6,6,7,7,8,8,11,11,12,12,13,13,14,14,15,15,16,16,20,20,22,22,23,23,24,24,25,25,26,26],"right_children":[2,4,6,8,10,12,14,16,18,-1,-1,20,22,24,26,28,30,-1,-1,-1,32,-1,34,36,38,40,42,-1,-1,-1,-1,-1,-1,-1,-1,-1,-1,-1,-1,-1,-1,-1,-1],"split_conditions":[-6.818132E-2,1.9225007E-2,-6.818132E-2,6.9518967E0,-3.48341E-2,2.1171695E-2,1.671971E2,7.786127E-3,-8.813539E2,1.0208845E-3,5.764019E-3,2.7021584E1,1.3677096E1,-4.8282707E1,3.429633E1,1.7007956E-3,-6.4180155E0,5.445326E-3,1.1672237E-3,3.957341E-3,-5.03286E4,6.2849964E-3,1.7600029E1,-1.855779E1,3.838901E1,9.451024E4,5.1518867E4,1.401071E-4,-3.069019E-3,2.8971895E-3,6.405092E-4,1.6429464E-3,-2.0899267E-3,2.0525963E-3,-1.21226236E-4,-5.6993257E-4,1.7906588E-3,-1.8587004E-4,2.5817242E-5,3.570503E-3,-2.5396463E-3,-6.7641813E-4,-4.29189E-3],"split_indices":[319,308,286,130,0,297,205,55,1,0,0,83,10,295,171,11,119,0,0,0,122,0,9,75,314,100,1,0,0,0,0,0,0,0,0,0,0,0,0,0,0,0,0],"split_type":[0,0,0,0,0,0,0,0,0,0,0,0,0,0,0,0,0,0,0,0,0,0,0,0,0,0,0,0,0,0,0,0,0,0,0,0,0,0,0,0,0,0,0],"sum_hessian":[8.71E3,3.5E1,8.675E3,2.7E1,8E0,3.3E1,8.642E3,2.4E1,3E0,1E0,7E0,1.9E1,1.4E1,8.555E3,8.7E1,1.5E1,9E0,2E0,1E0,2E0,1.7E1,5E0,9E0,2.4E1,8.531E3,1.5E1,7.2E1,1.1E1,4E0,3E0,6E0,4E0,1.3E1,8E0,1E0,4E0,2E1,1.328E3,7.203E3,1.2E1,3E0,5.2E1,2E1],"tree_param":{"num_deleted":"0","num_feature":"330","num_nodes":"43","size_leaf_vector":"1"}},{"base_weights":[2.6239757E-6,1.7697278E-2,-7.079813E-5,5.517661E-3,4.487662E-2,-1.7782937E-5,-1.279395E-2,3.2455135E-2,-4.186338E-3,8.2665327E-4,5.209369E-3,-7.024599E-5,1.6122736E-2,-3.591073E-3,-6.913357E-2,1.4943362E-3,5.0823046E-3,-1.678966E-2,1.009595E-2,3.433115E-6,-2.0469962E-2,3.370897E-2,-1.8903382E-2,-2.1630686E-2,3.3234097E-3,-2.0035636E-3,-7.6399148E-3,-2.801579E-5,-2.6183638E-3,2.8057714E-4,2.0329775E-3,1.5122852E-3,-4.2496117E-6,3.6591847E-4,-4.055627E-3,4.381252E-3,4.5158548E-4,1.6933304E-3,-2.9979215E-3,-4.941077E-4,-2.9151978E-3,7.536648E-4,-1.4194226E-3],"categories":[],"categories_nodes":[],"categories_segments":[],"categories_sizes":[],"default_left":[0,0,0,0,0,0,0,0,0,0,0,0,0,0,0,0,0,0,0,0,0,0,0,0,0,0,0,0,0,0,0,0,0,0,0,0,0,0,0,0,0,0,0],"id":1,"left_children":[1,3,5,7,9,11,13,15,17,-1,-1,19,21,23,25,-1,-1,27,29,31,33,35,37,39,41,-1,-1,-1,-1,-1,-1,-1,-1,-1,-1,-1,-1,-1,-1,-1,-1,-1,-1],"loss_changes":[1.1318399E-2,1.166961E-2,5.851911E-3,6.9322996E-3,2.4757572E-3,7.318166E-3,1.8417254E-2,1.4921157E-3,3.7695928E-3,0E0,0E0,1.2947196E-2,1.7884582E-2,4.063395E-3,2.529174E-4,0E0,0E0,1.6986534E-3,6.890235E-4,5.9615723E-3,1.5173032E-2,5.4062773E-3,4.4768592E-3,9.857044E-4,1.8783204E-3,0E0,0E0,0E0,0E0,0E0,0E0,0E0,0E0,0E0,0E0,0E0,0E0,0E0,0E0,0E0,0E0,0E0,0E0],"parents":[2147483647,0,0,1,1,2,2,3,3,4,4,5,5,6,6,7,7,8,8,11,11,12,12,13,13,14,14,17,17,18,18,19,19,20,20,21,21,22,22,23,23,24,24],"right_children":[2,4,6,8,10,12,14,16,18,-1,-1,20,22,24,26,-1,-1,28,30,32,34,36,38,40,42,-1,-1,-1,-1,-1,-1,-1,-1,-1,-1,-1,-1,-1,-1,-1,-1,-1,-1],"split_conditions":[-6.818132E-2,1.256569E-2,3.4936044E5,3.2604004E1,-3.48341E-2,2.2686111E2,1.4015791E2,1.4621395E4,4.3168993E0,8.2665327E-4,5.209369E-3,2.0231093E2,1.3940928E-2,-3.0049417E0,-6.818132E-2,1.4943362E-3,5.0823046E-3,3.2164574E1,5.0710066E-4,-6.818132E-2,-1.486373E3,3.859983E1,-2.2858189E5,-3.4522145E4,2.9649768E4,-2.0035636E-3,-7.6399148E-3,-2.801579E-5,-2.6183638E-3,2.8057714E-4,2.0329775E-3,1.5122852E-3,-4.2496117E-6,3.6591847E-4,-4.055627E-3,4.381252E-3,4.5158548E-4,1.6933304E-3,-2.9979215E-3,-4.941077E-4,-2.9151978E-3,7.536648E-4,-1.4194226E-3],"split_indices":[319,308,199,303,0,183,7,100,31,0,0,205,33,306,0,0,0,61,66,286,155,182,1,23,287,0,0,0,0,0,0,0,0,0,0,0,0,0,0,0,0,0,0],"split_type":[0,0,0,0,0,0,0,0,0,0,0,0,0,0,0,0,0,0,0,0,0,0,0,0,0,0,0,0,0,0,0,0,0,0,0,0,0,0,0,0,0,0,0],"sum_hessian":[8.71E3,3.5E1,8.675E3,2.5E1,1E1,8.64E3,3.5E1,6E0,1.9E1,2E0,8E0,8.613E3,2.7E1,3.1E1,4E0,4E0,2E0,1E1,9E0,8.583E3,3E1,1.8E1,9E0,8E0,2.3E1,1E0,3E0,4E0,6E0,6E0,3E0,2.5E1,8.558E3,1.4E1,1.6E1,1.3E1,5E0,2E0,7E0,3E0,5E0,1.9E1,4E0],"tree_param":{"num_deleted":"0","num_feature":"330","num_nodes":"43","size_leaf_vector":"1"}},{"base_weights":[2.3509124E-6,1.6268656E-2,-6.51444E-5,4.4873606E-2,6.4931842E-3,5.637738E-4,-1.0469281E-3,5.7928087E-3,1.4073487E-2,-1.8738547E-2,1.4226317E-2,4.2530926E-4,1.0881216E-2,-3.7491746E-2,-9.2794053E-4,1.6684851E-3,3.1196978E-4,-2.307498E-2,3.6400274E-4,3.4083852E-3,2.9473512E-2,1.9054738E-4,4.2747688E-3,3.6381193E-2,6.024867E-3,-1.2161672E-2,-7.877897E-3,-1.8129155E-2,-7.683928E-4,-2.5192313E-3,-6.2441605E-4,9.175711E-4,-1.3303856E-3,9.5259864E-4,3.7859608E-3,-1.8373879E-3,2.3967083E-5,2.712184E-4,1.2421836E-3,6.200745E-3,4.69141E-4,-5.501059E-4,1.3338309E-3,-1.9223763E-3,6.0164015E-4,-2.9181957E-3,1.7295385E-3,1.569245E-3,-9.2195456E-5],"categories":[],"categories_nodes":[],"categories_segments":[],"categories_sizes":[],"default_left":[0,0,0,0,0,0,0,0,0,0,0,0,0,0,0,0,0,0,0,0,0,0,0,0,0,0,0,0,0,0,0,0,0,0,0,0,0,0,0,0,0,0,0,0,0,0,0,0,0],"id":2,"left_children":[1,3,5,7,9,11,13,-1,15,17,19,21,23,25,27,-1,-1,29,-1,31,33,35,37,39,41,43,-1,45,47,-1,-1,-1,-1,-1,-1,-1,-1,-1,-1,-1,-1,-1,-1,-1,-1,-1,-1,-1,-1],"loss_changes":[9.564861E-3,9.775196E-3,5.3576864E-3,2.8034635E-3,5.72995E-3,7.5512356E-3,1.4657203E-2,0E0,6.236567E-5,7.632959E-4,3.5282918E-3,4.7165332E-3,8.449384E-3,1.0545809E-2,9.2567E-3,0E0,0E0,5.651405E-5,0E0,1.4714611E-3,1.144887E-3,4.492102E-3,3.7854551E-3,8.642092E-3,5.131026E-3,1.1426596E-3,0E0,1.2642463E-2,8.477391E-3,0E0,0E0,0E0,0E0,0E0,0E0,0E0,0E0,0E0,0E0,0E0,0E0,0E0,0E0,0E0,0E0,0E0,0E0,0E0,0E0],"parents":[2147483647,0,0,1,1,2,2,3,3,4,4,5,5,6,6,8,8,9,9,10,10,11,11,12,12,13,13,14,14,17,17,19,19,20,20,21,21,22,22,23,23,24,24,25,25,27,27,28,28],"right_children":[2,4,6,8,10,12,14,-1,16,18,20,22,24,26,28,-1,-1,30,-1,32,34,36,38,40,42,44,-1,46,48,-1,-1,-1,-1,-1,-1,-1,-1,-1,-1,-1,-1,-1,-1,-1,-1,-1,-1,-1,-1],"split_conditions":[-6.818132E-2,-1.0628614E5,2.549978E-3,-1.6251724E-2,-1.9155245E1,1.7991114E5,2.1238943E1,5.7928087E-3,1.09383855E-2,2.4606694E-2,5.841514E1,6.543534E1,-1.6251724E-2,-5.00113E-1,-4.125454E1,1.6684851E-3,3.1196978E-4,5.345736E1,3.6400274E-4,2.0598112E-2,4.5053093E1,-6.818132E-2,4.883612E4,-3.408459E0,-3.3252633E0,-1.4207757E0,-7.877897E-3,-2.8371012E1,-1.1957604E2,-2.5192313E-3,-6.2441605E-4,9.175711E-4,-1.3303856E-3,9.5259864E-4,3.7859608E-3,-1.8373879E-3,2.3967083E-5,2.712184E-4,1.2421836E-3,6.200745E-3,4.69141E-4,-5.501059E-4,1.3338309E-3,-1.9223763E-3,6.0164015E-4,-2.9181957E-3,1.7295385E-3,1.569245E-3,-9.2195456E-5],"split_indices":[319,309,264,198,185,254,314,0,0,0,127,294,154,42,196,0,0,6,0,264,7,55,298,295,32,42,0,229,327,0,0,0,0,0,0,0,0,0,0,0,0,0,0,0,0,0,0,0,0],"split_type":[0,0,0,0,0,0,0,0,0,0,0,0,0,0,0,0,0,0,0,0,0,0,0,0,0,0,0,0,0,0,0,0,0,0,0,0,0,0,0,0,0,0,0,0,0,0,0,0,0],"sum_hessian":[8.71E3,3.5E1,8.675E3,8E0,2.7E1,5.288E3,3.387E3,5E0,3E0,6E0,2.1E1,5.219E3,6.9E1,1E1,3.377E3,2E0,1E0,5E0,1E0,1.3E1,8E0,4.92E3,2.99E2,1E1,5.9E1,7E0,3E0,3E1,3.347E3,4E0,1E0,1E1,3E0,3E0,5E0,1.2E1,4.908E3,2.52E2,4.7E1,5E0,5E0,2.3E1,3.6E1,5E0,2E0,2.3E1,7E0,3E1,3.317E3],"tree_param":{"num_deleted":"0","num_feature":"330","num_nodes":"49","size_leaf_vector":"1"}},{"base_weights":[2.9839298E-6,1.4900662E-2,-5.8832506E-5,4.1249942E-2,5.8990843E-3,-1.1849234E-2,-1.1074708E-5,4.9943826E-3,7.2142325E-4,-1.7261785E-2,1.3000311E-2,-6.022102E-2,-5.4324726E-3,3.7633006E-5,-1.165597E-2,-2.1291424E-2,3.458026E-4,3.0380602E-3,2.7052667E-2,-6.8562217E-3,-1.7598709E-3,-2.8868236E-2,2.284271E-3,-6.592594E-6,1.5219661E-2,-3.3323856E-3,-6.259572E-2,-2.3176929E-3,-5.931952E-4,1.1569809E-3,-7.146518E-4,8.8115374E-4,3.4704641E-3,-4.546598E-3,-9.816395E-4,-1.8923413E-3,8.532363E-4,5.1771517E-6,-1.6647925E-3,3.1432917E-3,-1.7096453E-3,-1.968671E-3,2.9393355E-4,-1.7574755E-3,-6.9457265E-3],"categories":[],"categories_nodes":[],"categories_segments":[],"categories_sizes":[],"default_left":[0,0,0,0,0,0,0,0,0,0,0,0,0,0,0,0,0,0,0,0,0,0,0,0,0,0,0,0,0,0,0,0,0,0,0,0,0,0,0,0,0,0,0,0,0],"id":3,"left_children":[1,3,5,7,9,11,13,-1,-1,15,17,19,21,23,25,27,-1,29,31,-1,-1,33,35,37,39,41,43,-1,-1,-1,-1,-1,-1,-1,-1,-1,-1,-1,-1,-1,-1,-1,-1,-1,-1],"loss_changes":[8.023022E-3,8.2953265E-3,4.885182E-3,2.302817E-3,4.8295846E-3,1.0536509E-2,4.9021486E-3,0E0,0E0,6.5808E-4,2.9976603E-3,2.1547731E-4,5.8530723E-3,5.779135E-3,1.5055453E-2,3.6277575E-5,0E0,1.2991754E-3,9.5042493E-4,0E0,0E0,2.0834277E-3,3.4741506E-3,8.337157E-3,1.3636128E-2,3.3400983E-3,3.23873E-4,0E0,0E0,0E0,0E0,0E0,0E0,0E0,0E0,0E0,0E0,0E0,0E0,0E0,0E0,0E0,0E0,0E0,0E0],"parents":[2147483647,0,0,1,1,2,2,3,3,4,4,5,5,6,6,9,9,10,10,11,11,12,12,13,13,14,14,15,15,17,17,18,18,21,21,22,22,23,23,24,24,25,25,26,26],"right_children":[2,4,6,8,10,12,14,-1,-1,16,18,20,22,24,26,28,-1,30,32,-1,-1,34,36,38,40,42,44,-1,-1,-1,-1,-1,-1,-1,-1,-1,-1,-1,-1,-1,-1,-1,-1,-1,-1],"split_conditions":[-6.818132E-2,-1.0628614E5,-3.043909E5,1.8104624E-2,-1.9155245E1,-1.4322233E5,3.4936044E5,4.9943826E-3,7.2142325E-4,2.4606694E-2,5.841514E1,-1.0185273E-3,-1.1951898E5,2.2686111E2,1.4015791E2,5.345736E1,3.458026E-4,-4.956927E-3,4.5053093E1,-6.8562217E-3,-1.7598709E-3,-2.9742692E-2,-2.8146459E-2,2.0231093E2,1.3940928E-2,-3.0049417E0,-6.818132E-2,-2.3176929E-3,-5.931952E-4,1.1569809E-3,-7.146518E-4,8.8115374E-4,3.4704641E-3,-4.546598E-3,-9.816395E-4,-1.8923413E-3,8.532363E-4,5.1771517E-6,-1.6647925E-3,3.1432917E-3,-1.7096453E-3,-1.968671E-3,2.9393355E-4,-1.7574755E-3,-6.9457265E-3],"split_indices":[319,309,122,110,185,67,199,0,0,0,127,0,177,183,7,6,0,77,7,0,0,0,297,205,33,306,0,0,0,0,0,0,0,0,0,0,0,0,0,0,0,0,0,0,0],"split_type":[0,0,0,0,0,0,0,0,0,0,0,0,0,0,0,0,0,0,0,0,0,0,0,0,0,0,0,0,0,0,0,0,0,0,0,0,0,0,0,0,0,0,0,0,0],"sum_hessian":[8.71E3,3.5E1,8.675E3,8E0,2.7E1,3.4E1,8.641E3,6E0,2E0,6E0,2.1E1,3E0,3.1E1,8.606E3,3.5E1,5E0,1E0,1.3E1,8E0,2E0,1E0,7E0,2.4E1,8.582E3,2.4E1,3.1E1,4E0,4E0,1E0,7E0,6E0,3E0,5E0,3E0,4E0,5E0,1.9E1,8.553E3,2.9E1,1.6E1,8E0,8E0,2.3E1,1E0,3E0],"tree_param":{"num_deleted":"0","num_feature":"330","num_nodes":"45","size_leaf_vector":"1"}},{"base_weights":[6.3727356E-7,1.36312805E-2,-5.5921486E-5,3.7760034E-2,5.388778E-3,9.618269E-5,-3.432566E-3,4.8938757E-3,1.15519455E-2,-1.5902046E-2,1.1918187E-2,1.3283945E-2,4.995414E-5,-1.6847536E-2,-6.60892E-4,1.366726E-3,2.6030012E-4,-1.9647429E-2,3.2851248E-4,2.7658492E-3,2.4830913E-2,2.8553673E-3,3.2812703E-2,1.04890845E-4,-9.780025E-3,-5.24906E-2,-1.006066E-2,3.3741876E-2,-1.3332963E-3,-2.3001914E-3,-8.625641E-4,7.8001997E-4,-1.1770077E-3,8.1506715E-4,3.181259E-3,-2.5795138E-4,1.5966675E-3,5.1641036E-3,2.165049E-3,2.6168564E-7,5.614032E-4,1.7005646E-3,-2.925904E-3,-1.4609505E-3,-6.6638286E-3,-1.2681299E-3,3.9590853E-3,4.4781202E-3,7.7754835E-4,3.3308945E-3,-2.0194099E-4],"categories":[],"categories_nodes":[],"categories_segments":[],"categories_sizes":[],"default_left":[0,0,0,0,0,0,0,0,0,0,0,0,0,0,0,0,0,0,0,0,0,0,0,0,0,0,0,0,0,0,0,0,0,0,0,0,0,0,0,0,0,0,0,0,0,0,0,0,0,0,0],"id":4,"left_children":[1,3,5,7,9,11,13,-1,15,17,19,21,23,25,27,-1,-1,29,-1,31,33,35,37,39,41,43,45,47,49,-1,-1,-1,-1,-1,-1,-1,-1,-1,-1,-1,-1,-1,-1,-1,-1,-1,-1,-1,-1,-1,-1],"loss_changes":[6.7163534E-3,6.9562476E-3,4.456339E-3,2.071417E-3,4.081986E-3,5.06127E-3,1.3894904E-2,0E0,4.0143437E-5,5.675872E-4,2.531317E-3,5.8123656E-3,4.4697463E-3,1.4953833E-2,7.2392165E-3,0E0,0E0,2.342835E-5,0E0,1.1163141E-3,7.8881066E-4,1.4663541E-3,9.836042E-4,4.6371114E-3,2.4498457E-2,4.385745E-3,7.6585915E-3,1.3717129E-3,7.3404275E-3,0E0,0E0,0E0,0E0,0E0,0E0,0E0,0E0,0E0,0E0,0E0,0E0,0E0,0E0,0E0,0E0,0E0,0E0,0E0,0E0,0E0,0E0],"parents":[2147483647,0,0,1,1,2,2,3,3,4,4,5,5,6,6,8,8,9,9,10,10,11,11,12,12,13,13,14,14,17,17,19,19,20,20,21,21,22,22,23,23,24,24,25,25,26,26,27,27,28,28],"right_children":[2,4,6,8,10,12,14,-1,16,18,20,22,24,26,28,-1,-1,30,-1,32,34,36,38,40,42,44,46,48,50,-1,-1,-1,-1,-1,-1,-1,-1,-1,-1,-1,-1,-1,-1,-1,-1,-1,-1,-1,-1,-1,-1],"split_conditions":[-6.818132E-2,-1.0628614E5,1.0721937E5,-1.6251724E-2,-1.9155245E1,-3.043909E5,-1.8426659E-2,4.8938757E-3,1.09383855E-2,2.4606694E-2,5.841514E1,1.4679475E5,2.0231093E2,2.7021584E1,2.1238943E1,1.366726E-3,2.6030012E-4,0E0,3.2851248E-4,2.0598112E-2,4.5053093E1,7.4533875E4,-2.636407E-3,1.6038092E5,-4.5629066E4,3.5937424E1,3.9753087E-2,-5.4730535E0,-2.2858189E5,-2.3001914E-3,-8.625641E-4,7.8001997E-4,-1.1770077E-3,8.1506715E-4,3.181259E-3,-2.5795138E-4,1.5966675E-3,5.1641036E-3,2.165049E-3,2.6168564E-7,5.614032E-4,1.7005646E-3,-2.925904E-3,-1.4609505E-3,-6.6638286E-3,-1.2681299E-3,3.9590853E-3,4.4781202E-3,7.7754835E-4,3.3308945E-3,-2.0194099E-4],"split_indices":[319,309,166,198,185,221,308,0,0,0,127,199,194,237,127,0,0,4,0,264,7,67,88,309,188,61,132,10,1,0,0,0,0,0,0,0,0,0,0,0,0,0,0,0,0,0,0,0,0,0,0],"split_type":[0,0,0,0,0,0,0,0,0,0,0,0,0,0,0,0,0,0,0,0,0,0,0,0,0,0,0,0,0,0,0,0,0,0,0,0,0,0,0,0,0,0,0,0,0,0,0,0,0,0,0],"sum_hessian":[8.71E3,3.5E1,8.675E3,8E0,2.7E1,8.302E3,3.73E2,5E0,3E0,6E0,2.1E1,2.8E1,8.274E3,6.3E1,3.1E2,2E0,1E0,5E0,1E0,1.3E1,8E0,1.9E1,9E0,8.229E3,4.5E1,9E0,5.4E1,5E0,3.05E2,3E0,2E0,1E1,3E0,3E0,5E0,1.4E1,5E0,2E0,7E0,8.08E3,1.49E2,1.9E1,2.6E1,3E0,6E0,5.2E1,2E0,3E0,2E0,5E0,3E2],"tree_param":{"num_deleted":"0","num_feature":"330","num_nodes":"51","size_leaf_vector":"1"}},{"base_weights":[2.6675232E-6,1.24705415E-2,-4.90667E-5,3.470858E-2,4.877225E-3,1.0953449E-2,-9.3621085E-5,4.486053E-3,1.0803508E-2,-1.4716733E-2,1.0889974E-2,-8.427323E-3,2.9725697E-2,-3.9157703E-6,-8.52292E-3,1.275611E-3,2.4728512E-4,-1.8209811E-2,3.1208686E-4,2.460908E-3,2.2791859E-2,-2.3118142E-2,1.282597E-2,4.2756487E-2,3.1406726E-3,5.101773E-3,-1.2929457E-4,-1.7450658E-3,-2.6346654E-2,-1.9770146E-3,-5.204072E-4,9.874933E-4,-6.363822E-4,4.2206785E-4,2.7494957E-3,3.7076915E-4,-3.364129E-3,3.3033686E-4,1.7878857E-3,5.0306427E-3,3.3378587E-4,1.2679565E-3,-7.183387E-4,6.105601E-4,-2.416446E-3,-1.0166679E-3,-6.028104E-6,3.6345348E-3,-4.7404153E-4,1.9844647E-3,-3.888671E-3],"categories":[],"categories_nodes":[],"categories_segments":[],"categories_sizes":[],"default_left":[0,0,0,0,0,0,0,0,0,0,0,0,0,0,0,0,0,0,0,0,0,0,0,0,0,0,0,0,0,0,0,0,0,0,0,0,0,0,0,0,0,0,0,0,0,0,0,0,0,0,0],"id":5,"left_children":[1,3,5,7,9,11,13,-1,15,17,19,21,23,25,27,-1,-1,29,-1,31,33,35,37,39,41,43,45,47,49,-1,-1,-1,-1,-1,-1,-1,-1,-1,-1,-1,-1,-1,-1,-1,-1,-1,-1,-1,-1,-1,-1],"loss_changes":[5.619345E-3,5.9096944E-3,4.25409E-3,1.6994961E-3,3.4590447E-3,1.2984229E-2,6.534641E-3,0E0,3.352188E-5,4.929871E-4,2.15099E-3,5.9166215E-3,6.1013475E-3,5.4751807E-3,1.0947432E-2,0E0,0E0,1.8874649E-5,0E0,9.78817E-4,6.7003164E-4,3.2299464E-3,3.2587256E-4,3.4033805E-3,7.8044285E-4,6.170086E-3,5.782175E-3,7.816595E-3,1.525273E-2,0E0,0E0,0E0,0E0,0E0,0E0,0E0,0E0,0E0,0E0,0E0,0E0,0E0,0E0,0E0,0E0,0E0,0E0,0E0,0E0,0E0,0E0],"parents":[2147483647,0,0,1,1,2,2,3,3,4,4,5,5,6,6,8,8,9,9,10,10,11,11,12,12,13,13,14,14,17,17,19,19,20,20,21,21,22,22,23,23,24,24,25,25,26,26,27,27,28,28],"right_children":[2,4,6,8,10,12,14,-1,16,18,20,22,24,26,28,-1,-1,30,-1,32,34,36,38,40,42,44,46,48,50,-1,-1,-1,-1,-1,-1,-1,-1,-1,-1,-1,-1,-1,-1,-1,-1,-1,-1,-1,-1,-1,-1],"split_conditions":[-6.818132E-2,-1.0628614E5,-3.043909E5,-1.6251724E-2,-1.9155245E1,5.7180134E1,1.671971E2,4.486053E-3,1.09383855E-2,2.4606694E-2,5.841514E1,-9.098715E3,3.9779644E3,-3.4852564E-2,5.1518867E4,1.275611E-3,2.4728512E-4,5.345736E1,3.1208686E-4,-4.956927E-3,1.3936447E1,5.8079914E1,3.7318203E1,2.9744897E-2,-1.1479622E3,5.171598E-2,2.1238943E1,-6.818132E-2,-4.8282707E1,-1.9770146E-3,-5.204072E-4,9.874933E-4,-6.363822E-4,4.2206785E-4,2.7494957E-3,3.7076915E-4,-3.364129E-3,3.3033686E-4,1.7878857E-3,5.0306427E-3,3.3378587E-4,1.2679565E-3,-7.183387E-4,6.105601E-4,-2.416446E-3,-1.0166679E-3,-6.028104E-6,3.6345348E-3,-4.7404153E-4,1.9844647E-3,-3.888671E-3],"split_indices":[319,309,309,198,185,106,205,0,0,0,127,210,188,264,1,0,0,6,0,77,8,304,7,198,12,286,325,253,31,0,0,0,0,0,0,0,0,0,0,0,0,0,0,0,0,0,0,0,0,0,0],"split_type":[0,0,0,0,0,0,0,0,0,0,0,0,0,0,0,0,0,0,0,0,0,0,0,0,0,0,0,0,0,0,0,0,0,0,0,0,0,0,0,0,0,0,0,0,0,0,0,0,0,0,0],"sum_hessian":[8.71E3,3.5E1,8.675E3,8E0,2.7E1,3.4E1,8.641E3,5E0,3E0,6E0,2.1E1,1.7E1,1.7E1,8.551E3,9E1,2E0,1E0,5E0,1E0,1.3E1,8E0,1E1,7E0,1.1E1,6E0,2.04E2,8.347E3,6.6E1,2.4E1,4E0,1E0,7E0,6E0,2E0,6E0,3E0,7E0,3E0,4E0,9E0,2E0,3E0,3E0,1.98E2,6E0,5.6E1,8.291E3,4E0,6.2E1,5E0,1.9E1],"tree_param":{"num_deleted":"0","num_feature":"330","num_nodes":"51","size_leaf_vector":"1"}},{"base_weights":[3.642072E-6,1.1916572E-2,-4.578959E-5,2.913019E-3,2.4327345E-2,1.1247374E-2,-9.2833696E-5,1.8334942E-2,-5.5062077E-3,4.5575234E-3,1.2457635E-2,-2.7631316E-2,1.8409465E-2,-1.8703275E-5,-1.0694408E-2,1.9472794E-3,5.184983E-4,-9.391079E-3,1.3163633E-3,2.3017244E-3,1.7932196E-3,-3.0109764E-3,-7.6195435E-4,3.1252258E-2,5.823381E-4,-1.1131643E-2,2.1582022E-5,-2.6380548E-2,4.9581233E-4,-1.4390586E-3,-1.1598894E-4,4.5366213E-4,-3.318932E-4,4.0982454E-3,-2.2427342E-4,-1.6447641E-3,9.039094E-4,-4.468232E-3,-1.2921887E-4,-9.627626E-6,4.423994E-4,-3.7602235E-3,-2.252858E-4,1.1969274E-3,-2.6668354E-3],"categories":[],"categories_nodes":[],"categories_segments":[],"categories_sizes":[],"default_left":[0,0,0,0,0,0,0,0,0,0,0,0,0,0,0,0,0,0,0,0,0,0,0,0,0,0,0,0,0,0,0,0,0,0,0,0,0,0,0,0,0,0,0,0,0],"id":6,"left_children":[1,3,5,7,9,11,13,15,17,-1,19,21,23,25,27,-1,-1,29,-1,31,-1,-1,-1,33,35,37,39,41,43,-1,-1,-1,-1,-1,-1,-1,-1,-1,-1,-1,-1,-1,-1,-1,-1],"loss_changes":[5.1302444E-3,3.9518108E-3,4.6104016E-3,2.9574505E-3,3.2153353E-3,1.0532972E-2,6.790755E-3,1.8735882E-5,1.2115694E-3,0E0,5.703155E-4,6.816629E-5,7.079255E-3,3.8422993E-3,1.0544961E-2,0E0,0E0,5.18283E-4,0E0,7.7864686E-5,0E0,0E0,0E0,5.958341E-3,2.164929E-3,1.0175994E-2,4.437723E-3,6.6841226E-3,1.1539213E-2,0E0,0E0,0E0,0E0,0E0,0E0,0E0,0E0,0E0,0E0,0E0,0E0,0E0,0E0,0E0,0E0],"parents":[2147483647,0,0,1,1,2,2,3,3,4,4,5,5,6,6,7,7,8,8,10,10,11,11,12,12,13,13,14,14,17,17,19,19,23,23,24,24,25,25,26,26,27,27,28,28],"right_children":[2,4,6,8,10,12,14,16,18,-1,20,22,24,26,28,-1,-1,30,-1,32,-1,-1,-1,34,36,38,40,42,44,-1,-1,-1,-1,-1,-1,-1,-1,-1,-1,-1,-1,-1,-1,-1,-1],"split_conditions":[-3.043909E5,2.3877883E4,-3.043909E5,-8.1829544E1,7.650786E-3,-1.5306202E-2,2.0231093E2,4.4023956E1,7.4533875E4,4.5575234E-3,1.1700254E4,1.982442E1,3.9779644E3,-3.043909E5,-6.4377484E0,1.9472794E-3,5.184983E-4,-1.4294696E1,1.3163633E-3,1.591337E-2,1.7932196E-3,-3.0109764E-3,-7.6195435E-4,4.193928E4,-5.0677885E-3,-3.1083193E-2,3.462908E-2,7.366913E-4,2.1614435E0,-1.4390586E-3,-1.1598894E-4,4.5366213E-4,-3.318932E-4,4.0982454E-3,-2.2427342E-4,-1.6447641E-3,9.039094E-4,-4.468232E-3,-1.2921887E-4,-9.627626E-6,4.423994E-4,-3.7602235E-3,-2.252858E-4,1.1969274E-3,-2.6668354E-3],"split_indices":[221,254,309,175,132,176,205,6,67,0,78,8,188,122,240,0,0,283,0,0,0,0,0,100,209,165,44,176,64,0,0,0,0,0,0,0,0,0,0,0,0,0,0,0,0],"split_type":[0,0,0,0,0,0,0,0,0,0,0,0,0,0,0,0,0,0,0,0,0,0,0,0,0,0,0,0,0,0,0,0,0,0,0,0,0,0,0,0,0,0,0,0,0],"sum_hessian":[8.71E3,3.5E1,8.675E3,2.1E1,1.4E1,3.5E1,8.64E3,7E0,1.4E1,4E0,1E1,5E0,3E1,8.581E3,5.9E1,6E0,1E0,1.2E1,2E0,4E0,6E0,4E0,1E0,1.7E1,1.3E1,3E1,8.551E3,2.4E1,3.5E1,7E0,5E0,3E0,1E0,1.3E1,4E0,4E0,9E0,6E0,2.4E1,8.329E3,2.22E2,1.6E1,8E0,2.5E1,1E1],"tree_param":{"num_deleted":"0","num_feature":"330","num_nodes":"45","size_leaf_vector":"1"}},{"base_weights":[3.0987496E-6,1.1263044E-2,-4.362337E-5,2.8342243E-2,3.6040347E-3,4.8956187E-3,-1.4113766E-4,3.7436698E-2,9.941562E-4,-3.1130044E-3,2.2280712E-2,-1.7207412E-3,1.5406477E-2,-1.3938603E-2,-9.230923E-5,4.041377E-3,9.787141E-4,-1.1798831E-2,8.813987E-3,1.096115E-3,2.8030097E-3,-2.8771965E-2,8.3323545E-4,3.9403506E-2,1.0326954E-2,1.1171247E-2,-2.5231931E-2,6.263883E-5,-3.7024675E-3,-1.6422753E-3,-2.0407897E-4,1.4228345E-3,1.6368322E-4,-9.868284E-4,-4.9934494E-3,-3.685899E-3,2.445447E-4,1.6113393E-3,4.278871E-3,2.7439846E-3,3.2236232E-4,1.8827769E-4,3.221675E-3,-1.3354495E-3,-4.7079017E-3,4.8002016E-4,-5.8645896E-6,-1.8371966E-3,-1.0137671E-4],"categories":[],"categories_nodes":[],"categories_segments":[],"categories_sizes":[],"default_left":[0,0,0,0,0,0,0,0,0,0,0,0,0,0,0,0,0,0,0,0,0,0,0,0,0,0,0,0,0,0,0,0,0,0,0,0,0,0,0,0,0,0,0,0,0,0,0,0,0],"id":7,"left_children":[1,3,5,7,9,11,13,15,-1,17,19,21,23,25,27,-1,-1,29,31,-1,-1,33,35,37,39,41,43,45,47,-1,-1,-1,-1,-1,-1,-1,-1,-1,-1,-1,-1,-1,-1,-1,-1,-1,-1,-1,-1],"loss_changes":[4.5832484E-3,4.6070055E-3,4.1794577E-3,1.4686063E-3,3.3311113E-3,1.1709839E-2,5.731299E-3,1.8066633E-4,0E0,2.1759102E-3,1.483215E-4,7.2091455E-3,7.516158E-3,8.789086E-3,4.743834E-3,0E0,0E0,5.079297E-4,3.2644777E-4,0E0,0E0,3.10768E-3,5.9238495E-3,1.7778948E-4,6.5972637E-3,1.8941482E-3,4.820518E-3,4.6728794E-3,1.3746593E-2,0E0,0E0,0E0,0E0,0E0,0E0,0E0,0E0,0E0,0E0,0E0,0E0,0E0,0E0,0E0,0E0,0E0,0E0,0E0,0E0],"parents":[2147483647,0,0,1,1,2,2,3,3,4,4,5,5,6,6,7,7,9,9,10,10,11,11,12,12,13,13,14,14,17,17,18,18,21,21,22,22,23,23,24,24,25,25,26,26,27,27,28,28],"right_children":[2,4,6,8,10,12,14,16,-1,18,20,22,24,26,28,-1,-1,30,32,-1,-1,34,36,38,40,42,44,46,48,-1,-1,-1,-1,-1,-1,-1,-1,-1,-1,-1,-1,-1,-1,-1,-1,-1,-1,-1,-1],"split_conditions":[-6.818132E-2,3.392482E1,-4.0653005E-2,3.1913558E-3,2.0043077E1,2.442514E3,-3.043909E5,8.888851E-3,9.941562E-4,7.786127E-3,-4.3388373E-1,-3.4852564E-2,-2.9742692E-2,6.647084E1,1.0721937E5,4.041377E-3,9.787141E-4,-2.8823726E0,9.1832E3,1.096115E-3,2.8030097E-3,5.17702E1,2.539516E1,-5.651267E-2,-1.9981865E-2,1.2899848E-2,-5.2400417E0,-3.4852564E-2,-1.8426659E-2,-1.6422753E-3,-2.0407897E-4,1.4228345E-3,1.6368322E-4,-9.868284E-4,-4.9934494E-3,-3.685899E-3,2.445447E-4,1.6113393E-3,4.278871E-3,2.7439846E-3,3.2236232E-4,1.8827769E-4,3.221675E-3,-1.3354495E-3,-4.7079017E-3,4.8002016E-4,-5.8645896E-6,-1.8371966E-3,-1.0137671E-4],"split_indices":[319,303,121,209,306,199,122,0,0,55,4,286,220,161,166,0,0,262,122,0,0,6,204,88,99,11,97,264,308,0,0,0,0,0,0,0,0,0,0,0,0,0,0,0,0,0,0,0,0],"split_type":[0,0,0,0,0,0,0,0,0,0,0,0,0,0,0,0,0,0,0,0,0,0,0,0,0,0,0,0,0,0,0,0,0,0,0,0,0,0,0,0,0,0,0,0,0,0,0,0,0],"sum_hessian":[8.71E3,3.5E1,8.675E3,1E1,2.5E1,1.67E2,8.508E3,6E0,4E0,1.9E1,6E0,1.03E2,6.4E1,2.9E1,8.479E3,5E0,1E0,1.1E1,8E0,3E0,3E0,8E0,9.5E1,1E1,5.4E1,9E0,2E1,8.131E3,3.48E2,7E0,4E0,4E0,4E0,5E0,3E0,3E0,9.2E1,2E0,8E0,1.5E1,3.9E1,7E0,2E0,1.4E1,6E0,2.02E2,7.929E3,5.3E1,2.95E2],"tree_param":{"num_deleted":"0","num_feature":"330","num_nodes":"49","size_leaf_vector":"1"}},{"base_weights":[3.3732888E-6,1.078097E-2,-4.1347415E-5,2.613655E-3,2.2040967E-2,1.3909166E-6,-1.0592871E-2,1.6599974E-2,-5.0199586E-3,4.1274957E-2,1.1294519E-2,6.264844E-4,-7.0751173E-4,-4.580057E-3,-5.6047165E-3,1.8675209E-3,6.916181E-4,-8.551482E-3,1.1956628E-3,1.17778E-3,4.57048E-3,1.98487E-3,1.6330766E-3,3.5560684E-4,4.101947E-3,-3.1773105E-2,-6.1503967E-4,-2.3257842E-2,6.247335E-4,-1.2578917E-3,4.081972E-5,4.1187165E-4,-3.275258E-4,3.9469727E-5,-2.3462174E-3,2.6433144E-4,1.2677121E-3,-6.158059E-3,-9.17179E-4,-1.3400638E-5,-3.5010072E-4,-1.5918932E-4,-2.660352E-3,5.2729814E-4,-1.0492947E-3],"categories":[],"categories_nodes":[],"categories_segments":[],"categories_sizes":[],"default_left":[0,0,0,0,0,0,0,0,0,0,0,0,0,0,0,0,0,0,0,0,0,0,0,0,0,0,0,0,0,0,0,0,0,0,0,0,0,0,0,0,0,0,0,0,0],"id":8,"left_children":[1,3,5,7,9,11,13,15,17,19,21,23,25,27,-1,-1,-1,29,-1,-1,-1,31,-1,33,35,37,39,41,43,-1,-1,-1,-1,-1,-1,-1,-1,-1,-1,-1,-1,-1,-1,-1,-1],"loss_changes":[4.1989884E-3,3.253094E-3,3.9124964E-3,2.4321866E-3,2.6342748E-3,3.829976E-3,9.309089E-3,3.1608157E-5,1.001545E-3,1.15036964E-4,4.8332813E-4,4.3225046E-3,1.1614892E-2,3.125377E-3,0E0,0E0,0E0,4.7423347E-4,0E0,0E0,0E0,6.9611386E-5,0E0,3.9773835E-3,4.1191564E-3,7.5194547E-3,5.6066583E-3,4.6506082E-4,1.3989502E-3,0E0,0E0,0E0,0E0,0E0,0E0,0E0,0E0,0E0,0E0,0E0,0E0,0E0,0E0,0E0,0E0],"parents":[2147483647,0,0,1,1,2,2,3,3,4,4,5,5,6,6,7,7,8,8,9,9,10,10,11,11,12,12,13,13,17,17,21,21,23,23,24,24,25,25,26,26,27,27,28,28],"right_children":[2,4,6,8,10,12,14,16,18,20,22,24,26,28,-1,-1,-1,30,-1,-1,-1,32,-1,34,36,38,40,42,44,-1,-1,-1,-1,-1,-1,-1,-1,-1,-1,-1,-1,-1,-1,-1,-1],"split_conditions":[-3.043909E5,2.3877883E4,3.4936044E5,-8.1829544E1,7.650786E-3,8.852686E-4,2.2686111E2,4.1343002E1,7.4533875E4,-1.1013197E-2,1.1700254E4,6.088045E1,2.1238943E1,-5.330862E4,-5.6047165E-3,1.8675209E-3,6.916181E-4,5.347628E1,1.1956628E-3,1.17778E-3,4.57048E-3,1.591337E-2,1.6330766E-3,6.3341873E1,6.620131E4,-1.4318033E5,4.5350434E4,-1.5927244E5,5.8669355E4,-1.2578917E-3,4.081972E-5,4.1187165E-4,-3.275258E-4,3.9469727E-5,-2.3462174E-3,2.6433144E-4,1.2677121E-3,-6.158059E-3,-9.17179E-4,-1.3400638E-5,-3.5010072E-4,-1.5918932E-4,-2.660352E-3,5.2729814E-4,-1.0492947E-3],"split_indices":[221,254,199,175,132,264,84,6,67,0,78,120,314,111,0,0,0,149,0,0,0,0,0,131,199,320,1,1,188,0,0,0,0,0,0,0,0,0,0,0,0,0,0,0,0],"split_type":[0,0,0,0,0,0,0,0,0,0,0,0,0,0,0,0,0,0,0,0,0,0,0,0,0,0,0,0,0,0,0,0,0,0,0,0,0,0,0,0,0,0,0,0,0],"sum_hessian":[8.71E3,3.5E1,8.675E3,2.1E1,1.4E1,8.641E3,3.4E1,7E0,1.4E1,4E0,1E1,4.592E3,4.049E3,3.1E1,3E0,5E0,2E0,1.2E1,2E0,1E0,3E0,4E0,6E0,4.261E3,3.31E2,1.1E1,4.038E3,6E0,2.5E1,8E0,4E0,3E0,1E0,4.255E3,6E0,2.84E2,4.7E1,4E0,7E0,3.462E3,5.76E2,1E0,5E0,1.8E1,7E0],"tree_param":{"num_deleted":"0","num_feature":"330","num_nodes":"45","size_leaf_vector":"1"}},{"base_weights":[2.214438E-6,1.0224713E-2,-4.0202824E-5,2.5848469E-2,3.2214043E-3,-1.0232122E-2,-1.0500533E-7,3.4366887E-2,8.7529933E-4,-2.8172163E-3,2.0014405E-2,-5.0654043E-3,-4.6863216E-3,-4.580128E-5,1.1571808E-2,3.7039497E-3,9.1656175E-4,-1.0722034E-2,8.035564E-3,2.316332E-3,8.0947496E-4,-9.867345E-3,1.1442538E-2,4.664152E-3,-1.3724044E-4,3.6452503E-3,3.0231021E-2,-1.8173341E-3,-4.724712E-4,1.3024103E-3,1.4399114E-4,5.7475374E-4,-1.3277698E-3,1.3054325E-4,1.7263716E-3,-4.0860792E-5,1.5295943E-3,-1.3477086E-6,-4.8310598E-4,-1.86582E-4,1.5589502E-3,1.1198642E-4,3.3341167E-3],"categories":[],"categories_nodes":[],"categories_segments":[],"categories_sizes":[],"default_left":[0,0,0,0,0,0,0,0,0,0,0,0,0,0,0,0,0,0,0,0,0,0,0,0,0,0,0,0,0,0,0,0,0,0,0,0,0,0,0,0,0,0,0],"id":9,"left_children":[1,3,5,7,9,11,13,15,-1,17,19,-1,21,23,25,-1,-1,27,29,-1,-1,31,33,35,37,39,41,-1,-1,-1,-1,-1,-1,-1,-1,-1,-1,-1,-1,-1,-1,-1,-1],"loss_changes":[3.7775915E-3,3.8557793E-3,3.5456521E-3,1.3010767E-3,2.6929555E-3,7.384463E-3,4.570891E-3,1.3198238E-4,0E0,1.8019422E-3,7.523643E-5,0E0,2.7033915E-3,3.7087444E-3,4.9185134E-3,0E0,0E0,4.5039086E-4,2.773705E-4,0E0,0E0,1.3543686E-3,4.4954242E-4,8.851184E-3,4.90699E-3,1.6747275E-3,8.6806156E-4,0E0,0E0,0E0,0E0,0E0,0E0,0E0,0E0,0E0,0E0,0E0,0E0,0E0,0E0,0E0,0E0],"parents":[2147483647,0,0,1,1,2,2,3,3,4,4,5,5,6,6,7,7,9,9,10,10,12,12,13,13,14,14,17,17,18,18,21,21,22,22,23,23,24,24,25,25,26,26],"right_children":[2,4,6,8,10,12,14,16,-1,18,20,-1,22,24,26,-1,-1,28,30,-1,-1,32,34,36,38,40,42,-1,-1,-1,-1,-1,-1,-1,-1,-1,-1,-1,-1,-1,-1,-1,-1],"split_conditions":[-6.818132E-2,3.392482E1,-3.043909E5,3.1913558E-3,2.0043077E1,2.714654E3,3.4936044E5,8.888851E-3,8.7529933E-4,7.786127E-3,6.234898E-1,-5.0654043E-3,7.818315E-1,-4.0653005E-2,1.9667555E4,3.7039497E-3,9.1656175E-4,-2.2037767E-2,9.1832E3,2.316332E-3,8.0947496E-4,4.7773396E1,4.0842422E1,1.4249032E-2,1.3837648E5,3.699985E4,-3.2601677E-2,-1.8173341E-3,-4.724712E-4,1.3024103E-3,1.4399114E-4,5.7475374E-4,-1.3277698E-3,1.3054325E-4,1.7263716E-3,-4.0860792E-5,1.5295943E-3,-1.3477086E-6,-4.8310598E-4,-1.86582E-4,1.5589502E-3,1.1198642E-4,3.3341167E-3],"split_indices":[319,303,232,209,306,221,210,0,0,55,5,0,59,121,111,0,0,66,122,0,0,293,7,55,166,199,55,0,0,0,0,0,0,0,0,0,0,0,0,0,0,0,0],"split_type":[0,0,0,0,0,0,0,0,0,0,0,0,0,0,0,0,0,0,0,0,0,0,0,0,0,0,0,0,0,0,0,0,0,0,0,0,0,0,0,0,0,0,0],"sum_hessian":[8.71E3,3.5E1,8.675E3,1E1,2.5E1,3.3E1,8.642E3,6E0,4E0,1.9E1,6E0,3E0,3E1,8.609E3,3.3E1,5E0,1E0,1.1E1,8E0,4E0,2E0,2.3E1,7E0,1.63E2,8.446E3,2.4E1,9E0,4E0,7E0,4E0,4E0,4E0,1.9E1,3E0,4E0,1.11E2,5.2E1,8.23E3,2.16E2,1.7E1,7E0,1E0,8E0],"tree_param":{"num_deleted":"0","num_feature":"330","num_nodes":"43","size_leaf_vector":"1"}},{"base_weights":[3.0995893E-6,9.728524E-3,-3.7255224E-5,-4.9497775E-4,3.3008754E-2,-2.6798237E-3,1.356974E-4,-1.9187171E-2,1.4491775E-2,2.3063351E-3,4.423387E-3,-5.2793804E-3,2.2386909E-3,6.1884904E-3,3.7506656E-5,-3.0700127E-3,-2.5575254E-3,3.670853E-3,2.6334135E-3,4.217662E-4,-1.7138226E-4,-1.4811664E-2,-3.0868268E-3,1.8862518E-2,1.09363355E-4,-7.7308305E-3,8.640724E-3,-6.171441E-5,5.7435306E-3,3.2062765E-4,-9.390086E-4,7.333452E-4,-2.7407584E-4,3.7696117E-3,-1.7076929E-3,-1.0799051E-4,-1.2973504E-3,-2.0030132E-4,3.185692E-3,-7.006014E-4,4.6874836E-4,6.4748124E-4,-1.994225E-3,1.7630359E-3,3.5264727E-4,1.4945217E-5,-2.8649156E-4,2.134567E-3,1.1696075E-4],"categories":[],"categories_nodes":[],"categories_segments":[],"categories_sizes":[],"default_left":[0,0,0,0,0,0,0,0,0,0,0,0,0,0,0,0,0,0,0,0,0,0,0,0,0,0,0,0,0,0,0,0,0,0,0,0,0,0,0,0,0,0,0,0,0,0,0,0,0],"id":10,"left_children":[1,3,5,7,9,11,13,15,17,19,-1,21,23,25,27,-1,29,31,-1,-1,-1,33,35,37,39,41,43,45,47,-1,-1,-1,-1,-1,-1,-1,-1,-1,-1,-1,-1,-1,-1,-1,-1,-1,-1,-1,-1],"loss_changes":[3.4191485E-3,8.584535E-3,3.965635E-3,7.561573E-3,3.6890013E-3,6.826735E-3,4.8399772E-3,2.2189603E-3,1.8255101E-3,3.7963662E-5,0E0,7.248394E-3,6.546488E-3,4.504146E-3,4.5381095E-3,0E0,2.6639635E-4,2.3144767E-4,0E0,0E0,0E0,8.375094E-3,5.6408998E-3,5.757647E-3,5.407724E-3,3.5985433E-3,5.0410796E-3,4.6643424E-3,9.751761E-3,0E0,0E0,0E0,0E0,0E0,0E0,0E0,0E0,0E0,0E0,0E0,0E0,0E0,0E0,0E0,0E0,0E0,0E0,0E0,0E0],"parents":[2147483647,0,0,1,1,2,2,3,3,4,4,5,5,6,6,7,7,8,8,9,9,11,11,12,12,13,13,14,14,16,16,17,17,21,21,22,22,23,23,24,24,25,25,26,26,27,27,28,28],"right_children":[2,4,6,8,10,12,14,16,18,20,-1,22,24,26,28,-1,30,32,-1,-1,-1,34,36,38,40,42,44,46,48,-1,-1,-1,-1,-1,-1,-1,-1,-1,-1,-1,-1,-1,-1,-1,-1,-1,-1,-1,-1],"split_conditions":[-3.043909E5,3.611315E4,-6.638646E1,-8.840245E0,-4.3388373E-1,1.41998545E4,-5.6982853E1,1.982442E1,1.6294677E-2,-4.1463412E-3,4.423387E-3,-7.093523E4,-3.7630044E-2,-5.7688203E4,1.6038092E5,-3.0700127E-3,8.660254E-1,8.799243E3,2.6334135E-3,4.217662E-4,-1.7138226E-4,-2.27846E1,4.083812E1,-1.2343039E1,-5.8627576E-3,-5.276367E1,-9.653179E-3,2.0598112E-2,-5.2257113E4,3.2062765E-4,-9.390086E-4,7.333452E-4,-2.7407584E-4,3.7696117E-3,-1.7076929E-3,-1.0799051E-4,-1.2973504E-3,-2.0030132E-4,3.185692E-3,-7.006014E-4,4.6874836E-4,6.4748124E-4,-1.994225E-3,1.7630359E-3,3.5264727E-4,1.4945217E-5,-2.8649156E-4,2.134567E-3,1.1696075E-4],"split_indices":[309,210,217,218,4,45,274,8,209,0,0,177,319,287,309,0,2,122,0,0,0,317,160,75,198,206,198,264,23,0,0,0,0,0,0,0,0,0,0,0,0,0,0,0,0,0,0,0,0],"split_type":[0,0,0,0,0,0,0,0,0,0,0,0,0,0,0,0,0,0,0,0,0,0,0,0,0,0,0,0,0,0,0,0,0,0,0,0,0,0,0,0,0,0,0,0,0,0,0,0,0],"sum_hessian":[8.71E3,3.5E1,8.675E3,2.5E1,1E1,5.32E2,8.143E3,1.1E1,1.4E1,3E0,7E0,3.48E2,1.84E2,1.29E2,8.014E3,6E0,5E0,8E0,6E0,2E0,1E0,6.4E1,2.84E2,2E1,1.64E2,1.9E1,1.1E2,7.878E3,1.36E2,3E0,2E0,5E0,3E0,2E0,6.2E1,2.37E2,4.7E1,8E0,1.2E1,6.4E1,1E2,9E0,1E1,3.9E1,7.1E1,7.327E3,5.51E2,3E1,1.06E2],"tree_param":{"num_deleted":"0","num_feature":"330","num_nodes":"49","size_leaf_vector":"1"}},{"base_weights":[3.964788E-6,-1.6771254E-4,2.1332859E-3,-1.1176868E-2,-1.2244855E-4,2.6496188E-3,-1.2726116E-2,-5.0838646E-2,-5.516069E-3,2.6792279E-3,-2.887369E-4,1.5351531E-3,9.8621035E-3,2.9126348E-3,-3.5639048E-2,-5.7349983E-3,-1.5652316E-3,-1.7329162E-2,4.536835E-3,-1.5518127E-2,3.5617051E-3,1.1261835E-2,-3.3151254E-4,2.60226E-3,-6.5421565E-3,1.9707924E-2,4.587266E-3,1.84325E-3,-5.1385607E-3,-5.220271E-3,-1.8656766E-3,-3.68177E-3,-8.667043E-4,7.2112E-5,2.2103132E-3,7.3908234E-4,-3.701634E-3,1.8796449E-3,2.4538214E-4,-2.8875796E-4,3.7019537E-3,-1.1262124E-3,-2.9080726E-5,2.0302004E-4,1.50909E-3,-2.4809341E-3,-2.282753E-4,1.0250373E-3,2.9108848E-3,-1.4173961E-4,9.838553E-4,4.2931992E-4,-1.2141934E-3],"categories":[],"categories_nodes":[],"categories_segments":[],"categories_sizes":[],"default_left":[0,0,0,0,0,0,0,0,0,0,0,0,0,0,0,0,0,0,0,0,0,0,0,0,0,0,0,0,0,0,0,0,0,0,0,0,0,0,0,0,0,0,0,0,0,0,0,0,0,0,0,0,0],"id":11,"left_children":[1,3,5,7,9,11,13,15,17,19,21,23,25,27,29,-1,-1,31,33,35,37,39,41,43,45,47,49,-1,51,-1,-1,-1,-1,-1,-1,-1,-1,-1,-1,-1,-1,-1,-1,-1,-1,-1,-1,-1,-1,-1,-1,-1,-1],"loss_changes":[3.1847171E-3,4.016074E-3,5.0207805E-3,7.128643E-3,3.741839E-3,5.040805E-3,7.987055E-3,1.8781051E-5,3.6412957E-3,7.2817095E-3,3.7493785E-3,4.7231913E-3,4.2721434E-3,1.8440649E-3,1.557665E-3,0E0,0E0,2.044268E-3,1.1235365E-3,1.0616111E-2,7.211558E-3,1.0311676E-2,3.3577536E-3,3.420035E-3,4.9230345E-3,2.2800043E-3,1.7797482E-3,0E0,7.1266905E-4,0E0,0E0,0E0,0E0,0E0,0E0,0E0,0E0,0E0,0E0,0E0,0E0,0E0,0E0,0E0,0E0,0E0,0E0,0E0,0E0,0E0,0E0,0E0,0E0],"parents":[2147483647,0,0,1,1,2,2,3,3,4,4,5,5,6,6,7,7,8,8,9,9,10,10,11,11,12,12,13,13,14,14,17,17,18,18,19,19,20,20,21,21,22,22,23,23,24,24,25,25,26,26,28,28],"right_children":[2,4,6,8,10,12,14,16,18,20,22,24,26,28,30,-1,-1,32,34,36,38,40,42,44,46,48,50,-1,52,-1,-1,-1,-1,-1,-1,-1,-1,-1,-1,-1,-1,-1,-1,-1,-1,-1,-1,-1,-1,-1,-1,-1,-1],"split_conditions":[6.964625E1,-3.043909E5,3.6754675E-2,-1.4322233E5,-2.484214E-2,4.4351613E4,2.3957111E4,-1.0185273E-3,-7.1227076E-3,-1.4322233E5,-6.818132E-2,1.4771852E1,-2.2252093E-1,-7.4447393E-3,-9.630407E-3,-5.7349983E-3,-1.5652316E-3,-2.9742692E-2,1.5164816E1,8.2167015E1,-3.1083193E-2,2.1974785E4,-3.043909E5,7.2107925E1,-7.818315E-1,3.4063372E-3,7.2764465E1,1.84325E-3,1.3242234E-2,-5.220271E-3,-1.8656766E-3,-3.68177E-3,-8.667043E-4,7.2112E-5,2.2103132E-3,7.3908234E-4,-3.701634E-3,1.8796449E-3,2.4538214E-4,-2.8875796E-4,3.7019537E-3,-1.1262124E-3,-2.9080726E-5,2.0302004E-4,1.50909E-3,-2.4809341E-3,-2.282753E-4,1.0250373E-3,2.9108848E-3,-1.4173961E-4,9.838553E-4,4.2931992E-4,-1.2141934E-3],"split_indices":[248,122,22,67,66,12,133,0,297,177,275,328,71,308,132,0,0,0,64,73,198,133,232,43,136,198,259,0,66,0,0,0,0,0,0,0,0,0,0,0,0,0,0,0,0,0,0,0,0,0,0,0,0],"split_type":[0,0,0,0,0,0,0,0,0,0,0,0,0,0,0,0,0,0,0,0,0,0,0,0,0,0,0,0,0,0,0,0,0,0,0,0,0,0,0,0,0,0,0,0,0,0,0,0,0,0,0,0,0],"sum_hessian":[8.71E3,8.061E3,6.49E2,3.2E1,8.029E3,6.28E2,2.1E1,3E0,2.9E1,4.49E2,7.58E3,5.45E2,8.3E1,1.3E1,8E0,2E0,1E0,1.3E1,1.6E1,2E1,4.29E2,2.7E1,7.553E3,4.82E2,6.3E1,2.8E1,5.5E1,4E0,9E0,3E0,5E0,3E0,1E1,1.4E1,2E0,1E1,1E1,2.8E1,4.01E2,1.8E1,9E0,2.7E1,7.526E3,4.62E2,2E1,1.1E1,5.2E1,1.5E1,1.3E1,2.6E1,2.9E1,4E0,5E0],"tree_param":{"num_deleted":"0","num_feature":"330","num_nodes":"53","size_leaf_vector":"1"}},{"base_weights":[2.375295E-6,1.6578157E-4,-2.1490117E-3,1.0933594E-2,1.20361015E-4,-2.7315114E-2,-1.474334E-3,-1.725564E-2,1.8881012E-2,-5.4887736E-5,2.562262E-3,-3.9558876E-2,7.5329384E-3,-2.673035E-3,5.8198315E-3,-2.6552358E-3,-1.3208332E-3,3.9896686E-2,6.1566937E-3,-1.0884595E-4,8.014042E-3,1.8839859E-3,1.5379728E-2,-1.2189854E-2,-4.7327455E-2,9.475124E-4,-1.1790241E-5,-1.368735E-3,-1.1393364E-2,-1.2276701E-3,1.4568786E-2,2.7475847E-4,-3.592834E-4,1.566387E-3,4.3996903E-3,1.0945563E-3,-1.3340742E-3,-8.714662E-4,-5.0895273E-6,2.4806277E-5,1.8726677E-3,-4.1540116E-3,2.0496082E-4,9.813624E-4,3.7907858E-3,-3.4250214E-4,-1.3969791E-3,-5.276048E-3,-1.8874578E-3,-4.0103478E-4,2.1377765E-4,-1.2520287E-6,-1.861018E-3,1.7978592E-3,-6.7550706E-4,2.2283816E-3,-6.393906E-4],"categories":[],"categories_nodes":[],"categories_segments":[],"categories_sizes":[],"default_left":[0,0,0,0,0,0,0,0,0,0,0,0,0,0,0,0,0,0,0,0,0,0,0,0,0,0,0,0,0,0,0,0,0,0,0,0,0,0,0,0,0,0,0,0,0,0,0,0,0,0,0,0,0,0,0,0,0],"id":12,"left_children":[1,3,5,7,9,11,13,15,17,19,21,23,25,27,29,-1,31,33,35,37,39,41,43,45,47,-1,-1,49,51,53,55,-1,-1,-1,-1,-1,-1,-1,-1,-1,-1,-1,-1,-1,-1,-1,-1,-1,-1,-1,-1,-1,-1,-1,-1,-1,-1],"loss_changes":[3.0627097E-3,3.958766E-3,1.0401819E-2,7.942878E-3,3.4510493E-3,7.124733E-3,5.2616713E-3,1.15006E-3,6.974441E-3,3.2771449E-3,4.6656653E-3,1.9745063E-3,7.5413904E-5,5.8533517E-3,5.2588386E-3,0E0,4.6845413E-5,3.0443817E-4,1.8266941E-3,3.7279336E-3,4.1550593E-3,3.7818279E-3,3.013622E-3,1.4556572E-5,3.9543584E-4,0E0,0E0,4.1768537E-3,5.5027083E-3,5.21716E-3,6.2881364E-3,0E0,0E0,0E0,0E0,0E0,0E0,0E0,0E0,0E0,0E0,0E0,0E0,0E0,0E0,0E0,0E0,0E0,0E0,0E0,0E0,0E0,0E0,0E0,0E0,0E0,0E0],"parents":[2147483647,0,0,1,1,2,2,3,3,4,4,5,5,6,6,7,7,8,8,9,9,10,10,11,11,12,12,13,13,14,14,16,16,17,17,18,18,19,19,20,20,21,21,22,22,23,23,24,24,27,27,28,28,29,29,30,30],"right_children":[2,4,6,8,10,12,14,16,18,20,22,24,26,28,30,-1,32,34,36,38,40,42,44,46,48,-1,-1,50,52,54,56,-1,-1,-1,-1,-1,-1,-1,-1,-1,-1,-1,-1,-1,-1,-1,-1,-1,-1,-1,-1,-1,-1,-1,-1,-1,-1],"split_conditions":[2.2003353E-2,-6.818132E-2,-4.9850028E-2,-1.4113188E1,7.047523E1,1.0469317E-2,5.0722054E1,-1.486373E3,-1.9431402E1,5.171598E-2,2.9744897E-2,-5.225106E4,6.1163303E1,8.740783E4,1.0981623E4,-2.6552358E-3,1.0671597E4,-2.2252093E-1,2.249298E4,-2.2858189E5,3.5168717E-3,-5.651267E-2,2.1259433E-2,2.9620214E-3,5.658004E0,9.475124E-4,-1.1790241E-5,3.262239E-2,-4.9435787E1,-1.4175974E1,5.2793285E4,2.7475847E-4,-3.592834E-4,1.566387E-3,4.3996903E-3,1.0945563E-3,-1.3340742E-3,-8.714662E-4,-5.0895273E-6,2.4806277E-5,1.8726677E-3,-4.1540116E-3,2.0496082E-4,9.813624E-4,3.7907858E-3,-3.4250214E-4,-1.3969791E-3,-5.276048E-3,-1.8874578E-3,-4.0103478E-4,2.1377765E-4,-1.2520287E-6,-1.861018E-3,1.7978592E-3,-6.7550706E-4,2.2283816E-3,-6.393906E-4],"split_indices":[33,286,297,130,248,77,10,1,263,308,44,210,6,1,100,0,1,27,155,78,99,99,55,0,20,0,0,33,43,262,166,0,0,0,0,0,0,0,0,0,0,0,0,0,0,0,0,0,0,0,0,0,0,0,0,0,0],"split_type":[0,0,0,0,0,0,0,0,0,0,0,0,0,0,0,0,0,0,0,0,0,0,0,0,0,0,0,0,0,0,0,0,0,0,0,0,0,0,0,0,0,0,0,0,0,0,0,0,0,0,0,0,0,0,0,0,0],"sum_hessian":[8.71E3,8.096E3,6.14E2,3.3E1,8.063E3,1.5E1,5.99E2,7E0,2.6E1,7.524E3,5.39E2,1.1E1,4E0,5.15E2,8.4E1,4E0,3E0,9E0,1.7E1,7.475E3,4.9E1,5.13E2,2.6E1,3E0,8E0,3E0,1E0,4.49E2,6.6E1,4.7E1,3.7E1,1E0,2E0,2E0,7E0,1.4E1,3E0,4.9E1,7.426E3,2.9E1,2E1,1E0,5.12E2,2.2E1,4E0,1E0,2E0,6E0,2E0,2.56E2,1.93E2,2.6E1,4E1,1E1,3.7E1,2.7E1,1E1],"tree_param":{"num_deleted":"0","num_feature":"330","num_nodes":"57","size_leaf_vector":"1"}},{"base_weights":[1.8536646E-6,9.010061E-3,-3.5525E-5,-1.1427845E-2,1.6245948E-2,-1.4000082E-3,2.2386455E-4,6.438467E-3,-2.0004617E-2,2.6482752E-2,4.8487205E-3,-1.2420195E-3,-3.2346345E-2,1.316795E-4,6.7850407E-3,4.266638E-5,8.300181E-4,-5.8511243E-4,-2.1388344E-3,1.3693847E-4,3.3655525E-3,1.1297406E-2,-9.018395E-3,-1.308935E-3,4.551723E-3,6.6790247E-4,-4.568563E-3,5.352944E-4,-1.2019468E-3,4.9314452E-3,4.9799117E-3,-2.8682034E-4,4.576182E-4,-2.8189004E-5,1.9063918E-3,-3.140778E-4,-1.188988E-3,-5.832243E-4,-6.336802E-5,1.7419197E-4,-7.40066E-5,4.4837998E-5,8.714002E-4,-8.455627E-5,-9.3408814E-4,8.159945E-4,-1.1827754E-3],"categories":[],"categories_nodes":[],"categories_segments":[],"categories_sizes":[],"default_left":[0,0,0,0,0,0,0,0,0,0,0,0,0,0,0,0,0,0,0,0,0,0,0,0,0,0,0,0,0,0,0,0,0,0,0,0,0,0,0,0,0,0,0,0,0,0,0],"id":13,"left_children":[1,3,5,7,9,11,13,15,17,19,21,23,25,27,29,-1,-1,-1,-1,31,-1,33,35,37,-1,39,-1,41,43,-1,45,-1,-1,-1,-1,-1,-1,-1,-1,-1,-1,-1,-1,-1,-1,-1,-1],"loss_changes":[2.9334421E-3,5.5095674E-3,3.0710332E-3,1.6611521E-3,3.0217138E-3,6.736217E-3,4.409012E-3,4.1227628E-5,1.1946075E-5,2.6410082E-3,1.3538297E-3,4.3774866E-3,3.1132181E-3,3.8713533E-3,7.5082993E-3,0E0,0E0,0E0,0E0,6.648765E-5,0E0,9.046814E-4,4.7043985E-5,4.208302E-3,0E0,5.825683E-6,0E0,3.9206822E-3,4.8389826E-3,0E0,5.334508E-3,0E0,0E0,0E0,0E0,0E0,0E0,0E0,0E0,0E0,0E0,0E0,0E0,0E0,0E0,0E0,0E0],"parents":[2147483647,0,0,1,1,2,2,3,3,4,4,5,5,6,6,7,7,8,8,9,9,10,10,11,11,12,12,13,13,14,14,19,19,21,21,22,22,23,23,25,25,27,27,28,28,30,30],"right_children":[2,4,6,8,10,12,14,16,18,20,22,24,26,28,30,-1,-1,-1,-1,32,-1,34,36,38,-1,40,-1,42,44,-1,46,-1,-1,-1,-1,-1,-1,-1,-1,-1,-1,-1,-1,-1,-1,-1,-1],"split_conditions":[-3.043909E5,-1.4518138E-2,3.838901E1,-5.03286E4,-4.5423016E4,5.2882336E1,1.6038092E5,5E-1,2.8475176E1,-7.818315E-1,9.493181E-3,7.005611E1,-2.2252093E-1,8.43593E-3,-5E-1,4.266638E-5,8.300181E-4,-5.8511243E-4,-2.1388344E-3,8.660254E-1,3.3655525E-3,3.9779644E3,4.1400738E1,-5.2201043E4,4.551723E-3,5.8331643E-4,-4.568563E-3,4.6848614E-2,7.422241E1,4.9314452E-3,8.0815414E4,-2.8682034E-4,4.576182E-4,-2.8189004E-5,1.9063918E-3,-3.140778E-4,-1.188988E-3,-5.832243E-4,-6.336802E-5,1.7419197E-4,-7.40066E-5,4.4837998E-5,8.714002E-4,-8.455627E-5,-9.3408814E-4,8.159945E-4,-1.1827754E-3],"split_indices":[276,44,314,133,287,296,309,3,7,48,121,226,5,264,3,0,0,0,0,2,0,309,7,254,0,0,0,209,94,0,254,0,0,0,0,0,0,0,0,0,0,0,0,0,0,0,0],"split_type":[0,0,0,0,0,0,0,0,0,0,0,0,0,0,0,0,0,0,0,0,0,0,0,0,0,0,0,0,0,0,0,0,0,0,0,0,0,0,0,0,0,0,0,0,0,0,0],"sum_hessian":[8.71E3,3.5E1,8.675E3,9E0,2.6E1,1.385E3,7.29E3,3E0,6E0,1.3E1,1.3E1,1.379E3,6E0,7.19E3,1E2,1E0,2E0,1E0,5E0,3E0,1E1,9E0,4E0,1.378E3,1E0,2E0,4E0,5.52E3,1.67E3,3E0,9.7E1,2E0,1E0,4E0,5E0,2E0,2E0,1.78E2,1.2E3,1E0,1E0,5.463E3,5.7E1,1.601E3,6.9E1,8.2E1,1.5E1],"tree_param":{"num_deleted":"0","num_feature":"330","num_nodes":"47","size_leaf_vector":"1"}},{"base_weights":[2.3524344E-6,8.902567E-3,-3.4578192E-5,3.484965E-3,2.4768159E-2,2.1704368E-6,-9.107351E-3,-5.5096666E-3,1.1647623E-2,2.7337496E-3,1.0516986E-3,-1.4661843E-4,2.270637E-3,2.0645235E-2,-1.361237E-2,4.8137484E-3,-1.1779758E-2,5.321051E-3,2.3236558E-2,-1.888154E-4,1.1226131E-2,8.216993E-3,8.448447E-5,-3.327316E-4,2.7470202E-3,-8.172063E-3,-3.1097416E-2,6.577259E-4,8.5781816E-5,-5.821748E-4,-1.7771835E-3,-3.3258423E-4,8.9793664E-4,2.6179466E-3,5.732462E-4,-1.1446904E-3,-1.4965769E-5,3.903983E-4,3.087404E-3,-2.1123332E-3,9.882476E-4,3.3268512E-3,-2.5872117E-5,-1.348269E-3,2.7671296E-4,-3.6314619E-3,-1.2036273E-3],"categories":[],"categories_nodes":[],"categories_segments":[],"categories_sizes":[],"default_left":[0,0,0,0,0,0,0,0,0,0,0,0,0,0,0,0,0,0,0,0,0,0,0,0,0,0,0,0,0,0,0,0,0,0,0,0,0,0,0,0,0,0,0,0,0,0,0],"id":14,"left_children":[1,3,5,7,9,11,13,15,17,-1,-1,19,21,23,25,27,29,31,33,35,37,39,41,-1,-1,43,45,-1,-1,-1,-1,-1,-1,-1,-1,-1,-1,-1,-1,-1,-1,-1,-1,-1,-1,-1,-1],"loss_changes":[2.863531E-3,3.0080082E-3,2.892702E-3,2.1199377E-3,4.203664E-5,2.9172034E-3,4.9722884E-3,9.6290745E-4,9.761306E-4,0E0,0E0,3.8945514E-3,6.9151158E-3,9.094614E-4,2.6947153E-3,3.621586E-5,2.178445E-4,3.7782762E-4,1.0749209E-4,3.5611633E-3,4.195415E-3,7.1965596E-3,4.4502956E-3,0E0,0E0,1.4896576E-3,2.5902828E-4,0E0,0E0,0E0,0E0,0E0,0E0,0E0,0E0,0E0,0E0,0E0,0E0,0E0,0E0,0E0,0E0,0E0,0E0,0E0,0E0],"parents":[2147483647,0,0,1,1,2,2,3,3,4,4,5,5,6,6,7,7,8,8,11,11,12,12,13,13,14,14,15,15,16,16,17,17,18,18,19,19,20,20,21,21,22,22,25,25,26,26],"right_children":[2,4,6,8,10,12,14,16,18,-1,-1,20,22,24,26,28,30,32,34,36,38,40,42,-1,-1,44,46,-1,-1,-1,-1,-1,-1,-1,-1,-1,-1,-1,-1,-1,-1,-1,-1,-1,-1,-1,-1],"split_conditions":[-6.818132E-2,1.9225007E-2,4.3660923E1,-6.262166E-3,-1.5975107E-3,2.3667296E-2,-3.1083193E-2,-7.423007E-3,5.0006824E4,2.7337496E-3,1.0516986E-3,4.3660923E1,-8.317555E-3,0E0,2.5332846E4,1.5466613E0,-5.2513643E3,-3.1083193E-2,4.0324386E-3,-3.043909E5,3.048527E4,-3.0125483E1,-5.651267E-2,-3.327316E-4,2.7470202E-3,6.175153E1,5.2531804E-3,6.577259E-4,8.5781816E-5,-5.821748E-4,-1.7771835E-3,-3.3258423E-4,8.9793664E-4,2.6179466E-3,5.732462E-4,-1.1446904E-3,-1.4965769E-5,3.903983E-4,3.087404E-3,-2.1123332E-3,9.882476E-4,3.3268512E-3,-2.5872117E-5,-1.348269E-3,2.7671296E-4,-3.6314619E-3,-1.2036273E-3],"split_indices":[319,308,174,66,44,88,198,77,100,0,0,31,275,2,221,9,100,0,0,232,320,284,319,0,0,116,0,0,0,0,0,0,0,0,0,0,0,0,0,0,0,0,0,0,0,0,0],"split_type":[0,0,0,0,0,0,0,0,0,0,0,0,0,0,0,0,0,0,0,0,0,0,0,0,0,0,0,0,0,0,0,0,0,0,0,0,0,0,0,0,0,0,0,0,0,0,0],"sum_hessian":[8.71E3,3.5E1,8.675E3,2.7E1,8E0,8.641E3,3.4E1,1.3E1,1.4E1,6E0,2E0,8.11E3,5.31E2,4E0,3E1,5E0,8E0,1E1,4E0,8.081E3,2.9E1,1.42E2,3.89E2,1E0,3E0,2.4E1,6E0,3E0,2E0,5E0,3E0,3E0,7E0,3E0,1E0,2.7E1,8.054E3,2.2E1,7E0,7E0,1.35E2,3E0,3.86E2,1.6E1,8E0,4E0,2E0],"tree_param":{"num_deleted":"0","num_feature":"330","num_nodes":"47","size_leaf_vector":"1"}},{"base_weights":[2.9126018E-6,8.755933E-3,-3.340732E-5,1.1485988E-2,-2.5103341E-3,9.214026E-3,-6.76334E-5,-5.012894E-3,1.7626101E-2,3.336313E-2,2.3579586E-3,-2.464086E-3,8.7613116E-5,-1.117065E-2,3.3789926E-4,3.0907092E-3,1.074421E-2,3.5814724E-3,9.3267823E-4,-7.7993395E-3,1.938957E-2,-1.4827275E-3,-1.7567473E-2,-1.9119507E-5,5.2018925E-3,-1.5928356E-3,-4.8097083E-4,9.549329E-5,1.5559271E-3,-2.2597855E-3,2.498634E-5,3.2536008E-3,9.1073813E-4,2.5819955E-4,-4.3890075E-4,4.84248E-4,-3.125557E-3,9.723375E-4,-6.710967E-6,6.529214E-4,-2.1828858E-3],"categories":[],"categories_nodes":[],"categories_segments":[],"categories_sizes":[],"default_left":[0,0,0,0,0,0,0,0,0,0,0,0,0,0,0,0,0,0,0,0,0,0,0,0,0,0,0,0,0,0,0,0,0,0,0,0,0,0,0,0,0],"id":15,"left_children":[1,3,5,7,-1,9,11,13,15,17,19,21,23,25,-1,-1,27,-1,-1,29,31,33,35,37,39,-1,-1,-1,-1,-1,-1,-1,-1,-1,-1,-1,-1,-1,-1,-1,-1],"loss_changes":[2.7695973E-3,3.6160946E-3,2.746607E-3,3.5327272E-3,0E0,5.2195033E-3,3.2165095E-3,5.5449735E-4,1.952887E-3,7.8455545E-5,4.6491E-3,7.770238E-3,4.432486E-3,1.049703E-4,0E0,0E0,8.3358935E-4,0E0,0E0,2.0306227E-3,1.0554236E-3,5.8588786E-3,9.967342E-3,3.719964E-3,6.098355E-3,0E0,0E0,0E0,0E0,0E0,0E0,0E0,0E0,0E0,0E0,0E0,0E0,0E0,0E0,0E0,0E0],"parents":[2147483647,0,0,1,1,2,2,3,3,5,5,6,6,7,7,8,8,9,9,10,10,11,11,12,12,13,13,16,16,19,19,20,20,21,21,22,22,23,23,24,24],"right_children":[2,4,6,8,-1,10,12,14,16,18,20,22,24,26,-1,-1,28,-1,-1,30,32,34,36,38,40,-1,-1,-1,-1,-1,-1,-1,-1,-1,-1,-1,-1,-1,-1,-1,-1],"split_conditions":[-4.8282707E1,9.08521E4,-6.818132E-2,-4.8282707E1,-2.5103341E-3,3.0492651E1,-6.638646E1,-1.1864414E-2,-2.5326873E4,-4.823917E-4,2.1171695E-2,3.262239E-2,3.6754675E-2,6.655675E1,3.3789926E-4,3.0907092E-3,-1.0415406E4,3.5814724E-3,9.3267823E-4,3.8017494E1,-8.305208E-3,-6.334869E1,7.4206436E1,-6.638646E1,2.559422E5,-1.5928356E-3,-4.8097083E-4,9.549329E-5,1.5559271E-3,-2.2597855E-3,2.498634E-5,3.2536008E-3,9.1073813E-4,2.5819955E-4,-4.3890075E-4,4.84248E-4,-3.125557E-3,9.723375E-4,-6.710967E-6,6.529214E-4,-2.1828858E-3],"split_indices":[295,12,286,251,0,83,217,242,23,0,297,132,209,6,0,0,67,0,0,193,0,52,29,228,276,0,0,0,0,0,0,0,0,0,0,0,0,0,0,0,0],"split_type":[0,0,0,0,0,0,0,0,0,0,0,0,0,0,0,0,0,0,0,0,0,0,0,0,0,0,0,0,0,0,0,0,0,0,0,0,0,0,0,0,0],"sum_hessian":[8.71E3,3.5E1,8.675E3,3.3E1,2E0,3.1E1,8.644E3,9E0,2.4E1,6E0,2.5E1,5.25E2,8.119E3,5E0,4E0,7E0,1.7E1,5E0,1E0,1.6E1,9E0,4.94E2,3.1E1,7.954E3,1.65E2,2E0,3E0,6E0,1.1E1,5E0,1.1E1,3E0,6E0,2.06E2,2.88E2,1.2E1,1.9E1,3.8E1,7.916E3,1.58E2,7E0],"tree_param":{"num_deleted":"0","num_feature":"330","num_nodes":"41","size_leaf_vector":"1"}},{"base_weights":[3.0292356E-6,8.6406333E-4,-3.4058292E-4,5.967262E-4,9.216676E-3,-2.8754727E-3,-4.564043E-5,1.10225305E-2,4.0258752E-4,3.0528493E-3,1.93136E-2,-2.2468271E-3,-2.7605843E-2,1.4975214E-2,-8.611971E-5,3.7751684E-3,3.0034231E-2,5.7005003E-4,-9.871697E-3,-2.701416E-3,1.2280711E-2,1.1309878E-3,3.0362364E-2,-2.7372835E-2,-1.8003E-3,-4.176845E-2,1.1905588E-2,9.1197565E-3,2.8797786E-3,-3.2981441E-4,2.1822057E-3,2.2958121E-3,-1.3380102E-4,4.3644668E-3,9.1496826E-4,1.7798264E-3,4.5817393E-5,5.152473E-4,-1.9894089E-3,1.2133366E-4,-1.9215107E-3,4.156555E-5,2.2917695E-3,1.0227558E-3,-1.3649722E-3,4.0317997E-3,8.9580874E-4,-5.433109E-4,-4.475042E-3,-4.299668E-4,2.9072695E-4,-1.2219632E-3,-6.112909E-3,-3.58296E-4,2.3425608E-3,1.2754944E-4,1.4540588E-3,3.278815E-5,-1.5304139E-4,2.889871E-3,1.7261329E-4],"categories":[],"categories_nodes":[],"categories_segments":[],"categories_sizes":[],"default_left":[0,0,0,0,0,0,0,0,0,0,0,0,0,0,0,0,0,0,0,0,0,0,0,0,0,0,0,0,0,0,0,0,0,0,0,0,0,0,0,0,0,0,0,0,0,0,0,0,0,0,0,0,0,0,0,0,0,0,0,0,0],"id":16,"left_children":[1,3,5,7,9,11,13,15,17,19,21,23,25,27,29,31,33,35,37,39,41,43,45,47,49,51,53,55,-1,57,59,-1,-1,-1,-1,-1,-1,-1,-1,-1,-1,-1,-1,-1,-1,-1,-1,-1,-1,-1,-1,-1,-1,-1,-1,-1,-1,-1,-1,-1,-1],"loss_changes":[2.5775463E-3,5.543415E-3,4.655465E-3,4.871503E-3,4.7331867E-3,1.0027744E-2,3.393508E-3,5.9491415E-3,4.0764664E-3,2.6350538E-3,5.791628E-3,7.063849E-3,9.450639E-3,9.514338E-4,3.076934E-3,3.2675518E-3,3.0116383E-3,4.480821E-3,5.8244723E-3,2.027372E-3,2.3884338E-3,1.7530484E-3,3.4745038E-3,3.9507216E-3,7.3544523E-3,6.118031E-3,9.7607466E-4,4.917226E-4,0E0,3.9691785E-3,6.5298397E-3,0E0,0E0,0E0,0E0,0E0,0E0,0E0,0E0,0E0,0E0,0E0,0E0,0E0,0E0,0E0,0E0,0E0,0E0,0E0,0E0,0E0,0E0,0E0,0E0,0E0,0E0,0E0,0E0,0E0,0E0],"parents":[2147483647,0,0,1,1,2,2,3,3,4,4,5,5,6,6,7,7,8,8,9,9,10,10,11,11,12,12,13,13,14,14,15,15,16,16,17,17,18,18,19,19,20,20,21,21,22,22,23,23,24,24,25,25,26,26,27,27,29,29,30,30],"right_children":[2,4,6,8,10,12,14,16,18,20,22,24,26,28,30,32,34,36,38,40,42,44,46,48,50,52,54,56,-1,58,60,-1,-1,-1,-1,-1,-1,-1,-1,-1,-1,-1,-1,-1,-1,-1,-1,-1,-1,-1,-1,-1,-1,-1,-1,-1,-1,-1,-1,-1,-1],"split_conditions":[-4.823988E-3,3.6754675E-2,-1.5717795E-2,-4.9850028E-2,3.929054E-3,1.6038092E5,-6.818132E-2,7.148696E-3,1.671971E2,1.2082688E-2,-7.275883E4,-5.651267E-2,-3.8351037E-3,9.451024E4,1.6294677E-2,-1.04269066E2,-9.613297E4,-1.4882413E2,4.2038513E1,9.530332E0,2.1780776E3,1.5331962E-3,2.4584011E1,-8.23569E1,1.3629672E4,-9.653179E-3,5.3825832E1,6.748717E1,2.8797786E-3,5.3938828E1,-4.3991476E-2,2.2958121E-3,-1.3380102E-4,4.3644668E-3,9.1496826E-4,1.7798264E-3,4.5817393E-5,5.152473E-4,-1.9894089E-3,1.2133366E-4,-1.9215107E-3,4.156555E-5,2.2917695E-3,1.0227558E-3,-1.3649722E-3,4.0317997E-3,8.9580874E-4,-5.433109E-4,-4.475042E-3,-4.299668E-4,2.9072695E-4,-1.2219632E-3,-6.112909E-3,-3.58296E-4,2.3425608E-3,1.2754944E-4,1.4540588E-3,3.278815E-5,-1.5304139E-4,2.889871E-3,1.7261329E-4],"split_indices":[66,11,209,198,22,298,319,77,106,132,34,308,121,100,88,151,210,305,50,163,166,99,8,133,243,264,17,315,0,282,132,0,0,0,0,0,0,0,0,0,0,0,0,0,0,0,0,0,0,0,0,0,0,0,0,0,0,0,0,0,0],"split_type":[0,0,0,0,0,0,0,0,0,0,0,0,0,0,0,0,0,0,0,0,0,0,0,0,0,0,0,0,0,0,0,0,0,0,0,0,0,0,0,0,0,0,0,0,0,0,0,0,0,0,0,0,0,0,0,0,0,0,0,0,0],"sum_hessian":[8.71E3,2.484E3,6.226E3,2.408E3,7.6E1,6.48E2,5.578E3,4.3E1,2.365E3,4.8E1,2.8E1,6.33E2,1.5E1,1.4E1,5.564E3,3.2E1,1.1E1,2.328E3,3.7E1,3E1,1.8E1,1.1E1,1.7E1,1E1,6.23E2,1.1E1,4E0,1.1E1,3E0,5.025E3,5.39E2,6E0,2.6E1,6E0,5E0,1.4E1,2.314E3,1.5E1,2.2E1,2.5E1,5E0,9E0,9E0,7E0,4E0,1.1E1,6E0,5E0,5E0,4.07E2,2.16E2,5E0,6E0,2E0,2E0,5E0,6E0,3.247E3,1.778E3,8E0,5.31E2],"tree_param":{"num_deleted":"0","num_feature":"330","num_nodes":"61","size_leaf_vector":"1"}},{"base_weights":[3.8521075E-6,1.5288331E-4,-1.958277E-3,2.5146194E-3,-2.9340663E-5,-2.3672502E-2,-1.3387444E-3,1.9199346E-3,2.0975338E-2,-8.859424E-3,2.3828066E-5,-3.7230756E-2,-3.7656217E-3,6.8993247E-3,-2.3027288E-3,4.396555E-4,9.694738E-3,4.2060733E-2,9.630132E-3,-5.1759044E-3,-3.7292398E-3,1.4037256E-4,-3.344403E-3,-1.1549387E-3,-4.6587144E-3,-1.4654574E-3,5.698664E-3,2.1892615E-2,4.155066E-4,-1.6881606E-2,-1.34549E-3,1.7760815E-3,-3.6251196E-5,6.7492895E-4,2.8277717E-3,1.5695075E-3,5.1319795E-3,2.281116E-3,1.2373234E-4,-1.2235426E-3,6.619313E-4,-2.2836912E-6,3.4867204E-4,-1.8695627E-4,-2.63256E-3,7.654549E-5,8.732319E-4,3.2304476E-3,3.5382432E-4,6.338747E-4,-1.0716538E-3,-1.11786394E-4,-2.188129E-3,-2.5228443E-4,6.257844E-4],"categories":[],"categories_nodes":[],"categories_segments":[],"categories_sizes":[],"default_left":[0,0,0,0,0,0,0,0,0,0,0,0,0,0,0,0,0,0,0,0,0,0,0,0,0,0,0,0,0,0,0,0,0,0,0,0,0,0,0,0,0,0,0,0,0,0,0,0,0,0,0,0,0,0,0],"id":17,"left_children":[1,3,5,7,9,11,13,15,17,19,21,23,25,27,29,31,33,35,37,39,-1,41,43,-1,-1,-1,45,47,49,51,53,-1,-1,-1,-1,-1,-1,-1,-1,-1,-1,-1,-1,-1,-1,-1,-1,-1,-1,-1,-1,-1,-1,-1,-1],"loss_changes":[2.547557E-3,3.4847388E-3,8.241702E-3,6.3271485E-3,3.529794E-3,4.4481447E-3,4.772768E-3,6.475237E-3,3.9008763E-3,4.5199813E-3,2.9343793E-3,1.8647946E-3,9.079607E-4,6.1153714E-3,7.4713724E-3,6.5924176E-3,4.735315E-3,6.5925904E-4,1.4099112E-3,3.4950024E-3,0E0,3.9460547E-3,8.424183E-3,0E0,0E0,0E0,6.814409E-5,3.5166591E-3,3.0351293E-3,2.5763921E-3,4.5364555E-3,0E0,0E0,0E0,0E0,0E0,0E0,0E0,0E0,0E0,0E0,0E0,0E0,0E0,0E0,0E0,0E0,0E0,0E0,0E0,0E0,0E0,0E0,0E0,0E0],"parents":[2147483647,0,0,1,1,2,2,3,3,4,4,5,5,6,6,7,7,8,8,9,9,10,10,11,11,12,12,13,13,14,14,15,15,16,16,17,17,18,18,19,19,21,21,22,22,26,26,27,27,28,28,29,29,30,30],"right_children":[2,4,6,8,10,12,14,16,18,20,22,24,26,28,30,32,34,36,38,40,-1,42,44,-1,-1,-1,46,48,50,52,54,-1,-1,-1,-1,-1,-1,-1,-1,-1,-1,-1,-1,-1,-1,-1,-1,-1,-1,-1,-1,-1,-1,-1,-1],"split_conditions":[2.2003353E-2,-2.0540074E-2,-1.584622E5,3.9753087E-2,-4.125454E1,4.3438366E-3,-2.2037767E-2,1.8027062E-2,-2.2252093E-1,1.671971E2,7.7733986E1,-1.0156832E5,-1.0106828E-2,-5.03286E4,-2.8146459E-2,-3.7585147E-2,1.3837648E5,1.9335772E0,-3.7345574E-3,7.269084E1,-3.7292398E-3,5.9530064E1,1.0740311E5,-1.1549387E-3,-4.6587144E-3,-1.4654574E-3,3.9303494E-3,5.0774998E1,2.2086501E3,-1.1864414E-2,5.0722054E1,1.7760815E-3,-3.6251196E-5,6.7492895E-4,2.8277717E-3,1.5695075E-3,5.1319795E-3,2.281116E-3,1.2373234E-4,-1.2235426E-3,6.619313E-4,-2.2836912E-6,3.4867204E-4,-1.8695627E-4,-2.63256E-3,7.654549E-5,8.732319E-4,3.2304476E-3,3.5382432E-4,6.338747E-4,-1.0716538E-3,-1.11786394E-4,-2.188129E-3,-2.5228443E-4,6.257844E-4],"split_indices":[33,286,320,44,196,198,66,308,126,95,10,23,286,210,286,264,155,9,242,95,0,109,320,0,0,0,0,63,122,187,10,0,0,0,0,0,0,0,0,0,0,0,0,0,0,0,0,0,0,0,0,0,0,0,0],"split_type":[0,0,0,0,0,0,0,0,0,0,0,0,0,0,0,0,0,0,0,0,0,0,0,0,0,0,0,0,0,0,0,0,0,0,0,0,0,0,0,0,0,0,0,0,0,0,0,0,0,0,0,0,0,0,0],"sum_hessian":[8.71E3,8.096E3,6.14E2,5.79E2,7.517E3,1.6E1,5.98E2,5.62E2,1.7E1,4.4E1,7.473E3,9E0,7E0,6.2E1,5.36E2,4.73E2,8.9E1,5E0,1.2E1,4E1,4E0,7.224E3,2.49E2,3E0,6E0,3E0,4E0,1.8E1,4.4E1,3.2E1,5.04E2,2E1,4.53E2,7.8E1,1.1E1,2E0,3E0,4E0,8E0,2.5E1,1.5E1,6.889E3,3.35E2,2.35E2,1.4E1,2E0,2E0,1.1E1,7E0,2.9E1,1.5E1,8E0,2.4E1,4.37E2,6.7E1],"tree_param":{"num_deleted":"0","num_feature":"330","num_nodes":"55","size_leaf_vector":"1"}},{"base_weights":[3.7511086E-6,-6.33891E-5,4.144681E-3,-2.6033635E-5,-1.0032983E-2,7.6001044E-3,-7.6468945E-3,7.207927E-5,-3.6696729E-3,-4.67813E-3,-2.8489152E-2,-6.479182E-3,1.0119102E-2,-2.357625E-2,6.653693E-4,7.7759E-3,1.6110584E-5,-2.4103628E-2,-1.0970802E-3,1.8895641E-3,-7.4299295E-3,-3.1069168E-3,-6.5045303E-4,-1.5207923E-2,1.2058164E-2,5.623584E-3,1.8783715E-2,-3.4416106E-3,-3.6852018E-3,1.3934717E-2,-5.1815556E-3,1.1218047E-3,-2.5073092E-3,3.9365623E-4,-8.315568E-6,-5.173846E-4,-4.7725732E-3,1.9792626E-4,-8.308201E-4,-1.2566657E-3,2.5275786E-4,1.09483255E-4,-2.0763823E-3,2.6115158E-4,1.612861E-3,8.660828E-4,-5.4084527E-4,2.7649994E-3,7.48302E-4,-5.55177E-4,1.8905352E-4,1.8213561E-3,-5.869174E-4,2.851487E-4,-1.028653E-3],"categories":[],"categories_nodes":[],"categories_segments":[],"categories_sizes":[],"default_left":[0,0,0,0,0,0,0,0,0,0,0,0,0,0,0,0,0,0,0,0,0,0,0,0,0,0,0,0,0,0,0,0,0,0,0,0,0,0,0,0,0,0,0,0,0,0,0,0,0,0,0,0,0,0,0],"id":18,"left_children":[1,3,5,7,9,11,13,15,17,19,21,23,25,27,29,31,33,35,37,-1,39,-1,-1,41,43,45,47,-1,49,51,53,-1,-1,-1,-1,-1,-1,-1,-1,-1,-1,-1,-1,-1,-1,-1,-1,-1,-1,-1,-1,-1,-1,-1,-1],"loss_changes":[2.4221202E-3,3.1924853E-3,5.7216566E-3,3.0539273E-3,3.0292857E-3,3.8958578E-3,4.252775E-3,3.5868005E-3,1.1748843E-2,1.8270205E-3,1.9495422E-4,2.9341104E-3,3.477945E-3,2.2449475E-3,1.7790708E-3,7.0655327E-3,3.2148599E-3,1.09321065E-2,4.4532195E-3,0E0,1.2593395E-3,0E0,0E0,1.1096504E-3,1.8859218E-4,2.1242746E-3,2.899143E-3,0E0,6.253329E-5,7.0006284E-4,6.854676E-4,0E0,0E0,0E0,0E0,0E0,0E0,0E0,0E0,0E0,0E0,0E0,0E0,0E0,0E0,0E0,0E0,0E0,0E0,0E0,0E0,0E0,0E0,0E0,0E0],"parents":[2147483647,0,0,1,1,2,2,3,3,4,4,5,5,6,6,7,7,8,8,9,9,10,10,11,11,12,12,13,13,14,14,15,15,16,16,17,17,18,18,20,20,23,23,24,24,25,25,26,26,28,28,29,29,30,30],"right_children":[2,4,6,8,10,12,14,16,18,20,22,24,26,28,30,32,34,36,38,-1,40,-1,-1,42,44,46,48,-1,50,52,54,-1,-1,-1,-1,-1,-1,-1,-1,-1,-1,-1,-1,-1,-1,-1,-1,-1,-1,-1,-1,-1,-1,-1,-1],"split_conditions":[4.308967E-2,4.3660923E1,3.696732E4,1.3837648E5,2.5332846E4,-1.3801673E1,-8.682278E4,-5.651267E-2,-2.484214E-2,-6.818132E-2,2.2911325E-2,1.3872981E1,-2.5608684E3,-8.408638E-4,5.1982216E1,1.0707161E5,-3.4852564E-2,2.6284662E-4,6.9898994E1,1.8895641E-3,6.175153E1,-3.1069168E-3,-6.5045303E-4,-4.2650634E-3,6.8154816E1,4.37669E1,-3.0969797E4,-3.4416106E-3,4.1379808E-3,1.3783638E-1,0E0,1.1218047E-3,-2.5073092E-3,3.9365623E-4,-8.315568E-6,-5.173846E-4,-4.7725732E-3,1.9792626E-4,-8.308201E-4,-1.2566657E-3,2.5275786E-4,1.09483255E-4,-2.0763823E-3,2.6115158E-4,1.612861E-3,8.660828E-4,-5.4084527E-4,2.7649994E-3,7.48302E-4,-5.55177E-4,1.8905352E-4,1.8213561E-3,-5.869174E-4,2.851487E-4,-1.028653E-3],"split_indices":[220,174,78,166,221,9,100,319,308,198,0,295,243,77,325,254,264,253,128,0,116,0,0,33,7,118,78,0,0,9,59,0,0,0,0,0,0,0,0,0,0,0,0,0,0,0,0,0,0,0,0,0,0,0,0],"split_type":[0,0,0,0,0,0,0,0,0,0,0,0,0,0,0,0,0,0,0,0,0,0,0,0,0,0,0,0,0,0,0,0,0,0,0,0,0,0,0,0,0,0,0,0,0,0,0,0,0,0,0,0,0,0,0],"sum_hessian":[8.71E3,8.572E3,1.38E2,8.541E3,3.1E1,1.07E2,3.1E1,8.318E3,2.23E2,2.5E1,6E0,1.6E1,9.1E1,1E1,2.1E1,5.9E1,8.259E3,2.4E1,1.99E2,2E0,2.3E1,5E0,1E0,1.1E1,5E0,6.1E1,3E1,6E0,4E0,6E0,1.5E1,5.4E1,5E0,2.03E2,8.056E3,1.4E1,1E1,1.4E2,5.9E1,1.5E1,8E0,3E0,8E0,2E0,3E0,4.8E1,1.3E1,1.6E1,1.4E1,3E0,1E0,5E0,1E0,6E0,9E0],"tree_param":{"num_deleted":"0","num_feature":"330","num_nodes":"55","size_leaf_vector":"1"}},{"base_weights":[2.300817E-6,4.8611034E-4,-5.462068E-4,2.8502409E-4,4.007197E-3,-2.7291771E-2,-4.6725466E-4,1.5045941E-4,7.0827273E-3,1.1810071E-2,1.2018085E-3,-5.2319184E-2,-8.2381675E-3,-2.3104587E-4,-5.039102E-3,2.9569797E-4,-6.4165653E-3,-1.5403401E-2,9.298193E-3,2.1407267E-3,1.8449342E-2,-3.0870351E-3,2.0811397E-3,-6.06445E-3,-9.5089583E-4,6.1009442E-3,-1.4034695E-3,5.0078235E-3,-4.6404192E-4,-4.58651E-3,-3.9719124E-3,-3.648704E-4,5.1861123E-5,-2.4947799E-3,-3.626427E-4,1.6900156E-4,-3.2919322E-3,-1.1520833E-4,1.3689256E-3,1.3679321E-3,-6.130088E-4,8.99397E-4,3.2978337E-3,1.3168501E-3,5.174206E-6,1.4895336E-4,7.661883E-4,5.945998E-4,-3.4240216E-3,-1.6663749E-3,-3.8934413E-5,-1.717531E-4,-1.7436863E-3],"categories":[],"categories_nodes":[],"categories_segments":[],"categories_sizes":[],"default_left":[0,0,0,0,0,0,0,0,0,0,0,0,0,0,0,0,0,0,0,0,0,0,0,0,0,0,0,0,0,0,0,0,0,0,0,0,0,0,0,0,0,0,0,0,0,0,0,0,0,0,0,0,0],"id":19,"left_children":[1,3,5,7,9,11,13,15,17,19,21,23,25,27,29,31,33,35,37,39,41,-1,43,-1,-1,45,-1,47,49,-1,51,-1,-1,-1,-1,-1,-1,-1,-1,-1,-1,-1,-1,-1,-1,-1,-1,-1,-1,-1,-1,-1,-1],"loss_changes":[2.3119315E-3,3.276385E-3,8.608988E-3,4.0054545E-3,5.4583303E-3,5.2913353E-3,4.396232E-3,4.0993583E-3,4.3776887E-3,4.1975314E-3,5.281626E-3,1.2053773E-3,7.505613E-4,4.7298465E-3,8.531642E-3,3.698299E-3,4.718066E-3,2.45089E-3,3.5950202E-3,2.7559951E-3,5.0610984E-3,0E0,4.071939E-3,0E0,0E0,1.0181757E-5,0E0,6.279144E-3,4.481709E-3,0E0,5.9196576E-3,0E0,0E0,0E0,0E0,0E0,0E0,0E0,0E0,0E0,0E0,0E0,0E0,0E0,0E0,0E0,0E0,0E0,0E0,0E0,0E0,0E0,0E0],"parents":[2147483647,0,0,1,1,2,2,3,3,4,4,5,5,6,6,7,7,8,8,9,9,10,10,11,11,12,12,13,13,14,14,15,15,16,16,17,17,18,18,19,19,20,20,22,22,25,25,27,27,28,28,30,30],"right_children":[2,4,6,8,10,12,14,16,18,20,22,24,26,28,30,32,34,36,38,40,42,-1,44,-1,-1,46,-1,48,50,-1,52,-1,-1,-1,-1,-1,-1,-1,-1,-1,-1,-1,-1,-1,-1,-1,-1,-1,-1,-1,-1,-1,-1],"split_conditions":[8.852686E-4,2.5402518E-2,2.1238943E1,1.4636198E5,-1.3264449E4,-1.4318033E5,2.7037136E-2,1.4679475E5,-1.1188735E5,-2.7087044E1,-2.9935913E1,1.2246469E-16,-5.1214984E4,-2.809304E-2,-2.2858189E5,-2.2018301E1,-1.5306202E-2,-3.48341E-2,4.6216763E1,-6.8681145E1,1.1715612E4,-3.0870351E-3,-1.5565817E1,-6.06445E-3,-9.5089583E-4,1.7018267E-3,-1.4034695E-3,5.171598E-2,-4.8282707E1,-4.58651E-3,2.2812879E-2,-3.648704E-4,5.1861123E-5,-2.4947799E-3,-3.626427E-4,1.6900156E-4,-3.2919322E-3,-1.1520833E-4,1.3689256E-3,1.3679321E-3,-6.130088E-4,8.99397E-4,3.2978337E-3,1.3168501E-3,5.174206E-6,1.4895336E-4,7.661883E-4,5.945998E-4,-3.4240216E-3,-1.6663749E-3,-3.8934413E-5,-1.717531E-4,-1.7436863E-3],"split_indices":[264,0,314,254,1,320,66,199,34,41,141,2,111,22,100,295,319,22,61,162,276,0,206,0,0,0,0,253,207,0,231,0,0,0,0,0,0,0,0,0,0,0,0,0,0,0,0,0,0,0,0,0,0],"split_type":[0,0,0,0,0,0,0,0,0,0,0,0,0,0,0,0,0,0,0,0,0,0,0,0,0,0,0,0,0,0,0,0,0,0,0,0,0,0,0,0,0,0,0,0,0,0,0,0,0,0,0,0,0],"sum_hessian":[8.71E3,4.628E3,4.082E3,4.379E3,2.49E2,1.1E1,4.071E3,4.295E3,8.4E1,6.5E1,1.84E2,4E0,7E0,3.872E3,1.99E2,4.203E3,9.2E1,7E0,7.7E1,2.7E1,3.8E1,4E0,1.8E2,3E0,1E0,2E0,5E0,1.64E2,3.708E3,4E0,1.95E2,2.24E2,3.979E3,1.1E1,8.1E1,4E0,3E0,2.3E1,5.4E1,1.1E1,1.6E1,2.4E1,1.4E1,2.7E1,1.53E2,1E0,1E0,1.61E2,3E0,1.6E1,3.692E3,1.68E2,2.7E1],"tree_param":{"num_deleted":"0","num_feature":"330","num_nodes":"53","size_leaf_vector":"1"}},{"base_weights":[-2.703085E-7,1.336646E-3,-1.9830586E-4,1.800657E-2,9.56569E-4,-8.172198E-3,-1.4433042E-4,2.743696E-3,3.431271E-2,5.996432E-4,1.5677286E-2,2.0580075E-3,-2.2884779E-2,-1.090941E-2,-1.0418043E-4,2.6547613E-3,-6.1617005E-3,4.168463E-3,1.5655102E-2,-2.6407372E-2,7.7592896E-4,-8.3587635E-3,2.042742E-2,1.0031162E-2,-1.8546497E-2,-4.399776E-3,-1.3537112E-2,1.5170923E-3,-2.7604505E-2,-3.416571E-5,-6.9531975E-3,-1.6710785E-3,2.2536023E-4,1.7434299E-3,4.269157E-4,-5.054833E-3,-6.6413265E-4,5.9603663E-5,2.4559654E-3,-1.5905297E-3,1.9740243E-4,-8.621956E-4,2.3763457E-3,9.4267816E-5,2.406406E-3,-2.7273106E-3,7.9977524E-4,3.6140606E-5,-2.1912365E-3,-3.7066132E-4,1.1711655E-3,-6.110416E-4,-4.2084507E-3,-6.8735E-6,1.5056321E-3,-1.8698045E-3,-4.719158E-5],"categories":[],"categories_nodes":[],"categories_segments":[],"categories_sizes":[],"default_left":[0,0,0,0,0,0,0,0,0,0,0,0,0,0,0,0,0,0,0,0,0,0,0,0,0,0,0,0,0,0,0,0,0,0,0,0,0,0,0,0,0,0,0,0,0,0,0,0,0,0,0,0,0,0,0,0,0],"id":20,"left_children":[1,3,5,7,9,11,13,15,17,19,21,23,25,27,29,-1,31,-1,33,35,37,39,41,43,45,-1,47,49,51,53,55,-1,-1,-1,-1,-1,-1,-1,-1,-1,-1,-1,-1,-1,-1,-1,-1,-1,-1,-1,-1,-1,-1,-1,-1,-1,-1],"loss_changes":[2.3065628E-3,7.104278E-3,3.2646526E-3,6.1278204E-3,5.7702227E-3,7.723246E-3,3.2569217E-3,3.131345E-3,9.979308E-4,5.1385136E-3,3.139285E-3,5.2788123E-3,3.5488978E-3,5.850804E-3,3.6015273E-3,0E0,1.0141706E-3,0E0,2.6859343E-5,3.0044904E-3,4.55909E-3,4.212811E-4,2.3369016E-3,2.9106839E-3,2.3028946E-3,0E0,1.870376E-3,9.487182E-4,3.477661E-3,3.8801532E-3,5.776422E-3,0E0,0E0,0E0,0E0,0E0,0E0,0E0,0E0,0E0,0E0,0E0,0E0,0E0,0E0,0E0,0E0,0E0,0E0,0E0,0E0,0E0,0E0,0E0,0E0,0E0,0E0],"parents":[2147483647,0,0,1,1,2,2,3,3,4,4,5,5,6,6,7,7,8,8,9,9,10,10,11,11,12,12,13,13,14,14,16,16,18,18,19,19,20,20,21,21,22,22,23,23,24,24,26,26,27,27,28,28,29,29,30,30],"right_children":[2,4,6,8,10,12,14,16,18,20,22,24,26,28,30,-1,32,-1,34,36,38,40,42,44,46,-1,48,50,52,54,56,-1,-1,-1,-1,-1,-1,-1,-1,-1,-1,-1,-1,-1,-1,-1,-1,-1,-1,-1,-1,-1,-1,-1,-1,-1,-1],"split_conditions":[-5.126112E4,-4.9850028E-2,-5.651267E-2,-5.213134E-3,1.8034788E5,5.9345015E-3,-5.651267E-2,-1.7207128E-4,6.579597E4,-3.043909E5,-1.6236674E-2,3.2023117E4,-3.5381996E4,2.3778232E4,2.0494348E5,2.6547613E-3,2.5556087E0,4.168463E-3,-6.634528E4,-2.2037767E-2,3.4936044E5,1.73099E-2,1.8081364E1,2.1873347E-3,2.4584011E1,-4.399776E-3,-2.640664E-3,7.818315E-1,-1.12178336E5,2.2686111E2,-1.1188735E5,-1.6710785E-3,2.2536023E-4,1.7434299E-3,4.269157E-4,-5.054833E-3,-6.6413265E-4,5.9603663E-5,2.4559654E-3,-1.5905297E-3,1.9740243E-4,-8.621956E-4,2.3763457E-3,9.4267816E-5,2.406406E-3,-2.7273106E-3,7.9977524E-4,3.6140606E-5,-2.1912365E-3,-3.7066132E-4,1.1711655E-3,-6.110416E-4,-4.2084507E-3,-6.8735E-6,1.5056321E-3,-1.8698045E-3,-4.719158E-5],"split_indices":[210,275,308,187,309,264,187,319,243,122,209,276,78,210,56,0,31,0,1,0,23,0,7,143,8,0,99,26,199,95,78,0,0,0,0,0,0,0,0,0,0,0,0,0,0,0,0,0,0,0,0,0,0,0,0,0,0],"split_type":[0,0,0,0,0,0,0,0,0,0,0,0,0,0,0,0,0,0,0,0,0,0,0,0,0,0,0,0,0,0,0,0,0,0,0,0,0,0,0,0,0,0,0,0,0,0,0,0,0,0,0,0,0,0,0,0,0],"sum_hessian":[8.71E3,1.123E3,7.587E3,2.4E1,1.099E3,5E1,7.537E3,1.3E1,1.1E1,1.074E3,2.5E1,3E1,2E1,2.7E1,7.51E3,3E0,1E1,7E0,4E0,6E0,1.068E3,4E0,2.1E1,2.2E1,8E0,5E0,1.5E1,1.6E1,1.1E1,7.435E3,7.5E1,4E0,6E0,3E0,1E0,2E0,4E0,1.061E3,7E0,2E0,2E0,2E0,1.9E1,1.4E1,8E0,6E0,2E0,6E0,9E0,1.1E1,5E0,5E0,6E0,7.419E3,1.6E1,2.6E1,4.9E1],"tree_param":{"num_deleted":"0","num_feature":"330","num_nodes":"57","size_leaf_vector":"1"}},{"base_weights":[-9.267311E-7,3.4458635E-3,-7.034675E-5,1.4446281E-3,2.5928047E-2,-8.400606E-6,-5.5189393E-3,-3.4209408E-3,9.112066E-3,3.320527E-2,-5.663305E-4,-6.7524235E-3,3.7423415E-5,-2.3847401E-2,-3.3487834E-3,-2.5710737E-2,-1.1539506E-3,2.4177115E-2,2.8835554E-3,3.652794E-3,1.2168845E-3,-6.012494E-4,3.2532218E-4,-1.944501E-2,1.7813451E-3,-5.8568876E-5,3.813248E-3,-1.05096406E-4,-3.400766E-3,1.2650513E-3,-1.2157238E-2,-6.7414565E-4,-3.953787E-3,9.153043E-5,-1.7799521E-3,5.994316E-4,3.5203048E-3,1.930673E-3,-1.18920485E-4,-3.2301575E-3,4.9868402E-5,1.0934751E-3,-1.115218E-3,2.745728E-6,-4.8606918E-4,2.0042108E-4,1.8277059E-3,6.220277E-4,-4.2869803E-4,-1.364717E-3,5.045511E-4,-1.7103528E-3,6.538223E-4],"categories":[],"categories_nodes":[],"categories_segments":[],"categories_sizes":[],"default_left":[0,0,0,0,0,0,0,0,0,0,0,0,0,0,0,0,0,0,0,0,0,0,0,0,0,0,0,0,0,0,0,0,0,0,0,0,0,0,0,0,0,0,0,0,0,0,0,0,0,0,0,0,0],"id":21,"left_children":[1,3,5,7,9,11,13,15,17,19,21,23,25,27,29,31,33,35,37,-1,-1,-1,-1,39,41,43,45,47,-1,49,51,-1,-1,-1,-1,-1,-1,-1,-1,-1,-1,-1,-1,-1,-1,-1,-1,-1,-1,-1,-1,-1,-1],"loss_changes":[2.0845777E-3,7.701192E-3,2.8823686E-3,5.9628966E-3,2.7180826E-3,2.6100806E-3,3.7385991E-3,4.9223443E-3,5.747918E-3,3.2436475E-4,1.027676E-4,6.208628E-3,3.0408166E-3,2.4087052E-3,3.551125E-3,2.0940742E-3,3.1162456E-3,3.397665E-3,3.0329041E-3,0E0,0E0,0E0,0E0,5.9134774E-3,4.2654495E-3,3.3801843E-3,5.405807E-3,1.3247412E-4,0E0,3.3386096E-3,2.8860224E-3,0E0,0E0,0E0,0E0,0E0,0E0,0E0,0E0,0E0,0E0,0E0,0E0,0E0,0E0,0E0,0E0,0E0,0E0,0E0,0E0,0E0,0E0],"parents":[2147483647,0,0,1,1,2,2,3,3,4,4,5,5,6,6,7,7,8,8,9,9,10,10,11,11,12,12,13,13,14,14,15,15,16,16,17,17,18,18,23,23,24,24,25,25,26,26,27,27,29,29,30,30],"right_children":[2,4,6,8,10,12,14,16,18,20,22,24,26,28,30,32,34,36,38,-1,-1,-1,-1,40,42,44,46,48,-1,50,52,-1,-1,-1,-1,-1,-1,-1,-1,-1,-1,-1,-1,-1,-1,-1,-1,-1,-1,-1,-1,-1,-1],"split_conditions":[-4.0653005E-2,1.9341574E1,4.6848614E-2,1.787848E2,-2.529272E0,-5.651267E-2,2.7542501E1,-3.4852564E-2,-1.9981865E-2,2.1299308E-2,-9.640208E-3,-2.3963722E1,3.462908E-2,-1.2525156E-2,6.3980232E1,4.3101295E1,1.0127468E5,-9.14148E1,-1.5927244E5,3.652794E-3,1.2168845E-3,-6.012494E-4,3.2532218E-4,-3.2461387E4,4.809591E3,3.9753087E-2,1.9341574E1,0E0,-3.400766E-3,-2.484214E-2,7.918447E1,-6.7414565E-4,-3.953787E-3,9.153043E-5,-1.7799521E-3,5.994316E-4,3.5203048E-3,1.930673E-3,-1.18920485E-4,-3.2301575E-3,4.9868402E-5,1.0934751E-3,-1.115218E-3,2.745728E-6,-4.8606918E-4,2.0042108E-4,1.8277059E-3,6.220277E-4,-4.2869803E-4,-1.364717E-3,5.045511E-4,-1.7103528E-3,6.538223E-4],"split_indices":[121,20,55,199,196,33,17,286,99,11,0,75,44,143,149,6,254,107,89,0,0,0,0,89,1,22,42,2,0,275,127,0,0,0,0,0,0,0,0,0,0,0,0,0,0,0,0,0,0,0,0,0,0],"split_type":[0,0,0,0,0,0,0,0,0,0,0,0,0,0,0,0,0,0,0,0,0,0,0,0,0,0,0,0,0,0,0,0,0,0,0,0,0,0,0,0,0,0,0,0,0,0,0,0,0,0,0,0,0],"sum_hessian":[8.71E3,1.71E2,8.539E3,1.58E2,1.3E1,8.444E3,9.5E1,9.7E1,6.1E1,1E1,3E0,5.6E1,8.388E3,9E0,8.6E1,8E0,8.9E1,1.7E1,4.4E1,8E0,2E0,1E0,2E0,2.2E1,3.4E1,8.181E3,2.07E2,3E0,6E0,5.7E1,2.9E1,4E0,4E0,8E1,9E0,7E0,1E1,8E0,3.6E1,1.3E1,9E0,2E1,1.4E1,8.038E3,1.43E2,1.85E2,2.2E1,1E0,2E0,1.1E1,4.6E1,2.3E1,6E0],"tree_param":{"num_deleted":"0","num_feature":"330","num_nodes":"53","size_leaf_vector":"1"}},{"base_weights":[-1.1293723E-6,7.5821546E-3,-3.259515E-5,1.6759079E-2,-5.973386E-4,7.890467E-7,-8.2747E-3,3.1518396E-2,1.1345054E-2,-8.574349E-3,1.0105046E-2,-7.6121076E-5,3.2642477E-3,-3.2637027E-4,-2.0173881E-2,3.6133695E-3,8.836246E-4,5.0704265E-3,1.4267578E-3,-1.2776219E-2,-1.3648735E-4,1.4899754E-3,3.2893298E-3,9.065786E-3,-1.1197543E-4,2.6189184E-2,2.040492E-3,-9.9759055E-3,1.0230065E-2,-2.3978127E-2,-4.6687314E-4,1.2011172E-4,6.7048025E-4,-1.3373436E-4,-1.4219296E-3,1.9119254E-4,-2.1394042E-4,3.954648E-4,3.1402848E-5,1.2527163E-3,-8.5982645E-4,-6.6484436E-6,-7.4242486E-4,3.4807015E-3,-5.521429E-4,3.582609E-4,-1.3863562E-3,-3.0470296E-4,-2.30719E-3,2.1455653E-3,3.338514E-4,-2.752151E-3,-1.0896826E-3],"categories":[],"categories_nodes":[],"categories_segments":[],"categories_sizes":[],"default_left":[0,0,0,0,0,0,0,0,0,0,0,0,0,0,0,0,0,0,0,0,0,0,0,0,0,0,0,0,0,0,0,0,0,0,0,0,0,0,0,0,0,0,0,0,0,0,0,0,0,0,0,0,0],"id":22,"left_children":[1,3,5,7,9,11,13,15,17,19,21,23,25,27,29,-1,-1,31,-1,33,35,-1,37,39,41,43,45,47,49,51,-1,-1,-1,-1,-1,-1,-1,-1,-1,-1,-1,-1,-1,-1,-1,-1,-1,-1,-1,-1,-1,-1,-1],"loss_changes":[2.078813E-3,2.7122642E-3,2.3872603E-3,1.0008458E-3,1.7941049E-3,2.16933E-3,3.303667E-3,9.945361E-5,1.8438592E-4,4.2371376E-4,2.4510408E-4,2.768766E-3,5.5294116E-3,2.3430774E-3,7.1384804E-4,0E0,0E0,2.9890172E-5,0E0,1.1304126E-4,2.4604384E-5,0E0,8.6557375E-6,2.1253955E-3,2.7976956E-3,2.9249517E-3,4.7095916E-3,1.0185853E-3,7.793489E-4,2.0997599E-4,0E0,0E0,0E0,0E0,0E0,0E0,0E0,0E0,0E0,0E0,0E0,0E0,0E0,0E0,0E0,0E0,0E0,0E0,0E0,0E0,0E0,0E0,0E0],"parents":[2147483647,0,0,1,1,2,2,3,3,4,4,5,5,6,6,7,7,8,8,9,9,10,10,11,11,12,12,13,13,14,14,17,17,19,19,20,20,22,22,23,23,24,24,25,25,26,26,27,27,28,28,29,29],"right_children":[2,4,6,8,10,12,14,16,18,20,22,24,26,28,30,-1,-1,32,-1,34,36,-1,38,40,42,44,46,48,50,52,-1,-1,-1,-1,-1,-1,-1,-1,-1,-1,-1,-1,-1,-1,-1,-1,-1,-1,-1,-1,-1,-1,-1],"split_conditions":[-3.043909E5,2.9620214E-3,4.3660923E1,-2.636407E-3,8.3979996E1,3.6754675E-2,1.0199571E4,3.3388405E1,-1.6797008E-2,6.289296E-3,4.3101295E1,-4.8282707E1,-3.7585147E-2,7.616743E1,1.7554145E4,3.6133695E-3,8.836246E-4,3.822744E1,1.4267578E-3,3.158023E1,1.3649359E-2,1.4899754E-3,0E0,7.4533875E4,1.3614307E2,1.1379926E5,1.3040002E5,4.6939972E1,3.9936935E1,3.0981781E-2,-4.6687314E-4,1.2011172E-4,6.7048025E-4,-1.3373436E-4,-1.4219296E-3,1.9119254E-4,-2.1394042E-4,3.954648E-4,3.1402848E-5,1.2527163E-3,-8.5982645E-4,-6.6484436E-6,-7.4242486E-4,3.4807015E-3,-5.521429E-4,3.582609E-4,-1.3863562E-3,-3.0470296E-4,-2.30719E-3,2.1455653E-3,3.338514E-4,-2.752151E-3,-1.0896826E-3],"split_indices":[221,0,152,88,128,11,221,7,11,110,6,295,308,228,177,0,0,7,0,7,0,0,2,188,52,78,199,72,6,33,0,0,0,0,0,0,0,0,0,0,0,0,0,0,0,0,0,0,0,0,0,0,0],"split_type":[0,0,0,0,0,0,0,0,0,0,0,0,0,0,0,0,0,0,0,0,0,0,0,0,0,0,0,0,0,0,0,0,0,0,0,0,0,0,0,0,0,0,0,0,0,0,0,0,0,0,0,0,0],"sum_hessian":[8.71E3,3.5E1,8.675E3,1.6E1,1.9E1,8.641E3,3.4E1,3E0,1.3E1,1.1E1,8E0,8.443E3,1.98E2,2.1E1,1.3E1,2E0,1E0,5E0,8E0,7E0,4E0,4E0,4E0,3.2E1,8.411E3,9E0,1.89E2,1.1E1,1E1,1E1,3E0,2E0,3E0,1E0,6E0,2E0,2E0,3E0,1E0,2.7E1,5E0,8.36E3,5.1E1,7E0,2E0,1.73E2,1.6E1,8E0,3E0,3E0,7E0,7E0,3E0],"tree_param":{"num_deleted":"0","num_feature":"330","num_nodes":"53","size_leaf_vector":"1"}},{"base_weights":[-5.3935116E-7,1.2879692E-4,-1.7033609E-3,2.2141775E-3,-3.2103522E-5,-2.1224482E-2,-1.1799588E-3,1.6973023E-3,1.8257873E-2,-3.8618739E-3,7.147886E-5,-3.1095944E-2,6.7119244E-3,1.9200471E-3,-3.2233882E-3,4.0988368E-4,8.458848E-3,2.8120037E-2,2.4151648E-3,-2.4588034E-3,-2.5404567E-2,3.992844E-3,-3.1305543E-5,-1.0476891E-3,-3.6804862E-2,8.727163E-4,-6.7451656E-5,-1.7718582E-3,6.3394923E-3,-1.2741776E-2,-2.1331927E-3,1.5068643E-3,-2.6906744E-5,-2.3019374E-3,9.808895E-4,3.525108E-3,6.827939E-4,-2.5860444E-4,8.062885E-4,-1.8218039E-3,-1.1766878E-4,-3.9155586E-3,-5.1276165E-4,1.1111627E-4,1.4227339E-3,4.4546905E-6,-6.4765586E-4,-4.1046063E-3,-1.4640446E-3,-1.3408572E-3,2.0043759E-5,1.8421485E-3,3.246955E-4,-2.7045002E-3,-3.8673202E-4,-4.462917E-4,3.4949274E-4],"categories":[],"categories_nodes":[],"categories_segments":[],"categories_sizes":[],"default_left":[0,0,0,0,0,0,0,0,0,0,0,0,0,0,0,0,0,0,0,0,0,0,0,0,0,0,0,0,0,0,0,0,0,0,0,0,0,0,0,0,0,0,0,0,0,0,0,0,0,0,0,0,0,0,0,0,0],"id":23,"left_children":[1,3,5,7,9,11,13,15,17,19,21,23,25,27,29,31,33,35,37,39,41,43,45,-1,47,-1,-1,49,51,53,55,-1,-1,-1,-1,-1,-1,-1,-1,-1,-1,-1,-1,-1,-1,-1,-1,-1,-1,-1,-1,-1,-1,-1,-1,-1,-1],"loss_changes":[1.9187004E-3,2.7169276E-3,6.258655E-3,4.778712E-3,2.982642E-3,4.621085E-3,3.806975E-3,4.8974142E-3,2.7444665E-3,5.922267E-3,2.9508919E-3,1.0269489E-3,8.031384E-5,3.910798E-3,3.7292584E-3,4.721578E-3,4.0505305E-3,1.4294917E-3,2.4681442E-4,3.7569283E-3,3.14517E-3,5.4992978E-3,3.4885062E-3,0E0,2.4510082E-4,0E0,0E0,3.009274E-3,4.0128636E-3,4.591941E-3,4.2900997E-3,0E0,0E0,0E0,0E0,0E0,0E0,0E0,0E0,0E0,0E0,0E0,0E0,0E0,0E0,0E0,0E0,0E0,0E0,0E0,0E0,0E0,0E0,0E0,0E0,0E0,0E0],"parents":[2147483647,0,0,1,1,2,2,3,3,4,4,5,5,6,6,7,7,8,8,9,9,10,10,11,11,12,12,13,13,14,14,15,15,16,16,17,17,18,18,19,19,20,20,21,21,22,22,24,24,27,27,28,28,29,29,30,30],"right_children":[2,4,6,8,10,12,14,16,18,20,22,24,26,28,30,32,34,36,38,40,42,44,46,-1,48,-1,-1,50,52,54,56,-1,-1,-1,-1,-1,-1,-1,-1,-1,-1,-1,-1,-1,-1,-1,-1,-1,-1,-1,-1,-1,-1,-1,-1,-1,-1],"split_conditions":[2.2003353E-2,-2.0540074E-2,-4.9850028E-2,3.9753087E-2,-3.2601677E-2,1.0469317E-2,-2.640664E-3,1.8027062E-2,2.0342512E4,3.9753087E-2,-3.2601677E-2,-5.225106E4,6.1163303E1,2.3786435E-3,-2.2037767E-2,-3.7585147E-2,-4.125454E1,2.616734E-2,-4.1292677E0,-4.0653005E-2,-6.5584154E0,1.4249032E-2,1.338156E2,-1.0476891E-3,5.658004E0,8.727163E-4,-6.7451656E-5,-1.5302432E-2,-2.1381859E-2,0E0,8.229956E-3,1.5068643E-3,-2.6906744E-5,-2.3019374E-3,9.808895E-4,3.525108E-3,6.827939E-4,-2.5860444E-4,8.062885E-4,-1.8218039E-3,-1.1766878E-4,-3.9155586E-3,-5.1276165E-4,1.1111627E-4,1.4227339E-3,4.4546905E-6,-6.4765586E-4,-4.1046063E-3,-1.4640446E-3,-1.3408572E-3,2.0043759E-5,1.8421485E-3,3.246955E-4,-2.7045002E-3,-3.8673202E-4,-4.462917E-4,3.4949274E-4],"split_indices":[33,286,297,44,11,77,187,308,1,165,121,210,6,22,286,264,240,176,9,33,9,55,205,0,20,0,0,110,99,169,220,0,0,0,0,0,0,0,0,0,0,0,0,0,0,0,0,0,0,0,0,0,0,0,0,0,0],"split_type":[0,0,0,0,0,0,0,0,0,0,0,0,0,0,0,0,0,0,0,0,0,0,0,0,0,0,0,0,0,0,0,0,0,0,0,0,0,0,0,0,0,0,0,0,0,0,0,0,0,0,0,0,0,0,0,0,0],"sum_hessian":[8.71E3,8.096E3,6.14E2,5.79E2,7.517E3,1.5E1,5.99E2,5.62E2,1.7E1,1.97E2,7.32E3,1.1E1,4E0,2.38E2,3.61E2,4.73E2,8.9E1,1E1,7E0,1.86E2,1.1E1,1.86E2,7.134E3,3E0,8E0,3E0,1E0,1.3E2,1.08E2,3.6E1,3.25E2,2E1,4.53E2,3E0,8.6E1,7E0,3E0,4E0,3E0,1.3E1,1.73E2,6E0,5E0,1.46E2,4E1,7.052E3,8.2E1,6E0,2E0,1.8E1,1.12E2,2.1E1,8.7E1,1.3E1,2.3E1,2.3E2,9.5E1],"tree_param":{"num_deleted":"0","num_feature":"330","num_nodes":"57","size_leaf_vector":"1"}},{"base_weights":[-1.4859507E-6,-1.0748251E-3,2.0332308E-4,-8.9864404E-4,-2.3175932E-2,1.2412915E-4,5.803137E-3,-1.0231957E-3,2.3784196E-2,-4.3845647E-3,-5.1010037E-3,6.7877653E-3,6.166058E-5,4.1728774E-3,4.470128E-3,9.652697E-4,-2.4789553E-3,7.094788E-3,3.4527555E-3,1.8218426E-3,-1.0748599E-2,2.0848555E-2,3.955196E-3,-3.3459049E-3,2.140062E-4,2.7466144E-2,2.374751E-3,-9.527956E-5,5.3455355E-4,-2.1114424E-4,-2.2882612E-3,8.985636E-4,7.1112205E-5,2.3486417E-4,1.2072269E-5,-4.7775535E-4,-1.4330868E-3,2.2487782E-3,2.2281415E-4,1.5605096E-3,8.301093E-5,-2.2476891E-4,-1.9816447E-3,6.43682E-4,1.3106507E-5,3.1553123E-3,1.472141E-4,5.946676E-5,2.4159395E-3],"categories":[],"categories_nodes":[],"categories_segments":[],"categories_sizes":[],"default_left":[0,0,0,0,0,0,0,0,0,0,0,0,0,0,0,0,0,0,0,0,0,0,0,0,0,0,0,0,0,0,0,0,0,0,0,0,0,0,0,0,0,0,0,0,0,0,0,0,0],"id":24,"left_children":[1,3,5,7,9,11,13,15,17,-1,19,21,23,25,-1,27,29,31,-1,33,35,37,39,41,43,45,47,-1,-1,-1,-1,-1,-1,-1,-1,-1,-1,-1,-1,-1,-1,-1,-1,-1,-1,-1,-1,-1,-1],"loss_changes":[1.9151539E-3,5.4149143E-3,3.2437162E-3,4.285299E-3,3.885982E-3,3.0029537E-3,6.281701E-3,3.997117E-3,1.0101362E-3,0E0,2.9326428E-4,2.5860264E-3,3.7119596E-3,4.081314E-3,0E0,4.911649E-3,5.9280745E-3,4.1892272E-5,0E0,3.3010574E-6,1.7093087E-5,2.8564828E-4,2.0622418E-3,5.490452E-3,3.5315307E-3,6.9720764E-4,3.592032E-3,0E0,0E0,0E0,0E0,0E0,0E0,0E0,0E0,0E0,0E0,0E0,0E0,0E0,0E0,0E0,0E0,0E0,0E0,0E0,0E0,0E0,0E0],"parents":[2147483647,0,0,1,1,2,2,3,3,4,4,5,5,6,6,7,7,8,8,10,10,11,11,12,12,13,13,15,15,16,16,17,17,19,19,20,20,21,21,22,22,23,23,24,24,25,25,26,26],"right_children":[2,4,6,8,10,12,14,16,18,-1,20,22,24,26,-1,28,30,32,-1,34,36,38,40,42,44,46,48,-1,-1,-1,-1,-1,-1,-1,-1,-1,-1,-1,-1,-1,-1,-1,-1,-1,-1,-1,-1,-1,-1],"split_conditions":[3.838901E1,5.4339962E1,1.6038092E5,5.2882336E1,-3.3141405E-3,2.3047E1,2.559422E5,4.4335236E1,7.0146313E-3,-4.3845647E-3,1.8654362E1,-4.8249863E1,-6.638646E1,-1.1948629E5,4.470128E-3,2.651102E-3,1.6160502E5,9.519792E-3,3.4527555E-3,3.1228648E4,-1.2793213E-3,1E0,-1.29400855E-2,3.262239E-2,-5.5773994E1,2.0104083E-3,3.9753087E-2,-9.527956E-5,5.3455355E-4,-2.1114424E-4,-2.2882612E-3,8.985636E-4,7.1112205E-5,2.3486417E-4,1.2072269E-5,-4.7775535E-4,-1.4330868E-3,2.2487782E-3,2.2281415E-4,1.5605096E-3,8.301093E-5,-2.2476891E-4,-1.9816447E-3,6.43682E-4,1.3106507E-5,3.1553123E-3,1.472141E-4,5.946676E-5,2.4159395E-3],"split_indices":[314,285,309,274,253,94,265,116,132,0,9,10,217,276,0,44,177,0,0,1,0,3,176,132,274,0,154,0,0,0,0,0,0,0,0,0,0,0,0,0,0,0,0,0,0,0,0,0,0],"split_type":[0,0,0,0,0,0,0,0,0,0,0,0,0,0,0,0,0,0,0,0,0,0,0,0,0,0,0,0,0,0,0,0,0,0,0,0,0,0,0,0,0,0,0,0,0,0,0,0,0],"sum_hessian":[8.71E3,1.395E3,7.315E3,1.385E3,1E1,7.214E3,1.01E2,1.379E3,6E0,4E0,6E0,6.6E1,7.148E3,9.8E1,3E0,5.83E2,7.96E2,3E0,3E0,3E0,3E0,1E1,5.6E1,3.05E2,6.843E3,6E0,9.2E1,4.06E2,1.77E2,7.83E2,1.3E1,2E0,1E0,2E0,1E0,2E0,1E0,9E0,1E0,1.1E1,4.5E1,2.87E2,1.8E1,8.9E1,6.754E3,5E0,1E0,8.6E1,6E0],"tree_param":{"num_deleted":"0","num_feature":"330","num_nodes":"49","size_leaf_vector":"1"}},{"base_weights":[-2.895498E-7,2.0128391E-4,-1.0557724E-3,2.751156E-4,-5.1830043E-3,-5.649518E-3,-9.755901E-4,2.1613632E-4,8.724881E-3,-8.535809E-3,6.9398033E-3,-1.8261035E-3,1.7556524E-3,2.944635E-3,5.4015356E-5,1.5546893E-2,4.048023E-5,1.13265095E-2,-1.0653594E-2,1.1804249E-2,-2.7803106E-3,-9.968362E-4,-7.080787E-3,3.6553515E-3,-4.802721E-3,1.4258367E-3,1.927614E-4,-8.783706E-6,2.9215773E-4,2.9896765E-3,9.3399466E-4,-9.940764E-4,8.483035E-4,3.129874E-4,2.3944278E-3,-2.1685045E-3,-6.205851E-4,1.1588993E-4,1.7447214E-3,2.1458534E-3,-1.1675366E-4,3.9538136E-4,-1.2085895E-3,3.0361512E-4,2.9155738E-3,-8.321145E-4,6.005325E-4],"categories":[],"categories_nodes":[],"categories_segments":[],"categories_sizes":[],"default_left":[0,0,0,0,0,0,0,0,0,0,0,0,0,0,0,0,0,0,0,0,0,0,0,0,0,0,0,0,0,0,0,0,0,0,0,0,0,0,0,0,0,0,0,0,0,0,0],"id":25,"left_children":[1,3,5,7,9,-1,11,13,15,17,19,21,23,25,27,29,31,33,35,37,-1,39,41,43,45,-1,-1,-1,-1,-1,-1,-1,-1,-1,-1,-1,-1,-1,-1,-1,-1,-1,-1,-1,-1,-1,-1],"loss_changes":[1.8535417E-3,2.9093656E-3,6.1549167E-3,3.5947855E-3,4.0831324E-3,0E0,3.2460564E-3,3.1705832E-3,2.961625E-3,3.4016692E-3,4.0463055E-3,4.633719E-3,4.153922E-3,4.5980494E-3,2.752873E-3,2.2146944E-3,2.0224731E-3,7.5244345E-4,3.3490444E-3,1.1812067E-3,0E0,3.5553735E-3,8.056043E-3,3.9852588E-3,2.9020174E-3,0E0,0E0,0E0,0E0,0E0,0E0,0E0,0E0,0E0,0E0,0E0,0E0,0E0,0E0,0E0,0E0,0E0,0E0,0E0,0E0,0E0,0E0],"parents":[2147483647,0,0,1,1,2,2,3,3,4,4,6,6,7,7,8,8,9,9,10,10,11,11,12,12,13,13,14,14,15,15,16,16,17,17,18,18,19,19,21,21,22,22,23,23,24,24],"right_children":[2,4,6,8,10,-1,12,14,16,18,20,22,24,26,28,30,32,34,36,38,-1,40,42,44,46,-1,-1,-1,-1,-1,-1,-1,-1,-1,-1,-1,-1,-1,-1,-1,-1,-1,-1,-1,-1,-1,-1],"split_conditions":[1.1742306E-2,1.8018705E5,1.7141396E1,5.171598E-2,2.9242207E1,-5.649518E-3,6.4827324E1,3.1550108E1,2.8247791E-3,-2.9697487E-2,8.0106575E1,1.729625E-2,3.3932004E4,-7.757467E4,7.2764465E1,-2.4060148E4,-3.3909446E3,-8.080454E-3,-5.0636083E-3,-2.4726178E-4,-2.7803106E-3,-5.651267E-2,4.9798855E1,2.5660045E5,2.8923395E4,1.4258367E-3,1.927614E-4,-8.783706E-6,2.9215773E-4,2.9896765E-3,9.3399466E-4,-9.940764E-4,8.483035E-4,3.129874E-4,2.3944278E-3,-2.1685045E-3,-6.205851E-4,1.1588993E-4,1.7447214E-3,2.1458534E-3,-1.1675366E-4,3.9538136E-4,-1.2085895E-3,3.0361512E-4,2.9155738E-3,-8.321145E-4,6.005325E-4],"split_indices":[121,177,325,308,142,0,182,72,154,286,85,187,265,287,259,155,67,0,66,220,0,154,292,188,177,0,0,0,0,0,0,0,0,0,0,0,0,0,0,0,0,0,0,0,0,0,0],"split_type":[0,0,0,0,0,0,0,0,0,0,0,0,0,0,0,0,0,0,0,0,0,0,0,0,0,0,0,0,0,0,0,0,0,0,0,0,0,0,0,0,0,0,0,0,0,0,0],"sum_hessian":[8.71E3,7.314E3,1.396E3,7.216E3,9.8E1,1E0,1.395E3,7.167E3,4.9E1,7.7E1,2.1E1,1.064E3,3.31E2,4.01E2,6.766E3,2.7E1,2.2E1,7E0,7E1,1.9E1,2E0,9.2E2,1.44E2,2.57E2,7.4E1,3.2E1,3.69E2,6.448E3,3.18E2,7E0,2E1,1E1,1.2E1,5E0,2E0,1.9E1,5.1E1,7E0,1.2E1,6E0,9.14E2,4.5E1,9.9E1,2.52E2,5E0,5.6E1,1.8E1],"tree_param":{"num_deleted":"0","num_feature":"330","num_nodes":"47","size_leaf_vector":"1"}},{"base_weights":[1.1047312E-7,1.1931421E-3,-1.7661168E-4,1.6931284E-4,6.4568254E-3,-9.264089E-5,-4.5791036E-3,-2.3402652E-2,3.4541803E-4,1.4348358E-2,1.326047E-3,-4.3463823E-3,1.6161884E-7,-8.745203E-4,-1.6788954E-2,-4.5502693E-3,-5.4620975E-3,-1.5270457E-3,2.4148712E-3,1.1370288E-2,3.3931486E-2,5.60492E-3,-7.498828E-3,1.8338889E-2,-5.355863E-3,2.3144188E-3,-1.7906849E-4,2.9601483E-3,-1.277221E-2,-2.5786411E-2,-9.631428E-4,-1.2977036E-4,-6.1787706E-4,-7.468487E-5,-9.6563867E-4,1.4473851E-4,1.444993E-3,6.162009E-4,2.2520402E-3,6.0186863E-5,3.8022455E-3,1.2920579E-4,1.1185557E-3,-1.0944165E-3,1.21261E-3,9.3040476E-4,2.7283996E-3,-1.6088625E-3,-3.3332309E-4,1.0246198E-4,1.0529268E-3,-7.888828E-4,-1.1702379E-5,1.95715E-3,-8.023645E-6,-6.727809E-5,-2.5750613E-3,5.351703E-4,-3.1273414E-3,-1.0774222E-3,3.0576027E-4],"categories":[],"categories_nodes":[],"categories_segments":[],"categories_sizes":[],"default_left":[0,0,0,0,0,0,0,0,0,0,0,0,0,0,0,0,0,0,0,0,0,0,0,0,0,0,0,0,0,0,0,0,0,0,0,0,0,0,0,0,0,0,0,0,0,0,0,0,0,0,0,0,0,0,0,0,0,0,0,0,0],"id":26,"left_children":[1,3,5,7,9,11,13,15,17,19,21,23,25,27,29,-1,31,33,35,37,39,41,43,45,47,49,51,53,55,57,59,-1,-1,-1,-1,-1,-1,-1,-1,-1,-1,-1,-1,-1,-1,-1,-1,-1,-1,-1,-1,-1,-1,-1,-1,-1,-1,-1,-1,-1,-1],"loss_changes":[1.8367955E-3,6.0562696E-3,2.804713E-3,3.9184624E-3,7.3905904E-3,2.9397625E-3,6.40832E-3,2.5268688E-3,3.6306654E-3,3.8132248E-3,4.271209E-3,3.7393752E-3,3.023779E-3,5.0564143E-3,4.6741012E-3,0E0,6.9043163E-6,3.113292E-3,5.1605552E-3,3.5778927E-3,1.204269E-3,1.8147551E-3,2.6344452E-3,3.1187176E-4,3.2677623E-3,5.5412557E-3,3.2355904E-3,4.243981E-3,4.2225197E-3,3.755318E-3,5.4576533E-4,0E0,0E0,0E0,0E0,0E0,0E0,0E0,0E0,0E0,0E0,0E0,0E0,0E0,0E0,0E0,0E0,0E0,0E0,0E0,0E0,0E0,0E0,0E0,0E0,0E0,0E0,0E0,0E0,0E0,0E0],"parents":[2147483647,0,0,1,1,2,2,3,3,4,4,5,5,6,6,7,7,8,8,9,9,10,10,11,11,12,12,13,13,14,14,16,16,17,17,18,18,19,19,20,20,21,21,22,22,23,23,24,24,25,25,26,26,27,27,28,28,29,29,30,30],"right_children":[2,4,6,8,10,12,14,16,18,20,22,24,26,28,30,-1,32,34,36,38,40,42,44,46,48,50,52,54,56,58,60,-1,-1,-1,-1,-1,-1,-1,-1,-1,-1,-1,-1,-1,-1,-1,-1,-1,-1,-1,-1,-1,-1,-1,-1,-1,-1,-1,-1,-1,-1],"split_conditions":[-5.126112E4,3.2979996E4,1.6038092E5,-3.043909E5,0E0,-1.345505E5,5.4245184E4,-2.2037767E-2,1.1943041E3,2.614063E-2,7.0101502E-3,-4.3991476E-2,-1.9985847E-2,2.3778232E4,-1.3167216E0,-4.5502693E-3,-9.335114E4,3.9753087E-2,1.0127468E5,3.9230473E-3,2.2938692E1,1.4293545E1,1.0167264E1,-2.586263E-2,-1.7654067E-2,6.5972164E4,-1.890618E-2,3.0474333E1,-2.5608684E3,-4.8282707E1,-6.110244E3,-1.2977036E-4,-6.1787706E-4,-7.468487E-5,-9.6563867E-4,1.4473851E-4,1.444993E-3,6.162009E-4,2.2520402E-3,6.0186863E-5,3.8022455E-3,1.2920579E-4,1.1185557E-3,-1.0944165E-3,1.21261E-3,9.3040476E-4,2.7283996E-3,-1.6088625E-3,-3.3332309E-4,1.0246198E-4,1.0529268E-3,-7.888828E-4,-1.1702379E-5,1.95715E-3,-8.023645E-6,-6.727809E-5,-2.5750613E-3,5.351703E-4,-3.1273414E-3,-1.0774222E-3,3.0576027E-4],"split_indices":[210,276,276,122,158,188,243,0,111,209,154,286,0,188,174,0,1,198,232,264,7,74,20,11,220,210,0,325,133,295,78,0,0,0,0,0,0,0,0,0,0,0,0,0,0,0,0,0,0,0,0,0,0,0,0,0,0,0,0,0,0],"split_type":[0,0,0,0,0,0,0,0,0,0,0,0,0,0,0,0,0,0,0,0,0,0,0,0,0,0,0,0,0,0,0,0,0,0,0,0,0,0,0,0,0,0,0,0,0,0,0,0,0,0,0,0,0,0,0,0,0,0,0,0,0],"sum_hessian":[8.71E3,1.123E3,7.587E3,9.41E2,1.82E2,7.446E3,1.41E2,6E0,9.35E2,7.1E1,1.11E2,1.58E2,7.288E3,1.09E2,3.2E1,2E0,4E0,4.91E2,4.44E2,6.3E1,8E0,7.5E1,3.6E1,6E0,1.52E2,5.23E2,6.765E3,8.3E1,2.6E1,2E1,1.2E1,1E0,3E0,4.49E2,4.2E1,4.12E2,3.2E1,4.4E1,1.9E1,1E0,7E0,4.3E1,3.2E1,3.1E1,5E0,4E0,2E0,2.3E1,1.29E2,4.53E2,7E1,5.3E1,6.712E3,1.2E1,7.1E1,1.4E1,1.2E1,3E0,1.7E1,3E0,9E0],"tree_param":{"num_deleted":"0","num_feature":"330","num_nodes":"61","size_leaf_vector":"1"}},{"base_weights":[2.5583913E-7,1.3556865E-4,-1.5062774E-3,1.0518907E-2,1.01674515E-4,-2.2381013E-2,-1.0290341E-3,1.4037095E-3,3.0852636E-2,2.9407583E-5,4.636334E-3,-4.1926812E-2,8.738847E-3,2.0766338E-2,-1.3416057E-3,1.779084E-2,-4.1522477E-3,3.7491375E-3,7.290948E-4,1.2935834E-2,1.378634E-6,-1.2928797E-2,7.1491133E-3,-1.1223328E-3,-4.819977E-3,-3.996743E-4,1.5692657E-3,-7.3921196E-3,2.8729968E-2,-1.6868252E-3,1.3392497E-2,2.1844376E-3,7.883494E-5,-1.135365E-3,5.6998746E-4,3.1904727E-3,-3.1126427E-5,-1.102548E-3,2.9616251E-6,-3.443008E-4,-3.3108932E-3,1.587222E-3,3.8300725E-4,-3.9828636E-4,2.1223433E-4,-7.275563E-5,-1.0360623E-3,3.2825887E-3,1.0961475E-3,-1.2813306E-4,-1.4983806E-3,6.0889113E-4,2.8242606E-3],"categories":[],"categories_nodes":[],"categories_segments":[],"categories_sizes":[],"default_left":[0,0,0,0,0,0,0,0,0,0,0,0,0,0,0,0,0,0,0,0,0,0,0,0,0,0,0,0,0,0,0,0,0,0,0,0,0,0,0,0,0,0,0,0,0,0,0,0,0,0,0,0,0],"id":27,"left_children":[1,3,5,7,9,11,13,15,17,19,21,23,25,27,29,31,33,-1,-1,35,37,39,41,-1,-1,43,-1,45,47,49,51,-1,-1,-1,-1,-1,-1,-1,-1,-1,-1,-1,-1,-1,-1,-1,-1,-1,-1,-1,-1,-1,-1],"loss_changes":[1.7759698E-3,2.8122927E-3,7.1299206E-3,4.7756867E-3,2.6113521E-3,1.0098591E-2,4.817128E-3,1.8037496E-3,9.780116E-4,2.837939E-3,5.6095924E-3,1.3850555E-3,4.5110483E-4,2.4548108E-3,3.5526217E-3,3.2738002E-4,1.1289506E-3,0E0,0E0,4.2817383E-3,2.4380593E-3,2.948798E-3,3.1239665E-3,0E0,0E0,4.4600467E-5,0E0,5.181339E-5,2.2240588E-4,3.6418699E-3,1.5633779E-3,0E0,0E0,0E0,0E0,0E0,0E0,0E0,0E0,0E0,0E0,0E0,0E0,0E0,0E0,0E0,0E0,0E0,0E0,0E0,0E0,0E0,0E0],"parents":[2147483647,0,0,1,1,2,2,3,3,4,4,5,5,6,6,7,7,8,8,9,9,10,10,11,11,12,12,13,13,14,14,15,15,16,16,19,19,20,20,21,21,22,22,25,25,27,27,28,28,29,29,30,30],"right_children":[2,4,6,8,10,12,14,16,18,20,22,24,26,28,30,32,34,-1,-1,36,38,40,42,-1,-1,44,-1,46,48,50,52,-1,-1,-1,-1,-1,-1,-1,-1,-1,-1,-1,-1,-1,-1,-1,-1,-1,-1,-1,-1,-1,-1],"split_conditions":[7.220515E4,-6.818132E-2,2.1238943E1,5.111575E-3,1.6038092E5,6.234898E-1,-3.043909E5,-4.8282707E1,5.7229985E3,-5.651267E-2,-6.818132E-2,-1.147395E0,1.443777E2,-1.844577E-2,5.171598E-2,9.749279E-1,1.362447E-2,3.7491375E-3,7.290948E-4,2.3775178E4,-1.7566194E2,9.470438E-3,-6.7997924E-3,-1.1223328E-3,-4.819977E-3,-7.275883E4,1.5692657E-3,-2.484214E-2,6.234898E-1,1.671971E2,-5.736927E-1,2.1844376E-3,7.883494E-5,-1.135365E-3,5.6998746E-4,3.1904727E-3,-3.1126427E-5,-1.102548E-3,2.9616251E-6,-3.443008E-4,-3.3108932E-3,1.587222E-3,3.8300725E-4,-3.9828636E-4,2.1223433E-4,-7.275563E-5,-1.0360623E-3,3.2825887E-3,1.0961475E-3,-1.2813306E-4,-1.4983806E-3,6.0889113E-4,2.8242606E-3],"split_indices":[243,275,314,242,309,71,12,306,12,242,308,20,34,33,308,4,220,0,0,221,296,286,88,0,0,1,0,0,16,106,9,0,0,0,0,0,0,0,0,0,0,0,0,0,0,0,0,0,0,0,0,0,0],"split_type":[0,0,0,0,0,0,0,0,0,0,0,0,0,0,0,0,0,0,0,0,0,0,0,0,0,0,0,0,0,0,0,0,0,0,0,0,0,0,0,0,0,0,0,0,0,0,0,0,0,0,0,0,0],"sum_hessian":[8.71E3,7.993E3,7.17E2,2.5E1,7.968E3,1.5E1,7.02E2,1.8E1,7E0,7.844E3,1.24E2,9E0,6E0,9E0,6.93E2,4E0,1.4E1,5E0,2E0,1.6E1,7.828E3,1.5E1,1.09E2,2E0,7E0,3E0,3E0,2E0,7E0,6.78E2,1.5E1,3E0,1E0,8E0,6E0,6E0,1E1,1.9E1,7.809E3,1.1E1,4E0,2.9E1,8E1,1E0,2E0,1E0,1E0,5E0,2E0,6.59E2,1.9E1,1.1E1,4E0],"tree_param":{"num_deleted":"0","num_feature":"330","num_nodes":"53","size_leaf_vector":"1"}},{"base_weights":[1.0416876E-6,6.8944953E-3,-2.7561975E-5,1.4742636E-2,-1.2114899E-4,2.6150494E-6,-7.477913E-3,2.7746573E-2,9.974181E-3,-7.463788E-3,9.682498E-3,-5.36171E-4,3.830405E-4,1.2177273E-2,-1.0406882E-2,3.1399154E-3,8.3944167E-4,4.2394586E-3,1.2689087E-3,-1.2013906E-2,-9.113529E-4,1.4039131E-3,3.3893646E-3,-5.0633634E-3,-2.1631659E-4,1.4172603E-2,3.1459105E-4,1.6161175E-3,4.1342792E-4,-2.051406E-2,-5.999425E-3,6.1926857E-4,1.7146739E-4,-2.0245966E-4,-1.3341358E-3,-3.1588663E-4,1.0021202E-4,3.8650553E-4,7.4330135E-5,-1.4472111E-4,-1.101985E-3,9.901857E-4,-3.3878427E-5,2.5962063E-3,3.0550247E-4,-9.769716E-4,3.971864E-5,-2.3559427E-3,-6.570181E-4,-9.5025933E-4,3.3653303E-4],"categories":[],"categories_nodes":[],"categories_segments":[],"categories_sizes":[],"default_left":[0,0,0,0,0,0,0,0,0,0,0,0,0,0,0,0,0,0,0,0,0,0,0,0,0,0,0,0,0,0,0,0,0,0,0,0,0,0,0,0,0,0,0,0,0,0,0,0,0,0,0],"id":28,"left_children":[1,3,5,7,9,11,13,15,17,19,21,23,25,27,29,-1,-1,31,-1,33,35,-1,37,39,41,43,45,-1,-1,47,49,-1,-1,-1,-1,-1,-1,-1,-1,-1,-1,-1,-1,-1,-1,-1,-1,-1,-1,-1,-1],"loss_changes":[1.717808E-3,1.9839376E-3,1.9506396E-3,7.7739824E-4,1.5119609E-3,1.7715382E-3,2.1416566E-3,1.9163592E-5,1.6417436E-4,3.4682342E-4,1.9916816E-4,5.178553E-3,4.7772783E-3,9.339774E-5,1.2578829E-3,0E0,0E0,1.8970437E-5,0E0,6.581133E-5,2.89689E-5,0E0,3.420635E-6,5.0673876E-3,4.14459E-3,3.1974409E-3,4.2034476E-3,0E0,0E0,2.2738846E-4,7.8652456E-4,0E0,0E0,0E0,0E0,0E0,0E0,0E0,0E0,0E0,0E0,0E0,0E0,0E0,0E0,0E0,0E0,0E0,0E0,0E0,0E0],"parents":[2147483647,0,0,1,1,2,2,3,3,4,4,5,5,6,6,7,7,8,8,9,9,10,10,11,11,12,12,13,13,14,14,17,17,19,19,20,20,22,22,23,23,24,24,25,25,26,26,29,29,30,30],"right_children":[2,4,6,8,10,12,14,16,18,20,22,24,26,28,30,-1,-1,32,-1,34,36,-1,38,40,42,44,46,-1,-1,48,50,-1,-1,-1,-1,-1,-1,-1,-1,-1,-1,-1,-1,-1,-1,-1,-1,-1,-1,-1,-1],"split_conditions":[-3.043909E5,2.9620214E-3,4.3660923E1,-2.636407E-3,8.3979996E1,-1.512093E-3,-1.2544702E5,3.3388405E1,-1.6797008E-2,4.95788E-3,4.3101295E1,-2.2766694E-2,-5.651267E-2,8.660254E-1,-1.9711385E4,3.1399154E-3,8.3944167E-4,-1.0587005E5,1.2689087E-3,3.158023E1,-4.3388373E-1,1.4039131E-3,0E0,9.558931E3,-1.22257866E2,-2.1863119E-3,-1.294937E2,1.6161175E-3,4.1342792E-4,1.01275836E5,7.179428E1,6.1926857E-4,1.7146739E-4,-2.0245966E-4,-1.3341358E-3,-3.1588663E-4,1.0021202E-4,3.8650553E-4,7.4330135E-5,-1.4472111E-4,-1.101985E-3,9.901857E-4,-3.3878427E-5,2.5962063E-3,3.0550247E-4,-9.769716E-4,3.971864E-5,-2.3559427E-3,-6.570181E-4,-9.5025933E-4,3.3653303E-4],"split_indices":[221,0,174,88,128,77,111,7,11,66,6,209,198,2,232,0,0,34,0,7,4,0,2,56,263,242,206,0,0,78,193,0,0,0,0,0,0,0,0,0,0,0,0,0,0,0,0,0,0,0,0],"split_type":[0,0,0,0,0,0,0,0,0,0,0,0,0,0,0,0,0,0,0,0,0,0,0,0,0,0,0,0,0,0,0,0,0,0,0,0,0,0,0,0,0,0,0,0,0,0,0,0,0,0,0],"sum_hessian":[8.71E3,3.5E1,8.675E3,1.6E1,1.9E1,8.641E3,3.4E1,3E0,1.3E1,1.1E1,8E0,3.576E3,5.065E3,4E0,3E1,2E0,1E0,5E0,8E0,6E0,5E0,4E0,4E0,2.35E2,3.341E3,2.4E1,5.041E3,2E0,2E0,8E0,2.2E1,2E0,3E0,1E0,5E0,2E0,3E0,3E0,1E0,1.47E2,8.8E1,3.9E1,3.302E3,1.1E1,1.3E1,4E1,5.001E3,6E0,2E0,1.6E1,6E0],"tree_param":{"num_deleted":"0","num_feature":"330","num_nodes":"51","size_leaf_vector":"1"}},{"base_weights":[1.6525261E-6,4.1252666E-4,-4.6416625E-4,2.3725902E-4,3.9922437E-3,-2.2678575E-2,-3.985874E-4,5.04814E-3,1.3368447E-4,2.1916192E-3,1.2644139E-2,-4.2888507E-2,-7.2125453E-3,-3.7616997E-3,-1.252901E-4,3.8863148E-4,1.4820154E-2,4.496735E-3,-1.23735545E-5,1.2026287E-3,1.727678E-2,7.2596767E-3,2.8589169E-2,-4.9772873E-3,-7.675515E-4,5.8760527E-3,-1.2554753E-3,-4.229173E-3,3.2589824E-3,-4.2205447E-6,-8.609217E-3,-2.051045E-3,2.9042337E-4,2.2976878E-3,-1.3575409E-4,6.651807E-4,-1.262081E-3,-4.070586E-4,1.7324635E-5,3.2999113E-4,-4.878224E-4,4.1836602E-4,3.2151793E-3,2.952878E-4,1.8195914E-3,3.9248196E-3,5.4533355E-4,1.3869225E-4,7.4271567E-4,-3.4686923E-3,-3.7057017E-4,-1.5354544E-3,5.3831523E-6,-3.0510793E-3,-3.4359217E-4],"categories":[],"categories_nodes":[],"categories_segments":[],"categories_sizes":[],"default_left":[0,0,0,0,0,0,0,0,0,0,0,0,0,0,0,0,0,0,0,0,0,0,0,0,0,0,0,0,0,0,0,0,0,0,0,0,0,0,0,0,0,0,0,0,0,0,0,0,0,0,0,0,0,0,0],"id":29,"left_children":[1,3,5,7,9,11,13,15,17,19,21,23,25,27,29,31,33,35,37,39,41,43,45,-1,-1,47,-1,49,-1,51,53,-1,-1,-1,-1,-1,-1,-1,-1,-1,-1,-1,-1,-1,-1,-1,-1,-1,-1,-1,-1,-1,-1,-1,-1],"loss_changes":[1.667415E-3,2.9033269E-3,5.9390557E-3,2.1987543E-3,3.337313E-3,3.441473E-3,3.742224E-3,4.2287894E-3,2.754287E-3,2.6646568E-3,2.969102E-3,8.300645E-4,6.3314853E-4,5.337798E-3,3.8692197E-3,3.4242887E-3,3.989901E-3,5.248487E-3,3.1516962E-3,2.184153E-3,2.0078511E-3,1.3121746E-3,2.0054155E-3,0E0,0E0,1.0588432E-5,0E0,4.70242E-3,0E0,3.31133E-3,5.900243E-3,0E0,0E0,0E0,0E0,0E0,0E0,0E0,0E0,0E0,0E0,0E0,0E0,0E0,0E0,0E0,0E0,0E0,0E0,0E0,0E0,0E0,0E0,0E0,0E0],"parents":[2147483647,0,0,1,1,2,2,3,3,4,4,5,5,6,6,7,7,8,8,9,9,10,10,11,11,12,12,13,13,14,14,15,15,16,16,17,17,18,18,19,19,20,20,21,21,22,22,25,25,27,27,29,29,30,30],"right_children":[2,4,6,8,10,12,14,16,18,20,22,24,26,28,30,32,34,36,38,40,42,44,46,-1,-1,48,-1,50,-1,52,54,-1,-1,-1,-1,-1,-1,-1,-1,-1,-1,-1,-1,-1,-1,-1,-1,-1,-1,-1,-1,-1,-1,-1,-1],"split_conditions":[8.852686E-4,6.961672E1,2.1238943E1,-4.0653005E-2,3.3985285E4,-1.4318033E5,-2.0540074E-2,2.1944201E4,-3.2601677E-2,1.3835523E5,5.4991255E-3,1.2246469E-16,-5.1214984E4,2.559422E5,7.918447E1,-1.8150255E1,3.0431115E4,2.5400411E-2,-7.0397705E1,5.5649945E4,7.245689E4,2.7111E0,1.635372E-2,-4.9772873E-3,-7.675515E-4,1.7018267E-3,-1.2554753E-3,-3.043909E5,3.2589824E-3,-6.818132E-2,-1.0294093E-2,-2.051045E-3,2.9042337E-4,2.2976878E-3,-1.3575409E-4,6.651807E-4,-1.262081E-3,-4.070586E-4,1.7324635E-5,3.2999113E-4,-4.878224E-4,4.1836602E-4,3.2151793E-3,2.952878E-4,1.8195914E-3,3.9248196E-3,5.4533355E-4,1.3869225E-4,7.4271567E-4,-3.4686923E-3,-3.7057017E-4,-1.5354544E-3,5.3831523E-6,-3.0510793E-3,-3.4359217E-4],"split_indices":[264,292,314,121,12,320,44,199,187,276,308,2,111,298,61,306,243,44,217,287,45,97,11,0,0,0,0,89,0,165,165,0,0,0,0,0,0,0,0,0,0,0,0,0,0,0,0,0,0,0,0,0,0,0,0],"split_type":[0,0,0,0,0,0,0,0,0,0,0,0,0,0,0,0,0,0,0,0,0,0,0,0,0,0,0,0,0,0,0,0,0,0,0,0,0,0,0,0,0,0,0,0,0,0,0,0,0,0,0,0,0,0,0],"sum_hessian":[8.71E3,4.628E3,4.082E3,4.413E3,2.15E2,1.1E1,4.071E3,9.2E1,4.321E3,1.79E2,3.6E1,4E0,7E0,3.05E2,3.766E3,6.3E1,2.9E1,1.39E2,4.182E3,1.69E2,1E1,2.8E1,8E0,3E0,1E0,2E0,5E0,3.02E2,3E0,3.714E3,5.2E1,6E0,5.7E1,1.9E1,1E1,1.24E2,1.5E1,1.82E2,4E3,1.26E2,4.3E1,6E0,4E0,2.1E1,7E0,5E0,3E0,1E0,1E0,4E0,2.98E2,1.3E1,3.701E3,9E0,4.3E1],"tree_param":{"num_deleted":"0","num_feature":"330","num_nodes":"55","size_leaf_vector":"1"}},{"base_weights":[1.240641E-6,-6.131155E-5,3.1070223E-3,-2.4699792E-5,-8.709135E-3,4.6422705E-3,-9.5000975E-3,6.7233974E-5,-2.975427E-3,-3.1763474E-3,-5.2177357E-3,5.9880014E-3,-9.242752E-3,-1.6532255E-2,4.9167806E-3,-8.63989E-6,3.4493278E-3,-9.878637E-3,-1.2602622E-3,1.7439345E-3,-2.5608271E-2,2.5421414E-3,1.2825633E-2,3.3706836E-3,-2.6622446E-2,-1.7124586E-3,-1.9071086E-3,7.812574E-3,-1.5484678E-3,-1.0862182E-3,1.4273166E-6,-2.0869791E-4,8.0560363E-4,-2.3187904E-3,-4.2159986E-4,-3.4538996E-3,-7.671088E-5,1.236733E-3,-3.9391126E-4,-3.0175427E-3,-1.3862489E-4,-1.8989347E-3,3.9493278E-4,-7.239447E-4,1.7127175E-3,1.1782545E-3,-5.715314E-4,-2.9281469E-3,-6.6636683E-4,2.0591868E-4,-4.6278746E-4,9.93851E-4,3.0824472E-4,6.268574E-5,-2.949559E-4],"categories":[],"categories_nodes":[],"categories_segments":[],"categories_sizes":[],"default_left":[0,0,0,0,0,0,0,0,0,0,0,0,0,0,0,0,0,0,0,0,0,0,0,0,0,0,0,0,0,0,0,0,0,0,0,0,0,0,0,0,0,0,0,0,0,0,0,0,0,0,0,0,0,0,0],"id":30,"left_children":[1,3,5,7,9,11,13,15,17,19,-1,21,23,25,27,29,31,33,35,37,39,41,43,45,47,49,-1,51,53,-1,-1,-1,-1,-1,-1,-1,-1,-1,-1,-1,-1,-1,-1,-1,-1,-1,-1,-1,-1,-1,-1,-1,-1,-1,-1],"loss_changes":[1.6925066E-3,2.7036516E-3,3.3731721E-3,2.3073638E-3,8.4922835E-3,2.9329127E-3,2.007539E-3,2.1168266E-3,3.030467E-3,3.686915E-3,0E0,3.2895706E-3,3.158783E-3,4.5646587E-4,1.4315166E-4,2.006817E-3,4.6330644E-3,3.7458837E-3,3.3706902E-3,1.7391674E-3,6.219242E-4,2.9533831E-3,4.1805967E-3,7.5521227E-4,1.2330292E-4,4.2517404E-5,0E0,1.9644765E-5,1.099244E-5,0E0,0E0,0E0,0E0,0E0,0E0,0E0,0E0,0E0,0E0,0E0,0E0,0E0,0E0,0E0,0E0,0E0,0E0,0E0,0E0,0E0,0E0,0E0,0E0,0E0,0E0],"parents":[2147483647,0,0,1,1,2,2,3,3,4,4,5,5,6,6,7,7,8,8,9,9,11,11,12,12,13,13,14,14,15,15,16,16,17,17,18,18,19,19,20,20,21,21,22,22,23,23,24,24,25,25,27,27,28,28],"right_children":[2,4,6,8,10,12,14,16,18,20,-1,22,24,26,28,30,32,34,36,38,40,42,44,46,48,50,-1,52,54,-1,-1,-1,-1,-1,-1,-1,-1,-1,-1,-1,-1,-1,-1,-1,-1,-1,-1,-1,-1,-1,-1,-1,-1,-1,-1],"split_conditions":[3.9753087E-2,3.6754675E-2,3.462908E-2,2.6214144E1,2.8233502E-2,1.3837648E5,2.9657479E4,2.228327E1,-4.5642504E-3,3.671317E-2,-5.2177357E-3,7.126656E-3,-3.9284995E0,2.1430795E0,6.971019E1,-4.8282707E1,-9.341708E3,-1.9718404E4,2.539516E1,-1.0294093E-2,1E0,-3.2601677E-2,4.530088E1,7.6520276E0,5.624662E1,-4.0653005E-2,-1.9071086E-3,-4.3388373E-1,1.6089259E-3,-1.0862182E-3,1.4273166E-6,-2.0869791E-4,8.0560363E-4,-2.3187904E-3,-4.2159986E-4,-3.4538996E-3,-7.671088E-5,1.236733E-3,-3.9391126E-4,-3.0175427E-3,-1.3862489E-4,-1.8989347E-3,3.9493278E-4,-7.239447E-4,1.7127175E-3,1.1782545E-3,-5.715314E-4,-2.9281469E-3,-6.6636683E-4,2.0591868E-4,-4.6278746E-4,9.93851E-4,3.0824472E-4,6.268574E-5,-2.949559E-4],"split_indices":[154,154,66,295,253,122,320,317,220,286,0,242,42,97,6,9,232,111,171,165,5,0,193,317,6,0,0,4,0,0,0,0,0,0,0,0,0,0,0,0,0,0,0,0,0,0,0,0,0,0,0,0,0,0,0],"split_type":[0,0,0,0,0,0,0,0,0,0,0,0,0,0,0,0,0,0,0,0,0,0,0,0,0,0,0,0,0,0,0,0,0,0,0,0,0,0,0,0,0,0,0,0,0,0,0,0,0,0,0,0,0,0,0],"sum_hessian":[8.71E3,8.539E3,1.71E2,8.504E3,3.5E1,1.53E2,1.8E1,8.248E3,2.56E2,3.2E1,3E0,1.4E2,1.3E1,1.2E1,6E0,8.068E3,1.8E2,5E1,2.06E2,2.7E1,5E0,9.4E1,4.6E1,8E0,5E0,2E0,1E1,4E0,2E0,1.6E1,8.052E3,8.2E1,9.8E1,1.4E1,3.6E1,2E0,2.04E2,9E0,1.8E1,4E0,1E0,5E0,8.9E1,8E0,3.8E1,4E0,4E0,4E0,1E0,1E0,1E0,2E0,2E0,1E0,1E0],"tree_param":{"num_deleted":"0","num_feature":"330","num_nodes":"55","size_leaf_vector":"1"}},{"base_weights":[-1.0516319E-6,1.805228E-3,-1.0567753E-4,4.035863E-3,-2.8995194E-3,4.7938167E-5,-2.0605172E-3,-3.3476006E-3,6.430317E-3,-1.4742782E-2,8.4679654E-5,-3.650101E-7,6.9589447E-3,-1.3956382E-3,-1.9465262E-2,7.3797343E-4,-1.3504804E-2,2.4852345E-3,1.117046E-2,-6.591475E-3,-3.3935815E-2,2.3970248E-3,-1.0745149E-2,-2.7982745E-4,1.2224567E-3,9.594403E-3,-9.064811E-3,-2.206795E-2,-9.5644215E-4,-3.6464278E-2,-2.2607266E-3,1.2392026E-3,-3.6155802E-4,-5.7238125E-4,-2.497259E-3,-9.171913E-6,1.38275E-3,2.71414E-3,9.320452E-4,2.824001E-4,-1.7119631E-3,-3.7688252E-3,-1.9581635E-4,-8.950466E-4,4.2825905E-4,-1.23596155E-5,-2.3478654E-3,1.5105341E-3,-3.0973857E-5,-2.2374927E-4,2.0244846E-4,2.2679954E-3,5.7984603E-4,-1.3410634E-3,-1.3663298E-4,-3.8095594E-3,3.089578E-5,7.0154536E-5,-5.418185E-4,-9.900164E-4,-5.0229463E-3,5.68563E-4,-1.9574848E-3],"categories":[],"categories_nodes":[],"categories_segments":[],"categories_sizes":[],"default_left":[0,0,0,0,0,0,0,0,0,0,0,0,0,0,0,0,0,0,0,0,0,0,0,0,0,0,0,0,0,0,0,0,0,0,0,0,0,0,0,0,0,0,0,0,0,0,0,0,0,0,0,0,0,0,0,0,0,0,0,0,0,0,0],"id":31,"left_children":[1,3,5,7,9,11,13,15,17,19,21,23,25,27,29,31,33,35,37,39,41,43,45,47,49,51,53,55,57,59,61,-1,-1,-1,-1,-1,-1,-1,-1,-1,-1,-1,-1,-1,-1,-1,-1,-1,-1,-1,-1,-1,-1,-1,-1,-1,-1,-1,-1,-1,-1,-1,-1],"loss_changes":[1.6464271E-3,5.0176145E-3,2.4730205E-3,5.7496396E-3,5.4440172E-3,2.5490792E-3,6.9160634E-3,3.3298065E-3,4.5538032E-3,4.6262103E-3,3.131002E-3,2.592043E-3,2.325159E-3,5.2357493E-3,6.351688E-3,2.9875238E-3,1.9093696E-3,3.947115E-3,3.0266773E-3,2.3282808E-3,1.0061469E-3,2.2421647E-3,2.9725886E-3,2.8458764E-3,3.9200215E-3,2.1534027E-3,2.4932658E-4,4.3155584E-3,4.2055883E-3,3.5249796E-3,1.7623055E-3,0E0,0E0,0E0,0E0,0E0,0E0,0E0,0E0,0E0,0E0,0E0,0E0,0E0,0E0,0E0,0E0,0E0,0E0,0E0,0E0,0E0,