{"learner":{"attributes":{"scikit_learn":"{\"_estimator_type\": \"regressor\"}"},"feature_names":[],"feature_types":[],"gradient_booster":{"model":{"cats":{"enc":[],"feature_segments":[],"sorted_idx":[]},"gbtree_model_param":{"num_parallel_tree":"1","num_trees":"100"},"iteration_indptr":[0,1,2,3,4,5,6,7,8,9,10,11,12,13,14,15,16,17,18,19,20,21,22,23,24,25,26,27,28,29,30,31,32,33,34,35,36,37,38,39,40,41,42,43,44,45,46,47,48,49,50,51,52,53,54,55,56,57,58,59,60,61,62,63,64,65,66,67,68,69,70,71,72,73,74,75,76,77,78,79,80,81,82,83,84,85,86,87,88,89,90,91,92,93,94,95,96,97,98,99,100],"tree_info":[0,0,0,0,0,0,0,0,0,0,0,0,0,0,0,0,0,0,0,0,0,0,0,0,0,0,0,0,0,0,0,0,0,0,0,0,0,0,0,0,0,0,0,0,0,0,0,0,0,0,0,0,0,0,0,0,0,0,0,0,0,0,0,0,0,0,0,0,0,0,0,0,0,0,0,0,0,0,0,0,0,0,0,0,0,0,0,0,0,0,0,0,0,0,0,0,0,0,0,0],"trees":[{"base_weights":[-1.7847283E-11,5.6730496E-6,-9.913686E-3,-5.949655E-3,2.9280025E-5,-1.2585069E-1,-3.2610318E-3,6.8726023E-3,1.0751753E-5,-1.502011E-2,-3.8574946E-3,-4.6368867E-2,-1.2617337E-3,3.0217024E-2,4.3496676E-3,5.1094365E-4,-1.881335E-4,-1.5781069E-3,-7.1696313E-3,-3.5491775E-4,3.435136E-3,8.313232E-4,3.5287645E-3,6.925429E-4,-1.5918661E-3,3.9247234E-4,3.8364393E-5,-2.9571602E-4,-1.3102071E-5],"categories":[],"categories_nodes":[],"categories_segments":[],"categories_sizes":[],"default_left":[0,0,0,0,0,0,0,0,0,0,0,0,0,0,0,0,0,0,0,0,0,0,0,0,0,0,0,0,0],"id":0,"left_children":[1,3,-1,5,7,9,11,13,15,-1,-1,17,19,21,23,25,27,-1,-1,-1,-1,-1,-1,-1,-1,-1,-1,-1,-1],"loss_changes":[1.9657357E-2,4.9137E-3,0E0,4.4076487E-2,4.414038E-3,5.8159605E-4,1.1662711E-2,5.4048323E-3,3.4540694E-3,0E0,0E0,3.5168184E-3,1.0793566E-2,7.0623774E-4,4.5999913E-3,4.2912085E-3,3.928454E-3,0E0,0E0,0E0,0E0,0E0,0E0,0E0,0E0,0E0,0E0,0E0,0E0],"parents":[2147483647,0,0,1,1,3,3,4,4,5,5,6,6,7,7,8,8,11,11,12,12,13,13,14,14,15,15,16,16],"right_children":[2,4,-1,6,8,10,12,14,16,-1,-1,18,20,22,24,26,28,-1,-1,-1,-1,-1,-1,-1,-1,-1,-1,-1,-1],"split_conditions":[2.2268367E-1,-2.455955E0,-9.913686E-3,3.261902E1,-8.2658205E0,-2.3100967E-2,-9.659258E-1,3.964794E1,-3.1152673E-3,-1.502011E-2,-3.8574946E-3,-8.88517E2,1.13467586E5,-8.660254E-1,6.3166605E4,-1.8763764E-2,-9.128812E-1,-1.5781069E-3,-7.1696313E-3,-3.5491775E-4,3.435136E-3,8.313232E-4,3.5287645E-3,6.925429E-4,-1.5918661E-3,3.9247234E-4,3.8364393E-5,-2.9571602E-4,-1.3102071E-5],"split_indices":[649,603,0,193,648,0,14,127,649,0,0,1,650,14,562,396,394,0,0,0,0,0,0,0,0,0,0,0,0],"split_type":[0,0,0,0,0,0,0,0,0,0,0,0,0,0,0,0,0,0,0,0,0,0,0,0,0,0,0,0,0],"sum_hessian":[3.495E4,3.4949E4,1E0,1.37E2,3.4812E4,2E0,1.35E2,9.3E1,3.4719E4,1E0,1E0,5E0,1.3E2,8E0,8.5E1,9.877E3,2.4842E4,3E0,2E0,1.23E2,7E0,2E0,6E0,7.6E1,9E0,3.54E2,9.523E3,5.01E2,2.4341E4],"tree_param":{"num_deleted":"0","num_feature":"660","num_nodes":"29","size_leaf_vector":"1"}},{"base_weights":[-8.834313E-7,4.5059573E-6,-9.418001E-3,-5.5325525E-3,2.645493E-5,-1.1955815E-1,-2.9766015E-3,5.8957264E-3,8.529113E-6,-1.4269103E-2,-3.6646195E-3,3.9797416E-4,-2.512093E-2,2.4333104E-2,3.0568123E-3,-3.5304427E-3,3.5445886E-5,-1.8161252E-4,3.1345617E-3,-4.9546612E-3,-8.7792065E-4,2.9284125E-3,-3.5820119E-4,5.2133587E-4,-1.5363857E-3,-1.477084E-4,-1.5233569E-3,5.0854374E-5,-1.5134654E-5],"categories":[],"categories_nodes":[],"categories_segments":[],"categories_sizes":[],"default_left":[0,0,0,0,0,0,0,0,0,0,0,0,0,0,0,0,0,0,0,0,0,0,0,0,0,0,0,0,0],"id":1,"left_children":[1,3,-1,5,7,9,11,13,15,-1,-1,17,19,21,23,25,27,-1,-1,-1,-1,-1,-1,-1,-1,-1,-1,-1,-1],"loss_changes":[1.774043E-2,4.2477157E-3,0E0,3.9863374E-2,3.6626772E-3,5.248934E-4,1.0172966E-2,5.473884E-3,3.3063295E-3,0E0,0E0,8.210946E-3,6.749858E-3,2.0398125E-3,3.774525E-3,6.273547E-3,3.0441962E-3,0E0,0E0,0E0,0E0,0E0,0E0,0E0,0E0,0E0,0E0,0E0,0E0],"parents":[2147483647,0,0,1,1,3,3,4,4,5,5,6,6,7,7,8,8,11,11,12,12,13,13,14,14,15,15,16,16],"right_children":[2,4,-1,6,8,10,12,14,16,-1,-1,18,20,22,24,26,28,-1,-1,-1,-1,-1,-1,-1,-1,-1,-1,-1,-1],"split_conditions":[2.2268367E-1,-2.455955E0,-9.418001E-3,3.261902E1,-8.2658205E0,-2.3100967E-2,2.0755945E-2,-4.0958276E-1,-6.0841336E0,-1.4269103E-2,-3.6646195E-3,1.13467586E5,-1.2516161E4,9.659258E-1,9.659258E-1,1.45988E-2,-3.1152673E-3,-1.8161252E-4,3.1345617E-3,-4.9546612E-3,-8.7792065E-4,2.9284125E-3,-3.5820119E-4,5.2133587E-4,-1.5363857E-3,-1.477084E-4,-1.5233569E-3,5.0854374E-5,-1.5134654E-5],"split_indices":[649,603,0,193,626,0,308,658,294,0,0,650,155,2,35,0,649,0,0,0,0,0,0,0,0,0,0,0,0],"split_type":[0,0,0,0,0,0,0,0,0,0,0,0,0,0,0,0,0,0,0,0,0,0,0,0,0,0,0,0,0],"sum_hessian":[3.495E4,3.4949E4,1E0,1.37E2,3.4812E4,2E0,1.35E2,1.05E2,3.4707E4,1E0,1E0,1.18E2,1.7E1,1.3E1,9.2E1,2.61E2,3.4446E4,1.11E2,7E0,6E0,1.1E1,1.1E1,2E0,8.3E1,9E0,2.23E2,3.8E1,9.75E3,2.4696E4],"tree_param":{"num_deleted":"0","num_feature":"660","num_nodes":"29","size_leaf_vector":"1"}},{"base_weights":[-1.6622862E-6,3.4576099E-6,-8.947101E-3,-5.1301187E-3,2.3807193E-5,-1.1358025E-1,-2.7001149E-3,5.6739603E-3,8.509435E-6,-1.3555649E-2,-3.4813888E-3,-4.201098E-2,-8.790056E-4,6.7114993E-4,1.4901241E-2,-3.077814E-3,3.2336266E-5,-1.4113126E-3,-6.5204464E-3,-2.7739737E-4,2.8602877E-3,3.8152665E-4,-2.1028547E-3,1.6773079E-3,-9.408152E-4,1.8791211E-3,-4.0948746E-4,1.2281388E-3,2.5577133E-6],"categories":[],"categories_nodes":[],"categories_segments":[],"categories_sizes":[],"default_left":[0,0,0,0,0,0,0,0,0,0,0,0,0,0,0,0,0,0,0,0,0,0,0,0,0,0,0,0,0],"id":2,"left_children":[1,3,-1,5,7,9,11,13,15,-1,-1,17,19,21,23,25,27,-1,-1,-1,-1,-1,-1,-1,-1,-1,-1,-1,-1],"loss_changes":[1.6010445E-2,3.6512138E-3,0E0,3.606104E-2,3.0090022E-3,4.737191E-4,9.699228E-3,4.3292586E-3,2.5533144E-3,0E0,0E0,2.962052E-3,7.39795E-3,4.3102647E-3,1.6594096E-3,5.9933523E-3,2.852318E-3,0E0,0E0,0E0,0E0,0E0,0E0,0E0,0E0,0E0,0E0,0E0,0E0],"parents":[2147483647,0,0,1,1,3,3,4,4,5,5,6,6,7,7,8,8,11,11,12,12,13,13,14,14,15,15,16,16],"right_children":[2,4,-1,6,8,10,12,14,16,-1,-1,18,20,22,24,26,28,-1,-1,-1,-1,-1,-1,-1,-1,-1,-1,-1,-1],"split_conditions":[2.2268367E-1,-2.455955E0,-8.947101E-3,3.261902E1,-8.2658205E0,-2.3100967E-2,-9.659258E-1,4.040953E1,-6.0841336E0,-1.3555649E-2,-3.4813888E-3,-8.88517E2,1.13467586E5,6.3166605E4,5.7335105E4,-4.1458927E-2,-6.0841336E0,-1.4113126E-3,-6.5204464E-3,-2.7739737E-4,2.8602877E-3,3.8152665E-4,-2.1028547E-3,1.6773079E-3,-9.408152E-4,1.8791211E-3,-4.0948746E-4,1.2281388E-3,2.5577133E-6],"split_indices":[649,603,0,193,648,0,14,413,294,0,0,1,650,562,166,638,283,0,0,0,0,0,0,0,0,0,0,0,0],"split_type":[0,0,0,0,0,0,0,0,0,0,0,0,0,0,0,0,0,0,0,0,0,0,0,0,0,0,0,0,0],"sum_hessian":[3.495E4,3.4949E4,1E0,1.37E2,3.4812E4,2E0,1.35E2,9.3E1,3.4719E4,1E0,1E0,5E0,1.3E2,6.1E1,3.2E1,2.65E2,3.4454E4,3E0,2E0,1.23E2,7E0,5.4E1,7E0,3E1,2E0,1.1E1,2.54E2,1.8E1,3.4436E4],"tree_param":{"num_deleted":"0","num_feature":"660","num_nodes":"29","size_leaf_vector":"1"}},{"base_weights":[-2.3434634E-6,2.5204158E-6,-8.499746E-3,-4.7793235E-3,2.1475746E-5,-1.0790124E-1,-2.469433E-3,3.6507242E-6,4.533131E-3,-1.2877867E-2,-3.3073195E-3,-3.9131843E-2,-7.71388E-4,-3.2768871E-3,2.8528451E-5,7.148558E-4,1.057125E-2,-1.3054641E-3,-6.08575E-3,5.7328795E-3,-1.6593032E-4,-9.248802E-5,-1.3434043E-3,1.2613977E-3,2.1576157E-6,-8.5144147E-4,4.485625E-4,1.7509137E-4,1.5448764E-3],"categories":[],"categories_nodes":[],"categories_segments":[],"categories_sizes":[],"default_left":[0,0,0,0,0,0,0,0,0,0,0,0,0,0,0,0,0,0,0,0,0,0,0,0,0,0,0,0,0],"id":3,"left_children":[1,3,-1,5,7,9,11,13,15,-1,-1,17,19,21,23,25,27,-1,-1,-1,-1,-1,-1,-1,-1,-1,-1,-1,-1],"loss_changes":[1.4449166E-2,3.1680204E-3,0E0,3.260519E-2,2.7996574E-3,4.2752922E-4,8.436415E-3,2.8301645E-3,3.1510056E-3,0E0,0E0,2.6047928E-3,6.853158E-3,6.222788E-3,3.0111386E-3,2.9963155E-3,2.2530789E-3,0E0,0E0,0E0,0E0,0E0,0E0,0E0,0E0,0E0,0E0,0E0,0E0],"parents":[2147483647,0,0,1,1,3,3,4,4,5,5,6,6,7,7,8,8,11,11,12,12,13,13,14,14,15,15,16,16],"right_children":[2,4,-1,6,8,10,12,14,16,-1,-1,18,20,22,24,26,28,-1,-1,-1,-1,-1,-1,-1,-1,-1,-1,-1,-1],"split_conditions":[2.2268367E-1,-2.455955E0,-8.499746E-3,3.261902E1,3.7707284E-2,-2.3100967E-2,-9.659258E-1,-6.0841336E0,3.3603865E-3,-1.2877867E-2,-3.3073195E-3,-8.88517E2,3.1818947E1,2.5616521E4,-6.0841336E0,-1.2249993E-2,-4.210456E3,-1.3054641E-3,-6.08575E-3,5.7328795E-3,-1.6593032E-4,-9.248802E-5,-1.3434043E-3,1.2613977E-3,2.1576157E-6,-8.5144147E-4,4.485625E-4,1.7509137E-4,1.5448764E-3],"split_indices":[649,603,0,193,484,0,14,294,374,0,0,1,182,364,283,473,166,0,0,0,0,0,0,0,0,0,0,0,0],"split_type":[0,0,0,0,0,0,0,0,0,0,0,0,0,0,0,0,0,0,0,0,0,0,0,0,0,0,0,0,0],"sum_hessian":[3.495E4,3.4949E4,1E0,1.37E2,3.4812E4,2E0,1.35E2,3.4676E4,1.36E2,1E0,1E0,5E0,1.3E2,2.6E2,3.4416E4,8.4E1,5.2E1,3E0,2E0,1E0,1.29E2,2.12E2,4.8E1,1.8E1,3.4398E4,2.4E1,6E1,1.9E1,3.3E1],"tree_param":{"num_deleted":"0","num_feature":"660","num_nodes":"29","size_leaf_vector":"1"}},{"base_weights":[-2.8348677E-6,1.7858001E-6,-8.0747595E-3,-2.340727E-3,3.9030096E-5,-1.2443715E-2,-7.3382474E-4,6.6373907E-3,1.786495E-5,-5.5938434E-2,-9.854512E-3,1.1180445E-3,-8.62698E-3,2.1271072E-2,6.258057E-4,-1.0022276E-2,3.7517046E-5,-1.0047607E-3,-6.7886175E-3,-2.694337E-3,-5.265075E-4,1.686591E-3,2.9747758E-5,1.1530501E-3,-1.3141172E-3,1.6288444E-3,5.207736E-3,-3.9487143E-4,1.127361E-3,-1.1253036E-2,-5.1369454E-4,7.352557E-5,-7.031741E-6],"categories":[],"categories_nodes":[],"categories_segments":[],"categories_sizes":[],"default_left":[0,0,0,0,0,0,0,0,0,0,0,0,0,0,0,0,0,0,0,0,0,0,0,0,0,0,0,0,0,0,0,0,0],"id":4,"left_children":[1,3,-1,5,7,9,11,13,15,17,19,21,23,25,27,29,31,-1,-1,-1,-1,-1,-1,-1,-1,-1,-1,-1,-1,-1,-1,-1,-1],"loss_changes":[1.3040177E-2,3.0493126E-3,0E0,8.871148E-3,4.8045814E-3,7.895002E-3,6.92353E-3,9.663567E-3,6.767116E-3,1.5110737E-3,5.504973E-3,4.9570994E-3,8.341051E-3,4.063622E-3,3.8924948E-3,3.297459E-2,2.5754506E-3,0E0,0E0,0E0,0E0,0E0,0E0,0E0,0E0,0E0,0E0,0E0,0E0,0E0,0E0,0E0,0E0],"parents":[2147483647,0,0,1,1,3,3,4,4,5,5,6,6,7,7,8,8,9,9,10,10,11,11,12,12,13,13,14,14,15,15,16,16],"right_children":[2,4,-1,6,8,10,12,14,16,18,20,22,24,26,28,30,32,-1,-1,-1,-1,-1,-1,-1,-1,-1,-1,-1,-1,-1,-1,-1,-1],"split_conditions":[2.2268367E-1,-2.5063181E-2,-8.0747595E-3,3.6075768E1,-8.2658205E0,-4.1474197E-2,5.050605E-1,3.051009E1,-2.455955E0,-2.5881904E-1,-1.2270093E-2,-4.1333103E0,3.3013466E1,5.2657394E1,1.3465102E4,3.685113E1,-7.3710405E-3,-1.0047607E-3,-6.7886175E-3,-2.694337E-3,-5.265075E-4,1.686591E-3,2.9747758E-5,1.1530501E-3,-1.3141172E-3,1.6288444E-3,5.207736E-3,-3.9487143E-4,1.127361E-3,-1.1253036E-2,-5.1369454E-4,7.352557E-5,-7.031741E-6],"split_indices":[649,594,0,204,659,253,174,655,614,3,517,514,17,402,617,171,649,0,0,0,0,0,0,0,0,0,0,0,0,0,0,0,0],"split_type":[0,0,0,0,0,0,0,0,0,0,0,0,0,0,0,0,0,0,0,0,0,0,0,0,0,0,0,0,0,0,0,0,0],"sum_hessian":[3.495E4,3.4949E4,1E0,5.46E2,3.4403E4,7.4E1,4.72E2,1.09E2,3.4294E4,3E0,7.1E1,3.83E2,8.9E1,3.1E1,7.8E1,6.6E1,3.4228E4,1E0,2E0,1.4E1,5.7E1,1.8E1,3.65E2,1.6E1,7.3E1,2.8E1,3E0,5.5E1,2.3E1,2E0,6.4E1,4.581E3,2.9647E4],"tree_param":{"num_deleted":"0","num_feature":"660","num_nodes":"33","size_leaf_vector":"1"}},{"base_weights":[-3.171222E-6,1.2183989E-6,-7.671021E-3,1.828682E-5,-4.2428533E-3,1.5767446E-3,-3.802564E-5,-2.7147474E-4,-5.0791614E-2,1.9681986E-2,1.3185092E-3,-1.8913083E-3,1.53172E-5,1.9349437E-3,-2.2129169E-2,-6.6743917E-3,-8.6443566E-2,5.369412E-4,3.9361464E-3,1.0199521E-4,1.7231386E-3,1.144749E-3,-2.2383528E-4,3.1846302E-4,-6.4718705E-7,5.8028457E-4,-9.733261E-4,-4.8928425E-5,-2.92881E-3,-1.4830692E-3,6.425471E-4,-1.13359215E-2,-4.4645937E-3],"categories":[],"categories_nodes":[],"categories_segments":[],"categories_sizes":[],"default_left":[0,0,0,0,0,0,0,0,0,0,0,0,0,0,0,0,0,0,0,0,0,0,0,0,0,0,0,0,0,0,0,0,0],"id":5,"left_children":[1,3,-1,5,7,9,11,13,15,17,19,21,23,25,27,29,31,-1,-1,-1,-1,-1,-1,-1,-1,-1,-1,-1,-1,-1,-1,-1,-1],"loss_changes":[1.1768613E-2,2.5318416E-3,0E0,3.0550938E-3,2.5866998E-2,5.6499997E-3,3.3215059E-3,6.3123573E-3,1.6724559E-2,4.57694E-3,5.6740083E-3,4.377031E-3,2.2553327E-3,5.4271254E-3,1.8446902E-3,7.3637255E-4,1.6890317E-3,0E0,0E0,0E0,0E0,0E0,0E0,0E0,0E0,0E0,0E0,0E0,0E0,0E0,0E0,0E0,0E0],"parents":[2147483647,0,0,1,1,3,3,4,4,5,5,6,6,7,7,8,8,9,9,10,10,11,11,12,12,13,13,14,14,15,15,16,16],"right_children":[2,4,-1,6,8,10,12,14,16,18,20,22,24,26,28,30,32,-1,-1,-1,-1,-1,-1,-1,-1,-1,-1,-1,-1,-1,-1,-1,-1],"split_conditions":[2.2268367E-1,2.1876218E0,-7.671021E-3,-1.7736038E-2,3.7707284E-2,-4.1474197E-2,-8.488188E-1,1.13631875E5,9.228903E0,4.3521694E3,1.13631875E5,3.3013466E1,-3.24358E-2,2.1788168E4,-1.3517697E5,-1.040951E4,-2.3100967E-2,5.369412E-4,3.9361464E-3,1.0199521E-4,1.7231386E-3,1.144749E-3,-2.2383528E-4,3.1846302E-4,-6.4718705E-7,5.8028457E-4,-9.733261E-4,-4.8928425E-5,-2.92881E-3,-1.4830692E-3,6.425471E-4,-1.13359215E-2,-4.4645937E-3],"split_indices":[649,383,0,396,264,572,394,45,425,518,254,83,187,551,56,12,0,0,0,0,0,0,0,0,0,0,0,0,0,0,0,0,0],"split_type":[0,0,0,0,0,0,0,0,0,0,0,0,0,0,0,0,0,0,0,0,0,0,0,0,0,0,0,0,0,0,0,0,0],"sum_hessian":[3.495E4,3.4949E4,1E0,3.481E4,1.39E2,1.213E3,3.3597E4,1.29E2,1E1,1.6E1,1.197E3,9.39E2,3.2658E4,1.18E2,1.1E1,5E0,5E0,1E1,6E0,1.176E3,2.1E1,2.3E1,9.16E2,2.22E2,3.2436E4,8.9E1,2.9E1,3E0,8E0,3E0,2E0,2E0,3E0],"tree_param":{"num_deleted":"0","num_feature":"660","num_nodes":"33","size_leaf_vector":"1"}},{"base_weights":[-3.4305476E-6,7.395799E-7,-7.2874697E-3,-2.1150569E-3,3.437927E-5,-1.1586064E-2,-7.0089224E-4,5.9802015E-3,1.5307254E-5,-5.2292448E-2,-9.021187E-3,9.363641E-4,-7.751499E-3,1.9081408E-2,5.9768476E-4,-8.949758E-3,3.2855067E-5,-9.5449033E-4,-6.336E-3,-2.5486478E-3,-5.0377956E-4,8.60905E-4,-4.9342303E-5,1.0393601E-3,-1.1815218E-3,1.4434267E-3,4.8002834E-3,1.2304676E-3,-3.0585533E-4,-1.0124947E-2,-4.552082E-4,-1.4698082E-3,3.7589496E-6],"categories":[],"categories_nodes":[],"categories_segments":[],"categories_sizes":[],"default_left":[0,0,0,0,0,0,0,0,0,0,0,0,0,0,0,0,0,0,0,0,0,0,0,0,0,0,0,0,0,0,0,0,0],"id":6,"left_children":[1,3,-1,5,7,9,11,13,15,17,19,21,23,25,27,29,31,-1,-1,-1,-1,-1,-1,-1,-1,-1,-1,-1,-1,-1,-1,-1,-1],"loss_changes":[1.062105E-2,2.48763E-3,0E0,7.3181586E-3,3.9012816E-3,6.941147E-3,5.513579E-3,7.745517E-3,5.3954897E-3,1.2876773E-3,4.331568E-3,4.2607267E-3,6.7590945E-3,3.6079772E-3,3.4191147E-3,2.6734686E-2,2.3877716E-3,0E0,0E0,0E0,0E0,0E0,0E0,0E0,0E0,0E0,0E0,0E0,0E0,0E0,0E0,0E0,0E0],"parents":[2147483647,0,0,1,1,3,3,4,4,5,5,6,6,7,7,8,8,9,9,10,10,11,11,12,12,13,13,14,14,15,15,16,16],"right_children":[2,4,-1,6,8,10,12,14,16,18,20,22,24,26,28,30,32,-1,-1,-1,-1,-1,-1,-1,-1,-1,-1,-1,-1,-1,-1,-1,-1],"split_conditions":[2.2268367E-1,-2.5063181E-2,-7.2874697E-3,3.5785454E1,-8.2658205E0,-4.1474197E-2,5.050605E-1,3.051009E1,-2.455955E0,-2.5881904E-1,-1.2270093E-2,-1.7908077E0,3.3013466E1,5.2657394E1,-5.0611434E4,3.685113E1,-8.780179E0,-9.5449033E-4,-6.336E-3,-2.5486478E-3,-5.0377956E-4,8.60905E-4,-4.9342303E-5,1.0393601E-3,-1.1815218E-3,1.4434267E-3,4.8002834E-3,1.2304676E-3,-3.0585533E-4,-1.0124947E-2,-4.552082E-4,-1.4698082E-3,3.7589496E-6],"split_indices":[649,594,0,204,659,253,174,655,614,3,517,492,17,402,606,171,646,0,0,0,0,0,0,0,0,0,0,0,0,0,0,0,0],"split_type":[0,0,0,0,0,0,0,0,0,0,0,0,0,0,0,0,0,0,0,0,0,0,0,0,0,0,0,0,0,0,0,0,0],"sum_hessian":[3.495E4,3.4949E4,1E0,5.46E2,3.4403E4,7E1,4.76E2,1.09E2,3.4294E4,3E0,6.7E1,3.87E2,8.9E1,3.1E1,7.8E1,6.6E1,3.4228E4,1E0,2E0,1.2E1,5.5E1,6E1,3.27E2,1.6E1,7.3E1,2.8E1,3E0,1.8E1,6E1,2E0,6.4E1,1E1,3.4218E4],"tree_param":{"num_deleted":"0","num_feature":"660","num_nodes":"33","size_leaf_vector":"1"}},{"base_weights":[-3.7122636E-6,2.4934448E-7,-6.923096E-3,-1.6061986E-5,4.0853554E-3,-4.3505477E-3,9.37931E-7,-1.1828963E-3,7.7618584E-3,-2.6697312E-2,-1.9726565E-3,-3.596752E-5,2.411081E-3,-7.588341E-3,5.951092E-3,1.4639508E-3,1.2658831E-2,-8.047051E-4,-4.7114776E-3,-1.6650681E-3,5.1497995E-5,-1.9504407E-6,-6.2670396E-4,4.91682E-3,2.227316E-4,-3.5338648E-4,-2.3893013E-3,1.641085E-3,9.466462E-5,3.7484066E-4,-1.8319909E-3,5.5373734E-4,1.9539534E-3],"categories":[],"categories_nodes":[],"categories_segments":[],"categories_sizes":[],"default_left":[0,0,0,0,0,0,0,0,0,0,0,0,0,0,0,0,0,0,0,0,0,0,0,0,0,0,0,0,0,0,0,0,0],"id":7,"left_children":[1,3,-1,5,7,9,11,13,15,17,19,21,23,25,27,29,31,-1,-1,-1,-1,-1,-1,-1,-1,-1,-1,-1,-1,-1,-1,-1,-1],"loss_changes":[9.585371E-3,2.328907E-3,0E0,2.5651574E-3,2.7014364E-3,7.174127E-3,3.0845164E-3,2.695548E-3,2.5104033E-3,4.5711473E-3,4.5362595E-3,3.5035948E-3,4.384271E-3,1.9648795E-3,1.4501332E-3,1.7408984E-3,2.145832E-3,0E0,0E0,0E0,0E0,0E0,0E0,0E0,0E0,0E0,0E0,0E0,0E0,0E0,0E0,0E0,0E0],"parents":[2147483647,0,0,1,1,3,3,4,4,5,5,6,6,7,7,8,8,9,9,10,10,11,11,12,12,13,13,14,14,15,15,16,16],"right_children":[2,4,-1,6,8,10,12,14,16,18,20,22,24,26,28,30,32,-1,-1,-1,-1,-1,-1,-1,-1,-1,-1,-1,-1,-1,-1,-1,-1],"split_conditions":[2.2268367E-1,3.7707284E-2,-6.923096E-3,-2.455955E0,-2.7207006E-3,-1.1762282E0,2.4199702E-2,-2.069826E3,3.2356071E0,-1.2855748E4,-5.4871805E4,2.1876218E0,1.9433186E1,6.406362E3,4.5054398E1,1.6065452E-2,-4.209338E3,-8.047051E-4,-4.7114776E-3,-1.6650681E-3,5.1497995E-5,-1.9504407E-6,-6.2670396E-4,4.91682E-3,2.227316E-4,-3.5338648E-4,-2.3893013E-3,1.641085E-3,9.466462E-5,3.7484066E-4,-1.8319909E-3,5.5373734E-4,1.9539534E-3],"split_indices":[649,484,0,185,473,21,187,595,601,309,12,339,655,177,655,638,122,0,0,0,0,0,0,0,0,0,0,0,0,0,0,0,0],"split_type":[0,0,0,0,0,0,0,0,0,0,0,0,0,0,0,0,0,0,0,0,0,0,0,0,0,0,0,0,0,0,0,0,0],"sum_hessian":[3.495E4,3.4949E4,1E0,3.4811E4,1.38E2,1.35E2,3.4676E4,5.7E1,8.1E1,1.2E1,1.23E2,3.4154E4,5.22E2,3E1,2.7E1,3.6E1,4.5E1,7E0,5E0,1.7E1,1.06E2,3.4065E4,8.9E1,1E0,5.21E2,2.5E1,5E0,8E0,1.9E1,3.3E1,3E0,2.3E1,2.2E1],"tree_param":{"num_deleted":"0","num_feature":"660","num_nodes":"33","size_leaf_vector":"1"}},{"base_weights":[-3.6128554E-6,1.5067026E-7,-6.576942E-3,4.7594684E-5,-1.2972682E-3,5.3283943E-6,1.8092897E-3,-1.0959185E-2,-9.47344E-4,2.370961E-5,-4.9787597E-3,3.0889528E-4,5.646745E-3,-4.9771797E-3,-6.803944E-3,1.9673405E-2,-1.120999E-3,-9.5221594E-7,2.4572443E-4,-8.354264E-3,-2.2733845E-4,1.7037336E-3,1.3038544E-5,1.9566696E-3,4.2475053E-4,-2.590346E-3,-1.219582E-4,-8.744732E-4,2.787103E-3,-9.147357E-4,-7.28649E-5],"categories":[],"categories_nodes":[],"categories_segments":[],"categories_sizes":[],"default_left":[0,0,0,0,0,0,0,0,0,0,0,0,0,0,0,0,0,0,0,0,0,0,0,0,0,0,0,0,0,0,0],"id":8,"left_children":[1,3,-1,5,7,9,11,13,15,17,19,21,23,-1,25,27,29,-1,-1,-1,-1,-1,-1,-1,-1,-1,-1,-1,-1,-1,-1],"loss_changes":[8.650778E-3,2.1514005E-3,0E0,2.5106429E-3,4.1583143E-3,3.0168623E-3,4.546837E-3,6.5962127E-3,4.2868997E-3,2.6533087E-3,2.5527991E-2,1.6969212E-3,4.240864E-3,0E0,4.2347526E-3,2.5733372E-3,3.7156194E-3,0E0,0E0,0E0,0E0,0E0,0E0,0E0,0E0,0E0,0E0,0E0,0E0,0E0,0E0],"parents":[2147483647,0,0,1,1,3,3,4,4,5,5,6,6,7,7,8,8,9,9,10,10,11,11,12,12,14,14,15,15,16,16],"right_children":[2,4,-1,6,8,10,12,14,16,18,20,22,24,-1,26,28,30,-1,-1,-1,-1,-1,-1,-1,-1,-1,-1,-1,-1,-1,-1],"split_conditions":[2.2268367E-1,1.7056769E-2,-6.576942E-3,5.2517633E4,-2.7753863E-2,2.1876218E0,3.4551592E0,2.9452442E1,-4.1474197E-2,1.0916688E0,-3.24358E-2,-3.2409344E-2,2.9955048E1,-4.9771797E-3,-1.6824495E-2,-1.228343E-2,-1.811163E0,-9.5221594E-7,2.4572443E-4,-8.354264E-3,-2.2733845E-4,1.7037336E-3,1.3038544E-5,1.9566696E-3,4.2475053E-4,-2.590346E-3,-1.219582E-4,-8.744732E-4,2.787103E-3,-9.147357E-4,-7.28649E-5],"split_indices":[649,396,0,397,594,317,645,127,616,295,231,528,523,0,429,33,273,0,0,0,0,0,0,0,0,0,0,0,0,0,0],"split_type":[0,0,0,0,0,0,0,0,0,0,0,0,0,0,0,0,0,0,0,0,0,0,0,0,0,0,0,0,0,0,0],"sum_hessian":[3.495E4,3.4949E4,1E0,3.3717E4,1.232E3,3.2928E4,7.89E2,4.2E1,1.19E3,3.2808E4,1.2E2,5.68E2,2.21E2,3E0,3.9E1,9E0,1.181E3,3.2367E4,4.41E2,3E0,1.17E2,5E0,5.63E2,1.9E1,2.02E2,8E0,3.1E1,2E0,7E0,5.4E1,1.127E3],"tree_param":{"num_deleted":"0","num_feature":"660","num_nodes":"31","size_leaf_vector":"1"}},{"base_weights":[-3.7545585E-6,-1.792184E-7,-6.2480946E-3,1.3772406E-3,-4.4686916E-5,1.6758549E-3,-1.6566366E-2,-3.0619474E-3,-1.1257574E-5,1.1221041E-2,1.0917237E-3,-7.4755356E-2,5.3987294E-3,-1.0866398E-3,-1.0975187E-2,2.4910253E-6,-4.260489E-3,-1.7300564E-3,1.4026456E-3,3.3868884E-3,9.2870236E-5,-9.507931E-3,-2.9512958E-3,2.4752484E-3,-4.818021E-4,-1.0220425E-3,8.4066145E-5,-3.2328747E-3,-5.453876E-4,-1.2217318E-6,4.997749E-4,-2.3395258E-3,-2.0692346E-4],"categories":[],"categories_nodes":[],"categories_segments":[],"categories_sizes":[],"default_left":[0,0,0,0,0,0,0,0,0,0,0,0,0,0,0,0,0,0,0,0,0,0,0,0,0,0,0,0,0,0,0,0,0],"id":9,"left_children":[1,3,-1,5,7,9,11,13,15,17,19,21,23,25,27,29,31,-1,-1,-1,-1,-1,-1,-1,-1,-1,-1,-1,-1,-1,-1,-1,-1],"loss_changes":[7.8072455E-3,2.1426987E-3,0E0,5.889653E-3,3.4149524E-3,5.9927166E-3,2.3409866E-2,5.787206E-3,1.9563541E-3,5.2035903E-3,5.3974143E-3,1.7914493E-3,2.8875128E-3,5.2544507E-3,8.548257E-3,2.4525553E-3,4.4799377E-3,0E0,0E0,0E0,0E0,0E0,0E0,0E0,0E0,0E0,0E0,0E0,0E0,0E0,0E0,0E0,0E0],"parents":[2147483647,0,0,1,1,3,3,4,4,5,5,6,6,7,7,8,8,9,9,10,10,11,11,12,12,13,13,14,14,15,15,16,16],"right_children":[2,4,-1,6,8,10,12,14,16,18,20,22,24,26,28,30,32,-1,-1,-1,-1,-1,-1,-1,-1,-1,-1,-1,-1,-1,-1,-1,-1],"split_conditions":[2.2268367E-1,-1.8770102E-2,-6.2480946E-3,3.7707284E-2,-2.7753863E-2,-1.2495804E0,-2.3847592E0,1.6258274E4,1.1696805E1,-1.3517697E5,1.9433186E1,-2.3100967E-2,3.8682167E1,-1.06419E-2,-1.775798E-2,2.1876218E0,-4.1474197E-2,-1.7300564E-3,1.4026456E-3,3.3868884E-3,9.2870236E-5,-9.507931E-3,-2.9512958E-3,2.4752484E-3,-4.818021E-4,-1.0220425E-3,8.4066145E-5,-3.2328747E-3,-5.453876E-4,-1.2217318E-6,4.997749E-4,-2.3395258E-3,-2.0692346E-4],"split_indices":[649,638,0,264,594,174,635,111,249,177,248,0,655,517,649,196,88,0,0,0,0,0,0,0,0,0,0,0,0,0,0,0,0],"split_type":[0,0,0,0,0,0,0,0,0,0,0,0,0,0,0,0,0,0,0,0,0,0,0,0,0,0,0,0,0,0,0,0,0],"sum_hessian":[3.495E4,3.4949E4,1E0,1.093E3,3.3856E4,1.076E3,1.7E1,3.7E2,3.3486E4,6.1E1,1.015E3,4E0,1.3E1,2.97E2,7.3E1,3.3379E4,1.07E2,5E0,5.6E1,4E0,1.011E3,2E0,2E0,4E0,9E0,5.1E1,2.46E2,1.4E1,5.9E1,3.3282E4,9.7E1,1E1,9.7E1],"tree_param":{"num_deleted":"0","num_feature":"660","num_nodes":"33","size_leaf_vector":"1"}},{"base_weights":[-3.9606584E-6,-5.640966E-7,-5.93569E-3,5.0070274E-5,-1.1250435E-3,1.6579588E-3,1.9053352E-9,-7.81047E-4,-8.170728E-3,-3.3559138E-4,4.661484E-3,3.6398105E-5,-2.0984726E-3,-9.098006E-3,-5.3639675E-4,-6.183027E-3,-3.9818124E-3,3.2754288E-6,-3.72984E-3,2.0057324E-3,3.8895814E-4,2.1595572E-6,4.3914324E-4,-1.6978048E-3,-1.6235169E-4,-3.0447892E-3,-5.2869704E-4,8.763103E-4,-7.329994E-5,-1.7224947E-3,-4.0849747E-5],"categories":[],"categories_nodes":[],"categories_segments":[],"categories_sizes":[],"default_left":[0,0,0,0,0,0,0,0,0,0,0,0,0,0,0,0,0,0,0,0,0,0,0,0,0,0,0,0,0,0,0],"id":10,"left_children":[1,3,-1,5,7,9,11,13,15,17,19,21,23,25,27,-1,29,-1,-1,-1,-1,-1,-1,-1,-1,-1,-1,-1,-1,-1,-1],"loss_changes":[7.0459456E-3,1.9900152E-3,0E0,2.6924682E-3,3.6436962E-3,6.0491185E-3,2.4774242E-3,2.9190502E-3,1.5488071E-2,8.279197E-3,4.711273E-3,2.0553244E-3,3.8805646E-3,3.174996E-3,2.5605673E-3,0E0,3.1162086E-3,0E0,0E0,0E0,0E0,0E0,0E0,0E0,0E0,0E0,0E0,0E0,0E0,0E0,0E0],"parents":[2147483647,0,0,1,1,3,3,4,4,5,5,6,6,7,7,8,8,9,9,10,10,11,11,12,12,13,13,14,14,16,16],"right_children":[2,4,-1,6,8,10,12,14,16,18,20,22,24,26,28,-1,30,-1,-1,-1,-1,-1,-1,-1,-1,-1,-1,-1,-1,-1,-1],"split_conditions":[2.2268367E-1,4.2127527E4,-5.93569E-3,-1.8770102E-2,6.3166605E4,3.233282E3,2.2270959E-2,-8.411796E4,3.1440008E1,9.267783E4,-2.1388227E-2,3.7707284E-2,-2.7753863E-2,-4.1630754E4,-5.715828E0,-6.183027E-3,-8.250872E-3,3.2754288E-6,-3.72984E-3,2.0057324E-3,3.8895814E-4,2.1595572E-6,4.3914324E-4,-1.6978048E-3,-1.6235169E-4,-3.0447892E-3,-5.2869704E-4,8.763103E-4,-7.329994E-5,-1.7224947E-3,-4.0849747E-5],"split_indices":[649,375,0,638,474,584,396,650,655,34,11,484,594,210,659,0,275,0,0,0,0,0,0,0,0,0,0,0,0,0,0],"split_type":[0,0,0,0,0,0,0,0,0,0,0,0,0,0,0,0,0,0,0,0,0,0,0,0,0,0,0,0,0,0,0],"sum_hessian":[3.495E4,3.4949E4,1E0,3.3444E4,1.505E3,1.009E3,3.2435E4,1.436E3,6.9E1,6.07E2,4.02E2,3.1883E4,5.52E2,4E1,1.396E3,4E0,6.5E1,6.02E2,5E0,1.8E1,3.84E2,3.1776E4,1.07E2,1.6E1,5.36E2,5E0,3.5E1,2.8E1,1.368E3,1.3E1,5.2E1],"tree_param":{"num_deleted":"0","num_feature":"660","num_nodes":"31","size_leaf_vector":"1"}},{"base_weights":[-4.1197254E-6,-8.930019E-7,-5.6389053E-3,3.7430128E-4,-1.5069729E-4,1.8199628E-3,1.3269363E-4,-9.684006E-5,-2.1855808E-3,6.0598034E-4,4.262016E-3,1.9385481E-4,-1.1966083E-2,-1.15018425E-4,7.930172E-3,-4.75755E-2,-1.970074E-3,-9.60343E-4,1.02793194E-4,1.992127E-3,3.5283016E-4,5.845937E-4,1.1362686E-5,-4.457378E-4,-6.814077E-3,-9.7614675E-6,-1.330021E-3,3.1571422E-4,4.0208497E-3,-6.593689E-3,-5.4263655E-4,5.2247206E-3,-2.1361653E-4],"categories":[],"categories_nodes":[],"categories_segments":[],"categories_sizes":[],"default_left":[0,0,0,0,0,0,0,0,0,0,0,0,0,0,0,0,0,0,0,0,0,0,0,0,0,0,0,0,0,0,0,0,0],"id":11,"left_children":[1,3,-1,5,7,9,11,13,15,17,19,21,23,25,27,29,31,-1,-1,-1,-1,-1,-1,-1,-1,-1,-1,-1,-1,-1,-1,-1,-1],"loss_changes":[6.358885E-3,1.964446E-3,0E0,3.4831567E-3,2.7372069E-3,4.23088E-3,6.3261506E-3,3.5518247E-3,6.205774E-3,4.123894E-3,5.3756973E-3,3.8555171E-3,1.7833635E-2,5.5705076E-3,8.346652E-3,1.963952E-3,5.892828E-3,0E0,0E0,0E0,0E0,0E0,0E0,0E0,0E0,0E0,0E0,0E0,0E0,0E0,0E0,0E0,0E0],"parents":[2147483647,0,0,1,1,3,3,4,4,5,5,6,6,7,7,8,8,9,9,10,10,11,11,12,12,13,13,14,14,15,15,16,16],"right_children":[2,4,-1,6,8,10,12,14,16,18,20,22,24,26,28,30,32,-1,-1,-1,-1,-1,-1,-1,-1,-1,-1,-1,-1,-1,-1,-1,-1],"split_conditions":[2.2268367E-1,-3.1152673E-3,-5.6389053E-3,-1.7144582E4,8.528018E-1,7.818315E-1,2.1876218E0,9.088934E-1,3.051009E1,-2.5073638E-2,-2.305244E-2,-2.7753863E-2,1.0916688E0,1.7531573E0,6.041714E1,-5.951513E-3,7.582485E-1,-9.60343E-4,1.02793194E-4,1.992127E-3,3.5283016E-4,5.845937E-4,1.1362686E-5,-4.457378E-4,-6.814077E-3,-9.7614675E-6,-1.330021E-3,3.1571422E-4,4.0208497E-3,-6.593689E-3,-5.4263655E-4,5.2247206E-3,-2.1361653E-4],"split_indices":[649,649,0,265,570,422,383,559,633,275,407,462,141,515,413,0,161,0,0,0,0,0,0,0,0,0,0,0,0,0,0,0,0],"split_type":[0,0,0,0,0,0,0,0,0,0,0,0,0,0,0,0,0,0,0,0,0,0,0,0,0,0,0,0,0,0,0,0,0],"sum_hessian":[3.495E4,3.4949E4,1E0,9.972E3,2.4977E4,1.427E3,8.545E3,2.4334E4,6.43E2,9.54E2,4.73E2,8.503E3,4.2E1,2.428E4,5.4E1,2E0,6.41E2,3.7E1,9.17E2,2E1,4.53E2,1.18E2,8.385E3,3.8E1,4E0,2.4249E4,3.1E1,4.8E1,6E0,1E0,1E0,1E0,6.4E2],"tree_param":{"num_deleted":"0","num_feature":"660","num_nodes":"33","size_leaf_vector":"1"}},{"base_weights":[-3.9922684E-6,-9.268835E-7,-5.35696E-3,-1.547634E-5,3.6694438E-3,-4.408362E-5,1.7900772E-3,1.4659198E-3,3.172796E-2,-2.6265054E-5,-5.5774814E-3,1.2900496E-3,1.6302546E-2,6.3058995E-3,-4.5676054E-3,6.6916915E-3,1.4566105E-2,-4.2352794E-6,4.4261973E-4,-6.897752E-3,-3.1552606E-4,1.0155166E-3,4.1931948E-5,4.3665445E-3,2.4194735E-4,8.2087953E-4,-6.3129334E-4,-2.8661705E-4,-3.4805182E-3,5.921978E-4,2.1729737E-3],"categories":[],"categories_nodes":[],"categories_segments":[],"categories_sizes":[],"default_left":[0,0,0,0,0,0,0,0,0,0,0,0,0,0,0,0,0,0,0,0,0,0,0,0,0,0,0,0,0,0,0],"id":12,"left_children":[1,3,-1,5,7,9,11,13,15,17,19,21,23,25,27,-1,29,-1,-1,-1,-1,-1,-1,-1,-1,-1,-1,-1,-1,-1,-1],"loss_changes":[5.7388768E-3,1.8664531E-3,0E0,1.7982392E-3,8.485699E-3,3.3788786E-3,3.919322E-3,3.7958792E-3,5.064358E-3,2.447213E-3,1.6674936E-2,4.056001E-3,6.7322133E-3,1.7807088E-3,2.8841833E-3,0E0,3.667036E-4,0E0,0E0,0E0,0E0,0E0,0E0,0E0,0E0,0E0,0E0,0E0,0E0,0E0,0E0],"parents":[2147483647,0,0,1,1,3,3,4,4,5,5,6,6,7,7,8,8,9,9,10,10,11,11,12,12,13,13,14,14,16,16],"right_children":[2,4,-1,6,8,10,12,14,16,18,20,22,24,26,28,-1,30,-1,-1,-1,-1,-1,-1,-1,-1,-1,-1,-1,-1,-1,-1],"split_conditions":[2.2268367E-1,1.556674E5,-5.35696E-3,2.4199702E-2,7.817407E1,2.1876218E0,3.0554669E-2,4.3388373E-1,-3.0996615E-1,1.556674E5,-3.24358E-2,-4.762544E0,-3.1603021E4,3.043354E4,7.923472E4,6.6916915E-3,5.0679173E1,-4.2352794E-6,4.4261973E-4,-6.897752E-3,-3.1552606E-4,1.0155166E-3,4.1931948E-5,4.3665445E-3,2.4194735E-4,8.2087953E-4,-6.3129334E-4,-2.8661705E-4,-3.4805182E-3,5.921978E-4,2.1729737E-3],"split_indices":[649,518,0,187,556,317,418,378,65,617,231,96,595,232,441,0,6,0,0,0,0,0,0,0,0,0,0,0,0,0,0],"split_type":[0,0,0,0,0,0,0,0,0,0,0,0,0,0,0,0,0,0,0,0,0,0,0,0,0,0,0,0,0,0,0],"sum_hessian":[3.495E4,3.4949E4,1E0,3.4812E4,1.37E2,3.427E4,5.42E2,1.28E2,9E0,3.4161E4,1.09E2,5.25E2,1.7E1,7.1E1,5.7E1,2E0,7E0,3.4039E4,1.22E2,3E0,1.06E2,4.6E1,4.79E2,5E0,1.2E1,6.2E1,9E0,5.5E1,2E0,4E0,3E0],"tree_param":{"num_deleted":"0","num_feature":"660","num_nodes":"31","size_leaf_vector":"1"}},{"base_weights":[-3.6097838E-6,-6.976627E-7,-5.089112E-3,-5.576378E-5,8.8307355E-4,-5.265847E-3,-3.7806683E-5,1.3747654E-2,6.5279665E-4,-2.526506E-3,-2.4456438E-2,-4.8715915E-3,-2.2128706E-5,2.3512887E-2,6.4646467E-3,7.846739E-4,-1.4892816E-2,-2.7861712E-3,-1.18064636E-4,-4.227427E-3,-5.808782E-4,-7.5664544E-3,-2.782645E-4,3.3634328E-4,-4.454551E-6,3.1904061E-3,1.4373875E-3,1.3929954E-3,-3.886716E-4,1.7378087E-3,6.588876E-5,-2.422028E-4,-2.8619699E-3],"categories":[],"categories_nodes":[],"categories_segments":[],"categories_sizes":[],"default_left":[0,0,0,0,0,0,0,0,0,0,0,0,0,0,0,0,0,0,0,0,0,0,0,0,0,0,0,0,0,0,0,0,0],"id":13,"left_children":[1,3,-1,5,7,9,11,13,15,17,19,21,23,25,27,29,31,-1,-1,-1,-1,-1,-1,-1,-1,-1,-1,-1,-1,-1,-1,-1,-1],"loss_changes":[5.179374E-3,1.7009206E-3,0E0,3.0779515E-3,6.0639777E-3,5.8785714E-3,2.4847728E-3,2.4083261E-3,4.1426625E-3,3.376868E-3,4.406088E-3,1.5465019E-2,2.4806515E-3,6.917212E-4,1.7542157E-3,4.1609113E-3,2.8408277E-3,0E0,0E0,0E0,0E0,0E0,0E0,0E0,0E0,0E0,0E0,0E0,0E0,0E0,0E0,0E0,0E0],"parents":[2147483647,0,0,1,1,3,3,4,4,5,5,6,6,7,7,8,8,9,9,10,10,11,11,12,12,13,13,14,14,15,15,16,16],"right_children":[2,4,-1,6,8,10,12,14,16,18,20,22,24,26,28,30,32,-1,-1,-1,-1,-1,-1,-1,-1,-1,-1,-1,-1,-1,-1,-1,-1],"split_conditions":[2.2268367E-1,3.3796664E4,-5.089112E-3,-2.455955E0,-2.455955E0,2.4199702E-2,-2.455955E0,-7.0710677E-1,2.1876218E0,3.051009E1,8.130126E-3,3.261902E1,-3.2409344E-2,-1.2513245E4,4.1534674E-1,-4.1458927E-2,9.332719E3,-2.7861712E-3,-1.18064636E-4,-4.227427E-3,-5.808782E-4,-7.5664544E-3,-2.782645E-4,3.3634328E-4,-4.454551E-6,3.1904061E-3,1.4373875E-3,1.3929954E-3,-3.886716E-4,1.7378087E-3,6.588876E-5,-2.422028E-4,-2.8619699E-3],"split_indices":[649,254,0,185,460,374,603,3,262,611,330,193,583,529,53,649,650,0,0,0,0,0,0,0,0,0,0,0,0,0,0,0,0],"split_type":[0,0,0,0,0,0,0,0,0,0,0,0,0,0,0,0,0,0,0,0,0,0,0,0,0,0,0,0,0,0,0,0,0],"sum_hessian":[3.495E4,3.4949E4,1E0,3.29E4,2.049E3,1.12E2,3.2788E4,3.5E1,2.014E3,9.9E1,1.3E1,1.05E2,3.2683E4,1.4E1,2.1E1,1.998E3,1.6E1,4E0,9.5E1,6E0,7E0,2E0,1.03E2,2.14E2,3.2469E4,6E0,8E0,1.2E1,9E0,1.4E1,1.984E3,9E0,7E0],"tree_param":{"num_deleted":"0","num_feature":"660","num_nodes":"33","size_leaf_vector":"1"}},{"base_weights":[-3.7061077E-6,-9.396005E-7,-4.8346566E-3,-4.001287E-5,1.2094389E-3,-3.961E-6,-2.7104805E-3,1.4724553E-2,8.5331075E-4,-1.1043689E-5,8.44001E-3,-1.892592E-3,-2.0241348E-2,3.7126609E-3,8.24034E-3,6.6275843E-3,4.1588754E-4,-4.2096805E-4,3.3441808E-7,-1.0725087E-3,1.5339095E-3,4.9990567E-4,-3.4730774E-4,-4.581966E-4,-6.6303103E-3,1.1463247E-3,-9.934277E-4,2.1296486E-3,4.558216E-4,7.8696833E-4,8.626049E-6],"categories":[],"categories_nodes":[],"categories_segments":[],"categories_sizes":[],"default_left":[0,0,0,0,0,0,0,0,0,0,0,0,0,0,0,0,0,0,0,0,0,0,0,0,0,0,0,0,0,0,0],"id":14,"left_children":[1,3,-1,5,7,9,11,13,15,17,19,21,23,-1,25,27,29,-1,-1,-1,-1,-1,-1,-1,-1,-1,-1,-1,-1,-1,-1],"loss_changes":[4.6743313E-3,1.6529543E-3,0E0,3.25968E-3,5.2481676E-3,1.998093E-3,6.428263E-3,3.7613362E-3,2.689748E-3,2.0165415E-3,3.866718E-3,4.7227712E-3,1.4122173E-2,0E0,1.4611061E-3,2.1795777E-3,2.4366379E-3,0E0,0E0,0E0,0E0,0E0,0E0,0E0,0E0,0E0,0E0,0E0,0E0,0E0,0E0],"parents":[2147483647,0,0,1,1,3,3,4,4,5,5,6,6,7,7,8,8,9,9,10,10,11,11,12,12,14,14,15,15,16,16],"right_children":[2,4,-1,6,8,10,12,14,16,18,20,22,24,-1,26,28,30,-1,-1,-1,-1,-1,-1,-1,-1,-1,-1,-1,-1,-1,-1],"split_conditions":[2.2268367E-1,1.8157702E-2,-4.8346566E-3,8.297745E0,-1.4750437E0,8.297745E0,3.7707284E-2,-4.1333103E0,2.9452442E1,-1.3517697E5,-2.7842245E-3,-1.6870128E-2,1.7060123E-2,3.7126609E-3,1.1284592E-2,-2.7600848E4,-7.347814E4,-4.2096805E-4,3.3441808E-7,-1.0725087E-3,1.5339095E-3,4.9990567E-4,-3.4730774E-4,-4.581966E-4,-6.6303103E-3,1.1463247E-3,-9.934277E-4,2.1296486E-3,4.558216E-4,7.8696833E-4,8.626049E-6],"split_indices":[649,429,0,326,526,304,264,151,303,122,286,0,253,0,484,639,188,0,0,0,0,0,0,0,0,0,0,0,0,0,0],"split_type":[0,0,0,0,0,0,0,0,0,0,0,0,0,0,0,0,0,0,0,0,0,0,0,0,0,0,0,0,0,0,0],"sum_hessian":[3.495E4,3.4949E4,1E0,3.3857E4,1.092E3,3.3407E4,4.5E2,2.7E1,1.065E3,3.338E4,2.7E1,4.31E2,1.9E1,5E0,2.2E1,7.4E1,9.91E2,1.13E2,3.3267E4,7E0,2E1,8E1,3.51E2,1.5E1,4E0,1.9E1,3E0,8E0,6.6E1,4.1E1,9.5E2],"tree_param":{"num_deleted":"0","num_feature":"660","num_nodes":"31","size_leaf_vector":"1"}},{"base_weights":[-3.4638178E-6,-8.356347E-7,-4.5929234E-3,4.1882327E-4,-1.13108894E-4,5.1385835E-3,3.208179E-4,-1.85504E-3,-6.740088E-5,1.647024E-2,2.5172422E-3,-5.937361E-3,4.515748E-4,-1.299384E-2,-1.2009647E-3,-5.463059E-3,-4.9872142E-5,3.2336048E-3,8.507114E-4,1.0641544E-4,1.8830718E-3,-2.6328298E-3,-3.2662755E-4,5.295165E-4,3.6519126E-5,-7.6127105E-4,-4.1321265E-3,4.8240382E-4,-1.8817968E-4,-7.03699E-3,-3.107958E-4,3.0342606E-4,-7.412462E-6],"categories":[],"categories_nodes":[],"categories_segments":[],"categories_sizes":[],"default_left":[0,0,0,0,0,0,0,0,0,0,0,0,0,0,0,0,0,0,0,0,0,0,0,0,0,0,0,0,0,0,0,0,0],"id":15,"left_children":[1,3,-1,5,7,9,11,13,15,17,19,21,23,25,27,29,31,-1,-1,-1,-1,-1,-1,-1,-1,-1,-1,-1,-1,-1,-1,-1,-1],"loss_changes":[4.2185937E-3,1.6467682E-3,0E0,3.4106702E-3,2.195323E-3,4.414161E-3,5.9173545E-3,5.1207524E-3,2.5410668E-3,3.2624719E-3,2.8956656E-3,7.974962E-3,2.960803E-3,5.6303395E-3,2.745122E-3,1.3080303E-2,2.0036108E-3,0E0,0E0,0E0,0E0,0E0,0E0,0E0,0E0,0E0,0E0,0E0,0E0,0E0,0E0,0E0,0E0],"parents":[2147483647,0,0,1,1,3,3,4,4,5,5,6,6,7,7,8,8,9,9,10,10,11,11,12,12,13,13,14,14,15,15,16,16],"right_children":[2,4,-1,6,8,10,12,14,16,18,20,22,24,26,28,30,32,-1,-1,-1,-1,-1,-1,-1,-1,-1,-1,-1,-1,-1,-1,-1,-1],"split_conditions":[2.2268367E-1,-4.7808858E-3,-4.5929234E-3,-1.4750437E0,-8.488188E-1,4.3337185E1,-9.95604E-1,-2.5063181E-2,-1.3517697E5,-1.38268275E-2,1.6073825E-2,-1.6842877E-2,-2.7753863E-2,5.7559875E1,-5.9252637E4,3.554946E1,-2.7739704E-2,3.2336048E-3,8.507114E-4,1.0641544E-4,1.8830718E-3,-2.6328298E-3,-3.2662755E-4,5.295165E-4,3.6519126E-5,-7.6127105E-4,-4.1321265E-3,4.8240382E-4,-1.8817968E-4,-7.03699E-3,-3.107958E-4,3.0342606E-4,-7.412462E-6],"split_indices":[649,638,0,427,394,17,438,594,122,297,242,550,561,325,342,556,649,0,0,0,0,0,0,0,0,0,0,0,0,0,0,0,0],"split_type":[0,0,0,0,0,0,0,0,0,0,0,0,0,0,0,0,0,0,0,0,0,0,0,0,0,0,0,0,0,0,0,0,0],"sum_hessian":[3.495E4,3.4949E4,1E0,7.376E3,2.7573E4,1.49E2,7.227E3,7.04E2,2.6869E4,2.7E1,1.22E2,1.47E2,7.08E3,3.8E1,6.66E2,8.6E1,2.6783E4,8E0,1.9E1,1.13E2,9E0,1.6E1,1.31E2,1.23E2,6.957E3,3.3E1,5E0,6.7E1,5.99E2,2E0,8.4E1,2.08E2,2.6575E4],"tree_param":{"num_deleted":"0","num_feature":"660","num_nodes":"33","size_leaf_vector":"1"}},{"base_weights":[-3.4768539E-6,-9.800851E-7,-4.3632775E-3,4.472797E-5,-1.0160564E-3,1.4183014E-3,1.9559304E-6,-7.0623273E-4,-7.3617776E-3,-3.320433E-4,4.0555005E-3,5.24029E-5,-1.2452579E-3,-4.317723E-3,-1.9220338E-4,-5.509385E-3,-3.6341697E-3,2.0719504E-5,-1.8018589E-3,1.1740213E-3,2.7033544E-4,3.7673544E-6,5.028594E-4,-1.00263685E-4,-1.189344E-3,-2.9724876E-3,-3.26473E-4,-2.765322E-4,4.6408204E-5,-1.5417424E-3,-4.53043E-5],"categories":[],"categories_nodes":[],"categories_segments":[],"categories_sizes":[],"default_left":[0,0,0,0,0,0,0,0,0,0,0,0,0,0,0,0,0,0,0,0,0,0,0,0,0,0,0,0,0,0,0],"id":16,"left_children":[1,3,-1,5,7,9,11,13,15,17,19,21,23,25,27,-1,29,-1,-1,-1,-1,-1,-1,-1,-1,-1,-1,-1,-1,-1,-1],"loss_changes":[3.8072485E-3,1.6216263E-3,0E0,1.964909E-3,2.9556789E-3,4.663514E-3,2.0408786E-3,2.6668343E-3,1.2254631E-2,5.8023892E-3,4.155776E-3,2.284889E-3,3.2458347E-3,4.691842E-3,2.1273566E-3,0E0,2.4669608E-3,0E0,0E0,0E0,0E0,0E0,0E0,0E0,0E0,0E0,0E0,0E0,0E0,0E0,0E0],"parents":[2147483647,0,0,1,1,3,3,4,4,5,5,6,6,7,7,8,8,9,9,10,10,11,11,12,12,13,13,14,14,16,16],"right_children":[2,4,-1,6,8,10,12,14,16,18,20,22,24,26,28,-1,30,-1,-1,-1,-1,-1,-1,-1,-1,-1,-1,-1,-1,-1,-1],"split_conditions":[2.2268367E-1,4.2127527E4,-4.3632775E-3,-1.8770102E-2,6.3166605E4,3.233282E3,1.5256499E-2,-1.0644983E-2,3.1440008E1,2.7006416E-2,-1.0641093E-2,3.7707284E-2,6.740972E0,3.1833767E1,-2.0480072E4,-5.509385E-3,-8.250872E-3,2.0719504E-5,-1.8018589E-3,1.1740213E-3,2.7033544E-4,3.7673544E-6,5.028594E-4,-1.00263685E-4,-1.189344E-3,-2.9724876E-3,-3.26473E-4,-2.765322E-4,4.6408204E-5,-1.5417424E-3,-4.53043E-5],"split_indices":[649,375,0,638,474,584,396,319,655,44,484,517,492,633,562,0,275,0,0,0,0,0,0,0,0,0,0,0,0,0,0],"split_type":[0,0,0,0,0,0,0,0,0,0,0,0,0,0,0,0,0,0,0,0,0,0,0,0,0,0,0,0,0,0,0],"sum_hessian":[3.495E4,3.4949E4,1E0,3.3444E4,1.505E3,1.009E3,3.2435E4,1.436E3,6.9E1,6.07E2,4.02E2,3.1175E4,1.26E3,1.78E2,1.258E3,4E0,6.5E1,5.9E2,1.7E1,5.9E1,3.43E2,3.1084E4,9.1E1,1.233E3,2.7E1,6E0,1.72E2,2.55E2,1.003E3,1.3E1,5.2E1],"tree_param":{"num_deleted":"0","num_feature":"660","num_nodes":"31","size_leaf_vector":"1"}},{"base_weights":[-3.590073E-6,-1.2181509E-6,-4.1451133E-3,2.4234534E-3,-2.0376636E-5,9.384581E-3,5.922252E-4,-9.034134E-4,3.3611366E-5,-1.0381011E-2,1.1913494E-2,1.5480083E-3,-1.1571286E-2,-2.991252E-2,-8.0102024E-4,2.9776797E-3,1.3383353E-5,4.4966332E-4,-1.7231395E-3,2.2287418E-3,8.150045E-4,5.676804E-4,-1.2969345E-4,-2.4577454E-4,-3.112953E-3,-5.947226E-3,-6.1941723E-4,6.903094E-4,-1.0603389E-4,7.8589487E-4,-1.4324242E-4,3.349173E-6,-3.1045434E-4],"categories":[],"categories_nodes":[],"categories_segments":[],"categories_sizes":[],"default_left":[0,0,0,0,0,0,0,0,0,0,0,0,0,0,0,0,0,0,0,0,0,0,0,0,0,0,0,0,0,0,0,0,0],"id":17,"left_children":[1,3,-1,5,7,9,11,13,15,17,19,21,23,25,27,29,31,-1,-1,-1,-1,-1,-1,-1,-1,-1,-1,-1,-1,-1,-1,-1,-1],"loss_changes":[3.4359943E-3,1.6235828E-3,0E0,3.487233E-3,1.6532005E-3,2.972846E-3,2.5523105E-3,5.910767E-3,1.9461409E-3,7.909064E-4,1.8094853E-3,2.3918385E-3,2.7754093E-3,4.539375E-3,3.986978E-3,4.8117572E-3,2.0351051E-3,0E0,0E0,0E0,0E0,0E0,0E0,0E0,0E0,0E0,0E0,0E0,0E0,0E0,0E0,0E0,0E0],"parents":[2147483647,0,0,1,1,3,3,4,4,5,5,6,6,7,7,8,8,9,9,10,10,11,11,12,12,13,13,14,14,15,15,16,16],"right_children":[2,4,-1,6,8,10,12,14,16,18,20,22,24,26,28,30,32,-1,-1,-1,-1,-1,-1,-1,-1,-1,-1,-1,-1,-1,-1,-1,-1],"split_conditions":[2.2268367E-1,-3.2409344E-2,-4.1451133E-3,-1.480582E0,-5.680033E-1,-3.318028E4,4.524601E4,2.3538507E1,-3.2409344E-2,7.583353E-3,-2.6566004E4,-2.5967836E-1,7.91797E-5,-7.176175E-4,-2.7753863E-2,-1.900866E3,3.0554669E-2,4.4966332E-4,-1.7231395E-3,2.2287418E-3,8.150045E-4,5.676804E-4,-1.2969345E-4,-2.4577454E-4,-3.112953E-3,-5.947226E-3,-6.1941723E-4,6.903094E-4,-1.0603389E-4,7.8589487E-4,-1.4324242E-4,3.349173E-6,-3.1045434E-4],"split_indices":[649,462,0,197,31,408,628,457,561,22,23,405,363,11,495,221,539,0,0,0,0,0,0,0,0,0,0,0,0,0,0,0,0],"split_type":[0,0,0,0,0,0,0,0,0,0,0,0,0,0,0,0,0,0,0,0,0,0,0,0,0,0,0,0,0,0,0,0,0],"sum_hessian":[3.495E4,3.4949E4,1E0,2.73E2,3.4676E4,5.6E1,2.17E2,1.997E3,3.2679E4,6E0,5E1,2.02E2,1.5E1,6E0,1.991E3,2.22E2,3.2457E4,2E0,4E0,1.2E1,3.8E1,8.2E1,1.2E2,1.1E1,4E0,2E0,4E0,6.4E1,1.927E3,1.05E2,1.17E2,3.225E4,2.07E2],"tree_param":{"num_deleted":"0","num_feature":"660","num_nodes":"33","size_leaf_vector":"1"}},{"base_weights":[-3.544184E-6,-1.2908619E-6,-3.9378577E-3,3.101164E-4,-1.4550959E-4,3.191824E-3,2.187241E-4,-1.2738707E-4,-5.6056557E-3,1.3396766E-2,1.9392758E-3,-2.9399935E-3,3.0244788E-4,-1.5951204E-4,2.8058167E-3,-6.6122055E-2,-3.1750733E-3,9.6196093E-4,4.2153406E-3,-7.2844204E-4,3.2447485E-4,-2.5293604E-3,-2.008047E-4,4.2456458E-4,2.4576448E-5,2.1502974E-4,-1.9971307E-5,2.1846516E-3,1.869403E-4,-1.9199664E-3,-7.998342E-3,-1.3321642E-4,-1.8903645E-3],"categories":[],"categories_nodes":[],"categories_segments":[],"categories_sizes":[],"default_left":[0,0,0,0,0,0,0,0,0,0,0,0,0,0,0,0,0,0,0,0,0,0,0,0,0,0,0,0,0,0,0,0,0],"id":18,"left_children":[1,3,-1,5,7,9,11,13,15,17,19,21,23,25,27,29,31,-1,-1,-1,-1,-1,-1,-1,-1,-1,-1,-1,-1,-1,-1,-1,-1],"loss_changes":[3.1009635E-3,1.5696761E-3,0E0,2.912918E-3,2.363041E-3,4.319962E-3,2.8369557E-3,2.2440413E-3,1.1410175E-2,3.6133793E-3,3.6841854E-3,5.7197753E-3,2.3342296E-3,2.187483E-3,4.5592925E-3,4.155701E-4,2.2067644E-3,0E0,0E0,0E0,0E0,0E0,0E0,0E0,0E0,0E0,0E0,0E0,0E0,0E0,0E0,0E0,0E0],"parents":[2147483647,0,0,1,1,3,3,4,4,5,5,6,6,7,7,8,8,9,9,10,10,11,11,12,12,13,13,14,14,15,15,16,16],"right_children":[2,4,-1,6,8,10,12,14,16,18,20,22,24,26,28,30,32,-1,-1,-1,-1,-1,-1,-1,-1,-1,-1,-1,-1,-1,-1,-1,-1],"split_conditions":[2.2268367E-1,-4.941785E3,-3.9378577E-3,-1.9804819E-2,3.0546397E-2,-9.9771154E-1,-6.4949023E4,9.2743125E4,-7.33971E4,6.0105984E1,-1.9804819E-2,-3.6596408E0,-4.762544E0,-2.305244E-2,-2.3058666E-2,-3.245721E-2,3.7499953E4,9.6196093E-4,4.2153406E-3,-7.2844204E-4,3.2447485E-4,-2.5293604E-3,-2.008047E-4,4.2456458E-4,2.4576448E-5,2.1502974E-4,-1.9971307E-5,2.1846516E-3,1.869403E-4,-1.9199664E-3,-7.998342E-3,-1.3321642E-4,-1.8903645E-3],"split_indices":[649,243,0,638,220,163,12,562,584,534,627,646,580,396,539,0,254,0,0,0,0,0,0,0,0,0,0,0,0,0,0,0,0],"split_type":[0,0,0,0,0,0,0,0,0,0,0,0,0,0,0,0,0,0,0,0,0,0,0,0,0,0,0,0,0,0,0,0,0],"sum_hessian":[3.495E4,3.4949E4,1E0,1.1062E4,2.3887E4,3.39E2,1.0723E4,2.3809E4,7.8E1,3.6E1,3.03E2,2.76E2,1.0447E4,2.3552E4,2.57E2,2E0,7.6E1,3.3E1,3E0,3.7E1,2.66E2,1E1,2.66E2,1.47E2,1.03E4,4.02E2,2.315E4,1.1E1,2.46E2,1E0,1E0,6.9E1,7E0],"tree_param":{"num_deleted":"0","num_feature":"660","num_nodes":"33","size_leaf_vector":"1"}},{"base_weights":[-3.4993184E-6,-1.3586662E-6,-3.740965E-3,3.3242657E-4,-1.346295E-4,2.4610545E-4,3.7732958E-3,-4.4318906E-5,-1.1144013E-3,-8.107864E-3,2.8229295E-4,1.978325E-2,2.6382194E-3,4.48684E-3,-5.9224054E-5,-3.1689988E-3,-4.9352937E-4,-5.8470364E-3,-2.7345863E-4,-6.999044E-4,3.2078926E-5,8.16926E-4,5.25829E-3,8.6772525E-5,9.29638E-4,-1.0066046E-5,1.6288065E-3,-2.234082E-6,-2.4177959E-4,-2.7878664E-4,-2.1146457E-3,-7.298073E-5,8.6238515E-4],"categories":[],"categories_nodes":[],"categories_segments":[],"categories_sizes":[],"default_left":[0,0,0,0,0,0,0,0,0,0,0,0,0,0,0,0,0,0,0,0,0,0,0,0,0,0,0,0,0,0,0,0,0],"id":19,"left_children":[1,3,-1,5,7,9,11,13,15,17,19,21,23,25,27,29,31,-1,-1,-1,-1,-1,-1,-1,-1,-1,-1,-1,-1,-1,-1,-1,-1],"loss_changes":[2.7986001E-3,1.5547549E-3,0E0,2.9612489E-3,2.2100983E-3,2.943758E-3,4.3819025E-3,1.5449179E-3,2.6874894E-3,1.12058E-2,2.7181162E-3,5.665393E-3,2.691439E-3,4.061999E-3,1.9830968E-3,3.291573E-3,3.4961551E-3,0E0,0E0,0E0,0E0,0E0,0E0,0E0,0E0,0E0,0E0,0E0,0E0,0E0,0E0,0E0,0E0],"parents":[2147483647,0,0,1,1,3,3,4,4,5,5,6,6,7,7,8,8,9,9,10,10,11,11,12,12,13,13,14,14,15,15,16,16],"right_children":[2,4,-1,6,8,10,12,14,16,18,20,22,24,26,28,30,32,-1,-1,-1,-1,-1,-1,-1,-1,-1,-1,-1,-1,-1,-1,-1,-1],"split_conditions":[2.2268367E-1,-3.1152673E-3,-3.740965E-3,7.0128E4,1.2862669E0,1.9433186E1,-2.12925E-2,-4.1474197E-2,-4.9792635E-3,-2.3550621E4,-2.455955E0,7.0710677E-1,3.5974377E-1,1.7398621E4,7.4874645E-1,2.1876218E0,1.13467586E5,-5.8470364E-3,-2.7345863E-4,-6.999044E-4,3.2078926E-5,8.16926E-4,5.25829E-3,8.6772525E-5,9.29638E-4,-1.0066046E-5,1.6288065E-3,-2.234082E-6,-2.4177959E-4,-2.7878664E-4,-2.1146457E-3,-7.298073E-5,8.6238515E-4],"split_indices":[649,649,0,254,547,116,638,286,286,551,262,3,658,650,537,581,518,0,0,0,0,0,0,0,0,0,0,0,0,0,0,0,0],"split_type":[0,0,0,0,0,0,0,0,0,0,0,0,0,0,0,0,0,0,0,0,0,0,0,0,0,0,0,0,0,0,0,0,0],"sum_hessian":[3.495E4,3.4949E4,1E0,9.972E3,2.4977E4,9.729E3,2.43E2,2.287E4,2.107E3,4.1E1,9.688E3,1.5E1,2.28E2,7.4E1,2.2796E4,4.88E2,1.619E3,3E0,3.8E1,5E1,9.638E3,1.2E1,3E0,1.81E2,4.7E1,5.4E1,2E1,2.2446E4,3.5E2,4.79E2,9E0,1.579E3,4E1],"tree_param":{"num_deleted":"0","num_feature":"660","num_nodes":"33","size_leaf_vector":"1"}},{"base_weights":[-3.254316E-6,-1.2206942E-6,-3.5539165E-3,5.5170738E-5,-7.460226E-4,1.0297857E-2,4.8860413E-5,-7.0302044E-3,-5.044165E-4,1.7733366E-3,3.551675E-3,2.0322532E-5,2.0348046E-3,-3.6433386E-5,-2.3606682E-2,-1.0042248E-3,1.2713028E-3,1.1190426E-3,-4.99596E-4,5.528727E-7,4.2720922E-4,1.5164039E-4,1.8441255E-3,-5.062003E-4,1.0016361E-3,-3.6008998E-3,-2.2934073E-4,-6.188043E-4,-7.877888E-5,6.1499764E-4,2.6559082E-5],"categories":[],"categories_nodes":[],"categories_segments":[],"categories_sizes":[],"default_left":[0,0,0,0,0,0,0,0,0,0,0,0,0,0,0,0,0,0,0,0,0,0,0,0,0,0,0,0,0,0,0],"id":20,"left_children":[1,3,-1,5,7,9,11,13,15,17,-1,19,21,23,25,27,29,-1,-1,-1,-1,-1,-1,-1,-1,-1,-1,-1,-1,-1,-1],"loss_changes":[2.5257464E-3,1.4679569E-3,0E0,2.0995424E-3,3.731464E-3,4.2365966E-3,1.8402975E-3,1.054896E-2,2.1046973E-3,1.0758601E-3,0E0,2.013589E-3,3.8843881E-3,3.334569E-3,7.054434E-3,2.0707601E-3,2.5546744E-3,0E0,0E0,0E0,0E0,0E0,0E0,0E0,0E0,0E0,0E0,0E0,0E0,0E0,0E0],"parents":[2147483647,0,0,1,1,3,3,4,4,5,5,6,6,7,7,8,8,9,9,11,11,12,12,13,13,14,14,15,15,16,16],"right_children":[2,4,-1,6,8,10,12,14,16,18,-1,20,22,24,26,28,30,-1,-1,-1,-1,-1,-1,-1,-1,-1,-1,-1,-1,-1,-1],"split_conditions":[2.2268367E-1,2.9025338E4,-3.5539165E-3,-1.3809825E5,-8.411796E4,1.5719749E4,2.4199702E-2,4.0493937E0,5.9467846E1,3.595748E3,3.551675E-3,1.556674E5,3.0554669E-2,2.3830674E0,1.3898917E4,-2.1390093E-2,-2.1277398E-2,1.1190426E-3,-4.99596E-4,5.528727E-7,4.2720922E-4,1.5164039E-4,1.8441255E-3,-5.062003E-4,1.0016361E-3,-3.6008998E-3,-2.2934073E-4,-6.188043E-4,-7.877888E-5,6.1499764E-4,2.6559082E-5],"split_indices":[649,551,0,562,595,243,187,7,72,529,0,617,418,40,177,220,550,0,0,0,0,0,0,0,0,0,0,0,0,0,0],"split_type":[0,0,0,0,0,0,0,0,0,0,0,0,0,0,0,0,0,0,0,0,0,0,0,0,0,0,0,0,0,0,0],"sum_hessian":[3.495E4,3.4949E4,1E0,3.249E4,2.459E3,1.9E1,3.2471E4,9E1,2.369E3,1.5E1,4E0,3.2012E4,4.59E2,6.4E1,2.6E1,1.849E3,5.2E2,6E0,9E0,3.1902E4,1.1E2,4.46E2,1.3E1,4.3E1,2.1E1,1.6E1,1E1,7.3E1,1.776E3,8.8E1,4.32E2],"tree_param":{"num_deleted":"0","num_feature":"660","num_nodes":"31","size_leaf_vector":"1"}},{"base_weights":[-2.9388957E-6,-1.0069508E-6,-3.376221E-3,2.2594407E-3,-1.8933531E-5,8.789268E-3,3.174756E-4,-2.861952E-3,1.629107E-6,5.408511E-3,6.4175176E-3,-1.6091187E-2,1.290676E-3,-1.4958298E-2,-1.6237233E-3,-2.4674686E-5,1.7337946E-3,2.1419387E-4,1.445948E-3,5.614124E-4,-2.3950082E-3,1.3839877E-3,-1.2180071E-6,-2.7830084E-3,-2.91615E-4,-1.1355268E-3,-4.7087626E-5,-3.9072774E-4,-1.1694426E-6,1.2748421E-3,1.14580675E-4],"categories":[],"categories_nodes":[],"categories_segments":[],"categories_sizes":[],"default_left":[0,0,0,0,0,0,0,0,0,0,0,0,0,0,0,0,0,0,0,0,0,0,0,0,0,0,0,0,0,0,0],"id":21,"left_children":[1,3,-1,5,7,9,11,13,15,-1,17,19,21,23,25,27,29,-1,-1,-1,-1,-1,-1,-1,-1,-1,-1,-1,-1,-1,-1],"loss_changes":[2.279507E-3,1.4162902E-3,0E0,3.4844016E-3,2.0271621E-3,6.421025E-3,3.4221476E-3,3.7052445E-3,1.5686693E-3,0E0,2.0664553E-3,2.1814152E-3,3.3028286E-3,3.4839339E-3,2.5413618E-3,1.7091248E-3,3.3207731E-3,0E0,0E0,0E0,0E0,0E0,0E0,0E0,0E0,0E0,0E0,0E0,0E0,0E0,0E0],"parents":[2147483647,0,0,1,1,3,3,4,4,5,5,6,6,7,7,8,8,10,10,11,11,12,12,13,13,14,14,15,15,16,16],"right_children":[2,4,-1,6,8,10,12,14,16,-1,18,20,22,24,26,28,30,-1,-1,-1,-1,-1,-1,-1,-1,-1,-1,-1,-1,-1,-1],"split_conditions":[2.2268367E-1,-3.24358E-2,-3.376221E-3,-1.7707787E4,-3.24358E-2,-2.1388227E-2,-2.3058666E-2,-1.6842877E-2,2.4199702E-2,5.408511E-3,6.406362E3,4.2194862E1,-6.506045E3,-1.2516161E4,-1.775798E-2,-2.455955E0,-1.811163E0,2.1419387E-4,1.445948E-3,5.614124E-4,-2.3950082E-3,1.3839877E-3,-1.2180071E-6,-2.7830084E-3,-2.91615E-4,-1.1355268E-3,-4.7087626E-5,-3.9072774E-4,-1.1694426E-6,1.2748421E-3,1.14580675E-4],"split_indices":[649,187,0,265,176,11,561,583,187,0,232,39,188,155,341,603,31,0,0,0,0,0,0,0,0,0,0,0,0,0,0],"split_type":[0,0,0,0,0,0,0,0,0,0,0,0,0,0,0,0,0,0,0,0,0,0,0,0,0,0,0,0,0,0,0],"sum_hessian":[3.495E4,3.4949E4,1E0,2.74E2,3.4675E4,6.2E1,2.12E2,2.48E2,3.4427E4,2E0,6E1,1.1E1,2.01E2,2.2E1,2.26E2,3.3913E4,5.14E2,4E1,2E1,3E0,8E0,1.8E1,1.83E2,1E1,1.2E1,2.3E1,2.03E2,1.12E2,3.3801E4,2.5E1,4.89E2],"tree_param":{"num_deleted":"0","num_feature":"660","num_nodes":"31","size_leaf_vector":"1"}},{"base_weights":[-2.645522E-6,-8.1017E-7,-3.2074102E-3,-1.4696472E-4,2.731906E-4,-1.1021909E-4,-3.2823142E-3,4.9293092E-3,2.1108109E-4,-9.308188E-5,-5.4543074E-3,-4.644142E-2,-2.775598E-3,-3.2252778E-4,1.1860319E-2,1.17438474E-4,2.5232208E-3,4.0192236E-4,-1.1609263E-5,-2.8865083E-4,-6.3551515E-3,-1.1588712E-3,-5.8073415E-3,-2.2870863E-3,-2.1342738E-4,-9.800845E-4,2.796384E-4,3.1710833E-3,9.1076683E-4,1.5460899E-5,-7.239222E-4,3.9088544E-3,2.2818892E-4],"categories":[],"categories_nodes":[],"categories_segments":[],"categories_sizes":[],"default_left":[0,0,0,0,0,0,0,0,0,0,0,0,0,0,0,0,0,0,0,0,0,0,0,0,0,0,0,0,0,0,0,0,0],"id":22,"left_children":[1,3,-1,5,7,9,11,13,15,17,19,21,23,25,27,29,31,-1,-1,-1,-1,-1,-1,-1,-1,-1,-1,-1,-1,-1,-1,-1,-1],"loss_changes":[2.0572743E-3,1.3996641E-3,0E0,2.6256293E-3,3.5149236E-3,2.0628516E-3,5.644623E-3,5.8279117E-3,2.597665E-3,2.1256995E-3,1.055766E-2,5.432237E-4,3.3277338E-3,2.7471138E-3,3.4814551E-3,3.1548284E-3,4.031784E-3,0E0,0E0,0E0,0E0,0E0,0E0,0E0,0E0,0E0,0E0,0E0,0E0,0E0,0E0,0E0,0E0],"parents":[2147483647,0,0,1,1,3,3,4,4,5,5,6,6,7,7,8,8,9,9,10,10,11,11,12,12,13,13,14,14,15,15,16,16],"right_children":[2,4,-1,6,8,10,12,14,16,18,20,22,24,26,28,30,32,-1,-1,-1,-1,-1,-1,-1,-1,-1,-1,-1,-1,-1,-1,-1,-1],"split_conditions":[2.2268367E-1,2.916445E3,-3.2074102E-3,2.6971117E-2,-2.7753863E-2,2.1876218E0,2.2187801E1,1.2135924E-3,1.7071087E-2,-6.0841336E0,1.239635E0,-5.8157495E-3,3.1007954E1,-1.3230765E4,-5.9233355E4,2.1876218E0,4.0859666E-1,4.0192236E-4,-1.1609263E-5,-2.8865083E-4,-6.3551515E-3,-1.1588712E-3,-5.8073415E-3,-2.2870863E-3,-2.1342738E-4,-9.800845E-4,2.796384E-4,3.1710833E-3,9.1076683E-4,1.5460899E-5,-7.239222E-4,3.9088544E-3,2.2818892E-4],"split_indices":[649,287,0,396,495,394,193,165,143,74,152,0,446,573,441,504,546,0,0,0,0,0,0,0,0,0,0,0,0,0,0,0,0],"split_type":[0,0,0,0,0,0,0,0,0,0,0,0,0,0,0,0,0,0,0,0,0,0,0,0,0,0,0,0,0,0,0,0,0],"sum_hessian":[3.495E4,3.4949E4,1E0,2.2792E4,1.2157E4,2.2529E4,2.63E2,1.59E2,1.1998E4,2.2458E4,7.1E1,2E0,2.61E2,9.1E1,6.8E1,1.1532E4,4.66E2,1.24E2,2.2334E4,6.9E1,2E0,1E0,1E0,7E0,2.54E2,2.2E1,6.9E1,7E0,6.1E1,1.1475E4,5.7E1,2E0,4.64E2],"tree_param":{"num_deleted":"0","num_feature":"660","num_nodes":"33","size_leaf_vector":"1"}},{"base_weights":[-2.7276894E-6,-9.841112E-7,-3.0470395E-3,-1.3426956E-5,3.1152843E-3,-1.7040954E-3,1.3111135E-5,1.2367581E-2,1.3638791E-3,-9.707213E-3,-4.2681626E-4,4.0517873E-3,3.4509125E-7,2.0765547E-2,6.0854903E-3,-1.6343885E-3,6.4435652E-3,-6.735904E-4,-3.3378527E-3,1.2223289E-4,-5.7601696E-4,1.584039E-3,-2.7222763E-5,-6.1642757E-4,1.2275556E-6,2.499814E-3,9.225273E-4,-1.4369555E-4,9.238164E-4,-1.5409781E-3,2.4043118E-5,1.614327E-3,2.301699E-4],"categories":[],"categories_nodes":[],"categories_segments":[],"categories_sizes":[],"default_left":[0,0,0,0,0,0,0,0,0,0,0,0,0,0,0,0,0,0,0,0,0,0,0,0,0,0,0,0,0,0,0,0,0],"id":23,"left_children":[1,3,-1,5,7,9,11,13,15,17,19,21,23,25,27,29,31,-1,-1,-1,-1,-1,-1,-1,-1,-1,-1,-1,-1,-1,-1,-1,-1],"loss_changes":[1.8566636E-3,1.3552366E-3,0E0,1.5619362E-3,2.2355602E-3,5.4954085E-3,1.7671463E-3,1.034281E-3,1.8077019E-3,4.9799397E-3,4.0969364E-3,5.509514E-3,2.5130224E-3,2.0899274E-4,3.4529628E-4,1.9406832E-3,1.7305377E-3,0E0,0E0,0E0,0E0,0E0,0E0,0E0,0E0,0E0,0E0,0E0,0E0,0E0,0E0,0E0,0E0],"parents":[2147483647,0,0,1,1,3,3,4,4,5,5,6,6,7,7,8,8,9,9,10,10,11,11,12,12,13,13,14,14,15,15,16,16],"right_children":[2,4,-1,6,8,10,12,14,16,18,20,22,24,26,28,30,32,-1,-1,-1,-1,-1,-1,-1,-1,-1,-1,-1,-1,-1,-1,-1,-1],"split_conditions":[2.2268367E-1,3.7707284E-2,-3.0470395E-3,-2.5063181E-2,-3.679717E4,3.6075768E1,-8.2658205E0,-1.9340184E4,3.3603865E-3,1.40272705E-2,3.601076E-1,-5.0611434E4,-2.455955E0,4.494994E3,-3.1724514E4,3.3750458E1,-6.2347874E-3,-6.735904E-4,-3.3378527E-3,1.2223289E-4,-5.7601696E-4,1.584039E-3,-2.7222763E-5,-6.1642757E-4,1.2275556E-6,2.499814E-3,9.225273E-4,-1.4369555E-4,9.238164E-4,-1.5409781E-3,2.4043118E-5,1.614327E-3,2.301699E-4],"split_indices":[649,484,0,594,452,204,659,298,374,550,174,606,614,89,199,72,275,0,0,0,0,0,0,0,0,0,0,0,0,0,0,0,0],"split_type":[0,0,0,0,0,0,0,0,0,0,0,0,0,0,0,0,0,0,0,0,0,0,0,0,0,0,0,0,0,0,0,0,0],"sum_hessian":[3.495E4,3.4949E4,1E0,3.4811E4,1.38E2,5.37E2,3.4274E4,2.1E1,1.17E2,7.3E1,4.64E2,1.07E2,3.4167E4,8E0,1.3E1,7.4E1,4.3E1,6.6E1,7E0,3.55E2,1.09E2,2.8E1,7.9E1,6.5E1,3.4102E4,5E0,3E0,4E0,9E0,8E0,6.6E1,1.2E1,3.1E1],"tree_param":{"num_deleted":"0","num_feature":"660","num_nodes":"33","size_leaf_vector":"1"}},{"base_weights":[-2.5133E-6,-8.568983E-7,-2.8946877E-3,3.9993643E-5,-9.080584E-4,1.4427468E-3,1.9101788E-6,3.3448723E-3,-1.3190713E-3,9.765911E-4,7.7160173E-3,3.0491208E-5,-1.8088091E-3,1.4539303E-2,1.7986369E-3,-6.9858944E-3,-8.349861E-4,8.003725E-5,1.6845238E-3,1.4614708E-3,-4.3172433E-4,9.892134E-7,5.3784664E-4,1.7052578E-5,-7.594699E-4,6.544067E-4,2.0030702E-3,-1.0647947E-4,7.8549347E-4,-2.9883978E-3,-3.5379044E-4,-1.6804896E-3,-7.073756E-5],"categories":[],"categories_nodes":[],"categories_segments":[],"categories_sizes":[],"default_left":[0,0,0,0,0,0,0,0,0,0,0,0,0,0,0,0,0,0,0,0,0,0,0,0,0,0,0,0,0,0,0,0,0],"id":24,"left_children":[1,3,-1,5,7,9,11,13,15,17,19,21,23,25,27,29,31,-1,-1,-1,-1,-1,-1,-1,-1,-1,-1,-1,-1,-1,-1,-1,-1],"loss_changes":[1.6756483E-3,1.295272E-3,0E0,1.7866862E-3,2.6369141E-3,2.5775637E-3,1.685211E-3,2.275976E-3,3.763358E-3,2.2907108E-3,5.1269345E-3,3.5314532E-3,5.7961154E-3,5.7139853E-4,2.0546957E-3,8.42113E-3,2.5701686E-3,0E0,0E0,0E0,0E0,0E0,0E0,0E0,0E0,0E0,0E0,0E0,0E0,0E0,0E0,0E0,0E0],"parents":[2147483647,0,0,1,1,3,3,4,4,5,5,6,6,7,7,8,8,9,9,10,10,11,11,12,12,13,13,14,14,15,15,16,16],"right_children":[2,4,-1,6,8,10,12,14,16,18,20,22,24,26,28,30,32,-1,-1,-1,-1,-1,-1,-1,-1,-1,-1,-1,-1,-1,-1,-1,-1],"split_conditions":[2.2268367E-1,4.2127527E4,-2.8946877E-3,-5.4886547E4,-4.15507E4,8.297745E0,7.614377E0,2.9955048E1,-1.6097646E-2,1.556674E5,5.536078E3,8.297745E0,1.2972869E-2,-1.0824464E-3,5.782202E1,2.7582222E1,-3.245721E-2,8.003725E-5,1.6845238E-3,1.4614708E-3,-4.3172433E-4,9.892134E-7,5.3784664E-4,1.7052578E-5,-7.594699E-4,6.544067E-4,2.0030702E-3,-1.0647947E-4,7.8549347E-4,-2.9883978E-3,-3.5379044E-4,-1.6804896E-3,-7.073756E-5],"split_indices":[649,375,0,67,540,29,238,534,627,540,441,656,0,638,292,413,99,0,0,0,0,0,0,0,0,0,0,0,0,0,0,0,0],"split_type":[0,0,0,0,0,0,0,0,0,0,0,0,0,0,0,0,0,0,0,0,0,0,0,0,0,0,0,0,0,0,0,0,0],"sum_hessian":[3.495E4,3.4949E4,1E0,3.3444E4,1.505E3,8.83E2,3.2561E4,1.32E2,1.373E3,8.23E2,6E1,3.2056E4,5.05E2,1.5E1,1.17E2,1.07E2,1.266E3,8.15E2,8E0,3.8E1,2.2E1,3.1934E4,1.22E2,3.77E2,1.28E2,7E0,8E0,8E1,3.7E1,1.3E1,9.4E1,9E0,1.257E3],"tree_param":{"num_deleted":"0","num_feature":"660","num_nodes":"33","size_leaf_vector":"1"}},{"base_weights":[-2.3209238E-6,-7.4734015E-7,-2.7499534E-3,3.000183E-4,-1.2083442E-4,1.4059084E-3,6.0075337E-5,-7.428862E-5,-1.822479E-3,1.1244135E-3,8.25832E-3,-4.7483337E-3,1.3271507E-4,-2.6634782E-5,-1.5776773E-3,2.6171345E-3,-3.0764302E-3,6.5676175E-4,7.4220865E-5,4.584067E-3,2.66962E-4,-4.148081E-3,-2.1517415E-4,4.1880953E-4,4.863834E-6,-4.0672594E-6,5.129387E-4,8.250259E-4,-1.9294069E-4,1.438756E-4,2.0525744E-3,-2.4056395E-4,-1.7437587E-3],"categories":[],"categories_nodes":[],"categories_segments":[],"categories_sizes":[],"default_left":[0,0,0,0,0,0,0,0,0,0,0,0,0,0,0,0,0,0,0,0,0,0,0,0,0,0,0,0,0,0,0,0,0],"id":25,"left_children":[1,3,-1,5,7,9,11,13,15,17,19,21,23,25,27,29,31,-1,-1,-1,-1,-1,-1,-1,-1,-1,-1,-1,-1,-1,-1,-1,-1],"loss_changes":[1.5122801E-3,1.2623626E-3,0E0,2.6462565E-3,1.978232E-3,3.4203322E-3,2.863342E-3,1.7418675E-3,3.7101456E-3,3.550561E-3,1.458018E-2,1.1547014E-2,2.7530733E-3,1.7060433E-3,2.5981285E-3,3.0726274E-3,4.9577514E-3,0E0,0E0,0E0,0E0,0E0,0E0,0E0,0E0,0E0,0E0,0E0,0E0,0E0,0E0,0E0,0E0],"parents":[2147483647,0,0,1,1,3,3,4,4,5,5,6,6,7,7,8,8,9,9,10,10,11,11,12,12,13,13,14,14,15,15,16,16],"right_children":[2,4,-1,6,8,10,12,14,16,18,20,22,24,26,28,30,32,-1,-1,-1,-1,-1,-1,-1,-1,-1,-1,-1,-1,-1,-1,-1,-1],"split_conditions":[2.2268367E-1,-3.1152673E-3,-2.7499534E-3,-2.4566261E-1,2.7671087E0,1E0,2.4962027E1,1.6108869E-2,-2.7606926E4,-1.7736038E-2,-8.667518E-1,-1.6888075E-2,-2.1388227E-2,1.556674E5,3.3457684E1,6.3166605E4,2.4178855E-2,6.5676175E-4,7.4220865E-5,4.584067E-3,2.66962E-4,-4.148081E-3,-2.1517415E-4,4.1880953E-4,4.863834E-6,-4.0672594E-6,5.129387E-4,8.250259E-4,-1.9294069E-4,1.438756E-4,2.0525744E-3,-2.4056395E-4,-1.7437587E-3],"split_indices":[649,649,0,284,261,321,391,385,298,385,85,627,297,518,622,584,583,0,0,0,0,0,0,0,0,0,0,0,0,0,0,0,0],"split_type":[0,0,0,0,0,0,0,0,0,0,0,0,0,0,0,0,0,0,0,0,0,0,0,0,0,0,0,0,0,0,0,0,0],"sum_hessian":[3.495E4,3.4949E4,1E0,9.972E3,2.4977E4,1.777E3,8.195E3,2.4313E4,6.64E2,1.708E3,6.9E1,1.21E2,8.074E3,2.3567E4,7.46E2,1.46E2,5.18E2,1.11E2,1.597E3,8E0,6.1E1,7E0,1.14E2,1.63E2,7.911E3,2.3504E4,6.3E1,2.5E1,7.21E2,1.38E2,8E0,4.96E2,2.2E1],"tree_param":{"num_deleted":"0","num_feature":"660","num_nodes":"33","size_leaf_vector":"1"}},{"base_weights":[-2.0818043E-6,-5.868962E-7,-2.612456E-3,9.761437E-5,-3.6752073E-4,4.8269798E-5,1.8719699E-3,-2.0355887E-3,-1.4134201E-4,-5.5051195E-3,6.821133E-5,1.1795878E-2,1.3374416E-3,-3.6514357E-3,-1.915598E-3,3.3952242E-3,-2.3171473E-4,-6.3661644E-3,-3.590495E-4,8.511158E-6,-5.707996E-4,2.402472E-3,4.4758918E-4,-2.8428902E-5,3.627586E-4,-1.6038807E-4,-1.2953704E-3,1.6784755E-4,1.4243694E-3,-2.8058745E-5,6.609097E-4],"categories":[],"categories_nodes":[],"categories_segments":[],"categories_sizes":[],"default_left":[0,0,0,0,0,0,0,0,0,0,0,0,0,0,0,0,0,0,0,0,0,0,0,0,0,0,0,0,0,0,0],"id":26,"left_children":[1,3,-1,5,7,9,11,13,15,17,19,21,23,-1,25,27,29,-1,-1,-1,-1,-1,-1,-1,-1,-1,-1,-1,-1,-1,-1],"loss_changes":[1.3648458E-3,1.259402E-3,0E0,2.413971E-3,2.7836724E-3,2.9712808E-3,3.9414624E-3,3.5748687E-3,2.0779264E-3,1.0460822E-2,2.6100443E-3,3.2940367E-3,2.6342557E-3,0E0,3.0036606E-3,2.993196E-3,2.1208313E-3,0E0,0E0,0E0,0E0,0E0,0E0,0E0,0E0,0E0,0E0,0E0,0E0,0E0,0E0],"parents":[2147483647,0,0,1,1,3,3,4,4,5,5,6,6,7,7,8,8,9,9,10,10,11,11,12,12,14,14,15,15,16,16],"right_children":[2,4,-1,6,8,10,12,14,16,18,20,22,24,-1,26,28,30,-1,-1,-1,-1,-1,-1,-1,-1,-1,-1,-1,-1,-1,-1],"split_conditions":[2.2268367E-1,4.9751345E-3,-2.612456E-3,1.8157702E-2,-9.734467E-3,-1.3517697E5,-2.5063181E-2,1.9433186E1,-3.4865026E0,3.051009E1,2.1876218E0,-1.7137936E4,7.72866E2,-3.6514357E-3,6.984266E4,2.563636E4,1.556674E5,-6.3661644E-3,-3.590495E-4,8.511158E-6,-5.707996E-4,2.402472E-3,4.4758918E-4,-2.8428902E-5,3.627586E-4,-1.6038807E-4,-1.2953704E-3,1.6784755E-4,1.4243694E-3,-2.8058745E-5,6.609097E-4],"split_indices":[649,396,0,429,0,122,561,644,65,611,317,617,584,0,595,287,617,0,0,0,0,0,0,0,0,0,0,0,0,0,0],"split_type":[0,0,0,0,0,0,0,0,0,0,0,0,0,0,0,0,0,0,0,0,0,0,0,0,0,0,0,0,0,0,0],"sum_hessian":[3.495E4,3.4949E4,1E0,2.7571E4,7.378E3,2.6826E4,7.45E2,8.8E2,6.498E3,9.5E1,2.6731E4,3.7E1,7.08E2,2E0,8.78E2,1.61E2,6.337E3,2E0,9.3E1,2.6654E4,7.7E1,1.3E1,2.4E1,4.15E2,2.93E2,8.55E2,2.3E1,1.4E2,2.1E1,6.293E3,4.4E1],"tree_param":{"num_deleted":"0","num_feature":"660","num_nodes":"31","size_leaf_vector":"1"}},{"base_weights":[-2.1482244E-6,6.502913E-5,-5.486616E-4,5.9514878E-5,9.591585E-3,-4.1040106E-4,-7.0175836E-3,1.2309176E-3,1.4427355E-5,1.56424E-3,3.7296235E-3,-1.785035E-2,-3.6363542E-4,-4.6702283E-3,-1.8756242E-2,-1.855839E-2,1.4377835E-3,-1.5941901E-3,5.4660188E-5,6.9453223E-3,-2.7948509E-3,-1.5588204E-3,-2.8451567E-3,-2.9248462E-4,-9.148125E-3,-2.1531766E-2,-2.9902367E-3,-2.296658E-3,-2.581643E-2,-5.777098E-3,9.314663E-5,2.4346416E-3,1.2750462E-4,-9.124372E-4,-1.11029156E-4,5.702604E-4,4.284618E-6,8.589357E-5,7.816564E-4,9.527498E-5,-4.8274428E-4,-5.59033E-4,2.992296E-4,3.0432786E-3,-3.1727108E-5,-2.1469945E-3,-3.6915563E-4,-7.034619E-4,-2.7021687E-3,-5.1057804E-4,3.543284E-4,-5.423181E-4,1.5954174E-4,-1.4658853E-3,-3.181072E-3],"categories":[],"categories_nodes":[],"categories_segments":[],"categories_sizes":[],"default_left":[0,0,0,0,0,0,0,0,0,0,0,0,0,0,0,0,0,0,0,0,0,0,0,0,0,0,0,0,0,0,0,0,0,0,0,0,0,0,0,0,0,0,0,0,0,0,0,0,0,0,0,0,0,0,0],"id":27,"left_children":[1,3,5,7,9,11,13,15,17,19,-1,21,23,25,27,29,31,33,35,37,39,41,-1,43,45,47,49,51,53,-1,-1,-1,-1,-1,-1,-1,-1,-1,-1,-1,-1,-1,-1,-1,-1,-1,-1,-1,-1,-1,-1,-1,-1,-1,-1],"loss_changes":[1.283203E-3,1.6345365E-3,3.4190826E-3,1.6430242E-3,3.944766E-3,3.0495252E-3,2.1167886E-3,4.746756E-3,1.9388812E-3,3.712605E-4,0E0,1.6827495E-3,2.3336618E-3,1.8618674E-3,1.451409E-3,9.224783E-3,4.226435E-3,2.6535192E-3,1.949923E-3,3.0405092E-5,7.315544E-5,1.0846726E-4,0E0,2.8343184E-3,1.937788E-3,2.8744154E-4,8.88874E-4,6.9495545E-5,1.3562711E-4,0E0,0E0,0E0,0E0,0E0,0E0,0E0,0E0,0E0,0E0,0E0,0E0,0E0,0E0,0E0,0E0,0E0,0E0,0E0,0E0,0E0,0E0,0E0,0E0,0E0,0E0],"parents":[2147483647,0,0,1,1,2,2,3,3,4,4,5,5,6,6,7,7,8,8,9,9,11,11,12,12,13,13,14,14,15,15,16,16,17,17,18,18,19,19,20,20,21,21,23,23,24,24,25,25,26,26,27,27,28,28],"right_children":[2,4,6,8,10,12,14,16,18,20,-1,22,24,26,28,30,32,34,36,38,40,42,-1,44,46,48,50,52,54,-1,-1,-1,-1,-1,-1,-1,-1,-1,-1,-1,-1,-1,-1,-1,-1,-1,-1,-1,-1,-1,-1,-1,-1,-1,-1],"split_conditions":[6.430532E1,8.064134E1,2.4197106E0,-1.7736038E-2,6.2387725E-3,-2.7753863E-2,6.55633E1,-2.455955E0,-9.128812E-1,3.00801E-3,3.7296235E-3,-1.9933735E-1,9.267783E4,-8.413644E4,-6.502222E3,-7.369909E-3,-4.1458927E-2,2.9463697E1,-8.780179E0,-2.5881904E-1,7.635688E1,-1.6113002E-2,-2.8451567E-3,-2.455955E0,-2.928179E-2,-8.660254E-1,2.1811963E4,-4.3388373E-1,0E0,-5.777098E-3,9.314663E-5,2.4346416E-3,1.2750462E-4,-9.124372E-4,-1.11029156E-4,5.702604E-4,4.284618E-6,8.589357E-5,7.816564E-4,9.527498E-5,-4.8274428E-4,-5.59033E-4,2.992296E-4,3.0432786E-3,-3.1727108E-5,-2.1469945E-3,-3.6915563E-4,-7.034619E-4,-2.7021687E-3,-5.1057804E-4,3.543284E-4,-5.423181E-4,1.5954174E-4,-1.4658853E-3,-3.181072E-3],"split_indices":[655,611,195,396,330,605,556,658,405,473,0,10,353,199,342,231,649,578,657,3,589,0,0,328,350,2,628,4,13,0,0,0,0,0,0,0,0,0,0,0,0,0,0,0,0,0,0,0,0,0,0,0,0,0,0],"split_type":[0,0,0,0,0,0,0,0,0,0,0,0,0,0,0,0,0,0,0,0,0,0,0,0,0,0,0,0,0,0,0,0,0,0,0,0,0,0,0,0,0,0,0,0,0,0,0,0,0,0,0,0,0,0,0],"sum_hessian":[3.495E4,3.1125E4,3.825E3,3.1108E4,1.7E1,3.746E3,7.9E1,1.152E3,2.9956E4,1.4E1,3E0,9E0,3.737E3,6.7E1,1.2E1,1.1E1,1.141E3,7.3E2,2.9226E4,6E0,8E0,4E0,5E0,3.708E3,2.9E1,5E0,6.2E1,4E0,8E0,3E0,8E0,7E0,1.134E3,4.3E1,6.87E2,6E1,2.9166E4,1E0,5E0,3E0,5E0,2E0,2E0,2E0,3.706E3,8E0,2.1E1,2E0,3E0,4.7E1,1.5E1,2E0,2E0,4E0,4E0],"tree_param":{"num_deleted":"0","num_feature":"660","num_nodes":"55","size_leaf_vector":"1"}},{"base_weights":[-2.235605E-6,2.7871816E-4,-1.3234525E-4,2.8894257E-3,1.9592077E-4,-1.1689866E-4,-4.7863508E-3,5.4598637E-3,-1.1028887E-3,-2.638772E-3,2.710561E-4,-1.4541662E-4,2.4870895E-3,-5.7933185E-2,-2.6535345E-3,1.1969149E-2,2.9665583E-3,-3.1000283E-2,5.5494835E-5,-2.226335E-2,-1.8203857E-3,2.1886232E-3,1.8192017E-4,-9.986354E-4,-5.8523423E-5,1.8493509E-2,1.6993805E-3,-1.7743371E-3,-6.915641E-3,-1.0452799E-3,-1.8586755E-2,-5.1224016E-4,1.5280532E-3,2.1914128E-4,3.0905304E-3,-3.835369E-4,-4.7831773E-3,-3.5943542E-4,8.3575136E-4,-7.8514713E-4,-3.296467E-3,-1.0639022E-4,-1.7807002E-3,-3.5035938E-3,2.3446935E-4,-4.7055227E-4,2.253545E-5,-8.696715E-5,-1.5600456E-3,-7.5411294E-6,7.447595E-4,5.920746E-4,3.0079482E-3,-2.9231692E-3,2.1994824E-4,6.592192E-4,-3.7635196E-4,-2.6480723E-3,7.654469E-5],"categories":[],"categories_nodes":[],"categories_segments":[],"categories_sizes":[],"default_left":[0,0,0,0,0,0,0,0,0,0,0,0,0,0,0,0,0,0,0,0,0,0,0,0,0,0,0,0,0,0,0,0,0,0,0,0,0,0,0,0,0,0,0,0,0,0,0,0,0,0,0,0,0,0,0,0,0,0,0],"id":28,"left_children":[1,3,5,7,9,11,13,15,17,19,21,23,25,27,29,31,33,35,37,39,41,43,45,47,49,51,53,-1,-1,55,57,-1,-1,-1,-1,-1,-1,-1,-1,-1,-1,-1,-1,-1,-1,-1,-1,-1,-1,-1,-1,-1,-1,-1,-1,-1,-1,-1,-1],"loss_changes":[1.2776635E-3,2.3908096E-3,1.7167855E-3,3.4951004E-3,2.2847725E-3,1.7685767E-3,8.801115E-3,3.3240276E-3,4.6424954E-3,4.408227E-3,1.7854172E-3,1.7462096E-3,3.2215398E-3,1.2610946E-4,1.9536712E-3,3.3042831E-3,3.2024197E-3,2.1026772E-3,3.969185E-3,1.4376659E-3,3.2100494E-3,2.7778237E-3,2.1207046E-3,4.08596E-3,2.7104875E-3,1.5699198E-3,3.885062E-3,0E0,0E0,1.4988037E-3,1.0896295E-3,0E0,0E0,0E0,0E0,0E0,0E0,0E0,0E0,0E0,0E0,0E0,0E0,0E0,0E0,0E0,0E0,0E0,0E0,0E0,0E0,0E0,0E0,0E0,0E0,0E0,0E0,0E0,0E0],"parents":[2147483647,0,0,1,1,2,2,3,3,4,4,5,5,6,6,7,7,8,8,9,9,10,10,11,11,12,12,13,13,14,14,15,15,16,16,17,17,18,18,19,19,20,20,21,21,22,22,23,23,24,24,25,25,26,26,29,29,30,30],"right_children":[2,4,6,8,10,12,14,16,18,20,22,24,26,28,30,32,34,36,38,40,42,44,46,48,50,52,54,-1,-1,56,58,-1,-1,-1,-1,-1,-1,-1,-1,-1,-1,-1,-1,-1,-1,-1,-1,-1,-1,-1,-1,-1,-1,-1,-1,-1,-1,-1,-1],"split_conditions":[-4.941785E3,-1.9804819E-2,3.0546397E-2,2.4036774E-3,-6.4949023E4,9.2743125E4,-7.33971E4,-5.676458E-3,2.6023745E1,-3.6596408E0,-4.431731E4,-9.1999145E-3,-2.3058666E-2,-3.245721E-2,2.4178855E-2,-1.137453E-2,1.13467586E5,-5E-1,1.4747403E4,4.48812E3,7.923472E4,1.9433186E1,-6.0841336E0,7.1672554E1,2.1876218E0,1.478137E3,-4.1458927E-2,-1.7743371E-3,-6.915641E-3,-2.6556959E4,-9.54983E2,-5.1224016E-4,1.5280532E-3,2.1914128E-4,3.0905304E-3,-3.835369E-4,-4.7831773E-3,-3.5943542E-4,8.3575136E-4,-7.8514713E-4,-3.296467E-3,-1.0639022E-4,-1.7807002E-3,-3.5035938E-3,2.3446935E-4,-4.7055227E-4,2.253545E-5,-8.696715E-5,-1.5600456E-3,-7.5411294E-6,7.447595E-4,5.920746E-4,3.0079482E-3,-2.9231692E-3,2.1994824E-4,6.592192E-4,-3.7635196E-4,-2.6480723E-3,7.654469E-5],"split_indices":[243,638,220,583,12,562,584,429,512,646,298,572,539,0,638,275,408,2,617,353,595,424,294,655,284,408,638,0,0,496,12,0,0,0,0,0,0,0,0,0,0,0,0,0,0,0,0,0,0,0,0,0,0,0,0,0,0,0,0],"split_type":[0,0,0,0,0,0,0,0,0,0,0,0,0,0,0,0,0,0,0,0,0,0,0,0,0,0,0,0,0,0,0,0,0,0,0,0,0,0,0,0,0,0,0,0,0,0,0,0,0,0,0,0,0,0,0,0,0,0,0],"sum_hessian":[3.495E4,1.1062E4,2.3888E4,3.39E2,1.0723E4,2.381E4,7.8E1,2.06E2,1.33E2,2.76E2,1.0447E4,2.3553E4,2.57E2,2E0,7.6E1,5.6E1,1.5E2,4E0,1.29E2,1E1,2.66E2,4.63E2,9.984E3,2.176E3,2.1377E4,1.1E1,2.46E2,1E0,1E0,7E1,6E0,9E0,4.7E1,1.47E2,3E0,2E0,2E0,9E1,3.9E1,5E0,5E0,2.55E2,1.1E1,1E0,4.62E2,8.7E1,9.897E3,2.158E3,1.8E1,2.133E4,4.7E1,6E0,5E0,3E0,2.43E2,1.8E1,5.2E1,4E0,2E0],"tree_param":{"num_deleted":"0","num_feature":"660","num_nodes":"59","size_leaf_vector":"1"}},{"base_weights":[-2.614101E-6,3.0014776E-3,-1.44353835E-5,1.3973877E-2,4.2751437E-4,-1.3011158E-5,-2.4798699E-3,3.57449E-2,7.088162E-3,2.331898E-3,-1.5636675E-2,-5.804866E-5,7.139817E-4,4.121804E-3,4.1895994E-4,-9.6202735E-4,1.0407361E-2,7.3706114E-4,1.855278E-2,-5.489978E-3,-2.4868376E-3,-3.4138255E-3,-3.8796305E-5,1.117544E-2,5.249404E-4,1.555171E-3,4.7367113E-4,-7.8138395E-4,2.6153502E-4,2.4172517E-3,9.222489E-4,-8.1942574E-4,-1.4132043E-4,-1.3425622E-4,-1.2064332E-3,2.4216527E-3,-4.2515944E-6,-2.615835E-4,1.459457E-3,6.357971E-5,-1.2417489E-3],"categories":[],"categories_nodes":[],"categories_segments":[],"categories_sizes":[],"default_left":[0,0,0,0,0,0,0,0,0,0,0,0,0,0,0,0,0,0,0,0,0,0,0,0,0,0,0,0,0,0,0,0,0,0,0,0,0,0,0,0,0],"id":29,"left_children":[1,3,5,7,9,11,-1,13,15,17,19,21,23,-1,-1,-1,25,27,29,31,-1,33,35,37,39,-1,-1,-1,-1,-1,-1,-1,-1,-1,-1,-1,-1,-1,-1,-1,-1],"loss_changes":[1.2412306E-3,3.8632555E-3,1.2285898E-3,3.6442704E-3,3.4628098E-3,1.1399194E-3,0E0,8.635521E-4,1.2647527E-3,2.5991614E-3,9.875281E-4,2.1179307E-3,4.0107365E-3,0E0,0E0,0E0,4.514287E-4,1.5141147E-3,2.4897326E-4,6.5593005E-5,0E0,3.3343707E-3,2.9420527E-3,1.7357268E-3,2.871667E-3,0E0,0E0,0E0,0E0,0E0,0E0,0E0,0E0,0E0,0E0,0E0,0E0,0E0,0E0,0E0,0E0],"parents":[2147483647,0,0,1,1,2,2,3,3,4,4,5,5,7,7,8,8,9,9,10,10,11,11,12,12,16,16,17,17,18,18,19,19,21,21,22,22,23,23,24,24],"right_children":[2,4,6,8,10,12,-1,14,16,18,20,22,24,-1,-1,-1,26,28,30,32,-1,34,36,38,40,-1,-1,-1,-1,-1,-1,-1,-1,-1,-1,-1,-1,-1,-1,-1,-1],"split_conditions":[-4.1474197E-2,-3.1661348E4,2.2268367E-1,1.7760566E-2,5.770194E1,3.3796664E4,-2.4798699E-3,-4.3100314E-3,-1.3828002E-2,6.028195E-1,2.4532148E4,-5.715828E0,-2.455955E0,4.121804E-3,4.1895994E-4,-9.6202735E-4,1.563987E3,-1.5220955E4,1.5300193E0,-4.874096E-3,-2.4868376E-3,2.6758105E4,-8.780179E0,-1.4750437E0,2.1876218E0,1.555171E-3,4.7367113E-4,-7.8138395E-4,2.6153502E-4,2.4172517E-3,9.222489E-4,-8.1942574E-4,-1.4132043E-4,-1.3425622E-4,-1.2064332E-3,2.4216527E-3,-4.2515944E-6,-2.615835E-4,1.459457E-3,6.357971E-5,-1.2417489E-3],"split_indices":[143,419,649,350,402,254,0,0,550,395,507,340,460,0,0,0,210,452,250,66,0,364,250,229,262,0,0,0,0,0,0,0,0,0,0,0,0,0,0,0,0],"split_type":[0,0,0,0,0,0,0,0,0,0,0,0,0,0,0,0,0,0,0,0,0,0,0,0,0,0,0,0,0,0,0,0,0,0,0,0,0,0,0,0,0],"sum_hessian":[3.495E4,1.36E2,3.4814E4,2.5E1,1.11E2,3.4813E4,1E0,5E0,2E1,1E2,1.1E1,3.2783E4,2.03E3,4E0,1E0,3E0,1.7E1,9.2E1,8E0,6E0,5E0,1.86E2,3.2597E4,3.5E1,1.995E3,8E0,9E0,1.6E1,7.6E1,4E0,4E0,3E0,3E0,1.51E2,3.5E1,4E0,3.2593E4,7E0,2.8E1,1.979E3,1.6E1],"tree_param":{"num_deleted":"0","num_feature":"660","num_nodes":"41","size_leaf_vector":"1"}},{"base_weights":[-2.2497973E-6,2.0667268E-3,-1.8657396E-5,7.8621E-3,3.428992E-4,-2.499818E-3,-7.124169E-7,4.811661E-3,5.7534836E-3,-1.3497104E-2,1.2363178E-3,-8.0722815E-4,-9.220182E-3,3.7968782E-4,-1.01702244E-4,2.9878025E-3,1.6797699E-2,5.312033E-4,-1.9671049E-2,1.21870935E-2,9.259618E-5,-1.8799468E-3,1.4768028E-2,-1.4741726E-2,-8.9320535E-4,-3.901106E-3,4.7845425E-4,-8.8623165E-5,-5.244477E-3,1.4416755E-3,1.1016558E-4,2.6674476E-4,2.3529395E-3,-3.5480084E-4,-2.1068275E-3,-1.8961063E-4,2.0560303E-3,1.9521781E-4,-5.329857E-4,2.2480986E-3,-2.2627579E-4,1.8376898E-3,5.318456E-4,-2.383697E-3,-8.221481E-4,-8.081971E-4,2.5210992E-4,-2.3994849E-3,-1.9996827E-4,4.2664058E-5,7.884392E-4,-1.0783612E-5,3.2140015E-4,-1.1387042E-3,1.04792976E-4],"categories":[],"categories_nodes":[],"categories_segments":[],"categories_sizes":[],"default_left":[0,0,0,0,0,0,0,0,0,0,0,0,0,0,0,0,0,0,0,0,0,0,0,0,0,0,0,0,0,0,0,0,0,0,0,0,0,0,0,0,0,0,0,0,0,0,0,0,0,0,0,0,0,0,0],"id":30,"left_children":[1,3,5,7,9,11,13,-1,15,17,19,21,23,25,27,29,31,-1,33,35,37,39,41,43,45,47,49,51,53,-1,-1,-1,-1,-1,-1,-1,-1,-1,-1,-1,-1,-1,-1,-1,-1,-1,-1,-1,-1,-1,-1,-1,-1,-1,-1],"loss_changes":[1.1865179E-3,2.7446162E-3,1.5439701E-3,5.070685E-3,2.6504141E-3,2.824888E-3,1.3226821E-3,0E0,1.8130431E-3,1.6141385E-3,2.5163242E-3,3.3693365E-3,2.2857208E-3,3.055742E-3,1.8295534E-3,1.0619516E-3,1.0786832E-3,0E0,1.5052548E-4,2.279494E-3,1.8556846E-3,1.8040882E-3,3.455931E-4,1.5831213E-3,5.3581275E-4,6.179712E-3,2.7061459E-3,1.7224035E-3,2.678888E-3,0E0,0E0,0E0,0E0,0E0,0E0,0E0,0E0,0E0,0E0,0E0,0E0,0E0,0E0,0E0,0E0,0E0,0E0,0E0,0E0,0E0,0E0,0E0,0E0,0E0,0E0],"parents":[2147483647,0,0,1,1,2,2,3,3,4,4,5,5,6,6,8,8,9,9,10,10,11,11,12,12,13,13,14,14,15,15,16,16,18,18,19,19,20,20,21,21,22,22,23,23,24,24,25,25,26,26,27,27,28,28],"right_children":[2,4,6,8,10,12,14,-1,16,18,20,22,24,26,28,30,32,-1,34,36,38,40,42,44,46,48,50,52,54,-1,-1,-1,-1,-1,-1,-1,-1,-1,-1,-1,-1,-1,-1,-1,-1,-1,-1,-1,-1,-1,-1,-1,-1,-1,-1],"split_conditions":[-3.24358E-2,-1.7707787E4,-3.24358E-2,-2.1388227E-2,-2.1277398E-2,1.2548427E-2,-4.7808858E-3,4.811661E-3,1.8157702E-2,4.2194862E1,-6.506045E3,2.0755945E-2,1.4122299E-4,2.6023745E1,6.4480743E0,-1.9894555E-2,3.7562984E1,5.312033E-4,-9.659258E-1,0E0,6.495982E-3,-1.3517697E5,4.330631E-1,-8.96867E-3,-4.4177938E4,-1.3904355E-1,1.556674E5,5.383601E0,-6.2450504E-1,1.4416755E-3,1.1016558E-4,2.6674476E-4,2.3529395E-3,-3.5480084E-4,-2.1068275E-3,-1.8961063E-4,2.0560303E-3,1.9521781E-4,-5.329857E-4,2.2480986E-3,-2.2627579E-4,1.8376898E-3,5.318456E-4,-2.383697E-3,-8.221481E-4,-8.081971E-4,2.5210992E-4,-2.3994849E-3,-1.9996827E-4,4.2664058E-5,7.884392E-4,-1.0783612E-5,3.2140015E-4,-1.1387042E-3,1.04792976E-4],"split_indices":[187,265,176,11,561,264,638,0,429,39,188,0,110,457,21,231,171,0,2,532,176,133,383,528,650,647,617,393,86,0,0,0,0,0,0,0,0,0,0,0,0,0,0,0,0,0,0,0,0,0,0,0,0,0,0],"split_type":[0,0,0,0,0,0,0,0,0,0,0,0,0,0,0,0,0,0,0,0,0,0,0,0,0,0,0,0,0,0,0,0,0,0,0,0,0,0,0,0,0,0,0,0,0,0,0,0,0,0,0,0,0,0,0],"sum_hessian":[3.495E4,2.74E2,3.4676E4,6.2E1,2.12E2,2.48E2,3.4428E4,2E0,6E1,1.2E1,2E2,1.99E2,4.9E1,7.222E3,2.7206E4,4.9E1,1.1E1,3E0,9E0,1.8E1,1.82E2,1.87E2,1.2E1,2.9E1,2E1,1.62E2,7.06E3,2.7138E4,6.8E1,6E0,4.3E1,4E0,7E0,1E0,8E0,7E0,1.1E1,1.36E2,4.6E1,2E0,1.85E2,8E0,4E0,1.1E1,1.8E1,6E0,1.4E1,1.3E1,1.49E2,7.012E3,4.8E1,2.6982E4,1.56E2,3.4E1,3.4E1],"tree_param":{"num_deleted":"0","num_feature":"660","num_nodes":"55","size_leaf_vector":"1"}},{"base_weights":[-1.8325746E-6,4.8343903E-5,-6.6456926E-4,9.106133E-3,4.2763757E-5,-2.9705334E-4,-4.062854E-3,1.5164257E-3,3.157197E-3,-1.0163691E-5,9.3888276E-4,-6.7862467E-4,2.621564E-3,-2.721395E-3,-1.3362354E-2,-2.5997777E-3,1.4514981E-3,1.2319151E-5,-2.3814435E-3,1.3008723E-2,7.626483E-4,-8.49979E-3,-4.8671564E-4,-2.6255297E-2,3.181891E-3,-2.1267622E-3,-1.9746877E-3,-2.7812986E-2,-7.755075E-3,5.723172E-4,-5.66898E-4,-9.5873285E-5,6.5206136E-6,-1.5622863E-3,-1.2275562E-4,2.6781203E-3,-2.8238475E-4,-1.1235229E-3,8.774513E-5,-2.9183773E-3,-5.3425593E-4,-5.8236445E-5,1.4762002E-3,1.6319472E-4,-3.3635094E-3,-3.0367533E-3,3.5702036E-4,-1.187098E-3,-1.2950032E-4,-3.7908257E-4,-3.0703177E-3,-1.1035096E-3,1.0583795E-3],"categories":[],"categories_nodes":[],"categories_segments":[],"categories_sizes":[],"default_left":[0,0,0,0,0,0,0,0,0,0,0,0,0,0,0,0,0,0,0,0,0,0,0,0,0,0,0,0,0,0,0,0,0,0,0,0,0,0,0,0,0,0,0,0,0,0,0,0,0,0,0,0,0],"id":31,"left_children":[1,3,5,7,9,11,13,15,-1,17,19,21,23,25,27,29,-1,31,33,35,37,39,41,43,45,47,-1,49,51,-1,-1,-1,-1,-1,-1,-1,-1,-1,-1,-1,-1,-1,-1,-1,-1,-1,-1,-1,-1,-1,-1,-1,-1],"loss_changes":[1.1622856E-3,1.6418798E-3,3.071146E-3,3.3623062E-3,1.540181E-3,2.4752193E-3,2.9576109E-3,8.938109E-4,0E0,1.6347693E-3,3.8422965E-3,2.9452338E-3,4.2419266E-3,2.0941487E-3,2.2151698E-3,3.645271E-4,0E0,1.5600527E-3,4.381205E-3,5.745023E-3,2.4698803E-3,2.9133768E-3,2.8074991E-3,1.0839023E-3,3.4044143E-3,1.6461195E-3,0E0,4.390385E-4,1.500286E-3,0E0,0E0,0E0,0E0,0E0,0E0,0E0,0E0,0E0,0E0,0E0,0E0,0E0,0E0,0E0,0E0,0E0,0E0,0E0,0E0,0E0,0E0,0E0,0E0],"parents":[2147483647,0,0,1,1,2,2,3,3,4,4,5,5,6,6,7,7,9,9,10,10,11,11,12,12,13,13,14,14,15,15,17,17,18,18,19,19,20,20,21,21,22,22,23,23,24,24,25,25,27,27,28,28],"right_children":[2,4,6,8,10,12,14,16,-1,18,20,22,24,26,28,30,-1,32,34,36,38,40,42,44,46,48,-1,50,52,-1,-1,-1,-1,-1,-1,-1,-1,-1,-1,-1,-1,-1,-1,-1,-1,-1,-1,-1,-1,-1,-1,-1,-1],"split_conditions":[2.9025338E4,-1.3809825E5,3.1958922E4,1.5719749E4,3.381118E4,1.7164136E0,3.973589E4,8.797711E-3,3.157197E-3,2.6971117E-2,-3.2409344E-2,-2.7753863E-2,-9.799999E4,4.5570154E0,0E0,-1.9341523E4,1.4514981E-3,-5.680033E-1,-5.0764703E4,1.0913309E-3,-2.5063181E-2,-2.12925E-2,3.7707284E-2,-7.355459E4,4.7029613E1,-4.1333103E0,-1.9746877E-3,2.0202289E0,6.3588795E1,5.723172E-4,-5.66898E-4,-9.5873285E-5,6.5206136E-6,-1.5622863E-3,-1.2275562E-4,2.6781203E-3,-2.8238475E-4,-1.1235229E-3,8.774513E-5,-2.9183773E-3,-5.3425593E-4,-5.8236445E-5,1.4762002E-3,1.6319472E-4,-3.3635094E-3,-3.0367533E-3,3.5702036E-4,-1.187098E-3,-1.2950032E-4,-3.7908257E-4,-3.0703177E-3,-1.1035096E-3,1.0583795E-3],"split_indices":[551,562,45,243,144,52,243,594,0,396,572,594,485,569,488,254,0,31,276,242,550,429,253,1,39,591,0,7,578,0,0,0,0,0,0,0,0,0,0,0,0,0,0,0,0,0,0,0,0,0,0,0,0],"split_type":[0,0,0,0,0,0,0,0,0,0,0,0,0,0,0,0,0,0,0,0,0,0,0,0,0,0,0,0,0,0,0,0,0,0,0,0,0,0,0,0,0,0,0,0,0,0,0,0,0,0,0,0,0],"sum_hessian":[3.495E4,3.2491E4,2.459E3,1.9E1,3.2472E4,2.22E3,2.39E2,1.5E1,4E0,3.0662E4,1.81E3,1.964E3,2.56E2,2.1E2,2.9E1,1.2E1,3E0,3.0375E4,2.87E2,2.5E1,1.785E3,4.6E1,1.918E3,4E0,2.52E2,2.04E2,6E0,7E0,2.2E1,3E0,9E0,1.568E3,2.8807E4,2.2E1,2.65E2,1.3E1,1.2E1,1.6E1,1.769E3,5E0,4.1E1,1.907E3,1.1E1,1E0,3E0,2E0,2.5E2,1.5E1,1.89E2,1E0,6E0,1.9E1,3E0],"tree_param":{"num_deleted":"0","num_feature":"660","num_nodes":"53","size_leaf_vector":"1"}},{"base_weights":[-1.9497531E-6,-6.002603E-7,-2.358336E-3,2.817001E-3,-1.1769317E-5,-4.2151897E-3,3.7882486E-3,-2.9591152E-3,-3.8073298E-7,1.0106522E-2,-2.3133592E-3,-6.566986E-3,-1.9938475E-3,-2.122424E-3,1.7513279E-5,7.925808E-4,4.247132E-3,-9.479197E-5,-2.4606134E-3,-7.241072E-4,3.128368E-4,-1.3037739E-4,-1.6060325E-3,4.9793744E-4,7.827563E-7],"categories":[],"categories_nodes":[],"categories_segments":[],"categories_sizes":[],"default_left":[0,0,0,0,0,0,0,0,0,0,0,0,0,0,0,0,0,0,0,0,0,0,0,0,0],"id":32,"left_children":[1,3,-1,5,7,-1,9,11,13,15,17,-1,19,21,23,-1,-1,-1,-1,-1,-1,-1,-1,-1,-1],"loss_changes":[1.1122295E-3,1.0999079E-3,0E0,6.1869607E-3,1.1685354E-3,0E0,5.2664015E-3,7.98044E-3,1.3169016E-3,4.3921303E-3,2.1074358E-3,0E0,3.597349E-3,3.2880385E-3,1.6527643E-3,0E0,0E0,0E0,0E0,0E0,0E0,0E0,0E0,0E0,0E0],"parents":[2147483647,0,0,1,1,3,3,4,4,6,6,7,7,8,8,9,9,10,10,12,12,13,13,14,14],"right_children":[2,4,-1,6,8,-1,10,12,14,16,18,-1,20,22,24,-1,-1,-1,-1,-1,-1,-1,-1,-1,-1],"split_conditions":[2.2268367E-1,1.9433186E1,-2.358336E-3,-9.188286E-1,-2.455955E0,-4.2151897E-3,-1.644787E3,3.261902E1,2.3538507E1,1.0974764E-2,2.3698768E4,-6.566986E-3,2.0804657E-1,3.3954353E0,-8.780179E0,7.925808E-4,4.247132E-3,-9.479197E-5,-2.4606134E-3,-7.241072E-4,3.128368E-4,-1.3037739E-4,-1.6060325E-3,4.9793744E-4,7.827563E-7],"split_indices":[649,655,0,141,603,0,133,182,644,198,518,0,197,139,657,0,0,0,0,0,0,0,0,0,0],"split_type":[0,0,0,0,0,0,0,0,0,0,0,0,0,0,0,0,0,0,0,0,0,0,0,0,0],"sum_hessian":[3.495E4,3.4949E4,1E0,1.37E2,3.4812E4,2E0,1.35E2,1.33E2,3.4679E4,6.6E1,6.9E1,1E0,1.32E2,2.89E2,3.439E4,6.3E1,3E0,6.6E1,3E0,6.5E1,6.7E1,2.74E2,1.5E1,6.6E1,3.4324E4],"tree_param":{"num_deleted":"0","num_feature":"660","num_nodes":"25","size_leaf_vector":"1"}},{"base_weights":[-2.1068527E-6,-1.3210724E-5,2.778909E-3,-1.4212662E-3,8.890661E-6,-1.6072594E-3,5.8474317E-3,-3.939066E-2,-1.2060994E-3,-4.763187E-5,6.834677E-4,-7.201288E-3,4.6435315E-3,1.4839086E-2,3.442802E-3,-6.364478E-4,-5.2721514E-3,2.3388647E-2,-1.4817347E-3,-2.6404268E-5,-2.550235E-3,5.3759334E-3,3.9976943E-4,-3.9076786E-3,-2.354652E-3,-3.2832986E-3,9.229731E-3,1.766863E-2,1.2259046E-3,1.2535112E-2,5.2280683E-4,3.1710695E-3,1.1299948E-3,-7.220918E-4,-3.4090164E-5,-2.8360723E-6,3.0664988E-3,-1.7015703E-4,-2.659527E-3,1.3877604E-3,2.5938658E-4,4.712582E-5,-1.7448061E-3,-1.1238606E-3,3.8215174E-5,3.1643405E-4,-1.1653334E-3,4.922726E-4,1.3998147E-3,1.8404628E-3,4.0503405E-4,-1.265429E-4,2.4781586E-4,1.866138E-3,5.696749E-4,-4.906826E-4,4.1840808E-4],"categories":[],"categories_nodes":[],"categories_segments":[],"categories_sizes":[],"default_left":[0,0,0,0,0,0,0,0,0,0,0,0,0,0,0,0,0,0,0,0,0,0,0,0,0,0,0,0,0,0,0,0,0,0,0,0,0,0,0,0,0,0,0,0,0,0,0,0,0,0,0,0,0,0,0,0,0],"id":33,"left_children":[1,3,5,7,9,11,13,15,17,19,21,23,25,27,29,-1,-1,31,33,35,37,39,41,43,-1,45,47,49,51,53,55,-1,-1,-1,-1,-1,-1,-1,-1,-1,-1,-1,-1,-1,-1,-1,-1,-1,-1,-1,-1,-1,-1,-1,-1,-1,-1],"loss_changes":[1.079325E-3,1.0833924E-3,1.8802073E-3,4.3478194E-3,1.3069353E-3,2.0615312E-3,1.721883E-3,9.852564E-4,3.668297E-3,1.6800939E-3,3.5256485E-3,1.5768668E-3,1.0482167E-3,6.331648E-4,1.7457134E-3,0E0,0E0,2.4528732E-4,3.4742341E-3,1.8840425E-3,5.3827884E-3,3.535489E-3,3.1980206E-3,8.5340266E-4,0E0,6.305117E-4,3.007676E-4,6.5776985E-5,1.5615064E-5,5.6398916E-4,1.0343785E-3,0E0,0E0,0E0,0E0,0E0,0E0,0E0,0E0,0E0,0E0,0E0,0E0,0E0,0E0,0E0,0E0,0E0,0E0,0E0,0E0,0E0,0E0,0E0,0E0,0E0,0E0],"parents":[2147483647,0,0,1,1,2,2,3,3,4,4,5,5,6,6,7,7,8,8,9,9,10,10,11,11,12,12,13,13,14,14,17,17,18,18,19,19,20,20,21,21,22,22,23,23,25,25,26,26,27,27,28,28,29,29,30,30],"right_children":[2,4,6,8,10,12,14,16,18,20,22,24,26,28,30,-1,-1,32,34,36,38,40,42,44,-1,46,48,50,52,54,56,-1,-1,-1,-1,-1,-1,-1,-1,-1,-1,-1,-1,-1,-1,-1,-1,-1,-1,-1,-1,-1,-1,-1,-1,-1,-1],"split_conditions":[3.7707284E-2,-2.5063181E-2,-2.7207006E-3,1.9433186E1,2.677207E4,-2.069826E3,-7.0710677E-1,1.548887E-3,-1.3809825E5,9.228903E0,-3.1264613E0,7.227155E3,2.1442165E0,2.6761646E4,-3.0195312E4,-6.364478E-4,-5.2721514E-3,1.750637E3,-1.2270093E-2,1.1696805E1,3.7707284E-2,-1.0983697E-2,2.1876218E0,-6.681539E-3,-2.354652E-3,3.7803112E1,6.9377273E-3,1.2972869E-2,-8.660254E-1,-1.9340184E4,-7.6032676E-2,3.1710695E-3,1.1299948E-3,-7.220918E-4,-3.4090164E-5,-2.8360723E-6,3.0664988E-3,-1.7015703E-4,-2.659527E-3,1.3877604E-3,2.5938658E-4,4.712582E-5,-1.7448061E-3,-1.1238606E-3,3.8215174E-5,3.1643405E-4,-1.1653334E-3,4.922726E-4,1.3998147E-3,1.8404628E-3,4.0503405E-4,-1.265429E-4,2.4781586E-4,1.866138E-3,5.696749E-4,-4.906826E-4,4.1840808E-4],"split_indices":[484,594,473,204,144,595,3,0,474,524,362,177,62,331,452,0,0,1,517,579,264,605,350,66,0,358,374,0,3,298,130,0,0,0,0,0,0,0,0,0,0,0,0,0,0,0,0,0,0,0,0,0,0,0,0,0,0],"split_type":[0,0,0,0,0,0,0,0,0,0,0,0,0,0,0,0,0,0,0,0,0,0,0,0,0,0,0,0,0,0,0,0,0,0,0,0,0,0,0,0,0,0,0,0,0,0,0,0,0,0,0,0,0,0,0,0,0],"sum_hessian":[3.495E4,3.4812E4,1.38E2,5.37E2,3.4275E4,5.7E1,8.1E1,2E0,5.35E2,3.1626E4,2.649E3,3E1,2.7E1,1.6E1,6.5E1,1E0,1E0,5E0,5.3E2,3.1361E4,2.65E2,1.5E2,2.499E3,2.6E1,4E0,1E1,1.7E1,1.3E1,3E0,1.5E1,5E1,2E0,3E0,8.7E1,4.43E2,3.136E4,1E0,2.57E2,8E0,3.6E1,1.14E2,2.49E3,9E0,9E0,1.7E1,6E0,4E0,1E1,7E0,1.2E1,1E0,1E0,2E0,7E0,8E0,2E1,3E1],"tree_param":{"num_deleted":"0","num_feature":"660","num_nodes":"57","size_leaf_vector":"1"}},{"base_weights":[-1.8917921E-6,4.406837E-4,-7.198977E-5,1.9170098E-4,3.1659428E-3,-1.643044E-3,-3.8594593E-5,5.1862453E-3,4.8586124E-5,8.10705E-3,5.034104E-4,-4.7177505E-2,-1.3489946E-3,-5.153796E-5,3.891517E-3,3.4042154E-3,2.1237837E-2,1.1414063E-4,-1.0230704E-2,6.5701916E-3,7.61002E-2,-1.2185621E-2,1.8397917E-3,-6.1675124E-3,-1.8423235E-4,-9.3167825E-3,-7.4430095E-4,-1.2073885E-3,-1.10362935E-5,1.0887394E-2,-3.1837786E-3,4.5044726E-4,-1.660103E-3,2.2172608E-5,2.821857E-3,-2.2470675E-4,3.706966E-5,-3.362545E-3,-5.9053E-4,8.3273754E-4,-1.4474327E-3,1.0888159E-2,5.2687054E-4,-2.841309E-3,5.268966E-5,6.322243E-4,-7.693777E-6,-1.4885523E-3,2.4418152E-4,-8.524733E-6,-7.91145E-4,-1.1871636E-3,-9.321432E-5,-3.90123E-6,1.8563883E-4,7.5667806E-4,4.6352604E-3,8.847553E-5,-1.5802154E-3],"categories":[],"categories_nodes":[],"categories_segments":[],"categories_sizes":[],"default_left":[0,0,0,0,0,0,0,0,0,0,0,0,0,0,0,0,0,0,0,0,0,0,0,0,0,0,0,0,0,0,0,0,0,0,0,0,0,0,0,0,0,0,0,0,0,0,0,0,0,0,0,0,0,0,0,0,0,0,0],"id":34,"left_children":[1,3,5,7,9,11,13,15,17,19,21,23,25,27,29,31,33,35,37,39,41,43,45,-1,-1,47,49,51,53,55,57,-1,-1,-1,-1,-1,-1,-1,-1,-1,-1,-1,-1,-1,-1,-1,-1,-1,-1,-1,-1,-1,-1,-1,-1,-1,-1,-1,-1],"loss_changes":[1.0843393E-3,3.242148E-3,1.5829821E-3,3.1305433E-3,5.2582626E-3,8.34489E-3,1.5031728E-3,3.4174407E-3,2.871111E-3,1.4129427E-2,4.4482965E-3,2.515384E-3,3.0043595E-3,1.3786552E-3,4.835959E-3,2.5179903E-3,1.7542373E-3,2.5651082E-3,2.5336083E-3,5.2236463E-3,6.3921995E-3,5.1722694E-3,2.0367065E-3,0E0,0E0,2.9174925E-3,2.7484233E-3,2.9154113E-3,1.4865968E-3,5.419806E-3,2.5295569E-3,0E0,0E0,0E0,0E0,0E0,0E0,0E0,0E0,0E0,0E0,0E0,0E0,0E0,0E0,0E0,0E0,0E0,0E0,0E0,0E0,0E0,0E0,0E0,0E0,0E0,0E0,0E0,0E0],"parents":[2147483647,0,0,1,1,2,2,3,3,4,4,5,5,6,6,7,7,8,8,9,9,10,10,11,11,12,12,13,13,14,14,15,15,16,16,17,17,18,18,19,19,20,20,21,21,22,22,25,25,26,26,27,27,28,28,29,29,30,30],"right_children":[2,4,6,8,10,12,14,16,18,20,22,24,26,28,30,32,34,36,38,40,42,44,46,-1,-1,48,50,52,54,56,58,-1,-1,-1,-1,-1,-1,-1,-1,-1,-1,-1,-1,-1,-1,-1,-1,-1,-1,-1,-1,-1,-1,-1,-1,-1,-1,-1,-1],"split_conditions":[-7.3710405E-3,3.562905E4,-5.9233355E4,-6.466514E4,-1.9862992E-1,1.9433186E1,3.7707284E-2,6.7046875E1,1.5600666E5,-7.542462E-3,-1.5173946E-2,-1.650183E3,-1.6821433E-2,-4.428884E4,4.8607822E1,9.850298E-1,-2.839114E3,-1.7166197E0,-1.3289591E-2,2.2252318E-2,5.1835706E-3,4.6463432E1,-4.6969303E-3,-6.1675124E-3,-1.8423235E-4,4.1534674E-1,4.8459242E4,-8.411796E4,1.0916688E0,7.817407E1,8.135348E-3,4.5044726E-4,-1.660103E-3,2.2172608E-5,2.821857E-3,-2.2470675E-4,3.706966E-5,-3.362545E-3,-5.9053E-4,8.3273754E-4,-1.4474327E-3,1.0888159E-2,5.2687054E-4,-2.841309E-3,5.268966E-5,6.322243E-4,-7.693777E-6,-1.4885523E-3,2.4418152E-4,-8.524733E-6,-7.91145E-4,-1.1871636E-3,-9.321432E-5,-3.90123E-6,1.8563883E-4,7.5667806E-4,4.6352604E-3,8.847553E-5,-1.5802154E-3],"split_indices":[649,342,397,518,625,116,517,347,166,649,627,1,462,441,105,361,111,208,561,638,0,424,253,0,0,108,617,617,295,556,429,0,0,0,0,0,0,0,0,0,0,0,0,0,0,0,0,0,0,0,0,0,0,0,0,0,0,0,0],"split_type":[0,0,0,0,0,0,0,0,0,0,0,0,0,0,0,0,0,0,0,0,0,0,0,0,0,0,0,0,0,0,0,0,0,0,0,0,0,0,0,0,0,0,0,0,0,0,0,0,0,0,0,0,0,0,0,0,0,0,0],"sum_hessian":[3.495E4,4.778E3,3.0172E4,4.379E3,3.99E2,6.27E2,2.9545E4,1.21E2,4.258E3,1.39E2,2.6E2,3E0,6.24E2,2.9449E4,9.6E1,1.1E2,1.1E1,4.232E3,2.6E1,1.37E2,2E0,2.4E1,2.36E2,2E0,1E0,4.3E1,5.81E2,9.96E2,2.8453E4,4.8E1,4.8E1,1.05E2,5E0,3E0,8E0,4.14E2,3.818E3,3E0,2.3E1,1.27E2,1E1,1E0,1E0,1E1,1.4E1,7E1,1.66E2,2.9E1,1.4E1,5.33E2,4.8E1,2.4E1,9.72E2,2.8034E4,4.19E2,4.5E1,3E0,3.7E1,1.1E1],"tree_param":{"num_deleted":"0","num_feature":"660","num_nodes":"59","size_leaf_vector":"1"}},{"base_weights":[-1.6872915E-6,1.5841682E-3,-2.0557183E-5,5.522429E-3,-3.621639E-4,1.7345415E-6,-1.4294554E-3,9.612493E-3,1.2910042E-3,-4.00154E-3,1.4496456E-3,2.3049123E-3,-1.49112075E-5,-9.886392E-3,-9.282028E-4,2.5819149E-2,6.751176E-3,-1.176789E-2,2.744573E-3,1.9469124E-3,-4.739434E-3,1.2609771E-3,1.0051177E-3,6.9920067E-4,9.390188E-3,-2.3893112E-6,-3.3311243E-3,-2.6335463E-2,-2.707845E-3,-7.4236905E-3,-1.4099394E-4,3.117809E-3,2.922253E-4,1.2223168E-3,3.2615193E-4,-1.3326422E-3,-1.2083501E-4,9.03327E-4,-3.3377569E-6,-3.6253882E-4,-1.5705231E-3,-7.641242E-4,1.6167319E-4,-5.0217303E-4,2.5388482E-4,4.4450242E-4,2.8676954E-3,-8.214806E-5,4.7360677E-6,-2.0405184E-4,-2.9018258E-3,-4.0122922E-4,-3.6828336E-3,1.1589244E-3,-1.0152437E-3,-1.260651E-3,2.2765699E-4,3.870128E-5,-9.63924E-4],"categories":[],"categories_nodes":[],"categories_segments":[],"categories_sizes":[],"default_left":[0,0,0,0,0,0,0,0,0,0,0,0,0,0,0,0,0,0,0,0,0,0,0,0,0,0,0,0,0,0,0,0,0,0,0,0,0,0,0,0,0,0,0,0,0,0,0,0,0,0,0,0,0,0,0,0,0,0,0],"id":35,"left_children":[1,3,5,7,9,11,13,15,17,19,21,23,25,27,29,31,33,35,37,-1,39,-1,41,43,45,47,49,51,53,55,57,-1,-1,-1,-1,-1,-1,-1,-1,-1,-1,-1,-1,-1,-1,-1,-1,-1,-1,-1,-1,-1,-1,-1,-1,-1,-1,-1,-1],"loss_changes":[1.0459385E-3,3.152382E-3,1.0848237E-3,2.3413147E-3,1.8257053E-3,1.3036837E-3,2.271438E-3,3.025385E-3,1.3230738E-3,1.6856075E-3,9.051085E-4,2.7694004E-3,1.4019269E-3,3.471101E-3,2.6016259E-3,1.1359216E-3,1.1058562E-3,9.90986E-5,1.0834222E-3,0E0,1.0425386E-3,0E0,9.5894816E-4,2.117649E-3,4.16446E-3,1.3706577E-3,4.1510873E-3,1.960341E-3,2.4592506E-3,2.793808E-3,2.2856186E-3,0E0,0E0,0E0,0E0,0E0,0E0,0E0,0E0,0E0,0E0,0E0,0E0,0E0,0E0,0E0,0E0,0E0,0E0,0E0,0E0,0E0,0E0,0E0,0E0,0E0,0E0,0E0,0E0],"parents":[2147483647,0,0,1,1,2,2,3,3,4,4,5,5,6,6,7,7,8,8,9,9,10,10,11,11,12,12,13,13,14,14,15,15,16,16,17,17,18,18,20,20,22,22,23,23,24,24,25,25,26,26,27,27,28,28,29,29,30,30],"right_children":[2,4,6,8,10,12,14,16,18,20,22,24,26,28,30,32,34,36,38,-1,40,-1,42,44,46,48,50,52,54,56,58,-1,-1,-1,-1,-1,-1,-1,-1,-1,-1,-1,-1,-1,-1,-1,-1,-1,-1,-1,-1,-1,-1,-1,-1,-1,-1,-1,-1],"split_conditions":[-8.414837E4,-9.890431E3,1.239635E0,-5.869105E3,-8.701495E3,-3.2409344E-2,-1.10707715E-1,-1.7762715E-2,-1.9943076E0,-1.8759336E-2,-1.9804819E-2,1.2112516E-2,1.556674E5,-1.0644983E-2,-1.8822225E-2,1E0,-4.9781236E-3,-4.4367055E4,-1.5748021E-1,1.9469124E-3,3.5602383E4,1.2609771E-3,-2.0791767E0,-1.7185969E4,1.3478842E4,-5.680033E-1,3.5736062E4,-9.47691E-3,4.0401066E1,4.355763E3,7.923472E4,3.117809E-3,2.922253E-4,1.2223168E-3,3.2615193E-4,-1.3326422E-3,-1.2083501E-4,9.03327E-4,-3.3377569E-6,-3.6253882E-4,-1.5705231E-3,-7.641242E-4,1.6167319E-4,-5.0217303E-4,2.5388482E-4,4.4450242E-4,2.8676954E-3,-8.214806E-5,4.7360677E-6,-2.0405184E-4,-2.9018258E-3,-4.0122922E-4,-3.6828336E-3,1.1589244E-3,-1.0152437E-3,-1.260651E-3,2.2765699E-4,3.870128E-5,-9.63924E-4],"split_indices":[67,1,31,441,386,407,75,594,272,473,627,616,551,451,143,60,473,1,658,0,606,0,547,166,45,31,67,0,182,254,23,0,0,0,0,0,0,0,0,0,0,0,0,0,0,0,0,0,0,0,0,0,0,0,0,0,0,0,0],"split_type":[0,0,0,0,0,0,0,0,0,0,0,0,0,0,0,0,0,0,0,0,0,0,0,0,0,0,0,0,0,0,0,0,0,0,0,0,0,0,0,0,0,0,0,0,0,0,0,0,0,0,0,0,0,0,0,0,0,0,0],"sum_hessian":[3.495E4,4.1E2,3.454E4,1.35E2,2.75E2,3.4003E4,5.37E2,6.8E1,6.7E1,9.1E1,1.84E2,2.43E2,3.376E4,2.9E1,5.08E2,9E0,5.9E1,6E0,6.1E1,2E0,8.9E1,6E0,1.78E2,1.99E2,4.4E1,3.3634E4,1.26E2,8E0,2.1E1,5.4E1,4.54E2,7E0,2E0,2.2E1,3.7E1,5E0,1E0,1.8E1,4.3E1,8.2E1,7E0,1.1E1,1.67E2,4.8E1,1.51E2,3.6E1,8E0,1.925E3,3.1709E4,1.21E2,5E0,3E0,5E0,7E0,1.4E1,3.5E1,1.9E1,4.31E2,2.3E1],"tree_param":{"num_deleted":"0","num_feature":"660","num_nodes":"59","size_leaf_vector":"1"}},{"base_weights":[-1.5454771E-6,-1.2655265E-4,2.3279041E-4,-2.058667E-3,-7.610011E-5,4.234273E-3,1.7941791E-4,-1.6622586E-3,-2.7023876E-2,2.4688789E-3,-1.0389164E-4,-3.5738526E-4,1.0295117E-2,9.9306795E-5,2.157624E-3,1.5815336E-3,-4.0629366E-3,-9.205913E-3,-4.699485E-2,1.1483639E-3,1.0435871E-2,-1.6842297E-3,-4.7584406E-5,4.6614236E-3,-4.8567774E-3,3.2608726E-3,1.7035216E-2,1.424542E-4,-4.7379835E-3,3.648686E-2,1.931505E-3,2.9154736E-4,-9.7151723E-4,-1.4647599E-3,-2.588973E-4,-2.3350921E-4,-1.205755E-3,-6.090317E-3,-2.205769E-3,-1.3496975E-3,1.8049452E-4,2.8290362E-5,1.843648E-3,-1.9754684E-3,-1.3166542E-4,-5.790488E-4,-3.3203194E-6,1.8587575E-3,1.9734113E-4,-1.1373472E-4,-1.506925E-3,-2.2396434E-4,1.3990165E-3,2.502319E-3,8.100842E-4,3.3553597E-4,9.018292E-6,-1.2151916E-4,-1.4004819E-3,2.6266204E-4,5.2103675E-3,5.378476E-4,8.82787E-6],"categories":[],"categories_nodes":[],"categories_segments":[],"categories_sizes":[],"default_left":[0,0,0,0,0,0,0,0,0,0,0,0,0,0,0,0,0,0,0,0,0,0,0,0,0,0,0,0,0,0,0,0,0,0,0,0,0,0,0,0,0,0,0,0,0,0,0,0,0,0,0,0,0,0,0,0,0,0,0,0,0,0,0],"id":36,"left_children":[1,3,5,7,9,11,13,15,17,19,21,23,25,27,29,31,33,35,37,39,41,43,45,47,49,51,53,55,57,59,61,-1,-1,-1,-1,-1,-1,-1,-1,-1,-1,-1,-1,-1,-1,-1,-1,-1,-1,-1,-1,-1,-1,-1,-1,-1,-1,-1,-1,-1,-1,-1,-1],"loss_changes":[1.0238724E-3,2.2217068E-3,2.5960272E-3,5.6950008E-3,1.5714274E-3,4.456371E-3,1.9015012E-3,4.4607613E-3,2.769948E-3,2.5129435E-3,1.9553532E-3,2.1001457E-3,3.2158443E-3,2.4080114E-3,3.5546094E-3,3.705191E-3,5.0949403E-3,8.940307E-5,4.3952838E-5,2.0148433E-3,2.7566024E-3,4.995536E-3,1.7523658E-3,1.6104002E-3,1.8441051E-3,2.0969156E-3,2.2951541E-3,1.9197861E-3,3.3127852E-3,1.4495109E-3,2.953925E-3,0E0,0E0,0E0,0E0,0E0,0E0,0E0,0E0,0E0,0E0,0E0,0E0,0E0,0E0,0E0,0E0,0E0,0E0,0E0,0E0,0E0,0E0,0E0,0E0,0E0,0E0,0E0,0E0,0E0,0E0,0E0,0E0],"parents":[2147483647,0,0,1,1,2,2,3,3,4,4,5,5,6,6,7,7,8,8,9,9,10,10,11,11,12,12,13,13,14,14,15,15,16,16,17,17,18,18,19,19,20,20,21,21,22,22,23,23,24,24,25,25,26,26,27,27,28,28,29,29,30,30],"right_children":[2,4,6,8,10,12,14,16,18,20,22,24,26,28,30,32,34,36,38,40,42,44,46,48,50,52,54,56,58,60,62,-1,-1,-1,-1,-1,-1,-1,-1,-1,-1,-1,-1,-1,-1,-1,-1,-1,-1,-1,-1,-1,-1,-1,-1,-1,-1,-1,-1,-1,-1,-1,-1],"split_conditions":[2.916445E3,-3.0421257E0,-2.7753863E-2,3.7707284E-2,-2.6072748E0,1.2135924E-3,1.7071087E-2,-1.4806957E4,7.614377E0,4.689057E-1,-4.428884E4,-7.7205175E-4,4.225305E3,1.7531573E0,4.0859666E-1,9.659258E-1,-2.268357E4,-1.7980442E0,-2.3100967E-2,-2.3100967E-2,-2.510738E-3,-9.793554E4,-4.1474197E-2,-1.2731974E-2,5.2901944E-3,2.183777E-1,-9.899168E3,-2.5073638E-2,6.3588795E1,-1.6870128E-2,5.1474716E1,2.9154736E-4,-9.7151723E-4,-1.4647599E-3,-2.588973E-4,-2.3350921E-4,-1.205755E-3,-6.090317E-3,-2.205769E-3,-1.3496975E-3,1.8049452E-4,2.8290362E-5,1.843648E-3,-1.9754684E-3,-1.3166542E-4,-5.790488E-4,-3.3203194E-6,1.8587575E-3,1.9734113E-4,-1.1373472E-4,-1.506925E-3,-2.2396434E-4,1.3990165E-3,2.502319E-3,8.100842E-4,3.3553597E-4,9.018292E-6,-1.2151916E-4,-1.4004819E-3,2.6266204E-4,5.2103675E-3,5.378476E-4,8.82787E-6],"split_indices":[287,646,495,264,615,165,143,287,227,295,441,264,628,482,546,24,166,10,0,33,121,353,363,605,187,141,551,649,501,0,160,0,0,0,0,0,0,0,0,0,0,0,0,0,0,0,0,0,0,0,0,0,0,0,0,0,0,0,0,0,0,0,0],"split_type":[0,0,0,0,0,0,0,0,0,0,0,0,0,0,0,0,0,0,0,0,0,0,0,0,0,0,0,0,0,0,0,0,0,0,0,0,0,0,0,0,0,0,0,0,0,0,0,0,0,0,0,0,0,0,0,0,0,0,0,0,0,0,0],"sum_hessian":[3.495E4,2.2792E4,1.2158E4,5.79E2,2.2213E4,1.59E2,1.1999E4,5.71E2,8E0,2.39E2,2.1974E4,9.1E1,6.8E1,1.1533E4,4.66E2,2.43E2,3.28E2,5E0,3E0,2.06E2,3.3E1,7.55E2,2.1219E4,4.3E1,4.8E1,3.4E1,3.4E1,1.1432E4,1.01E2,2E0,4.64E2,2.18E2,2.5E1,3.9E1,2.89E2,2E0,3E0,1E0,2E0,8E0,1.98E2,1.5E1,1.8E1,1.4E1,7.41E2,5.2E1,2.1167E4,6E0,3.7E1,3.6E1,1.2E1,2.3E1,1.1E1,1.7E1,1.7E1,1.82E2,1.125E4,7.4E1,2.7E1,1E0,1E0,1.61E2,3.03E2],"tree_param":{"num_deleted":"0","num_feature":"660","num_nodes":"63","size_leaf_vector":"1"}},{"base_weights":[-1.5156828E-6,-2.3345414E-7,-2.2407703E-3,1.9441886E-3,-1.5597281E-5,4.3940907E-3,-2.1027103E-3,-1.4285708E-3,6.753803E-6,5.6049745E-3,-7.686653E-3,-3.8075636E-4,-1.3145218E-2,-1.6234882E-2,-1.0325235E-3,-8.585207E-6,2.1552648E-3,6.587043E-4,-6.728768E-4,2.1783487E-4,-1.382349E-3,-4.0834845E-4,5.946861E-4,-1.7381662E-4,-2.1483235E-3,-7.161086E-4,-2.4285668E-3,-6.0438906E-5,-1.0832682E-3,-2.7574931E-6,1.6844524E-4,3.700437E-3,1.5629984E-4],"categories":[],"categories_nodes":[],"categories_segments":[],"categories_sizes":[],"default_left":[0,0,0,0,0,0,0,0,0,0,0,0,0,0,0,0,0,0,0,0,0,0,0,0,0,0,0,0,0,0,0,0,0],"id":37,"left_children":[1,3,-1,5,7,9,11,13,15,17,19,21,23,25,27,29,31,-1,-1,-1,-1,-1,-1,-1,-1,-1,-1,-1,-1,-1,-1,-1,-1],"loss_changes":[1.0041319E-3,1.0441184E-3,0E0,2.7258147E-3,1.095161E-3,2.544535E-3,1.9725224E-3,3.149797E-3,1.1250715E-3,1.9338853E-3,9.987508E-4,2.1563633E-3,1.2942292E-3,8.4880483E-4,2.2046315E-3,1.0898459E-3,4.9370322E-3,0E0,0E0,0E0,0E0,0E0,0E0,0E0,0E0,0E0,0E0,0E0,0E0,0E0,0E0,0E0,0E0],"parents":[2147483647,0,0,1,1,3,3,4,4,5,5,6,6,7,7,8,8,9,9,10,10,11,11,12,12,13,13,14,14,15,15,16,16],"right_children":[2,4,-1,6,8,10,12,14,16,18,20,22,24,26,28,30,32,-1,-1,-1,-1,-1,-1,-1,-1,-1,-1,-1,-1,-1,-1,-1,-1],"split_conditions":[2.2268367E-1,-3.2409344E-2,-2.2407703E-3,5E-1,-2.521142E-2,6.7719185E1,1.93889E-2,-3.245721E-2,3.0554669E-2,2.4178855E-2,-2.265075E4,3.4367985E-3,-4.817106E3,-6.4949023E4,5.7161465E4,9.267783E4,-1.3809825E5,6.587043E-4,-6.728768E-4,2.1783487E-4,-1.382349E-3,-4.0834845E-4,5.946861E-4,-1.7381662E-4,-2.1483235E-3,-7.161086E-4,-2.4285668E-3,-6.0438906E-5,-1.0832682E-3,-2.7574931E-6,1.6844524E-4,3.700437E-3,1.5629984E-4],"split_indices":[649,462,0,13,121,457,550,44,418,638,397,517,518,67,551,342,474,0,0,0,0,0,0,0,0,0,0,0,0,0,0,0,0],"split_type":[0,0,0,0,0,0,0,0,0,0,0,0,0,0,0,0,0,0,0,0,0,0,0,0,0,0,0,0,0,0,0,0,0],"sum_hessian":[3.495E4,3.4949E4,1E0,2.73E2,3.4676E4,1.7E2,1.03E2,5.39E2,3.4137E4,1.55E2,1.5E1,9E1,1.3E1,1.3E1,5.26E2,3.3896E4,2.41E2,1.44E2,1.1E1,6E0,9E0,5.7E1,3.3E1,6E0,7E0,7E0,6E0,5.05E2,2.1E1,3.3521E4,3.75E2,3E0,2.38E2],"tree_param":{"num_deleted":"0","num_feature":"660","num_nodes":"33","size_leaf_vector":"1"}},{"base_weights":[-1.5306767E-6,1.8963597E-3,-1.6581527E-5,7.063804E-3,3.5905742E-4,-2.126344E-3,-1.322662E-6,4.4607124E-3,5.101612E-3,-9.334634E-3,1.3565563E-3,-1.0403188E-2,-1.0306209E-3,2.1113213E-3,-1.7771612E-5,1.32764345E-2,2.1472904E-3,-3.6559254E-3,-2.5639578E-3,2.0707606E-3,8.4017834E-4,-2.2262098E-2,-1.9192924E-3,1.0666157E-2,-1.9955703E-3,1.3747863E-3,1.4344353E-2,3.3733944E-5,-7.253988E-4,6.933214E-4,2.2692934E-3,-9.790097E-4,4.182651E-4,-7.096214E-4,8.438993E-4,2.230057E-4,-6.952943E-4,-2.4245898E-3,-2.2015478E-5,2.0412868E-4,-1.2625055E-3,5.831198E-5,1.9564067E-3,-2.6795367E-4,1.0310704E-3,-5.7818316E-4,2.8336424E-4,2.4284795E-4,2.761557E-3,1.6311787E-6,3.0986848E-4,-7.0607394E-4,-4.957795E-5],"categories":[],"categories_nodes":[],"categories_segments":[],"categories_sizes":[],"default_left":[0,0,0,0,0,0,0,0,0,0,0,0,0,0,0,0,0,0,0,0,0,0,0,0,0,0,0,0,0,0,0,0,0,0,0,0,0,0,0,0,0,0,0,0,0,0,0,0,0,0,0,0,0],"id":38,"left_children":[1,3,5,7,9,11,13,-1,15,17,19,21,23,25,27,29,31,33,-1,-1,35,37,39,41,43,45,47,49,51,-1,-1,-1,-1,-1,-1,-1,-1,-1,-1,-1,-1,-1,-1,-1,-1,-1,-1,-1,-1,-1,-1,-1,-1],"loss_changes":[9.98402E-4,2.182043E-3,1.1163392E-3,4.413466E-3,2.072255E-3,2.2474914E-3,1.1964721E-3,0E0,1.4447061E-3,1.7580843E-3,1.9211381E-3,2.8749558E-3,2.5156674E-3,2.3769545E-3,1.2451905E-3,7.9836E-4,1.1586053E-3,7.2564493E-4,0E0,0E0,2.073489E-3,5.193837E-4,7.889897E-4,1.5137969E-3,1.7531288E-3,2.6473836E-3,2.305008E-3,1.7005171E-3,3.3685323E-3,0E0,0E0,0E0,0E0,0E0,0E0,0E0,0E0,0E0,0E0,0E0,0E0,0E0,0E0,0E0,0E0,0E0,0E0,0E0,0E0,0E0,0E0,0E0,0E0],"parents":[2147483647,0,0,1,1,2,2,3,3,4,4,5,5,6,6,8,8,9,9,10,10,11,11,12,12,13,13,14,14,15,15,16,16,17,17,20,20,21,21,22,22,23,23,24,24,25,25,26,26,27,27,28,28],"right_children":[2,4,6,8,10,12,14,-1,16,18,20,22,24,26,28,30,32,34,-1,-1,36,38,40,42,44,46,48,50,52,-1,-1,-1,-1,-1,-1,-1,-1,-1,-1,-1,-1,-1,-1,-1,-1,-1,-1,-1,-1,-1,-1,-1,-1],"split_conditions":[-3.24358E-2,-1.7707787E4,-3.24358E-2,-2.1388227E-2,-3.327344E-1,-1.4506538E-2,-9.799999E4,4.4607124E-3,-1.45162605E-2,2.3689498E4,-3.2409344E-2,-1.9904168E4,-1.0011033E-2,1.0962516E0,2.9025338E4,6.3721184E-3,3.3750458E1,1.93889E-2,-2.5639578E-3,2.0707606E-3,5.9488406E0,8.13776E-3,2.4122967E-1,-2.3550621E4,2.1876218E0,-7.892701E-3,2.7438821E-3,1.7531573E0,-8.411796E4,6.933214E-4,2.2692934E-3,-9.790097E-4,4.182651E-4,-7.096214E-4,8.438993E-4,2.230057E-4,-6.952943E-4,-2.4245898E-3,-2.2015478E-5,2.0412868E-4,-1.2625055E-3,5.831198E-5,1.9564067E-3,-2.6795367E-4,1.0310704E-3,-5.7818316E-4,2.8336424E-4,2.4284795E-4,2.761557E-3,1.6311787E-6,3.0986848E-4,-7.0607394E-4,-4.957795E-5],"split_indices":[187,265,176,11,405,583,606,0,55,639,528,144,583,559,551,506,116,275,0,0,579,110,591,243,493,143,253,383,595,0,0,0,0,0,0,0,0,0,0,0,0,0,0,0,0,0,0,0,0,0,0,0,0],"split_type":[0,0,0,0,0,0,0,0,0,0,0,0,0,0,0,0,0,0,0,0,0,0,0,0,0,0,0,0,0,0,0,0,0,0,0,0,0,0,0,0,0,0,0,0,0,0,0,0,0,0,0,0,0],"sum_hessian":[3.495E4,2.74E2,3.4676E4,6.2E1,2.12E2,2.48E2,3.4428E4,2E0,6E1,1.9E1,1.93E2,2.8E1,2.2E2,2.65E2,3.4163E4,1.5E1,4.5E1,1.5E1,4E0,4E0,1.89E2,1.1E1,1.7E1,1.6E1,2.04E2,2.51E2,1.4E1,3.1846E4,2.317E3,1E1,5E0,6E0,3.9E1,1.2E1,3E0,1.61E2,2.8E1,1E1,1E0,1.3E1,4E0,8E0,8E0,1.94E2,1E1,4.2E1,2.09E2,8E0,6E0,3.1667E4,1.79E2,8E1,2.237E3],"tree_param":{"num_deleted":"0","num_feature":"660","num_nodes":"53","size_leaf_vector":"1"}},{"base_weights":[-1.1610189E-6,2.8358592E-4,-1.00175705E-4,4.2207586E-3,2.3807086E-4,-1.1303404E-3,-4.107827E-5,1.9569695E-3,2.1224746E-2,-1.9622094E-3,3.316829E-4,-1.2499852E-3,2.2977183E-2,-7.493526E-5,2.4417897E-3,-7.493096E-4,1.0601917E-2,5.3790403E-3,3.6173947E-2,-1.5950697E-3,-2.360236E-2,2.1606321E-4,2.2133952E-3,-8.1297033E-4,-7.922793E-3,3.6188175E-3,4.0218933E-3,-4.149502E-5,-2.471462E-3,1.28502445E-2,1.3581101E-3,1.3829444E-3,-2.3078013E-4,-1.132402E-3,1.3360712E-3,4.8703852E-5,8.9262816E-4,4.2458787E-3,1.5736175E-3,-6.381571E-5,-9.905549E-4,-2.4416386E-5,-2.822517E-3,2.825413E-5,-2.7120364E-4,1.925317E-4,2.2021504E-3,-2.0058216E-3,-7.095126E-5,-1.7386305E-3,6.8430956E-5,1.2383548E-5,7.8580336E-4,1.9165107E-4,-7.988551E-6,-5.801157E-3,-2.1294388E-4,3.6682354E-3,4.3707815E-4,5.686475E-5,9.655961E-4],"categories":[],"categories_nodes":[],"categories_segments":[],"categories_sizes":[],"default_left":[0,0,0,0,0,0,0,0,0,0,0,0,0,0,0,0,0,0,0,0,0,0,0,0,0,0,0,0,0,0,0,0,0,0,0,0,0,0,0,0,0,0,0,0,0,0,0,0,0,0,0,0,0,0,0,0,0,0,0,0,0],"id":39,"left_children":[1,3,5,7,9,11,13,15,17,19,21,23,25,27,29,31,33,35,37,39,41,43,45,47,49,-1,51,53,55,57,59,-1,-1,-1,-1,-1,-1,-1,-1,-1,-1,-1,-1,-1,-1,-1,-1,-1,-1,-1,-1,-1,-1,-1,-1,-1,-1,-1,-1,-1,-1],"loss_changes":[9.854414E-4,1.615027E-3,1.5788178E-3,3.9232885E-3,1.8371039E-3,4.0869857E-3,2.0620667E-3,2.160343E-3,2.6479862E-3,2.854317E-3,1.860338E-3,4.0790373E-3,1.6073827E-3,1.9392158E-3,3.70476E-3,1.6450972E-3,1.4820588E-3,1.1712432E-4,1.0255072E-4,2.8485912E-3,6.409909E-4,1.5694863E-3,2.782211E-3,2.6060166E-3,7.0168898E-3,0E0,5.8840873E-5,1.794207E-3,6.2021357E-3,6.1042574E-3,1.959762E-3,0E0,0E0,0E0,0E0,0E0,0E0,0E0,0E0,0E0,0E0,0E0,0E0,0E0,0E0,0E0,0E0,0E0,0E0,0E0,0E0,0E0,0E0,0E0,0E0,0E0,0E0,0E0,0E0,0E0,0E0],"parents":[2147483647,0,0,1,1,2,2,3,3,4,4,5,5,6,6,7,7,8,8,9,9,10,10,11,11,12,12,13,13,14,14,15,15,16,16,17,17,18,18,19,19,20,20,21,21,22,22,23,23,24,24,26,26,27,27,28,28,29,29,30,30],"right_children":[2,4,6,8,10,12,14,16,18,20,22,24,26,28,30,32,34,36,38,40,42,44,46,48,50,-1,52,54,56,58,60,-1,-1,-1,-1,-1,-1,-1,-1,-1,-1,-1,-1,-1,-1,-1,-1,-1,-1,-1,-1,-1,-1,-1,-1,-1,-1,-1,-1,-1,-1],"split_conditions":[-7.185444E3,-9.855334E4,-1.3300536E-2,4.505086E-1,-5.4871805E4,1.556674E5,2.4179492E-2,3.8612044E-1,-5.737394E3,1.13467586E5,3.9579992E4,4.2095438E4,-6.2347874E-3,9.850298E-1,-5.468157E4,-1.2270093E-2,-1.7778246E-2,1.8438848E0,6.234898E-1,9.0616566E-1,-4.1474197E-2,1.239635E0,1.556674E5,1.9433186E1,-6.110134E-2,3.6188175E-3,-3.265309E-3,-2.454133E0,6.300093E-3,4.4385063E1,1.8136699E-2,1.3829444E-3,-2.3078013E-4,-1.132402E-3,1.3360712E-3,4.8703852E-5,8.9262816E-4,4.2458787E-3,1.5736175E-3,-6.381571E-5,-9.905549E-4,-2.4416386E-5,-2.822517E-3,2.825413E-5,-2.7120364E-4,1.925317E-4,2.2021504E-3,-2.0058216E-3,-7.095126E-5,-1.7386305E-3,6.8430956E-5,1.2383548E-5,7.8580336E-4,1.9165107E-4,-7.988551E-6,-5.801157E-3,-2.1294388E-4,3.6682354E-3,4.3707815E-4,5.686475E-5,9.655961E-4],"split_indices":[243,78,22,20,12,639,506,185,