{"learner":{"attributes":{"scikit_learn":"{\"_estimator_type\": \"regressor\"}"},"feature_names":[],"feature_types":[],"gradient_booster":{"model":{"cats":{"enc":[],"feature_segments":[],"sorted_idx":[]},"gbtree_model_param":{"num_parallel_tree":"1","num_trees":"100"},"iteration_indptr":[0,1,2,3,4,5,6,7,8,9,10,11,12,13,14,15,16,17,18,19,20,21,22,23,24,25,26,27,28,29,30,31,32,33,34,35,36,37,38,39,40,41,42,43,44,45,46,47,48,49,50,51,52,53,54,55,56,57,58,59,60,61,62,63,64,65,66,67,68,69,70,71,72,73,74,75,76,77,78,79,80,81,82,83,84,85,86,87,88,89,90,91,92,93,94,95,96,97,98,99,100],"tree_info":[0,0,0,0,0,0,0,0,0,0,0,0,0,0,0,0,0,0,0,0,0,0,0,0,0,0,0,0,0,0,0,0,0,0,0,0,0,0,0,0,0,0,0,0,0,0,0,0,0,0,0,0,0,0,0,0,0,0,0,0,0,0,0,0,0,0,0,0,0,0,0,0,0,0,0,0,0,0,0,0,0,0,0,0,0,0,0,0,0,0,0,0,0,0,0,0,0,0,0,0],"trees":[{"base_weights":[-9.620409E-11,9.2665E-5,-2.2332288E-2,2.7784126E-2,2.867957E-5,-1.473245E-2,-7.944789E-2,4.595202E-2,4.731442E-4,-1.2368425E-2,1.3263518E-4,-3.6339585E-2,1.1291667E-3,-1.9642457E-3,-9.283555E-3,8.8242255E-4,5.734748E-2,-1.8717963E-3,1.3188358E-2,-4.3256283E-3,-5.657615E-2,1.1055654E-2,1.8222227E-5,-4.865897E-2,6.6236183E-3,1.8780224E-2,-1.2203223E-2,1.3419023E-3,6.116116E-3,2.1063419E-4,1.4983494E-3,2.3543073E-3,-1.1484978E-3,-8.810086E-3,-1.5622086E-3,-2.5114766E-3,1.3053259E-3,3.3537774E-5,-2.452133E-4,-5.9625446E-3,-2.357411E-3,1.0317237E-3,-2.2286177E-4,4.5110533E-4,3.5488922E-3,1.3501968E-4,-1.9148708E-3],"categories":[],"categories_nodes":[],"categories_segments":[],"categories_sizes":[],"default_left":[0,0,0,0,0,0,0,0,0,0,0,0,0,0,0,0,0,0,0,0,0,0,0,0,0,0,0,0,0,0,0,0,0,0,0,0,0,0,0,0,0,0,0,0,0,0,0],"id":0,"left_children":[1,3,5,7,9,11,13,15,17,19,21,23,25,-1,-1,-1,27,-1,29,31,33,35,37,39,41,43,45,-1,-1,-1,-1,-1,-1,-1,-1,-1,-1,-1,-1,-1,-1,-1,-1,-1,-1,-1,-1],"loss_changes":[1.802882E-2,1.5371776E-2,1.4456032E-2,9.9019185E-3,1.1158337E-2,1.1350927E-2,1.3791025E-3,4.571013E-3,2.4430307E-3,2.5355142E-2,1.0730022E-2,7.732222E-3,4.935794E-3,0E0,0E0,0E0,6.870385E-4,0E0,8.780195E-5,1.2640743E-2,1.2825392E-2,6.7584543E-3,6.658892E-3,1.6204007E-3,1.5378032E-4,1.9856812E-3,1.1554753E-3,0E0,0E0,0E0,0E0,0E0,0E0,0E0,0E0,0E0,0E0,0E0,0E0,0E0,0E0,0E0,0E0,0E0,0E0,0E0,0E0],"parents":[2147483647,0,0,1,1,2,2,3,3,4,4,5,5,6,6,7,7,8,8,9,9,10,10,11,11,12,12,16,16,18,18,19,19,20,20,21,21,22,22,23,23,24,24,25,25,26,26],"right_children":[2,4,6,8,10,12,14,16,18,20,22,24,26,-1,-1,-1,28,-1,30,32,34,36,38,40,42,44,46,-1,-1,-1,-1,-1,-1,-1,-1,-1,-1,-1,-1,-1,-1,-1,-1,-1,-1,-1,-1],"split_conditions":[2.1357004E1,-1.388234E1,4.3607473E-2,-7.851566E-2,-9.316563E0,-1.8802397E-2,-3.7901347E5,-2.6455366E5,-1.571093E5,1.7636477E1,-5.508444E-2,1.3257065E-2,-1.6233675E-2,-1.9642457E-3,-9.283555E-3,8.8242255E-4,-5E-1,-1.8717963E-3,1.7636477E1,-5.508444E-2,-2.901661E-3,-1.9460415E0,1.7268008E-2,1.3262226E-2,1.701738E5,2.6928273E-3,-1.9944817E-2,1.3419023E-3,6.116116E-3,2.1063419E-4,1.4983494E-3,2.3543073E-3,-1.1484978E-3,-8.810086E-3,-1.5622086E-3,-2.5114766E-3,1.3053259E-3,3.3537774E-5,-2.452133E-4,-5.9625446E-3,-2.357411E-3,1.0317237E-3,-2.2286177E-4,4.5110533E-4,3.5488922E-3,1.3501968E-4,-1.9148708E-3],"split_indices":[227,305,242,185,175,88,1,23,12,260,121,286,286,0,0,0,14,0,7,66,44,75,198,143,1,0,275,0,0,0,0,0,0,0,0,0,0,0,0,0,0,0,0,0,0,0,0],"split_type":[0,0,0,0,0,0,0,0,0,0,0,0,0,0,0,0,0,0,0,0,0,0,0,0,0,0,0,0,0,0,0,0,0,0,0,0,0,0,0,0,0,0,0,0,0,0,0],"sum_hessian":[8.71E3,8.675E3,3.5E1,1.9E1,8.656E3,3.2E1,3E0,1.1E1,8E0,7.1E1,8.585E3,1.3E1,1.9E1,1E0,2E0,3E0,8E0,3E0,5E0,6.1E1,1E1,8.8E1,8.497E3,1E1,3E0,8E0,1.1E1,1E0,7E0,1E0,4E0,1.2E1,4.9E1,5E0,5E0,4E0,8.4E1,7.531E3,9.66E2,6E0,4E0,2E0,1E0,5E0,3E0,4E0,7E0],"tree_param":{"num_deleted":"0","num_feature":"330","num_nodes":"47","size_leaf_vector":"1"}},{"base_weights":[-2.1749022E-6,8.312117E-5,-2.0558469E-2,2.5414595E-2,2.458905E-5,-1.3419537E-2,-7.431505E-2,4.2051855E-2,4.077394E-4,-1.1258895E-2,1.1920659E-4,-3.3242133E-2,1.1272576E-3,-1.8660333E-3,-8.664651E-3,8.1624085E-4,5.2441403E-2,-1.7314116E-3,1.2154353E-2,-3.8736165E-3,-5.186147E-2,9.936536E-3,1.6375157E-5,-4.454943E-2,6.1634723E-3,1.7346645E-2,-1.1131221E-2,5.8516106E-3,2.078664E-3,1.5123585E-3,4.1439253E-4,4.295141E-4,-2.762724E-3,-8.196543E-4,-7.564192E-3,6.4181484E-4,3.1978015E-3,-1.4633589E-3,6.6532484E-6,-5.4514697E-3,-2.168818E-3,9.629421E-4,-2.1171868E-4,4.135132E-4,3.2827256E-3,1.2421807E-4,-1.7473195E-3],"categories":[],"categories_nodes":[],"categories_segments":[],"categories_sizes":[],"default_left":[0,0,0,0,0,0,0,0,0,0,0,0,0,0,0,0,0,0,0,0,0,0,0,0,0,0,0,0,0,0,0,0,0,0,0,0,0,0,0,0,0,0,0,0,0,0,0],"id":1,"left_children":[1,3,5,7,9,11,13,15,17,19,21,23,25,-1,-1,-1,27,-1,29,31,33,35,37,39,41,43,45,-1,-1,-1,-1,-1,-1,-1,-1,-1,-1,-1,-1,-1,-1,-1,-1,-1,-1,-1,-1],"loss_changes":[1.5275326E-2,1.2863325E-2,1.2818253E-2,8.303763E-3,9.2436895E-3,9.553194E-3,1.1283644E-3,3.7971046E-3,2.083988E-3,2.1389121E-2,8.667663E-3,6.512571E-3,4.1695894E-3,0E0,0E0,0E0,5.1428564E-4,0E0,8.003792E-5,1.2148993E-2,1.0802088E-2,6.696753E-3,6.2453304E-3,1.3236776E-3,1.3518865E-4,1.7049552E-3,9.6336636E-4,0E0,0E0,0E0,0E0,0E0,0E0,0E0,0E0,0E0,0E0,0E0,0E0,0E0,0E0,0E0,0E0,0E0,0E0,0E0,0E0],"parents":[2147483647,0,0,1,1,2,2,3,3,4,4,5,5,6,6,7,7,8,8,9,9,10,10,11,11,12,12,16,16,18,18,19,19,20,20,21,21,22,22,23,23,24,24,25,25,26,26],"right_children":[2,4,6,8,10,12,14,16,18,20,22,24,26,-1,-1,-1,28,-1,30,32,34,36,38,40,42,44,46,-1,-1,-1,-1,-1,-1,-1,-1,-1,-1,-1,-1,-1,-1,-1,-1,-1,-1,-1,-1],"split_conditions":[2.1357004E1,-1.388234E1,4.3607473E-2,-7.851566E-2,-9.316563E0,-1.8802397E-2,-3.7901347E5,-2.6455366E5,-1.571093E5,1.7636477E1,-5.508444E-2,1.3257065E-2,-1.6233675E-2,-1.8660333E-3,-8.664651E-3,8.1624085E-4,3.962041E1,-1.7314116E-3,3.962041E1,9.434137E4,-3.5784092E3,3.534568E-2,-4.6716788E5,1.3262226E-2,1.701738E5,2.6928273E-3,-1.9944817E-2,5.8516106E-3,2.078664E-3,1.5123585E-3,4.1439253E-4,4.295141E-4,-2.762724E-3,-8.196543E-4,-7.564192E-3,6.4181484E-4,3.1978015E-3,-1.4633589E-3,6.6532484E-6,-5.4514697E-3,-2.168818E-3,9.629421E-4,-2.1171868E-4,4.135132E-4,3.2827256E-3,1.2421807E-4,-1.7473195E-3],"split_indices":[227,305,242,185,175,88,1,23,12,260,121,286,286,0,0,0,39,0,17,12,210,33,122,143,1,0,275,0,0,0,0,0,0,0,0,0,0,0,0,0,0,0,0,0,0,0,0],"split_type":[0,0,0,0,0,0,0,0,0,0,0,0,0,0,0,0,0,0,0,0,0,0,0,0,0,0,0,0,0,0,0,0,0,0,0,0,0,0,0,0,0,0,0,0,0,0,0],"sum_hessian":[8.71E3,8.675E3,3.5E1,1.9E1,8.656E3,3.2E1,3E0,1.1E1,8E0,7.1E1,8.585E3,1.3E1,1.9E1,1E0,2E0,3E0,8E0,3E0,5E0,6.1E1,1E1,8.8E1,8.497E3,1E1,3E0,8E0,1.1E1,6E0,2E0,3E0,2E0,4.6E1,1.5E1,4E0,6E0,7.7E1,1.1E1,2.8E1,8.469E3,6E0,4E0,2E0,1E0,5E0,3E0,4E0,7E0],"tree_param":{"num_deleted":"0","num_feature":"330","num_nodes":"47","size_leaf_vector":"1"}},{"base_weights":[-3.6471645E-6,7.487904E-5,-1.8928362E-2,2.332023E-2,2.1167376E-5,-1.2222914E-2,-6.951621E-2,3.8575545E-2,3.886704E-4,-1.0281853E-2,1.07563406E-4,-3.0408567E-2,1.1181887E-3,-1.7727315E-3,-8.087007E-3,7.5502275E-4,4.8078403E-2,-1.6015556E-3,1.1260043E-2,-2.8116244E-3,-4.396892E-2,5.863001E-3,-4.16645E-5,-4.0787242E-2,5.7349307E-3,1.6022675E-2,-1.0153358E-2,1.170874E-3,5.1161023E-3,1.3989316E-3,3.8676642E-4,8.4646315E-5,-5.4236464E-3,1.1364239E-4,-7.2301812E-3,4.953546E-3,4.8103003E-4,1.1910064E-5,-4.3222305E-4,-4.9842005E-3,-1.9953125E-3,8.9874596E-4,-2.0113276E-4,2.5132967E-3,-1.6484338E-4,1.14280636E-4,-1.5944291E-3],"categories":[],"categories_nodes":[],"categories_segments":[],"categories_sizes":[],"default_left":[0,0,0,0,0,0,0,0,0,0,0,0,0,0,0,0,0,0,0,0,0,0,0,0,0,0,0,0,0,0,0,0,0,0,0,0,0,0,0,0,0,0,0,0,0,0,0],"id":2,"left_children":[1,3,5,7,9,11,13,15,17,19,21,23,25,-1,-1,-1,27,-1,29,31,33,35,37,39,41,43,45,-1,-1,-1,-1,-1,-1,-1,-1,-1,-1,-1,-1,-1,-1,-1,-1,-1,-1,-1,-1],"loss_changes":[1.2946712E-2,1.0831895E-2,1.1362022E-2,6.9815703E-3,7.7070487E-3,8.040352E-3,9.18407E-4,3.1749476E-3,1.7853641E-3,1.7995182E-2,7.374519E-3,5.4856166E-3,3.5226159E-3,0E0,0E0,0E0,4.099924E-4,0E0,6.694894E-5,1.1332903E-2,1.669571E-2,9.738087E-3,5.7604625E-3,1.0806248E-3,1.1885642E-4,1.4903306E-3,8.0320507E-4,0E0,0E0,0E0,0E0,0E0,0E0,0E0,0E0,0E0,0E0,0E0,0E0,0E0,0E0,0E0,0E0,0E0,0E0,0E0,0E0],"parents":[2147483647,0,0,1,1,2,2,3,3,4,4,5,5,6,6,7,7,8,8,9,9,10,10,11,11,12,12,16,16,18,18,19,19,20,20,21,21,22,22,23,23,24,24,25,25,26,26],"right_children":[2,4,6,8,10,12,14,16,18,20,22,24,26,-1,-1,-1,28,-1,30,32,34,36,38,40,42,44,46,-1,-1,-1,-1,-1,-1,-1,-1,-1,-1,-1,-1,-1,-1,-1,-1,-1,-1,-1,-1],"split_conditions":[2.1357004E1,-1.388234E1,4.3607473E-2,-7.851566E-2,-9.316563E0,-1.8802397E-2,-3.7901347E5,-2.6455366E5,-1.571093E5,1.7636477E1,-3.8763214E-2,1.3257065E-2,-1.6233675E-2,-1.7727315E-3,-8.087007E-3,7.5502275E-4,-5E-1,-1.6015556E-3,3.962041E1,-6.3722725E0,-3.5784092E3,-4.954786E-2,3.2485455E-2,1.3262226E-2,1.701738E5,1.9556765E-2,-1.9944817E-2,1.170874E-3,5.1161023E-3,1.3989316E-3,3.8676642E-4,8.4646315E-5,-5.4236464E-3,1.1364239E-4,-7.2301812E-3,4.953546E-3,4.8103003E-4,1.1910064E-5,-4.3222305E-4,-4.9842005E-3,-1.9953125E-3,8.9874596E-4,-2.0113276E-4,2.5132967E-3,-1.6484338E-4,1.14280636E-4,-1.5944291E-3],"split_indices":[227,305,242,185,175,88,1,23,12,249,121,286,286,0,0,0,14,0,17,184,210,231,198,143,1,33,275,0,0,0,0,0,0,0,0,0,0,0,0,0,0,0,0,0,0,0,0],"split_type":[0,0,0,0,0,0,0,0,0,0,0,0,0,0,0,0,0,0,0,0,0,0,0,0,0,0,0,0,0,0,0,0,0,0,0,0,0,0,0,0,0,0,0,0,0,0,0],"sum_hessian":[8.71E3,8.675E3,3.5E1,1.9E1,8.656E3,3.2E1,3E0,1.1E1,8E0,7.1E1,8.585E3,1.3E1,1.9E1,1E0,2E0,3E0,8E0,3E0,5E0,5.9E1,1.2E1,2.16E2,8.369E3,1E1,3E0,8E0,1.1E1,1E0,7E0,3E0,2E0,5.6E1,3E0,5E0,7E0,4E0,2.12E2,8.067E3,3.02E2,6E0,4E0,2E0,1E0,5E0,3E0,4E0,7E0],"tree_param":{"num_deleted":"0","num_feature":"330","num_nodes":"47","size_leaf_vector":"1"}},{"base_weights":[-5.060406E-6,6.736642E-5,-1.7459786E-2,2.1349514E-2,1.8191153E-5,-1.1164671E-2,-6.502953E-2,3.5304826E-2,3.7026333E-4,-7.974456E-3,1.14418435E-4,-2.7816419E-2,1.049785E-3,-1.684095E-3,-7.547874E-3,6.9839605E-3,4.3969117E-2,-1.481439E-3,1.0431655E-2,-2.6272067E-3,-3.688592E-2,1.5208057E-2,6.484805E-5,-3.7343018E-2,5.335841E-3,-4.0130992E-3,3.1077163E-3,7.925438E-4,2.0797644E-4,4.9115205E-3,1.7305205E-3,1.4390082E-3,4.8549214E-4,-3.3656426E-5,-5.064656E-3,-5.386835E-3,1.124909E-3,6.4108944E-3,4.3867037E-4,8.564877E-6,-3.5409199E-3,-4.5569832E-3,-1.8356874E-3,8.388296E-4,-1.9107612E-4,-1.3671166E-3,5.0804706E-4],"categories":[],"categories_nodes":[],"categories_segments":[],"categories_sizes":[],"default_left":[0,0,0,0,0,0,0,0,0,0,0,0,0,0,0,0,0,0,0,0,0,0,0,0,0,0,0,0,0,0,0,0,0,0,0,0,0,0,0,0,0,0,0,0,0,0,0],"id":3,"left_children":[1,3,5,7,9,11,13,15,17,19,21,23,25,-1,-1,27,29,-1,31,33,35,37,39,41,43,45,-1,-1,-1,-1,-1,-1,-1,-1,-1,-1,-1,-1,-1,-1,-1,-1,-1,-1,-1,-1,-1],"loss_changes":[1.1013538E-2,9.079525E-3,1.0054418E-2,5.842367E-3,6.659104E-3,6.741138E-3,7.429961E-4,2.637485E-3,1.5295473E-3,1.5826564E-2,6.3998443E-3,4.620853E-3,3.1652183E-3,0E0,0E0,1.9857107E-6,3.8498454E-4,0E0,6.258779E-5,9.6625285E-3,1.3685159E-2,1.453564E-2,6.2957234E-3,8.8163186E-4,1.0450772E-4,1.6503293E-3,0E0,0E0,0E0,0E0,0E0,0E0,0E0,0E0,0E0,0E0,0E0,0E0,0E0,0E0,0E0,0E0,0E0,0E0,0E0,0E0,0E0],"parents":[2147483647,0,0,1,1,2,2,3,3,4,4,5,5,6,6,7,7,8,8,9,9,10,10,11,11,12,12,15,15,16,16,18,18,19,19,20,20,21,21,22,22,23,23,24,24,25,25],"right_children":[2,4,6,8,10,12,14,16,18,20,22,24,26,-1,-1,28,30,-1,32,34,36,38,40,42,44,46,-1,-1,-1,-1,-1,-1,-1,-1,-1,-1,-1,-1,-1,-1,-1,-1,-1,-1,-1,-1,-1],"split_conditions":[2.1357004E1,-1.388234E1,4.3607473E-2,-7.851566E-2,-7.956759E0,-1.8802397E-2,-3.7901347E5,-2.6455366E5,-1.571093E5,1.7636477E1,-4.9450264E0,1.3257065E-2,3.3840846E-2,-1.684095E-3,-7.547874E-3,-8.211169E-2,3.962041E1,-1.481439E-3,-4.6716788E5,1.1462064E0,2.532717E-2,2.7229975E1,2.1357004E1,1.3262226E-2,1.701738E5,9.753819E4,3.1077163E-3,7.925438E-4,2.0797644E-4,4.9115205E-3,1.7305205E-3,1.4390082E-3,4.8549214E-4,-3.3656426E-5,-5.064656E-3,-5.386835E-3,1.124909E-3,6.4108944E-3,4.3867037E-4,8.564877E-6,-3.5409199E-3,-4.5569832E-3,-1.8356874E-3,8.388296E-4,-1.9107612E-4,-1.3671166E-3,5.0804706E-4],"split_indices":[227,305,242,185,186,88,1,23,12,249,317,286,44,0,0,0,39,0,1,75,275,325,106,143,1,111,0,0,0,0,0,0,0,0,0,0,0,0,0,0,0,0,0,0,0,0,0],"split_type":[0,0,0,0,0,0,0,0,0,0,0,0,0,0,0,0,0,0,0,0,0,0,0,0,0,0,0,0,0,0,0,0,0,0,0,0,0,0,0,0,0,0,0,0,0,0,0],"sum_hessian":[8.71E3,8.675E3,3.5E1,1.9E1,8.656E3,3.2E1,3E0,1.1E1,8E0,1.02E2,8.554E3,1.3E1,1.9E1,1E0,2E0,3E0,8E0,3E0,5E0,8.7E1,1.5E1,2.7E1,8.527E3,1E1,3E0,1.7E1,2E0,2E0,1E0,6E0,2E0,2E0,3E0,8.4E1,3E0,1.1E1,4E0,4E0,2.3E1,8.523E3,4E0,6E0,4E0,2E0,1E0,8E0,9E0],"tree_param":{"num_deleted":"0","num_feature":"330","num_nodes":"47","size_leaf_vector":"1"}},{"base_weights":[-5.7810157E-6,6.086524E-5,-1.6067369E-2,1.9618843E-2,1.5674017E-5,-1.0154151E-2,-6.0834564E-2,3.241122E-2,3.8246618E-4,1.4353512E-4,-5.3098495E-3,-2.5445128E-2,1.0572388E-3,-1.5998902E-3,-7.044682E-3,6.5356945E-3,4.031021E-2,-1.3703312E-3,9.70924E-3,8.840092E-3,5.5212226E-5,-2.9127218E-3,-4.32214E-2,-3.418987E-2,4.9641947E-3,-3.6595154E-3,2.900535E-3,7.3970755E-4,1.9757762E-4,4.4905334E-3,1.6151526E-3,1.3430743E-3,4.4908022E-4,2.8850138E-4,2.685152E-3,-2.183924E-3,8.663306E-6,-9.241042E-5,-5.5337036E-3,-6.4352304E-3,-7.676776E-5,-4.1663847E-3,-1.6888324E-3,7.829075E-4,-1.8152232E-4,-1.245595E-3,4.623228E-4],"categories":[],"categories_nodes":[],"categories_segments":[],"categories_sizes":[],"default_left":[0,0,0,0,0,0,0,0,0,0,0,0,0,0,0,0,0,0,0,0,0,0,0,0,0,0,0,0,0,0,0,0,0,0,0,0,0,0,0,0,0,0,0,0,0,0,0],"id":4,"left_children":[1,3,5,7,9,11,13,15,17,19,21,23,25,-1,-1,27,29,-1,31,33,35,37,39,41,43,45,-1,-1,-1,-1,-1,-1,-1,-1,-1,-1,-1,-1,-1,-1,-1,-1,-1,-1,-1,-1,-1],"loss_changes":[9.325621E-3,7.6679657E-3,8.91213E-3,4.9091857E-3,5.8955494E-3,5.6841937E-3,5.968157E-4,2.189231E-3,1.3154224E-3,6.4938404E-3,1.8322509E-2,3.8926285E-3,2.7426332E-3,0E0,0E0,1.0963267E-6,2.7381908E-4,0E0,5.620782E-5,9.039586E-3,5.760654E-3,1.9965231E-2,1.0715621E-2,7.1879383E-4,9.190039E-5,1.3690419E-3,0E0,0E0,0E0,0E0,0E0,0E0,0E0,0E0,0E0,0E0,0E0,0E0,0E0,0E0,0E0,0E0,0E0,0E0,0E0,0E0,0E0],"parents":[2147483647,0,0,1,1,2,2,3,3,4,4,5,5,6,6,7,7,8,8,9,9,10,10,11,11,12,12,15,15,16,16,18,18,19,19,20,20,21,21,22,22,23,23,24,24,25,25],"right_children":[2,4,6,8,10,12,14,16,18,20,22,24,26,-1,-1,28,30,-1,32,34,36,38,40,42,44,46,-1,-1,-1,-1,-1,-1,-1,-1,-1,-1,-1,-1,-1,-1,-1,-1,-1,-1,-1,-1,-1],"split_conditions":[2.1357004E1,-1.388234E1,4.3607473E-2,-7.851566E-2,1.9375471E0,-1.8802397E-2,-3.7901347E5,-2.6455366E5,-1.571093E5,-5.508444E-2,1.7636477E1,1.3257065E-2,3.3840846E-2,-1.5998902E-3,-7.044682E-3,-8.211169E-2,3.962041E1,-1.3703312E-3,-4.6716788E5,6.0850035E4,-1.0416305E1,1.3730776E0,9.753819E4,1.3262226E-2,1.701738E5,9.753819E4,2.900535E-3,7.3970755E-4,1.9757762E-4,4.4905334E-3,1.6151526E-3,1.3430743E-3,4.4908022E-4,2.8850138E-4,2.685152E-3,-2.183924E-3,8.663306E-6,-9.241042E-5,-5.5337036E-3,-6.4352304E-3,-7.676776E-5,-4.1663847E-3,-1.6888324E-3,7.829075E-4,-1.8152232E-4,-1.245595E-3,4.623228E-4],"split_indices":[227,305,242,185,295,88,1,23,12,121,260,286,44,0,0,0,39,0,1,320,241,75,254,143,1,111,0,0,0,0,0,0,0,0,0,0,0,0,0,0,0,0,0,0,0,0,0],"split_type":[0,0,0,0,0,0,0,0,0,0,0,0,0,0,0,0,0,0,0,0,0,0,0,0,0,0,0,0,0,0,0,0,0,0,0,0,0,0,0,0,0,0,0,0,0,0,0],"sum_hessian":[8.71E3,8.675E3,3.5E1,1.9E1,8.656E3,3.2E1,3E0,1.1E1,8E0,8.454E3,2.02E2,1.3E1,1.9E1,1E0,2E0,3E0,8E0,3E0,5E0,8.4E1,8.37E3,1.91E2,1.1E1,1E1,3E0,1.7E1,2E0,2E0,1E0,6E0,2E0,2E0,3E0,6.4E1,2E1,1.1E1,8.359E3,1.85E2,6E0,7E0,4E0,6E0,4E0,2E0,1E0,8E0,9E0],"tree_param":{"num_deleted":"0","num_feature":"330","num_nodes":"47","size_leaf_vector":"1"}},{"base_weights":[-7.000057E-6,5.4332224E-5,-1.4787885E-2,1.97369E-6,1.5143996E-2,-9.233784E-3,-5.691225E-2,-4.246294E-2,3.145616E-5,2.7644863E-2,-1.2622226E-2,-2.3275888E-2,1.0573779E-3,-1.5198957E-3,-6.575037E-3,-1.3582556E-3,-6.681581E-3,8.052847E-3,-5.484947E-5,4.6479753E-3,9.645386E-3,-3.2012824E-2,2.4466878E-2,-3.1303175E-2,4.618122E-3,-3.3370792E-3,2.7071661E-3,3.2405287E-4,2.4168757E-3,-2.4749554E-6,-2.5760715E-3,1.4406128E-3,-2.136139E-3,-1.4372208E-3,-4.165023E-3,2.0834418E-4,3.1233542E-3,-3.6600647E-3,-1.2882436E-3,7.307137E-4,-1.724462E-4,-1.1348756E-3,4.207138E-4],"categories":[],"categories_nodes":[],"categories_segments":[],"categories_sizes":[],"default_left":[0,0,0,0,0,0,0,0,0,0,0,0,0,0,0,0,0,0,0,0,0,0,0,0,0,0,0,0,0,0,0,0,0,0,0,0,0,0,0,0,0,0,0],"id":5,"left_children":[1,3,5,7,9,11,13,15,17,19,21,23,25,-1,-1,-1,-1,27,29,-1,31,33,35,37,39,41,-1,-1,-1,-1,-1,-1,-1,-1,-1,-1,-1,-1,-1,-1,-1,-1,-1],"loss_changes":[7.897721E-3,6.854641E-3,7.897153E-3,1.0827126E-2,1.0761997E-2,4.793427E-3,4.7533028E-4,3.3123903E-3,5.9832227E-3,6.6710673E-3,7.975053E-3,3.2793465E-3,2.376713E-3,0E0,0E0,0E0,0E0,7.056731E-3,6.6156504E-3,0E0,2.079118E-3,5.914625E-4,5.407715E-4,6.019119E-4,8.082211E-5,1.1356986E-3,0E0,0E0,0E0,0E0,0E0,0E0,0E0,0E0,0E0,0E0,0E0,0E0,0E0,0E0,0E0,0E0,0E0],"parents":[2147483647,0,0,1,1,2,2,3,3,4,4,5,5,6,6,7,7,8,8,9,9,10,10,11,11,12,12,17,17,18,18,20,20,21,21,22,22,23,23,24,24,25,25],"right_children":[2,4,6,8,10,12,14,16,18,20,22,24,26,-1,-1,-1,-1,28,30,-1,32,34,36,38,40,42,-1,-1,-1,-1,-1,-1,-1,-1,-1,-1,-1,-1,-1,-1,-1,-1,-1],"split_conditions":[2.1357004E1,2.1357004E1,4.3607473E-2,-1.388234E1,4.48899E4,-1.8802397E-2,-3.7901347E5,4.5006794E1,-5.508444E-2,-1.8808188E-2,7.6777884E-3,1.3257065E-2,3.3840846E-2,-1.5198957E-3,-6.575037E-3,-1.3582556E-3,-6.681581E-3,1.0475539E1,2.1357004E1,4.6479753E-3,-7.1776325E-1,-1.0323346E4,-2.4868067E-2,1.6468452E-2,1.701738E5,9.753819E4,2.7071661E-3,3.2405287E-4,2.4168757E-3,-2.4749554E-6,-2.5760715E-3,1.4406128E-3,-2.136139E-3,-1.4372208E-3,-4.165023E-3,2.0834418E-4,3.1233542E-3,-3.6600647E-3,-1.2882436E-3,7.307137E-4,-1.724462E-4,-1.1348756E-3,4.207138E-4],"split_indices":[227,51,242,217,122,88,1,6,121,297,187,286,44,0,0,0,0,40,106,0,42,78,0,143,1,111,0,0,0,0,0,0,0,0,0,0,0,0,0,0,0,0,0],"split_type":[0,0,0,0,0,0,0,0,0,0,0,0,0,0,0,0,0,0,0,0,0,0,0,0,0,0,0,0,0,0,0,0,0,0,0,0,0,0,0,0,0,0,0],"sum_hessian":[8.71E3,8.675E3,3.5E1,8.646E3,2.9E1,3.2E1,3E0,5E0,8.641E3,2E1,9E0,1.3E1,1.9E1,1E0,2E0,3E0,2E0,9.1E1,8.55E3,9E0,1.1E1,6E0,3E0,1E1,3E0,1.7E1,2E0,7.1E1,2E1,8.541E3,9E0,1E1,1E0,3E0,3E0,1E0,2E0,7E0,3E0,2E0,1E0,8E0,9E0],"tree_param":{"num_deleted":"0","num_feature":"330","num_nodes":"43","size_leaf_vector":"1"}},{"base_weights":[-8.216056E-6,4.818458E-5,-1.360054E-2,1.375723E-2,-7.342471E-6,-8.383043E-3,-5.324476E-2,5.4427024E-2,1.6459584E-3,1.1872461E-4,-5.2487156E-3,-3.4594988E-3,-3.574672E-3,-1.443901E-3,-6.1367005E-3,7.712251E-3,1.2450908E-2,-4.3878895E-3,6.83552E-3,2.4636894E-2,8.962955E-5,-3.6108992E-3,-5.0591737E-2,4.169309E-3,-1.6625669E-2,2.1444678E-3,-7.2652014E-4,3.3092347E-3,5.5735418E-5,3.63173E-3,-1.9630398E-4,2.498852E-6,9.4209117E-4,-3.490489E-3,-1.5725188E-4,-5.5101975E-3,-1.1765173E-3,1.789223E-3,-2.0097506E-4,-2.230671E-3,-1.1071726E-4],"categories":[],"categories_nodes":[],"categories_segments":[],"categories_sizes":[],"default_left":[0,0,0,0,0,0,0,0,0,0,0,0,0,0,0,0,0,0,0,0,0,0,0,0,0,0,0,0,0,0,0,0,0,0,0,0,0,0,0,0,0],"id":6,"left_children":[1,3,5,7,9,11,13,15,17,19,21,-1,23,-1,-1,-1,25,-1,27,29,31,33,35,37,39,-1,-1,-1,-1,-1,-1,-1,-1,-1,-1,-1,-1,-1,-1,-1,-1],"loss_changes":[6.6786446E-3,6.6044703E-3,7.0000174E-3,1.7150117E-2,5.7109506E-3,4.0355474E-3,3.7468038E-4,6.661102E-3,6.9150473E-3,6.018529E-3,1.489282E-2,0E0,3.0002508E-3,0E0,0E0,0E0,8.650886E-4,0E0,4.267518E-3,3.1782733E-3,5.0852066E-3,1.2511556E-2,5.775355E-4,1.6470591E-3,9.450761E-4,0E0,0E0,0E0,0E0,0E0,0E0,0E0,0E0,0E0,0E0,0E0,0E0,0E0,0E0,0E0,0E0],"parents":[2147483647,0,0,1,1,2,2,3,3,4,4,5,5,6,6,7,7,8,8,9,9,10,10,12,12,16,16,18,18,19,19,20,20,21,21,22,22,23,23,24,24],"right_children":[2,4,6,8,10,12,14,16,18,20,22,-1,24,-1,-1,-1,26,-1,28,30,32,34,36,38,40,-1,-1,-1,-1,-1,-1,-1,-1,-1,-1,-1,-1,-1,-1,-1,-1],"split_conditions":[2.1357004E1,-4.7811397E5,4.3607473E-2,-7.818315E-1,1.9375471E0,-2.2252093E-1,-3.7901347E5,1.2246469E-16,-3.4443546E-2,-1.388234E1,1.193189E0,-3.4594988E-3,1.1410751E5,-1.443901E-3,-6.1367005E-3,7.712251E-3,-1.242252E-2,-4.3878895E-3,-1.5703392E5,-3.2744053E4,1.0198103E1,-1.1731614E0,1.3730776E0,-2.7162982E-2,5.3810192E1,2.1444678E-3,-7.2652014E-4,3.3092347E-3,5.5735418E-5,3.63173E-3,-1.9630398E-4,2.498852E-6,9.4209117E-4,-3.490489E-3,-1.5725188E-4,-5.5101975E-3,-1.1765173E-3,1.789223E-3,-2.0097506E-4,-2.230671E-3,-1.1071726E-4],"split_indices":[227,309,242,125,295,126,1,2,187,52,75,0,155,0,0,0,0,0,45,155,153,229,9,143,116,0,0,0,0,0,0,0,0,0,0,0,0,0,0,0,0],"split_type":[0,0,0,0,0,0,0,0,0,0,0,0,0,0,0,0,0,0,0,0,0,0,0,0,0,0,0,0,0,0,0,0,0,0,0,0,0,0,0,0,0],"sum_hessian":[8.71E3,8.675E3,3.5E1,3.4E1,8.641E3,3.2E1,3E0,7E0,2.7E1,8.439E3,2.02E2,4E0,2.8E1,1E0,2E0,4E0,3E0,2E0,2.5E1,9E0,8.43E3,1.96E2,6E0,1.8E1,1E1,2E0,1E0,4E0,2.1E1,6E0,3E0,8.373E3,5.7E1,1.1E1,1.85E2,5E0,1E0,5E0,1.3E1,7E0,3E0],"tree_param":{"num_deleted":"0","num_feature":"330","num_nodes":"41","size_leaf_vector":"1"}},{"base_weights":[-8.500991E-6,-1.3198427E-2,4.6229972E-5,-7.0246354E-2,-7.776598E-3,9.7545824E-5,-1.2625708E-2,-8.387481E-3,-2.1494718E-3,-1.862011E-2,4.162213E-3,2.0560103E-3,-2.611842E-4,-3.9327215E-2,-4.5457873E-3,-9.76604E-3,-3.1138496E-2,-6.105466E-4,1.5738944E-2,1.5357056E-2,1.4195315E-3,-7.995157E-3,-9.7929005E-5,-5.7677813E-3,-5.830932E-3,-3.6905557E-3,8.1360736E-4,-1.6525949E-3,-2.576684E-4,-4.0329108E-4,-3.498394E-3,-7.3062704E-4,3.1771383E-4,1.8486647E-3,2.3740657E-4,4.1989437E-3,9.3116984E-4,-2.1797728E-3,1.749818E-4,-5.860058E-4,-8.499503E-3,2.5051406E-6,-7.762116E-4,-2.6131698E-4,-7.6158077E-4,-8.384033E-4,7.5043034E-4],"categories":[],"categories_nodes":[],"categories_segments":[],"categories_sizes":[],"default_left":[0,0,0,0,0,0,0,0,0,0,0,0,0,0,0,0,0,0,0,0,0,0,0,0,0,0,0,0,0,0,0,0,0,0,0,0,0,0,0,0,0,0,0,0,0,0,0],"id":7,"left_children":[1,3,5,7,9,11,13,-1,-1,15,17,19,21,23,25,27,29,31,33,35,37,39,41,43,-1,-1,45,-1,-1,-1,-1,-1,-1,-1,-1,-1,-1,-1,-1,-1,-1,-1,-1,-1,-1,-1,-1],"loss_changes":[6.2890584E-3,1.0588669E-2,5.642985E-3,1.9036327E-4,4.4790944E-3,6.0720607E-3,7.3723393E-3,0E0,0E0,1.6909954E-3,9.489096E-4,1.1305483E-2,9.222592E-3,4.759915E-3,4.8860325E-3,5.4061064E-4,5.885442E-4,3.5290982E-4,1.3972516E-4,9.430147E-3,9.838287E-3,2.4326682E-2,6.744103E-3,3.4178229E-6,0E0,0E0,1.6013818E-3,0E0,0E0,0E0,0E0,0E0,0E0,0E0,0E0,0E0,0E0,0E0,0E0,0E0,0E0,0E0,0E0,0E0,0E0,0E0,0E0],"parents":[2147483647,0,0,1,1,2,2,3,3,4,4,5,5,6,6,9,9,10,10,11,11,12,12,13,13,14,14,15,15,16,16,17,17,18,18,19,19,20,20,21,21,22,22,23,23,26,26],"right_children":[2,4,6,8,10,12,14,-1,-1,16,18,20,22,24,26,28,30,32,34,36,38,40,42,44,-1,-1,46,-1,-1,-1,-1,-1,-1,-1,-1,-1,-1,-1,-1,-1,-1,-1,-1,-1,-1,-1,-1],"split_conditions":[-4.6716788E5,-6.479558E-2,5.2287638E5,-9.395932E-3,2.8988328E-3,-5.607722E4,-2.7162982E-2,-8.387481E-3,-2.1494718E-3,6.907694E0,-1.1202456E4,-7.057025E0,-1.7281786E0,1.6399346E4,-1.0206751E0,-2.554018E4,5E-1,-4.1001676E4,1.2246469E-16,-4.576263E-2,-2.3840654E0,6.595252E1,4.3678816E-2,-3.594882E3,-5.830932E-3,-3.6905557E-3,-2.554018E4,-1.6525949E-3,-2.576684E-4,-4.0329108E-4,-3.498394E-3,-7.3062704E-4,3.1771383E-4,1.8486647E-3,2.3740657E-4,4.1989437E-3,9.3116984E-4,-2.1797728E-3,1.749818E-4,-5.860058E-4,-8.499503E-3,2.5051406E-6,-7.762116E-4,-2.6131698E-4,-7.6158077E-4,-8.384033E-4,7.5043034E-4],"split_indices":[122,286,199,0,11,309,187,0,0,84,155,316,317,78,130,166,3,210,2,319,64,248,121,1,0,0,177,0,0,0,0,0,0,0,0,0,0,0,0,0,0,0,0,0,0,0,0],"split_type":[0,0,0,0,0,0,0,0,0,0,0,0,0,0,0,0,0,0,0,0,0,0,0,0,0,0,0,0,0,0,0,0,0,0,0,0,0,0,0,0,0,0,0,0,0,0,0],"sum_hessian":[8.71E3,3.5E1,8.675E3,2E0,3.3E1,8.641E3,3.4E1,1E0,1E0,1.7E1,1.6E1,1.337E3,7.304E3,7E0,2.7E1,1.1E1,6E0,1.2E1,4E0,6E1,1.277E3,1.5E2,7.154E3,3E0,4E0,3E0,2.4E1,5E0,6E0,1E0,5E0,4E0,8E0,3E0,1E0,1E1,5E1,1.7E1,1.26E3,1.47E2,3E0,7.042E3,1.12E2,2E0,1E0,1E1,1.4E1],"tree_param":{"num_deleted":"0","num_feature":"330","num_nodes":"47","size_leaf_vector":"1"}},{"base_weights":[-1.1329167E-5,-1.2286244E-2,3.9605395E-5,-6.673403E-2,-7.120667E-3,-1.0580456E-5,1.2084504E-2,-7.968107E-3,-2.0419983E-3,-1.7080983E-2,3.8444125E-3,-9.722729E-3,5.9601807E-5,1.719937E-2,-1.1562707E-2,-1.1908511E-2,-3.8973843E-3,-5.812544E-4,1.4582264E-2,-3.322264E-2,-2.8100456E-3,1.2083587E-2,1.0350801E-5,9.190103E-3,3.0198092E-2,5.056034E-5,-2.0285298E-3,-4.536448E-4,-1.8713517E-3,3.4932452E-4,-5.9170445E-4,1.7100148E-3,2.2553622E-4,-5.2882405E-3,-1.1867521E-3,-7.355138E-4,2.5511242E-3,4.9280445E-3,1.02435755E-4,5.836467E-6,-1.1666919E-3,2.3206563E-3,1.5254362E-4,3.2706198E-3,2.5585268E-4,-2.2706563E-4,1.5811846E-4],"categories":[],"categories_nodes":[],"categories_segments":[],"categories_sizes":[],"default_left":[0,0,0,0,0,0,0,0,0,0,0,0,0,0,0,0,0,0,0,0,0,0,0,0,0,0,0,0,0,0,0,0,0,0,0,0,0,0,0,0,0,0,0,0,0,0,0],"id":8,"left_children":[1,3,5,7,9,11,13,-1,-1,15,17,19,21,23,25,27,-1,29,31,33,35,37,39,41,43,45,-1,-1,-1,-1,-1,-1,-1,-1,-1,-1,-1,-1,-1,-1,-1,-1,-1,-1,-1,-1,-1],"loss_changes":[5.446756E-3,9.649962E-3,5.244626E-3,1.71802E-4,3.7789987E-3,5.8904635E-3,4.5531536E-3,0E0,0E0,1.5742034E-3,8.1635255E-4,9.978386E-3,5.080894E-3,2.8457828E-3,7.1011E-4,7.17778E-4,0E0,3.0329844E-4,1.1662161E-4,5.25013E-3,6.4950595E-3,1.4347421E-2,4.7921753E-3,2.11323E-3,6.788736E-4,1.7801967E-5,0E0,0E0,0E0,0E0,0E0,0E0,0E0,0E0,0E0,0E0,0E0,0E0,0E0,0E0,0E0,0E0,0E0,0E0,0E0,0E0,0E0],"parents":[2147483647,0,0,1,1,2,2,3,3,4,4,5,5,6,6,9,9,10,10,11,11,12,12,13,13,14,14,15,15,17,17,18,18,19,19,20,20,21,21,22,22,23,23,24,24,25,25],"right_children":[2,4,6,8,10,12,14,-1,-1,16,18,20,22,24,26,28,-1,30,32,34,36,38,40,42,44,46,-1,-1,-1,-1,-1,-1,-1,-1,-1,-1,-1,-1,-1,-1,-1,-1,-1,-1,-1,-1,-1],"split_conditions":[-4.6716788E5,-6.479558E-2,7.299688E-2,-9.395932E-3,2.8988328E-3,-3.7901347E5,1.9124892E-2,-7.968107E-3,-2.0419983E-3,2.2903922E0,-1.1202456E4,-1.9303365E-2,-4.7811397E5,1.0923211E4,6.234898E-1,6.1814445E-3,-3.8973843E-3,-2.1001059E-3,1.2246469E-16,-1.42426435E-2,8.247135E0,-7.818315E-1,5.2287638E5,-7.837869E4,1.6504217E-2,-3.7393645E4,-2.0285298E-3,-4.536448E-4,-1.8713517E-3,3.4932452E-4,-5.9170445E-4,1.7100148E-3,2.2553622E-4,-5.2882405E-3,-1.1867521E-3,-7.355138E-4,2.5511242E-3,4.9280445E-3,1.02435755E-4,5.836467E-6,-1.1666919E-3,2.3206563E-3,1.5254362E-4,3.2706198E-3,2.5585268E-4,-2.2706563E-4,1.5811846E-4],"split_indices":[122,286,187,0,11,155,121,0,0,317,155,231,309,78,5,253,0,242,2,308,7,125,199,34,11,1,0,0,0,0,0,0,0,0,0,0,0,0,0,0,0,0,0,0,0,0,0],"split_type":[0,0,0,0,0,0,0,0,0,0,0,0,0,0,0,0,0,0,0,0,0,0,0,0,0,0,0,0,0,0,0,0,0,0,0,0,0,0,0,0,0,0,0,0,0,0,0],"sum_hessian":[8.71E3,3.5E1,8.675E3,2E0,3.3E1,8.64E3,3.5E1,1E0,1E0,1.7E1,1.6E1,6.1E1,8.579E3,2.9E1,6E0,1.5E1,2E0,1.2E1,4E0,1.3E1,4.8E1,3.4E1,8.545E3,1.9E1,1E1,3E0,3E0,8E0,7E0,7E0,5E0,3E0,1E0,6E0,7E0,4.2E1,6E0,7E0,2.7E1,8.511E3,3.4E1,6E0,1.3E1,9E0,1E0,1E0,2E0],"tree_param":{"num_deleted":"0","num_feature":"330","num_nodes":"47","size_leaf_vector":"1"}},{"base_weights":[-1.1508115E-5,3.878819E-5,-1.2132597E-2,-5.4637003E-6,1.2792365E-2,-7.58713E-3,-4.6599552E-2,5.6067372E-5,-1.6572535E-2,2.3495277E-2,-1.096299E-2,-1.8884184E-2,7.001649E-4,-1.372123E-3,-5.298525E-3,7.582992E-3,-2.2491768E-5,-3.549485E-2,1.16757554E-4,4.011509E-3,7.6874965E-3,-2.8147075E-2,2.1849906E-2,-2.5504785E-2,4.043511E-3,-1.0775006E-2,7.7079497E-3,3.2509293E-4,2.8737772E-3,3.1610176E-5,-1.6921332E-4,-6.329033E-3,-9.932275E-4,-1.6585955E-3,1.5137524E-3,1.2062517E-3,-2.0218864E-3,-1.3494652E-3,-3.576273E-3,1.7983087E-4,2.7934336E-3,-3.2255135E-3,-1.4503639E-3,6.419296E-4,-1.5419221E-4,-6.9149764E-4,-1.4903398E-3,1.7059494E-3,-2.6920203E-5],"categories":[],"categories_nodes":[],"categories_segments":[],"categories_sizes":[],"default_left":[0,0,0,0,0,0,0,0,0,0,0,0,0,0,0,0,0,0,0,0,0,0,0,0,0,0,0,0,0,0,0,0,0,0,0,0,0,0,0,0,0,0,0,0,0,0,0,0,0],"id":9,"left_children":[1,3,5,7,9,11,13,15,17,19,21,23,25,-1,-1,27,29,31,33,-1,35,37,39,41,43,45,47,-1,-1,-1,-1,-1,-1,-1,-1,-1,-1,-1,-1,-1,-1,-1,-1,-1,-1,-1,-1,-1,-1],"loss_changes":[5.311097E-3,4.896542E-3,5.286506E-3,8.815591E-3,7.885124E-3,3.1027487E-3,1.127813E-4,5.0948868E-3,1.0109747E-2,5.208783E-3,6.2536066E-3,2.2282605E-3,1.6913639E-3,0E0,0E0,8.062877E-3,4.821667E-3,1.002924E-2,4.767046E-3,0E0,1.7089813E-3,2.9850844E-4,4.377754E-4,3.4906063E-4,6.297721E-5,2.4429115E-5,9.743754E-4,0E0,0E0,0E0,0E0,0E0,0E0,0E0,0E0,0E0,0E0,0E0,0E0,0E0,0E0,0E0,0E0,0E0,0E0,0E0,0E0,0E0,0E0],"parents":[2147483647,0,0,1,1,2,2,3,3,4,4,5,5,6,6,7,7,8,8,9,9,10,10,11,11,12,12,15,15,16,16,17,17,18,18,20,20,21,21,22,22,23,23,24,24,25,25,26,26],"right_children":[2,4,6,8,10,12,14,16,18,20,22,24,26,-1,-1,28,30,32,34,-1,36,38,40,42,44,46,48,-1,-1,-1,-1,-1,-1,-1,-1,-1,-1,-1,-1,-1,-1,-1,-1,-1,-1,-1,-1,-1,-1],"split_conditions":[2.1357004E1,2.1357004E1,4.3607473E-2,1.9721209E1,4.48899E4,-1.8802397E-2,-3.7901347E5,-5.508444E-2,9.9184826E-2,-1.8808188E-2,7.6777884E-3,1.3257065E-2,1.8479628E1,-1.372123E-3,-5.298525E-3,1.2232148E1,1.2343186E-2,2.1357004E1,-2.2706747E-2,4.011509E-3,-7.1776325E-1,-1.0323346E4,-2.4868067E-2,-1.0416305E1,1.701738E5,1.6995592E4,1.8479628E1,3.2509293E-4,2.8737772E-3,3.1610176E-5,-1.6921332E-4,-6.329033E-3,-9.932275E-4,-1.6585955E-3,1.5137524E-3,1.2062517E-3,-2.0218864E-3,-1.3494652E-3,-3.576273E-3,1.7983087E-4,2.7934336E-3,-3.2255135E-3,-1.4503639E-3,6.419296E-4,-1.5419221E-4,-6.9149764E-4,-1.4903398E-3,1.7059494E-3,-2.6920203E-5],"split_indices":[227,51,242,29,122,88,1,121,218,297,187,286,117,0,0,7,33,7,11,0,42,78,0,10,1,122,73,0,0,0,0,0,0,0,0,0,0,0,0,0,0,0,0,0,0,0,0,0,0],"split_type":[0,0,0,0,0,0,0,0,0,0,0,0,0,0,0,0,0,0,0,0,0,0,0,0,0,0,0,0,0,0,0,0,0,0,0,0,0,0,0,0,0,0,0,0,0,0,0,0,0],"sum_hessian":[8.71E3,8.675E3,3.5E1,8.646E3,2.9E1,3.2E1,3E0,8.615E3,3.1E1,2E1,9E0,1.3E1,1.9E1,1E0,2E0,8.8E1,8.527E3,1.4E1,1.7E1,9E0,1.1E1,6E0,3E0,1E1,3E0,7E0,1.2E1,7.4E1,1.4E1,7.09E3,1.437E3,6E0,8E0,8E0,9E0,1E1,1E0,3E0,3E0,1E0,2E0,5E0,5E0,2E0,1E0,5E0,2E0,5E0,7E0],"tree_param":{"num_deleted":"0","num_feature":"330","num_nodes":"49","size_leaf_vector":"1"}},{"base_weights":[-1.2024602E-5,-5.9281928E-3,8.24975E-5,-7.422272E-4,-1.8052837E-2,3.94412E-5,1.3224023E-2,-9.311024E-3,5.1800846E-3,-1.0533971E-2,-4.3616146E-2,1.0299416E-4,-1.5877998E-2,3.1177226E-2,-2.189455E-3,-2.4292404E-2,-1.198048E-3,7.4484167E-3,-1.2410395E-2,-1.422339E-3,-2.862793E-2,-1.8057595E-4,-4.861673E-3,1.35240955E-2,5.870884E-5,-5.0612137E-2,-8.144107E-3,3.748299E-2,-2.3363233E-3,-2.0079916E-2,1.0552813E-2,-3.103239E-3,-5.9539545E-4,1.5136342E-3,-4.6969132E-4,3.696512E-4,2.7621828E-3,-1.5255926E-3,2.3313977E-4,1.5966553E-3,-1.1760852E-3,-3.4847248E-3,-9.032311E-4,2.604665E-3,3.889111E-4,1.7896177E-4,-2.5544063E-5,-6.021825E-3,-2.093327E-3,-2.793403E-4,-4.0887655E-3,1.8285428E-3,4.23964E-3,1.4271132E-4,-4.931598E-4,-2.6203298E-3,-3.180974E-4,1.6912888E-4,1.9076079E-3],"categories":[],"categories_nodes":[],"categories_segments":[],"categories_sizes":[],"default_left":[0,0,0,0,0,0,0,0,0,0,0,0,0,0,0,0,0,0,0,0,0,0,0,0,0,0,0,0,0,0,0,0,0,0,0,0,0,0,0,0,0,0,0,0,0,0,0,0,0,0,0,0,0,0,0,0,0,0,0],"id":10,"left_children":[1,3,5,7,9,11,13,15,17,19,21,23,25,27,29,31,33,35,37,39,41,-1,-1,43,45,47,49,51,53,55,57,-1,-1,-1,-1,-1,-1,-1,-1,-1,-1,-1,-1,-1,-1,-1,-1,-1,-1,-1,-1,-1,-1,-1,-1,-1,-1,-1,-1],"loss_changes":[4.871755E-3,8.600885E-3,4.851432E-3,4.9706995E-3,7.421043E-3,8.648794E-3,7.816458E-3,4.8326394E-3,2.4066984E-3,5.3998423E-3,1.793893E-3,5.060163E-3,8.721231E-3,2.8348435E-3,3.8593404E-3,1.5456462E-3,1.6141934E-3,3.8337088E-3,3.292053E-4,4.3226113E-3,1.0258341E-3,0E0,0E0,3.2770303E-3,4.615927E-3,4.5002718E-4,4.966614E-3,2.6234332E-4,3.63394E-5,6.409986E-4,7.230283E-4,0E0,0E0,0E0,0E0,0E0,0E0,0E0,0E0,0E0,0E0,0E0,0E0,0E0,0E0,0E0,0E0,0E0,0E0,0E0,0E0,0E0,0E0,0E0,0E0,0E0,0E0,0E0,0E0],"parents":[2147483647,0,0,1,1,2,2,3,3,4,4,5,5,6,6,7,7,8,8,9,9,10,10,11,11,12,12,13,13,14,14,15,15,16,16,17,17,18,18,19,19,20,20,23,23,24,24,25,25,26,26,27,27,28,28,29,29,30,30],"right_children":[2,4,6,8,10,12,14,16,18,20,22,24,26,28,30,32,34,36,38,40,42,-1,-1,44,46,48,50,52,54,56,58,-1,-1,-1,-1,-1,-1,-1,-1,-1,-1,-1,-1,-1,-1,-1,-1,-1,-1,-1,-1,-1,-1,-1,-1,-1,-1,-1,-1],"split_conditions":[-4.954786E-2,3.2705951E4,2.1357004E1,-3.577948E4,6.3028316E4,1.9721209E1,3.4722008E1,-2.648043E3,6.4221146E1,4.3850455E-1,-2.6455366E5,-8.211169E-2,-4.954786E-2,4.010823E5,-1.6233675E-2,3.646905E4,2.9445322E1,1.7007511E0,1.2603656E5,-6.1622583E3,-7.630832E-3,-1.8057595E-4,-4.861673E-3,6.234898E-1,-5.607722E4,1.062887E-2,1.9114553E5,-3.2744053E4,-8.211169E-2,1.3289338E1,-3.071627E-3,-3.103239E-3,-5.9539545E-4,1.5136342E-3,-4.6969132E-4,3.696512E-4,2.7621828E-3,-1.5255926E-3,2.3313977E-4,1.5966553E-3,-1.1760852E-3,-3.4847248E-3,-9.032311E-4,2.604665E-3,3.889111E-4,1.7896177E-4,-2.5544063E-5,-6.021825E-3,-2.093327E-3,-2.793403E-4,-4.0887655E-3,1.8285428E-3,4.23964E-3,1.4271132E-4,-4.931598E-4,-2.6203298E-3,-3.180974E-4,1.6912888E-4,1.9076079E-3],"split_indices":[187,78,51,232,199,29,50,56,39,317,1,231,319,1,143,144,314,76,1,122,22,0,0,71,309,22,89,144,0,21,231,0,0,0,0,0,0,0,0,0,0,0,0,0,0,0,0,0,0,0,0,0,0,0,0,0,0,0,0],"split_type":[0,0,0,0,0,0,0,0,0,0,0,0,0,0,0,0,0,0,0,0,0,0,0,0,0,0,0,0,0,0,0,0,0,0,0,0,0,0,0,0,0,0,0,0,0,0,0,0,0,0,0,0,0,0,0,0,0,0,0],"sum_hessian":[8.71E3,1.36E2,8.574E3,9.6E1,4E1,8.547E3,2.7E1,3.9E1,5.7E1,3.2E1,8E0,8.514E3,3.3E1,1.2E1,1.5E1,1.3E1,2.6E1,5.1E1,6E0,2.2E1,1E1,1E0,7E0,2.7E1,8.487E3,5E0,2.8E1,1E1,2E0,6E0,9E0,9E0,4E0,4E0,2.2E1,4.4E1,7E0,5E0,1E0,8E0,1.4E1,7E0,3E0,1.1E1,1.6E1,1.303E3,7.184E3,3E0,2E0,2.5E1,3E0,3E0,7E0,1E0,1E0,4E0,2E0,5E0,4E0],"tree_param":{"num_deleted":"0","num_feature":"330","num_nodes":"59","size_leaf_vector":"1"}},{"base_weights":[-1.2464278E-5,1.2882387E-4,-3.8546384E-3,1.4180622E-5,6.1893924E-3,-2.1162182E-3,-2.122535E-2,1.4299744E-4,-4.8693805E-3,9.74118E-3,-1.3751321E-2,-1.28839975E-2,2.5995835E-4,-8.195476E-3,-3.56294E-2,-1.4447709E-4,2.0414994E-3,-4.8048705E-2,-3.378484E-3,1.6397756E-2,2.9556974E-4,-6.61034E-3,-8.6010825E-3,-4.690127E-3,-2.764553E-2,2.6154106E-2,-1.024256E-3,-2.144443E-2,-2.237295E-4,-4.253922E-2,-9.447496E-3,-1.003638E-5,-1.4093749E-3,1.4073424E-4,1.35691E-3,-6.7249625E-3,-1.6835611E-3,3.2610134E-3,-4.997267E-4,1.9329314E-3,-8.2252186E-4,8.1699353E-4,-9.795441E-4,-1.5219826E-3,5.7115377E-4,-8.913059E-4,2.9210127E-3,-3.6114329E-3,-4.688876E-4,3.786478E-3,-3.8057676E-4,1.297614E-4,-1.1621205E-3,-2.37214E-3,-5.029791E-4,7.7218807E-4,-5.8672036E-4,-1.6579385E-3,-4.695676E-3,-1.2094302E-3,-7.5354044E-5],"categories":[],"categories_nodes":[],"categories_segments":[],"categories_sizes":[],"default_left":[0,0,0,0,0,0,0,0,0,0,0,0,0,0,0,0,0,0,0,0,0,0,0,0,0,0,0,0,0,0,0,0,0,0,0,0,0,0,0,0,0,0,0,0,0,0,0,0,0,0,0,0,0,0,0,0,0,0,0,0,0],"id":11,"left_children":[1,3,5,7,9,11,13,15,17,19,21,23,25,27,29,31,33,35,37,39,41,-1,43,45,47,49,51,53,55,57,59,-1,-1,-1,-1,-1,-1,-1,-1,-1,-1,-1,-1,-1,-1,-1,-1,-1,-1,-1,-1,-1,-1,-1,-1,-1,-1,-1,-1,-1,-1],"loss_changes":[4.729295E-3,5.8383443E-3,9.286141E-3,5.189387E-3,1.1182681E-2,7.218641E-3,4.9631214E-3,4.3866565E-3,1.3485359E-2,8.357586E-3,5.9024547E-3,6.0389973E-3,7.741632E-3,1.6850792E-3,1.9499697E-3,4.2943303E-3,7.7079E-3,3.063051E-3,1.2164062E-2,5.7893135E-3,4.5298054E-3,0E0,2.2657542E-3,5.127739E-3,3.3301385E-3,4.003458E-3,5.477332E-3,1.0494003E-4,5.3855515E-4,3.682729E-4,8.293131E-5,0E0,0E0,0E0,0E0,0E0,0E0,0E0,0E0,0E0,0E0,0E0,0E0,0E0,0E0,0E0,0E0,0E0,0E0,0E0,0E0,0E0,0E0,0E0,0E0,0E0,0E0,0E0,0E0,0E0,0E0],"parents":[2147483647,0,0,1,1,2,2,3,3,4,4,5,5,6,6,7,7,8,8,9,9,10,10,11,11,12,12,13,13,14,14,15,15,16,16,17,17,18,18,19,19,20,20,22,22,23,23,24,24,25,25,26,26,27,27,28,28,29,29,30,30],"right_children":[2,4,6,8,10,12,14,16,18,20,22,24,26,28,30,32,34,36,38,40,42,-1,44,46,48,50,52,54,56,58,60,-1,-1,-1,-1,-1,-1,-1,-1,-1,-1,-1,-1,-1,-1,-1,-1,-1,-1,-1,-1,-1,-1,-1,-1,-1,-1,-1,-1,-1,-1],"split_conditions":[3.348045E-2,2.127172E0,1.3194153E5,5.660681E0,2.532717E-2,-7.07616E4,-8.2510814E-2,1.5289295E0,-5.508444E-2,3.6173775E-3,-2.2706747E-2,9.224612E-3,-4.954786E-2,5.1469467E1,6.794112E1,5.2385387E0,6.5510764E0,2.2574322E-2,3.0272478E1,6.7984985E1,5.5265514E1,-6.61034E-3,8.334636E4,1.0510994E5,6.799013E1,2.2923646E4,1.2654068E-2,5.306812E-3,-1.2948974E-2,-6.0597766E4,-1.7562191E4,-1.003638E-5,-1.4093749E-3,1.4073424E-4,1.35691E-3,-6.7249625E-3,-1.6835611E-3,3.2610134E-3,-4.997267E-4,1.9329314E-3,-8.2252186E-4,8.1699353E-4,-9.795441E-4,-1.5219826E-3,5.7115377E-4,-8.913059E-4,2.9210127E-3,-3.6114329E-3,-4.688876E-4,3.786478E-3,-3.8057676E-4,1.297614E-4,-1.1621205E-3,-2.37214E-3,-5.029791E-4,7.7218807E-4,-5.8672036E-4,-1.6579385E-3,-4.695676E-3,-1.2094302E-3,-7.5354044E-5],"split_indices":[264,75,199,54,198,122,251,21,132,264,0,154,286,28,259,118,307,22,325,182,149,0,56,199,39,12,55,0,99,100,1,0,0,0,0,0,0,0,0,0,0,0,0,0,0,0,0,0,0,0,0,0,0,0,0,0,0,0,0,0,0],"split_type":[0,0,0,0,0,0,0,0,0,0,0,0,0,0,0,0,0,0,0,0,0,0,0,0,0,0,0,0,0,0,0,0,0,0,0,0,0,0,0,0,0,0,0,0,0,0,0,0,0,0,0,0,0,0,0,0,0,0,0,0,0],"sum_hessian":[8.71E3,8.402E3,3.08E2,8.247E3,1.55E2,2.81E2,2.7E1,8.036E3,2.11E2,1.32E2,2.3E1,5E1,2.31E2,1.5E1,1.2E1,6.98E3,1.056E3,6E0,2.05E2,7.7E1,5.5E1,1E0,2.2E1,3.3E1,1.7E1,1E1,2.21E2,5E0,1E1,9E0,3E0,6.959E3,2.1E1,1.002E3,5.4E1,3E0,3E0,8E0,1.97E2,6.9E1,8E0,3.1E1,2.4E1,1.5E1,7E0,3E1,3E0,1.2E1,5E0,7E0,3E0,1.82E2,3.9E1,4E0,1E0,4E0,6E0,2E0,7E0,2E0,1E0],"tree_param":{"num_deleted":"0","num_feature":"330","num_nodes":"61","size_leaf_vector":"1"}},{"base_weights":[-1.3764919E-5,3.1025913E-5,-1.0807973E-2,-7.8633195E-5,4.6551037E-3,-6.909429E-3,-4.026897E-2,6.211919E-5,-5.125182E-3,2.3036967E-3,2.111686E-2,-1.7285991E-2,6.9963624E-4,-1.147514E-3,-4.6041864E-3,1.55659765E-2,1.119275E-5,-3.920503E-2,-3.7204805E-3,-4.016872E-3,3.0186314E-3,-3.540061E-4,3.801211E-2,-2.3028288E-2,2.8268187E-3,9.945574E-3,-6.2931203E-3,1.330686E-4,5.604814E-3,-9.190989E-6,6.0956716E-4,-6.2205903E-3,-1.7336945E-3,-6.7484257E-4,1.2111359E-3,1.14878545E-4,1.9264022E-3,8.10665E-4,-2.843819E-3,-3.7842157E-4,4.151831E-3,-2.974859E-3,-1.2469938E-3,5.8065826E-4,-1.0196344E-5,1.587402E-3,-1.4334853E-4,1.16654344E-4,-1.016877E-3],"categories":[],"categories_nodes":[],"categories_segments":[],"categories_sizes":[],"default_left":[0,0,0,0,0,0,0,0,0,0,0,0,0,0,0,0,0,0,0,0,0,0,0,0,0,0,0,0,0,0,0,0,0,0,0,0,0,0,0,0,0,0,0,0,0,0,0,0,0],"id":12,"left_children":[1,3,5,7,9,11,13,15,17,19,21,23,25,-1,-1,27,29,31,33,-1,35,37,39,41,43,45,47,-1,-1,-1,-1,-1,-1,-1,-1,-1,-1,-1,-1,-1,-1,-1,-1,-1,-1,-1,-1,-1,-1],"loss_changes":[4.2119436E-3,4.399725E-3,3.856544E-3,6.020938E-3,7.7317185E-3,2.61764E-3,1.3655843E-4,6.511296E-3,1.0864707E-2,5.49586E-3,9.082348E-3,1.6820082E-3,1.3556806E-3,0E0,0E0,1.548485E-2,5.1578055E-3,3.4484044E-3,1.0723956E-2,0E0,5.2937362E-3,3.0818658E-3,2.20876E-3,4.0954584E-4,3.550038E-5,6.298962E-4,3.5879484E-4,0E0,0E0,0E0,0E0,0E0,0E0,0E0,0E0,0E0,0E0,0E0,0E0,0E0,0E0,0E0,0E0,0E0,0E0,0E0,0E0,0E0,0E0],"parents":[2147483647,0,0,1,1,2,2,3,3,4,4,5,5,6,6,7,7,8,8,9,9,10,10,11,11,12,12,15,15,16,16,17,17,18,18,20,20,21,21,22,22,23,23,24,24,25,25,26,26],"right_children":[2,4,6,8,10,12,14,16,18,20,22,24,26,-1,-1,28,30,32,34,-1,36,38,40,42,44,46,48,-1,-1,-1,-1,-1,-1,-1,-1,-1,-1,-1,-1,-1,-1,-1,-1,-1,-1,-1,-1,-1,-1],"split_conditions":[2.1357004E1,4.101916E-2,4.3607473E-2,5.844641E0,6.1648006E0,-1.8802397E-2,-3.7901347E5,-4.7811397E5,-5.508444E-2,-4.7811397E5,-3.4913582E4,1.3257065E-2,-1.6233675E-2,-1.147514E-3,-4.6041864E-3,5.717923E1,4.3607473E-2,7.446146E0,2.8193165E-2,-4.016872E-3,7.65981E1,1.06598195E-2,-1.6047375E0,-1.0416305E1,2.5385465E-2,1.9556765E-2,-1.9944817E-2,1.330686E-4,5.604814E-3,-9.190989E-6,6.0956716E-4,-6.2205903E-3,-1.7336945E-3,-6.7484257E-4,1.2111359E-3,1.14878545E-4,1.9264022E-3,8.10665E-4,-2.843819E-3,-3.7842157E-4,4.151831E-3,-2.974859E-3,-1.2469938E-3,5.8065826E-4,-1.0196344E-5,1.587402E-3,-1.4334853E-4,1.16654344E-4,-1.016877E-3],"split_indices":[227,209,242,19,8,88,1,309,132,320,56,286,286,0,0,105,286,41,88,0,237,44,9,10,0,33,275,0,0,0,0,0,0,0,0,0,0,0,0,0,0,0,0,0,0,0,0,0,0],"split_type":[0,0,0,0,0,0,0,0,0,0,0,0,0,0,0,0,0,0,0,0,0,0,0,0,0,0,0,0,0,0,0,0,0,0,0,0,0,0,0,0,0,0,0,0,0,0,0,0,0],"sum_hessian":[8.71E3,8.675E3,3.5E1,8.475E3,2E2,3.2E1,3E0,8.246E3,2.29E2,1.76E2,2.4E1,1.3E1,1.9E1,1E0,2E0,2.6E1,8.22E3,8E0,2.21E2,2E0,1.74E2,1.1E1,1.3E1,1E1,3E0,8E0,1.1E1,2E1,6E0,8.084E3,1.36E2,3E0,5E0,1.86E2,3.5E1,1.57E2,1.7E1,9E0,2E0,1E0,1.2E1,5E0,5E0,1E0,2E0,5E0,3E0,4E0,7E0],"tree_param":{"num_deleted":"0","num_feature":"330","num_nodes":"49","size_leaf_vector":"1"}},{"base_weights":[-1.3556487E-5,-5.7438323E-5,1.0562343E-2,4.334543E-5,-5.0703576E-3,1.5202977E-2,-1.0834994E-2,-2.2487991E-4,2.0939712E-3,-1.2063743E-3,-1.61958E-2,8.217015E-3,2.6522635E-2,-1.3908488E-5,-1.8947332E-3,-2.5749236E-4,2.020926E-2,1.2506859E-3,1.0064965E-2,-1.7780406E-2,1.1510671E-3,-5.6662876E-3,-2.8547902E-2,1.2999889E-2,-8.731587E-3,2.8687462E-3,2.4371811E-4,-2.2527955E-4,1.483319E-4,1.1036779E-5,-2.4018831E-4,3.539019E-3,-8.70038E-5,1.4010364E-4,-6.628064E-3,3.5389706E-3,5.56359E-4,-4.2914643E-4,-3.0732916E-3,3.0336017E-3,-7.6898636E-5,-1.2934033E-3,6.5287336E-4,-3.5053806E-3,-2.0194231E-4,1.4723859E-4,2.1802129E-3,-2.0236164E-4,-9.902676E-4],"categories":[],"categories_nodes":[],"categories_segments":[],"categories_sizes":[],"default_left":[0,0,0,0,0,0,0,0,0,0,0,0,0,0,0,0,0,0,0,0,0,0,0,0,0,0,0,0,0,0,0,0,0,0,0,0,0,0,0,0,0,0,0,0,0,0,0,0,0],"id":13,"left_children":[1,3,5,7,9,11,13,15,17,19,21,23,25,27,-1,29,31,33,35,37,39,41,43,45,47,-1,-1,-1,-1,-1,-1,-1,-1,-1,-1,-1,-1,-1,-1,-1,-1,-1,-1,-1,-1,-1,-1,-1,-1],"loss_changes":[4.0432937E-3,4.3835156E-3,3.7394231E-3,4.6790247E-3,7.3314984E-3,2.1544248E-3,6.1422656E-4,5.0185877E-3,6.601685E-3,5.0217216E-3,5.5609504E-3,1.7347706E-3,5.0363224E-4,1.6750108E-5,0E0,5.9260004E-3,3.8708323E-3,9.1395145E-3,1.0518744E-2,2.6635607E-3,6.355471E-3,2.3002005E-3,3.3810455E-3,1.5913842E-3,1.9238913E-5,0E0,0E0,0E0,0E0,0E0,0E0,0E0,0E0,0E0,0E0,0E0,0E0,0E0,0E0,0E0,0E0,0E0,0E0,0E0,0E0,0E0,0E0,0E0,0E0],"parents":[2147483647,0,0,1,1,2,2,3,3,4,4,5,5,6,6,7,7,8,8,9,9,10,10,11,11,12,12,13,13,15,15,16,16,17,17,18,18,19,19,20,20,21,21,22,22,23,23,24,24],"right_children":[2,4,6,8,10,12,14,16,18,20,22,24,26,28,-1,30,32,34,36,38,40,42,44,46,48,-1,-1,-1,-1,-1,-1,-1,-1,-1,-1,-1,-1,-1,-1,-1,-1,-1,-1,-1,-1,-1,-1,-1,-1],"split_conditions":[7.299688E-2,4.3607473E-2,1.9124892E-2,6.591935E-1,6.3028316E4,1.0923211E4,6.234898E-1,7.256927E-2,3.2042813E0,-3.1580728E-2,1.0052211E0,1.6457712E-2,1.6504217E-2,-3.7393645E4,-1.8947332E-3,1.2343186E-2,5.134637E1,7.797181E1,3.6042333E0,-2.2252093E-1,3.839009E1,4.3388373E-1,8.326223E-3,4.755584E3,-1.3986242E-2,2.8687462E-3,2.4371811E-4,-2.2527955E-4,1.483319E-4,1.1036779E-5,-2.4018831E-4,3.539019E-3,-8.70038E-5,1.4010364E-4,-6.628064E-3,3.5389706E-3,5.56359E-4,-4.2914643E-4,-3.0732916E-3,3.0336017E-3,-7.6898636E-5,-1.2934033E-3,6.5287336E-4,-3.5053806E-3,-2.0194231E-4,1.4723859E-4,2.1802129E-3,-2.0236164E-4,-9.902676E-4],"split_indices":[187,264,121,108,199,78,5,33,19,99,250,319,11,1,0,33,314,6,19,82,325,4,253,100,0,0,0,0,0,0,0,0,0,0,0,0,0,0,0,0,0,0,0,0,0,0,0,0,0],"split_type":[0,0,0,0,0,0,0,0,0,0,0,0,0,0,0,0,0,0,0,0,0,0,0,0,0,0,0,0,0,0,0,0,0,0,0,0,0,0,0,0,0,0,0,0,0,0,0,0,0],"sum_hessian":[8.71E3,8.675E3,3.5E1,8.505E3,1.7E2,2.9E1,6E0,7.522E3,9.83E2,1.27E2,4.3E1,1.9E1,1E1,3E0,3E0,7.511E3,1.1E1,8.9E2,9.3E1,1.5E1,1.12E2,2.4E1,1.9E1,1.5E1,4E0,9E0,1E0,1E0,2E0,6.412E3,1.099E3,6E0,5E0,8.89E2,1E0,1.3E1,8E1,8E0,7E0,6E0,1.06E2,1.5E1,9E0,1.5E1,4E0,7E0,8E0,1E0,3E0],"tree_param":{"num_deleted":"0","num_feature":"330","num_nodes":"49","size_leaf_vector":"1"}},{"base_weights":[-1.24060125E-5,-1.0439125E-2,3.085981E-5,-5.569101E-2,-6.139278E-3,1.0797228E-2,-1.2747429E-5,-6.9232793E-3,-1.4303727E-3,-1.47980135E-2,3.3899297E-3,3.7090268E-2,5.1787123E-3,-5.139564E-3,6.7379406E-5,-1.9520832E-2,-2.0989038E-3,-9.1922644E-4,1.3915749E-2,4.754372E-3,1.0788912E-3,1.1289563E-2,-8.171945E-3,-7.2411733E-4,-1.5763355E-2,2.2941285E-5,1.1481895E-2,-7.503749E-4,-2.6093542E-3,2.703779E-4,-7.802846E-4,-6.262422E-4,2.151352E-4,1.5651558E-3,3.4862568E-4,4.8250472E-4,2.6646678E-3,-1.237668E-3,1.2293273E-4,-8.3848875E-4,4.760792E-4,-8.667999E-4,-3.8451434E-3,-1.1707189E-3,6.180305E-6,2.4866608E-3,5.4265186E-4],"categories":[],"categories_nodes":[],"categories_segments":[],"categories_sizes":[],"default_left":[0,0,0,0,0,0,0,0,0,0,0,0,0,0,0,0,0,0,0,0,0,0,0,0,0,0,0,0,0,0,0,0,0,0,0,0,0,0,0,0,0,0,0,0,0,0,0],"id":14,"left_children":[1,3,5,7,9,11,13,-1,-1,15,17,19,21,23,25,27,29,31,33,-1,-1,35,37,39,41,43,45,-1,-1,-1,-1,-1,-1,-1,-1,-1,-1,-1,-1,-1,-1,-1,-1,-1,-1,-1,-1],"loss_changes":[3.930033E-3,6.66284E-3,4.073447E-3,6.910851E-4,2.8555342E-3,4.978395E-3,3.550442E-3,0E0,0E0,1.0385881E-3,7.8386744E-4,1.136695E-3,2.539774E-3,6.2274537E-3,4.3163453E-3,8.3100284E-4,1.854625E-4,2.2675977E-4,3.595272E-5,0E0,0E0,1.9562312E-3,4.1051366E-4,4.0316884E-3,5.9449235E-3,3.8654497E-3,2.5396934E-3,0E0,0E0,0E0,0E0,0E0,0E0,0E0,0E0,0E0,0E0,0E0,0E0,0E0,0E0,0E0,0E0,0E0,0E0,0E0,0E0],"parents":[2147483647,0,0,1,1,2,2,3,3,4,4,5,5,6,6,9,9,10,10,11,11,12,12,13,13,14,14,15,15,16,16,17,17,18,18,21,21,22,22,23,23,24,24,25,25,26,26],"right_children":[2,4,6,8,10,12,14,-1,-1,16,18,20,22,24,26,28,30,32,34,-1,-1,36,38,40,42,44,46,-1,-1,-1,-1,-1,-1,-1,-1,-1,-1,-1,-1,-1,-1,-1,-1,-1,-1,-1,-1],"split_conditions":[-4.6716788E5,-6.479558E-2,1.7757896E1,-9.395932E-3,2.8988328E-3,-1.4670895E0,-4.954786E-2,-6.9232793E-3,-1.4303727E-3,5.2236656E1,-1.1202456E4,1.3620606E4,3.650929E1,3.2705951E4,5.127956E5,-2.600913E4,5.1799587E1,-4.1001676E4,1.2246469E-16,4.754372E-3,1.0788912E-3,6.391819E-4,-1.8653822E-3,-3.577948E4,6.3028316E4,1.7757896E1,-1.12045125E5,-7.503749E-4,-2.6093542E-3,2.703779E-4,-7.802846E-4,-6.262422E-4,2.151352E-4,1.5651558E-3,3.4862568E-4,4.8250472E-4,2.6646678E-3,-1.237668E-3,1.2293273E-4,-8.3848875E-4,4.760792E-4,-8.667999E-4,-3.8451434E-3,-1.1707189E-3,6.180305E-6,2.4866608E-3,5.4265186E-4],"split_indices":[122,286,171,0,11,19,187,0,0,204,155,1,314,78,177,298,6,210,2,0,0,44,132,232,199,270,287,0,0,0,0,0,0,0,0,0,0,0,0,0,0,0,0,0,0,0,0],"split_type":[0,0,0,0,0,0,0,0,0,0,0,0,0,0,0,0,0,0,0,0,0,0,0,0,0,0,0,0,0,0,0,0,0,0,0,0,0,0,0,0,0,0,0,0,0,0,0],"sum_hessian":[8.71E3,3.5E1,8.675E3,2E0,3.3E1,3.4E1,8.641E3,1E0,1E0,1.7E1,1.6E1,5E0,2.9E1,1.32E2,8.509E3,1.2E1,5E0,1.2E1,4E0,3E0,2E0,2E1,9E0,9.4E1,3.8E1,8.477E3,3.2E1,5E0,7E0,3E0,2E0,4E0,8E0,3E0,1E0,1.5E1,5E0,6E0,3E0,3.9E1,5.5E1,3E1,8E0,2.7E1,8.45E3,9E0,2.3E1],"tree_param":{"num_deleted":"0","num_feature":"330","num_nodes":"47","size_leaf_vector":"1"}},{"base_weights":[-1.1861608E-5,2.2158303E-4,-1.76645E-3,9.2468545E-5,7.908759E-3,1.313857E-2,-2.5458843E-3,-7.695887E-3,2.2545613E-4,1.6452134E-2,-1.6046017E-3,-4.0468288E-4,2.7239742E-2,-2.0427636E-3,-2.0098083E-2,-4.0025283E-3,-4.2757027E-2,1.3578797E-4,9.66045E-3,1.3728179E-2,4.185765E-2,2.7663796E-3,-4.7118478E-3,1.8757848E-2,-9.460372E-3,1.4081084E-2,5.344175E-2,-2.31982E-3,3.0766709E-2,-1.23338755E-2,-6.165881E-3,2.8696927E-4,-1.9353845E-3,-7.1223387E-3,-1.2249149E-3,-1.2803915E-3,1.95749E-5,3.1471554E-5,2.0748675E-3,-3.578793E-4,1.8392861E-3,1.1541182E-3,4.561271E-3,7.814756E-5,-1.977903E-3,9.794471E-6,2.4075257E-3,-2.118321E-3,-3.7605586E-4,-3.9038152E-4,1.949847E-3,2.709547E-3,6.383043E-3,-1.9446488E-4,-2.1428892E-3,5.5167486E-4,5.4637482E-3,1.0520016E-3,-1.6099671E-3],"categories":[],"categories_nodes":[],"categories_segments":[],"categories_sizes":[],"default_left":[0,0,0,0,0,0,0,0,0,0,0,0,0,0,0,0,0,0,0,0,0,0,0,0,0,0,0,0,0,0,0,0,0,0,0,0,0,0,0,0,0,0,0,0,0,0,0,0,0,0,0,0,0,0,0,0,0,0,0],"id":15,"left_children":[1,3,5,7,9,11,13,15,17,19,21,23,25,27,29,31,33,35,37,39,41,-1,43,45,47,49,51,53,55,57,-1,-1,-1,-1,-1,-1,-1,-1,-1,-1,-1,-1,-1,-1,-1,-1,-1,-1,-1,-1,-1,-1,-1,-1,-1,-1,-1,-1,-1],"loss_changes":[3.5684106E-3,7.6307985E-3,1.1918135E-2,7.835146E-3,1.0348479E-2,9.750785E-3,8.551385E-3,1.627452E-2,6.2905285E-3,4.0620044E-3,5.677939E-3,4.8627644E-3,7.867064E-3,8.679673E-3,7.9520345E-3,1.2293263E-2,9.548953E-3,5.719174E-3,7.2474023E-3,5.071181E-3,1.5661493E-4,0E0,4.6505155E-3,8.9064334E-4,1.1898809E-3,1.8298794E-3,4.6010688E-4,6.6973516E-3,4.5204675E-3,2.2348822E-3,0E0,0E0,0E0,0E0,0E0,0E0,0E0,0E0,0E0,0E0,0E0,0E0,0E0,0E0,0E0,0E0,0E0,0E0,0E0,0E0,0E0,0E0,0E0,0E0,0E0,0E0,0E0,0E0,0E0],"parents":[2147483647,0,0,1,1,2,2,3,3,4,4,5,5,6,6,7,7,8,8,9,9,10,10,11,11,12,12,13,13,14,14,15,15,16,16,17,17,18,18,19,19,20,20,22,22,23,23,24,24,25,25,26,26,27,27,28,28,29,29],"right_children":[2,4,6,8,10,12,14,16,18,20,22,24,26,28,30,32,34,36,38,40,42,-1,44,46,48,50,52,54,56,58,-1,-1,-1,-1,-1,-1,-1,-1,-1,-1,-1,-1,-1,-1,-1,-1,-1,-1,-1,-1,-1,-1,-1,-1,-1,-1,-1,-1,-1],"split_conditions":[1.7268008E-2,2.127172E0,-3.646559E-2,-1.9460415E0,3.6173775E-3,-1.9519936E4,1.0397388E1,-1.0594031E0,5.2828062E-2,4.0943883E-2,-4.118478E-2,-9.815565E4,6.2133675E1,4.010823E5,7.046223E0,7.688649E-3,6.2898203E4,-1.0416305E1,5.1400234E1,-1.5086068E0,-4.3388373E-1,2.7663796E-3,3.673966E0,-3.7901347E5,-3.4913582E4,-1.7106697E-2,-2.2252093E-1,3.0080059E0,6.2128925E-3,-9.876551E4,-6.165881E-3,2.8696927E-4,-1.9353845E-3,-7.1223387E-3,-1.2249149E-3,-1.2803915E-3,1.95749E-5,3.1471554E-5,2.0748675E-3,-3.578793E-4,1.8392861E-3,1.1541182E-3,4.561271E-3,7.814756E-5,-1.977903E-3,9.794471E-6,2.4075257E-3,-2.118321E-3,-3.7605586E-4,-3.9038152E-4,1.949847E-3,2.709547E-3,6.383043E-3,-1.9446488E-4,-2.1428892E-3,5.5167486E-4,5.4637482E-3,1.0520016E-3,-1.6099671E-3],"split_indices":[198,75,209,317,264,133,316,295,286,253,143,199,83,309,54,33,34,241,105,196,4,0,294,1,12,143,5,86,0,1,0,0,0,0,0,0,0,0,0,0,0,0,0,0,0,0,0,0,0,0,0,0,0,0,0,0,0,0,0],"split_type":[0,0,0,0,0,0,0,0,0,0,0,0,0,0,0,0,0,0,0,0,0,0,0,0,0,0,0,0,0,0,0,0,0,0,0,0,0,0,0,0,0,0,0,0,0,0,0,0,0,0,0,0,0,0,0,0,0,0,0],"sum_hessian":[8.71E3,7.688E3,1.022E3,7.562E3,1.26E2,5E1,9.72E2,1.26E2,7.436E3,6.6E1,6E1,2.6E1,2.4E1,9.46E2,2.6E1,1.15E2,1.1E1,7.367E3,6.9E1,6.1E1,5E0,5E0,5.5E1,8E0,1.8E1,1.7E1,7E0,9.39E2,7E0,2.3E1,3E0,8E1,3.5E1,5E0,6E0,3.3E1,7.334E3,3.8E1,3.1E1,1.3E1,4.8E1,1E0,4E0,4.1E1,1.4E1,2E0,6E0,5E0,1.3E1,4E0,1.3E1,3E0,4E0,9.22E2,1.7E1,4E0,3E0,3E0,2E1],"tree_param":{"num_deleted":"0","num_feature":"330","num_nodes":"59","size_leaf_vector":"1"}},{"base_weights":[-9.935863E-6,8.965106E-5,-4.101611E-3,4.755346E-5,1.1980638E-2,3.4748103E-2,-5.038296E-3,1.768569E-2,1.6281938E-5,-1.1057326E-2,3.0248335E-2,8.755191E-5,4.299737E-3,-2.9681344E-3,-2.2838356E-2,-2.8176892E-3,2.821915E-2,1.0156253E-4,-8.808881E-3,2.7288601E-3,-2.9893717E-2,4.3613866E-2,-1.5241217E-3,-5.120721E-3,1.4831483E-2,-2.917857E-3,-3.4872673E-2,1.2805397E-3,-8.503386E-4,3.7386778E-3,5.1210116E-4,1.7637278E-4,-1.739767E-5,-1.1803549E-3,3.9070765E-3,1.1111528E-3,-6.19958E-4,-3.985377E-3,-6.649073E-4,5.515679E-3,1.6422427E-3,1.7383015E-3,-8.7821524E-4,-2.3053677E-3,-3.680746E-4,3.6949625E-3,6.9925963E-4,-1.1913552E-3,1.1305148E-3,-3.926635E-3,-7.138319E-4],"categories":[],"categories_nodes":[],"categories_segments":[],"categories_sizes":[],"default_left":[0,0,0,0,0,0,0,0,0,0,0,0,0,0,0,0,0,0,0,0,0,0,0,0,0,0,0,0,0,0,0,0,0,0,0,0,0,0,0,0,0,0,0,0,0,0,0,0,0,0,0],"id":16,"left_children":[1,3,5,7,9,11,13,15,17,19,21,-1,-1,23,25,27,29,31,33,35,37,39,41,43,45,47,49,-1,-1,-1,-1,-1,-1,-1,-1,-1,-1,-1,-1,-1,-1,-1,-1,-1,-1,-1,-1,-1,-1,-1,-1],"loss_changes":[3.5499032E-3,4.25688E-3,7.7077867E-3,4.6748314E-3,1.2959981E-2,1.3594744E-3,7.41256E-3,3.3190856E-3,6.369524E-3,3.7171242E-3,7.285622E-3,0E0,0E0,7.087633E-3,4.9325703E-3,6.41858E-4,1.9260934E-3,3.8391934E-3,1.20752435E-2,7.424841E-4,1.1241166E-3,2.860615E-3,9.7603165E-4,4.1501196E-3,3.209258E-3,1.2861965E-3,1.3038274E-3,0E0,0E0,0E0,0E0,0E0,0E0,0E0,0E0,0E0,0E0,0E0,0E0,0E0,0E0,0E0,0E0,0E0,0E0,0E0,0E0,0E0,0E0,0E0,0E0],"parents":[2147483647,0,0,1,1,2,2,3,3,4,4,5,5,6,6,7,7,8,8,9,9,10,10,13,13,14,14,15,15,16,16,17,17,18,18,19,19,20,20,21,21,22,22,23,23,24,24,25,25,26,26],"right_children":[2,4,6,8,10,12,14,16,18,20,22,-1,-1,24,26,28,30,32,34,36,38,40,42,44,46,48,50,-1,-1,-1,-1,-1,-1,-1,-1,-1,-1,-1,-1,-1,-1,-1,-1,-1,-1,-1,-1,-1,-1,-1,-1],"split_conditions":[7.3437E1,5.2287638E5,-8.806506E-1,-4.7811397E5,1.2537221E-3,4.6888184E1,7.3037567E0,4.543458E0,2.782814E5,4.0637753E-3,1.0882051E-2,8.755191E-5,4.299737E-3,4.6433773E0,5.817248E1,-1.242252E-2,6.1648006E0,-5.607722E4,1.9721209E1,2.082024E3,6.234898E-1,4.7562426E-4,-1.5895613E-2,-1.6229473E-2,3.4333991E-3,4.7554888E-4,5.3594145E4,1.2805397E-3,-8.503386E-4,3.7386778E-3,5.1210116E-4,1.7637278E-4,-1.739767E-5,-1.1803549E-3,3.9070765E-3,1.1111528E-3,-6.19958E-4,-3.985377E-3,-6.649073E-4,5.515679E-3,1.6422427E-3,1.7383015E-3,-8.7821524E-4,-2.3053677E-3,-3.680746E-4,3.6949625E-3,6.9925963E-4,-1.1913552E-3,1.1305148E-3,-3.926635E-3,-7.138319E-4],"split_indices":[325,298,86,309,165,6,304,7,298,110,11,0,0,128,226,0,8,309,139,155,5,44,0,99,241,77,89,0,0,0,0,0,0,0,0,0,0,0,0,0,0,0,0,0,0,0,0,0,0,0,0],"split_type":[0,0,0,0,0,0,0,0,0,0,0,0,0,0,0,0,0,0,0,0,0,0,0,0,0,0,0,0,0,0,0,0,0,0,0,0,0,0,0,0,0,0,0,0,0,0,0,0,0,0,0],"sum_hessian":[8.71E3,8.504E3,2.06E2,8.475E3,2.9E1,4E0,2.02E2,1.4E1,8.461E3,1.3E1,1.6E1,1E0,3E0,1.82E2,2E1,5E0,9E0,8.381E3,8E1,8E0,5E0,1.1E1,5E0,1.63E2,1.9E1,8E0,1.2E1,1E0,4E0,6E0,3E0,1.191E3,7.19E3,7.6E1,4E0,4E0,4E0,3E0,2E0,7E0,4E0,1E0,4E0,1.1E1,1.52E2,4E0,1.5E1,5E0,3E0,1E1,2E0],"tree_param":{"num_deleted":"0","num_feature":"330","num_nodes":"51","size_leaf_vector":"1"}},{"base_weights":[-7.469157E-6,4.4980168E-4,-8.812161E-4,1.1850963E-4,3.130498E-3,-5.7220994E-4,-7.174232E-3,5.627931E-4,-2.5491875E-3,-4.13061E-2,3.4094374E-3,-7.7602523E-4,1.2461812E-2,-4.2067883E-3,-2.8397102E-2,6.846077E-4,-1.6489761E-2,-1.5873815E-3,-1.3826778E-2,-6.00275E-3,7.4290385E-4,7.837337E-3,1.3729121E-3,-1.9023111E-3,1.2592577E-3,-1.1949488E-2,1.7403126E-2,-7.0409905E-3,1.287468E-2,-1.7233642E-2,-7.474871E-3,-1.17068E-3,8.524471E-5,-8.015006E-3,-6.806512E-4,-2.6706653E-4,1.0357085E-3,-4.999138E-3,-1.015414E-3,1.4567104E-3,4.993311E-4,1.8880222E-3,6.506967E-5,-2.1062128E-4,1.742897E-3,-1.8654148E-3,1.5194748E-4,3.513163E-5,-1.610831E-3,-4.6476346E-4,2.3646357E-3,3.1570223E-4,-1.0695438E-3,1.9196188E-3,-7.400482E-4,-4.998105E-4,-2.28516E-3],"categories":[],"categories_nodes":[],"categories_segments":[],"categories_sizes":[],"default_left":[0,0,0,0,0,0,0,0,0,0,0,0,0,0,0,0,0,0,0,0,0,0,0,0,0,0,0,0,0,0,0,0,0,0,0,0,0,0,0,0,0,0,0,0,0,0,0,0,0,0,0,0,0,0,0,0,0],"id":17,"left_children":[1,3,5,7,9,11,13,15,17,19,21,23,25,27,29,31,33,35,37,-1,-1,39,41,43,45,47,49,51,53,55,-1,-1,-1,-1,-1,-1,-1,-1,-1,-1,-1,-1,-1,-1,-1,-1,-1,-1,-1,-1,-1,-1,-1,-1,-1,-1,-1],"loss_changes":[3.4807804E-3,5.078635E-3,5.8160247E-3,6.0353577E-3,7.937353E-3,7.591415E-3,8.697413E-3,9.078487E-3,7.863713E-3,4.0955064E-3,5.6342143E-3,6.4460794E-3,5.515409E-3,6.0937796E-3,7.5083636E-3,9.025768E-3,1.856405E-2,8.709894E-3,7.063091E-3,0E0,0E0,3.6977706E-3,5.424656E-3,7.1711554E-3,5.2205175E-3,4.1491387E-4,5.203616E-3,4.0214537E-3,2.4491146E-3,9.1686565E-4,0E0,0E0,0E0,0E0,0E0,0E0,0E0,0E0,0E0,0E0,0E0,0E0,0E0,0E0,0E0,0E0,0E0,0E0,0E0,0E0,0E0,0E0,0E0,0E0,0E0,0E0,0E0],"parents":[2147483647,0,0,1,1,2,2,3,3,4,4,5,5,6,6,7,7,8,8,9,9,10,10,11,11,12,12,13,13,14,14,15,15,16,16,17,17,18,18,21,21,22,22,23,23,24,24,25,25,26,26,27,27,28,28,29,29],"right_children":[2,4,6,8,10,12,14,16,18,20,22,24,26,28,30,32,34,36,38,-1,-1,40,42,44,46,48,50,52,54,56,-1,-1,-1,-1,-1,-1,-1,-1,-1,-1,-1,-1,-1,-1,-1,-1,-1,-1,-1,-1,-1,-1,-1,-1,-1,-1,-1],"split_conditions":[1.427338E4,6.591935E-1,3.2485455E-2,1.2343186E-2,2.6526958E1,2.5497782E0,1.5687662E0,6.7178025E0,2.628153E-2,8.1693735E-3,-2.7033416E4,1.360889E-1,-8.082249E4,1.3711109E1,6.920735E1,-4.572593E0,6.5510764E0,1.1881701E5,-1.6047375E0,-6.00275E-3,7.4290385E-4,-2.5854124E-2,-3.646559E-2,2.5497782E0,-4.8339713E-1,-1.646477E5,-2.4864119E-2,-5.3314043E4,7.818315E-1,-2.836815E-2,-7.474871E-3,-1.17068E-3,8.524471E-5,-8.015006E-3,-6.806512E-4,-2.6706653E-4,1.0357085E-3,-4.999138E-3,-1.015414E-3,1.4567104E-3,4.993311E-4,1.8880222E-3,6.506967E-5,-2.1062128E-4,1.742897E-3,-1.8654148E-3,1.5194748E-4,3.513163E-5,-1.610831E-3,-4.6476346E-4,2.3646357E-3,3.1570223E-4,-1.0695438E-3,1.9196188E-3,-7.400482E-4,-4.998105E-4,-2.28516E-3],"split_indices":[1,108,198,33,325,64,86,118,121,0,309,262,232,260,248,10,142,177,284,0,0,185,209,119,240,111,297,232,136,110,0,0,0,0,0,0,0,0,0,0,0,0,0,0,0,0,0,0,0,0,0,0,0,0,0,0,0],"split_type":[0,0,0,0,0,0,0,0,0,0,0,0,0,0,0,0,0,0,0,0,0,0,0,0,0,0,0,0,0,0,0,0,0,0,0,0,0,0,0,0,0,0,0,0,0,0,0,0,0,0,0,0,0,0,0,0,0],"sum_hessian":[8.71E3,5.718E3,2.992E3,5.09E3,6.28E2,2.853E3,1.39E2,4.364E3,7.26E2,3E0,6.25E2,2.81E3,4.3E1,1.23E2,1.6E1,4.334E3,3E1,6.7E2,5.6E1,2E0,1E0,1.96E2,4.29E2,1.809E3,1.001E3,7E0,3.6E1,1.06E2,1.7E1,1.4E1,2E0,5.7E1,4.277E3,3E0,2.7E1,6.15E2,5.5E1,4E0,5.2E1,5.7E1,1.39E2,1.6E1,4.13E2,1.791E3,1.8E1,1.2E1,9.89E2,2E0,5E0,8E0,2.8E1,2.8E1,7.8E1,1.3E1,4E0,5E0,9E0],"tree_param":{"num_deleted":"0","num_feature":"330","num_nodes":"57","size_leaf_vector":"1"}},{"base_weights":[-9.7148895E-6,-1.0675372E-4,3.977362E-3,-1.5511406E-4,1.2703006E-2,9.775475E-6,1.1416452E-2,-1.2099285E-5,-4.999322E-3,-2.4533079E-3,3.0043716E-2,3.732287E-2,-1.1124964E-3,3.0335573E-2,6.7336694E-3,1.9950301E-5,-1.4638502E-2,-1.4941383E-2,-2.976349E-4,-8.216469E-3,1.4174204E-2,4.815458E-3,1.9080259E-2,4.5482847E-3,6.4214756E-4,-7.894968E-3,4.9214223E-3,4.1774027E-2,8.121962E-3,9.547924E-3,-1.2400694E-2,3.562329E-4,-1.1383663E-5,-4.1792425E-3,-9.7988464E-5,-5.6595856E-4,-4.157562E-3,3.020506E-4,-1.7491787E-3,-1.2326265E-3,1.0961539E-3,1.5749217E-3,3.9370806E-4,2.2685535E-3,7.0996466E-4,-1.7729963E-3,-5.0470357E-5,1.8329785E-4,3.289677E-3,5.800018E-4,4.5545776E-3,4.3511615E-4,1.0442375E-3,1.8184215E-3,4.0244774E-4,-2.9292402E-3,-1.8880579E-4],"categories":[],"categories_nodes":[],"categories_segments":[],"categories_sizes":[],"default_left":[0,0,0,0,0,0,0,0,0,0,0,0,0,0,0,0,0,0,0,0,0,0,0,0,0,0,0,0,0,0,0,0,0,0,0,0,0,0,0,0,0,0,0,0,0,0,0,0,0,0,0,0,0,0,0,0,0],"id":18,"left_children":[1,3,5,7,9,11,13,15,17,19,21,23,25,27,29,31,33,35,37,39,41,-1,43,-1,-1,45,47,49,51,53,55,-1,-1,-1,-1,-1,-1,-1,-1,-1,-1,-1,-1,-1,-1,-1,-1,-1,-1,-1,-1,-1,-1,-1,-1,-1,-1],"loss_changes":[3.3707218E-3,5.270685E-3,6.109542E-3,5.8706705E-3,8.483986E-3,5.7365806E-3,6.1745066E-3,3.8592082E-3,1.1354457E-2,1.8413485E-3,2.059563E-3,7.165512E-4,5.481864E-3,3.2179644E-3,3.29549E-3,3.8936906E-3,6.634979E-3,1.9047363E-2,9.523569E-3,1.2385626E-3,1.86119E-5,0E0,3.1406805E-4,0E0,0E0,4.570094E-3,6.074121E-3,9.569973E-4,7.062423E-6,2.4073273E-3,1.3653053E-3,0E0,0E0,0E0,0E0,0E0,0E0,0E0,0E0,0E0,0E0,0E0,0E0,0E0,0E0,0E0,0E0,0E0,0E0,0E0,0E0,0E0,0E0,0E0,0E0,0E0,0E0],"parents":[2147483647,0,0,1,1,2,2,3,3,4,4,5,5,6,6,7,7,8,8,9,9,10,10,11,11,12,12,13,13,14,14,15,15,16,16,17,17,18,18,19,19,20,20,22,22,25,25,26,26,27,27,28,28,29,29,30,30],"right_children":[2,4,6,8,10,12,14,16,18,20,22,24,26,28,30,32,34,36,38,40,42,-1,44,-1,-1,46,48,50,52,54,56,-1,-1,-1,-1,-1,-1,-1,-1,-1,-1,-1,-1,-1,-1,-1,-1,-1,-1,-1,-1,-1,-1,-1,-1,-1,-1],"split_conditions":[4.101916E-2,5.2287638E5,5.651792E1,5.660681E0,5.1898884E1,-3.0994356E5,-2.349289E-2,1.0397388E1,-2.2252093E-1,2.3626777E4,-8.030505E-1,3.1041466E-3,1.4026229E-4,2.4811611E4,1.2603656E5,-3.3248194E-2,6.3256367E1,4.994865E4,8.3452564E-1,5.627468E4,2.8376719E4,4.815458E-3,6.234898E-1,4.5482847E-3,6.4214756E-4,-4.3388373E-1,3.831878E0,-2.6032168E-2,6.799013E1,3.7501788E-1,-6.0317335E-3,3.562329E-4,-1.1383663E-5,-4.1792425E-3,-9.7988464E-5,-5.6595856E-4,-4.157562E-3,3.020506E-4,-1.7491787E-3,-1.2326265E-3,1.0961539E-3,1.5749217E-3,3.9370806E-4,2.2685535E-3,7.0996466E-4,-1.7729963E-3,-5.0470357E-5,1.8329785E-4,3.289677E-3,5.800018E-4,4.5545776E-3,4.3511615E-4,1.0442375E-3,1.8184215E-3,4.0244774E-4,-2.9292402E-3,-1.8880579E-4],"split_indices":[209,309,6,43,138,276,176,151,71,155,294,0,33,67,1,121,39,166,317,111,1,0,38,0,0,48,251,0,6,262,11,0,0,0,0,0,0,0,0,0,0,0,0,0,0,0,0,0,0,0,0,0,0,0,0,0,0],"split_type":[0,0,0,0,0,0,0,0,0,0,0,0,0,0,0,0,0,0,0,0,0,0,0,0,0,0,0,0,0,0,0,0,0,0,0,0,0,0,0,0,0,0,0,0,0,0,0,0,0,0,0,0,0,0,0,0,0],"sum_hessian":[8.71E3,8.504E3,2.06E2,8.473E3,3.1E1,1.35E2,7.1E1,8.231E3,2.42E2,1.7E1,1.4E1,3E0,1.32E2,1.3E1,5.8E1,8.214E3,1.7E1,7.7E1,1.65E2,1.3E1,4E0,4E0,1E1,2E0,1E0,6.2E1,7E1,8E0,5E0,5.1E1,7E0,2.98E2,7.916E3,5E0,1.2E1,5.8E1,1.9E1,1.39E2,2.6E1,1.1E1,2E0,3E0,1E0,7E0,3E0,2.6E1,3.6E1,6.4E1,6E0,1E0,7E0,3E0,2E0,1.9E1,3.2E1,2E0,5E0],"tree_param":{"num_deleted":"0","num_feature":"330","num_nodes":"57","size_leaf_vector":"1"}},{"base_weights":[-7.3567066E-6,9.367232E-3,-4.625457E-5,3.417429E-2,4.2636977E-3,1.3531042E-4,-2.1848562E-3,4.3780566E-3,9.97449E-4,9.423556E-3,-7.514359E-3,-2.2235403E-3,3.7647507E-4,1.6200518E-2,-2.6814602E-3,3.6759402E-3,2.4137873E-2,-1.1424841E-2,1.2075754E-3,9.244036E-3,-3.3568304E-3,2.2723712E-3,6.215747E-5,4.2485334E-2,2.8228716E-3,-2.3622178E-2,-2.2585206E-3,9.273823E-4,-3.7809063E-4,2.6815487E-3,5.3749024E-4,-2.5241898E-4,-1.2487586E-3,1.6922214E-4,-1.2318125E-5,3.2149309E-3,2.0184902E-4,-2.494769E-4,-2.570512E-3,1.0595994E-5,6.8805984E-4,1.0265842E-3,-2.0446757E-6,5.246582E-3,1.5016241E-3,1.2634905E-3,-7.3924294E-4,-1.5934743E-4,-4.2276285E-3,-3.1797853E-4,5.4202427E-4],"categories":[],"categories_nodes":[],"categories_segments":[],"categories_sizes":[],"default_left":[0,0,0,0,0,0,0,0,0,0,0,0,0,0,0,0,0,0,0,0,0,0,0,0,0,0,0,0,0,0,0,0,0,0,0,0,0,0,0,0,0,0,0,0,0,0,0,0,0,0,0],"id":19,"left_children":[1,3,5,7,9,11,13,-1,-1,15,17,19,21,23,25,27,29,31,33,35,37,39,41,43,45,47,49,-1,-1,-1,-1,-1,-1,-1,-1,-1,-1,-1,-1,-1,-1,-1,-1,-1,-1,-1,-1,-1,-1,-1,-1],"loss_changes":[3.1769124E-3,4.412023E-3,3.3691442E-3,9.5813116E-4,1.954778E-3,4.550671E-3,6.2428815E-3,0E0,0E0,1.77186E-3,3.5486603E-4,9.674129E-3,4.3244036E-3,6.209392E-3,5.8097583E-3,7.446868E-4,1.5730923E-4,3.4692755E-5,2.7882334E-6,1.1023814E-2,1.2959416E-2,1.030205E-2,5.2479026E-3,8.5708965E-4,1.39643E-3,5.2746693E-3,4.6154484E-3,0E0,0E0,0E0,0E0,0E0,0E0,0E0,0E0,0E0,0E0,0E0,0E0,0E0,0E0,0E0,0E0,0E0,0E0,0E0,0E0,0E0,0E0,0E0,0E0],"parents":[2147483647,0,0,1,1,2,2,3,3,4,4,5,5,6,6,9,9,10,10,11,11,12,12,13,13,14,14,15,15,16,16,17,17,18,18,19,19,20,20,21,21,22,22,23,23,24,24,25,25,26,26],"right_children":[2,4,6,8,10,12,14,-1,-1,16,18,20,22,24,26,28,30,32,34,36,38,40,42,44,46,48,50,-1,-1,-1,-1,-1,-1,-1,-1,-1,-1,-1,-1,-1,-1,-1,-1,-1,-1,-1,-1,-1,-1,-1,-1],"split_conditions":[1.7757896E1,-1.4670895E0,2.2472857E-2,1.3620606E4,3.650929E1,-1.9303365E-2,-5.508444E-2,4.3780566E-3,9.97449E-4,6.391819E-4,-1.8653822E-3,-1.2241463E5,-1.3351333E-2,-2.7088001E-2,-3.5414932E0,-5.0152354E-3,7.154729E-3,-2.1440195E4,5E-1,-1.3342733E-2,2.2438962E5,6.9525195E-3,-5.508444E-2,1.2246469E-16,-3.577948E4,-7.225814E4,1.0173209E5,9.273823E-4,-3.7809063E-4,2.6815487E-3,5.3749024E-4,-2.5241898E-4,-1.2487586E-3,1.6922214E-4,-1.2318125E-5,3.2149309E-3,2.0184902E-4,-2.494769E-4,-2.570512E-3,1.0595994E-5,6.8805984E-4,1.0265842E-3,-2.0446757E-6,5.246582E-3,1.5016241E-3,1.2634905E-3,-7.3924294E-4,-1.5934743E-4,-4.2276285E-3,-3.1797853E-4,5.4202427E-4],"split_indices":[171,19,264,1,314,165,286,0,0,44,132,56,319,33,75,99,0,1,3,88,298,253,308,2,188,23,23,0,0,0,0,0,0,0,0,0,0,0,0,0,0,0,0,0,0,0,0,0,0,0,0],"split_type":[0,0,0,0,0,0,0,0,0,0,0,0,0,0,0,0,0,0,0,0,0,0,0,0,0,0,0,0,0,0,0,0,0,0,0,0,0,0,0,0,0,0,0,0,0,0,0,0,0,0,0],"sum_hessian":[8.71E3,3.5E1,8.675E3,5E0,3E1,7.997E3,6.78E2,3E0,2E0,2.1E1,9E0,7.41E2,7.256E3,1.7E1,6.61E2,1.6E1,5E0,6E0,3E0,6.6E1,6.75E2,1.031E3,6.225E3,5E0,1.2E1,1.2E1,6.49E2,9E0,7E0,4E0,1E0,1E0,5E0,2E0,1E0,1.5E1,5.1E1,6.51E2,2.4E1,7.02E2,3.29E2,4.9E1,6.176E3,3E0,2E0,6E0,6E0,6E0,6E0,5.8E2,6.9E1],"tree_param":{"num_deleted":"0","num_feature":"330","num_nodes":"51","size_leaf_vector":"1"}},{"base_weights":[-5.102319E-6,-4.3628577E-5,9.279868E-3,-7.6730717E-3,1.48532345E-5,1.3473335E-2,-1.001783E-2,-2.739174E-2,-3.2313066E-3,1.0137935E-2,-2.6457566E-5,6.007513E-3,2.1576595E-2,-1.3147938E-4,-1.7399723E-3,-9.059756E-3,-3.249576E-3,7.3323925E-3,-9.477203E-3,2.6363494E-2,-3.3494078E-3,-6.136529E-3,3.9059454E-5,2.1949061E-3,-5.859678E-4,8.049588E-3,2.6182437E-3,-2.277128E-4,1.3427796E-4,-1.1937096E-3,-2.1386992E-5,2.2153727E-4,2.8525884E-3,-2.440757E-3,-4.872913E-4,3.911318E-3,8.7246665E-4,-9.212289E-4,3.294435E-3,9.781454E-4,-9.4069395E-4,1.4574075E-5,-3.675145E-4,-6.123473E-4,9.498736E-4,9.796515E-4,5.3094085E-5],"categories":[],"categories_nodes":[],"categories_segments":[],"categories_sizes":[],"default_left":[0,0,0,0,0,0,0,0,0,0,0,0,0,0,0,0,0,0,0,0,0,0,0,0,0,0,0,0,0,0,0,0,0,0,0,0,0,0,0,0,0,0,0,0,0,0,0],"id":20,"left_children":[1,3,5,7,9,11,13,15,17,19,21,23,25,27,-1,29,-1,31,33,35,37,39,41,-1,43,45,-1,-1,-1,-1,-1,-1,-1,-1,-1,-1,-1,-1,-1,-1,-1,-1,-1,-1,-1,-1,-1],"loss_changes":[3.1164617E-3,3.871203E-3,3.0482467E-3,5.692145E-3,3.6013252E-3,1.6853032E-3,5.0857215E-4,8.283984E-4,3.698378E-3,7.7476907E-3,3.4337302E-3,1.7997363E-3,6.6148816E-4,1.5710646E-5,0E0,9.925742E-5,0E0,2.2142022E-3,2.287095E-3,3.2569813E-3,4.5592133E-3,4.8293215E-3,3.3633914E-3,0E0,7.841386E-4,6.047127E-5,0E0,0E0,0E0,0E0,0E0,0E0,0E0,0E0,0E0,0E0,0E0,0E0,0E0,0E0,0E0,0E0,0E0,0E0,0E0,0E0,0E0],"parents":[2147483647,0,0,1,1,2,2,3,3,4,4,5,5,6,6,7,7,8,8,9,9,10,10,11,11,12,12,13,13,15,15,17,17,18,18,19,19,20,20,21,21,22,22,24,24,25,25],"right_children":[2,4,6,8,10,12,14,16,18,20,22,24,26,28,-1,30,-1,32,34,36,38,40,42,-1,44,46,-1,-1,-1,-1,-1,-1,-1,-1,-1,-1,-1,-1,-1,-1,-1,-1,-1,-1,-1,-1,-1],"split_conditions":[7.299688E-2,-3.7901347E5,1.9124892E-2,-1.3986242E-2,-4.9450264E0,2.082024E3,6.234898E-1,-2.349289E-2,4.429247E1,-1.1668989E-2,-3.1418556E5,-2.5592402E4,-8.913155E4,-3.7393645E4,-1.7399723E-3,2.6391912E0,-3.249576E-3,1.6494816E-2,-1.4567524E-2,5.6709955E-3,1.6831634E5,-9.167604E4,5.660681E0,2.1949061E-3,7.818315E-1,-6.946807E4,2.6182437E-3,-2.277128E-4,1.3427796E-4,-1.1937096E-3,-2.1386992E-5,2.2153727E-4,2.8525884E-3,-2.440757E-3,-4.872913E-4,3.911318E-3,8.7246665E-4,-9.212289E-4,3.294435E-3,9.781454E-4,-9.4069395E-4,1.4574075E-5,-3.675145E-4,-6.123473E-4,9.498736E-4,9.796515E-4,5.3094085E-5],"split_indices":[187,155,121,22,317,155,5,77,303,231,210,56,78,1,0,7,0,66,121,143,144,1,54,0,26,1,0,0,0,0,0,0,0,0,0,0,0,0,0,0,0,0,0,0,0,0,0],"split_type":[0,0,0,0,0,0,0,0,0,0,0,0,0,0,0,0,0,0,0,0,0,0,0,0,0,0,0,0,0,0,0,0,0,0,0,0,0,0,0,0,0,0,0,0,0,0,0],"sum_hessian":[8.71E3,8.675E3,3.5E1,6.5E1,8.61E3,2.9E1,6E0,1.1E1,5.4E1,3.4E1,8.576E3,1.6E1,1.3E1,3E0,3E0,3E0,8E0,2E1,3.4E1,1.5E1,1.9E1,9E1,8.486E3,4E0,1.2E1,4E0,9E0,1E0,2E0,2E0,1E0,1.7E1,3E0,7E0,2.7E1,8E0,7E0,1.7E1,2E0,1.5E1,7.5E1,8.25E3,2.36E2,8E0,4E0,3E0,1E0],"tree_param":{"num_deleted":"0","num_feature":"330","num_nodes":"47","size_leaf_vector":"1"}},{"base_weights":[-3.8031167E-6,3.752073E-3,-9.431103E-5,2.8004535E-2,2.6250463E-3,-7.275685E-3,-3.729807E-5,4.8212335E-3,2.1958258E-3,-4.0464834E-3,5.237586E-3,-1.2950118E-2,8.890832E-3,5.2577732E-5,-4.6598087E-3,7.9890946E-4,-1.249765E-3,-1.7642058E-2,9.054243E-4,3.9291987E-3,2.9909452E-2,-9.395084E-3,-4.3066397E-2,1.9266924E-2,-1.5072508E-2,1.6466619E-3,-2.329306E-4,-1.4328588E-3,-1.3481837E-2,-1.680938E-4,2.1876767E-6,-5.5198756E-4,-2.154832E-3,1.9096414E-3,-2.656863E-4,-4.683115E-4,7.3164544E-4,7.892907E-4,3.713749E-3,-1.3597881E-3,7.094774E-4,-1.0379032E-3,-4.8643476E-3,2.7463834E-3,6.590995E-5,-1.7260477E-3,-2.0663327E-4,7.559642E-4,4.341984E-5,-1.706968E-5,-1.4736013E-3,1.0554277E-3,-3.9611114E-4,6.8591104E-4,-1.7627552E-3],"categories":[],"categories_nodes":[],"categories_segments":[],"categories_sizes":[],"default_left":[0,0,0,0,0,0,0,0,0,0,0,0,0,0,0,0,0,0,0,0,0,0,0,0,0,0,0,0,0,0,0,0,0,0,0,0,0,0,0,0,0,0,0,0,0,0,0,0,0,0,0,0,0,0,0],"id":21,"left_children":[1,3,5,7,9,11,13,-1,15,17,19,21,23,25,27,-1,29,31,33,35,37,39,41,43,45,47,49,51,53,-1,-1,-1,-1,-1,-1,-1,-1,-1,-1,-1,-1,-1,-1,-1,-1,-1,-1,-1,-1,-1,-1,-1,-1,-1,-1],"loss_changes":[2.9615406E-3,5.529786E-3,3.4827613E-3,4.5879697E-3,3.4548324E-3,6.2614353E-3,3.5070737E-3,0E0,1.0979066E-4,3.7861194E-3,4.4662887E-3,4.948606E-3,4.7660256E-3,3.769268E-3,4.564069E-3,0E0,2.2299628E-6,5.9134234E-4,2.7724009E-3,4.0016705E-3,8.208323E-4,3.2844357E-3,4.0662847E-4,1.964745E-3,1.350767E-4,9.015663E-3,6.3372203E-3,3.6482809E-3,3.747004E-3,0E0,0E0,0E0,0E0,0E0,0E0,0E0,0E0,0E0,0E0,0E0,0E0,0E0,0E0,0E0,0E0,0E0,0E0,0E0,0E0,0E0,0E0,0E0,0E0,0E0,0E0],"parents":[2147483647,0,0,1,1,2,2,3,3,4,4,5,5,6,6,8,8,9,9,10,10,11,11,12,12,13,13,14,14,16,16,17,17,18,18,19,19,20,20,21,21,22,22,23,23,24,24,25,25,26,26,27,27,28,28],"right_children":[2,4,6,8,10,12,14,-1,16,18,20,22,24,26,28,-1,30,32,34,36,38,40,42,44,46,48,50,52,54,-1,-1,-1,-1,-1,-1,-1,-1,-1,-1,-1,-1,-1,-1,-1,-1,-1,-1,-1,-1,-1,-1,-1,-1,-1,-1],"split_conditions":[2.6526958E1,-1.8759073E5,-6.479558E-2,-1.42426435E-2,-2.7057387E4,2.5356328E-2,4.3607473E-2,4.8212335E-3,-4.3388373E-1,-4.3576703E4,1.25454234E5,1.5766205E5,1.3262226E-2,-5.607722E4,5.6239414E4,7.9890946E-4,3.6275736E-3,-4.3613125E4,-9.870406E4,-4.0007812E4,-7.818315E-1,1.3621425E-2,-3.7901347E5,1.0283897E-2,-4.8749406E4,-1.482729E-2,1.9721209E1,-7.4605787E-1,4.060204E1,-1.680938E-4,2.1876767E-6,-5.5198756E-4,-2.154832E-3,1.9096414E-3,-2.656863E-4,-4.683115E-4,7.3164544E-4,7.892907E-4,3.713749E-3,-1.3597881E-3,7.094774E-4,-1.0379032E-3,-4.8643476E-3,2.7463834E-3,6.590995E-5,-1.7260477E-3,-2.0663327E-4,7.559642E-4,4.341984E-5,-1.706968E-5,-1.4736013E-3,1.0554277E-3,-3.9611114E-4,6.8591104E-4,-1.7627552E-3],"split_indices":[138,243,33,55,298,77,264,0,4,243,320,166,99,309,199,0,0,133,34,78,4,319,1,55,1,319,150,273,226,0,0,0,0,0,0,0,0,0,0,0,0,0,0,0,0,0,0,0,0,0,0,0,0,0,0],"split_type":[0,0,0,0,0,0,0,0,0,0,0,0,0,0,0,0,0,0,0,0,0,0,0,0,0,0,0,0,0,0,0,0,0,0,0,0,0,0,0,0,0,0,0,0,0,0,0,0,0,0,0,0,0,0,0],"sum_hessian":[8.71E3,2.04E2,8.506E3,8E0,1.96E2,6.6E1,8.44E3,4E0,4E0,5.5E1,1.41E2,4.9E1,1.7E1,8.28E3,1.6E2,1E0,3E0,1.4E1,4.1E1,1.35E2,6E0,4.5E1,4E0,1.2E1,5E0,1.257E3,7.023E3,1.18E2,4.2E1,2E0,1E0,4E0,1E1,6E0,3.5E1,3.8E1,9.7E1,2E0,4E0,3.6E1,9E0,1E0,3E0,8E0,4E0,4E0,1E0,2.13E2,1.044E3,6.994E3,2.9E1,2E1,9.8E1,7E0,3.5E1],"tree_param":{"num_deleted":"0","num_feature":"330","num_nodes":"55","size_leaf_vector":"1"}},{"base_weights":[-3.1500488E-6,-5.1948446E-4,6.389777E-4,-1.3624306E-2,-4.319743E-4,1.5456507E-2,5.582614E-4,-1.9426003E-2,9.871184E-3,-1.3191282E-2,-3.4892678E-4,6.0982765E-3,4.418319E-3,-7.343696E-3,7.2304247E-4,-2.7199613E-2,-6.3529336E-3,2.1991252E-3,-4.7166795E-3,-2.7201282E-2,3.5661361E-3,-5.132183E-4,5.707853E-3,2.1021644E-2,-6.4502447E-3,3.6689877E-3,-2.545338E-2,2.6870567E-2,6.6748314E-4,-3.1888043E-3,-5.162322E-4,5.6248775E-4,-1.7271923E-3,-7.384256E-4,-1.3660689E-4,-4.3467134E-3,-3.468805E-4,-5.230964E-4,2.220653E-3,-7.0397575E-5,3.888723E-4,5.264955E-3,4.134889E-4,5.77331E-4,2.5142203E-3,-1.6287313E-3,1.2377186E-3,9.321701E-4,-1.3136558E-3,-5.7974405E-4,-5.0711343E-3,2.935619E-3,4.735602E-4,2.3300781E-4,-1.0732058E-5],"categories":[],"categories_nodes":[],"categories_segments":[],"categories_sizes":[],"default_left":[0,0,0,0,0,0,0,0,0,0,0,0,0,0,0,0,0,0,0,0,0,0,0,0,0,0,0,0,0,0,0,0,0,0,0,0,0,0,0,0,0,0,0,0,0,0,0,0,0,0,0,0,0,0,0],"id":22,"left_children":[1,3,5,7,9,11,13,15,17,19,21,23,-1,25,27,29,31,-1,33,35,37,39,41,43,45,47,49,51,53,-1,-1,-1,-1,-1,-1,-1,-1,-1,-1,-1,-1,-1,-1,-1,-1,-1,-1,-1,-1,-1,-1,-1,-1,-1,-1],"loss_changes":[2.8884872E-3,5.532037E-3,4.6355026E-3,4.5537967E-3,5.0794957E-3,5.3760083E-3,5.035295E-3,2.4694512E-3,1.3413668E-3,7.3749176E-3,4.7474583E-3,3.31912E-3,0E0,1.584885E-2,5.4806843E-3,1.4885077E-3,1.5357938E-3,0E0,2.5664645E-5,6.4117126E-3,2.5758825E-3,3.9014784E-3,9.08584E-3,3.5749958E-4,2.0536582E-3,4.8723016E-3,1.4600076E-2,3.0113384E-4,4.867011E-3,0E0,0E0,0E0,0E0,0E0,0E0,0E0,0E0,0E0,0E0,0E0,0E0,0E0,0E0,0E0,0E0,0E0,0E0,0E0,0E0,0E0,0E0,0E0,0E0,0E0,0E0],"parents":[2147483647,0,0,1,1,2,2,3,3,4,4,5,5,6,6,7,7,8,8,9,9,10,10,11,11,13,13,14,14,15,15,16,16,18,18,19,19,20,20,21,21,22,22,23,23,24,24,25,25,26,26,27,27,28,28],"right_children":[2,4,6,8,10,12,14,16,18,20,22,24,-1,26,28,30,32,-1,34,36,38,40,42,44,46,48,50,52,54,-1,-1,-1,-1,-1,-1,-1,-1,-1,-1,-1,-1,-1,-1,-1,-1,-1,-1,-1,-1,-1,-1,-1,-1,-1,-1],"split_conditions":[3.4961833E3,-3.5414932E0,-4.9450264E0,2.0378243E-2,-3.8056812E5,9.042584E-3,-1.9460415E0,5.86245E1,-2.3840654E0,-2.5952233E-3,1.8017172E5,3.908772E-3,4.418319E-3,4.7283815E-3,-2.1051142E0,2.5058783E5,-3.4951272E-3,2.1991252E-3,-1.3351333E-2,-4.3250415E-2,6.349558E1,1.3725891E0,-4.118478E-2,-1.2968537E-2,3.7970826E-2,7.0781984E4,4.1893562E4,2.824541E-2,-2.0629943E4,-3.1888043E-3,-5.162322E-4,5.6248775E-4,-1.7271923E-3,-7.384256E-4,-1.3660689E-4,-4.3467134E-3,-3.468805E-4,-5.230964E-4,2.220653E-3,-7.0397575E-5,3.888723E-4,5.264955E-3,4.134889E-4,5.77331E-4,2.5142203E-3,-1.6287313E-3,1.2377186E-3,9.321701E-4,-1.3136558E-3,-5.7974405E-4,-5.0711343E-3,2.935619E-3,4.735602E-4,2.3300781E-4,-1.0732058E-5],"split_indices":[12,97,317,242,298,0,317,17,42,132,210,119,0,33,328,78,220,0,0,31,28,86,286,22,33,243,309,0,265,0,0,0,0,0,0,0,0,0,0,0,0,0,0,0,0,0,0,0,0,0,0,0,0,0,0],"split_type":[0,0,0,0,0,0,0,0,0,0,0,0,0,0,0,0,0,0,0,0,0,0,0,0,0,0,0,0,0,0,0,0,0,0,0,0,0,0,0,0,0,0,0,0,0,0,0,0,0,0,0,0,0,0,0],"sum_hessian":[8.71E3,4.828E3,3.882E3,3.1E1,4.797E3,2E1,3.862E3,2.5E1,6E0,3E1,4.767E3,1.6E1,4E0,7.8E1,3.784E3,1.5E1,1E1,3E0,3E0,1.6E1,1.4E1,4.642E3,1.25E2,7E0,9E0,4.9E1,2.9E1,7E0,3.777E3,1.2E1,3E0,5E0,5E0,1E0,2E0,9E0,7E0,1E1,4E0,4.45E3,1.92E2,3E0,1.22E2,2E0,5E0,6E0,3E0,3.7E1,1.2E1,1.7E1,1.2E1,6E0,1E0,1.2E3,2.577E3],"tree_param":{"num_deleted":"0","num_feature":"330","num_nodes":"55","size_leaf_vector":"1"}},{"base_weights":[-2.3559733E-6,-1.2999095E-3,2.5245096E-4,-8.6500635E-4,-1.9131083E-2,1.2968278E-4,6.169332E-3,1.181912E-2,-1.1710218E-3,-1.14532E-2,-6.137216E-3,9.553946E-5,1.7489616E-2,1.3317798E-2,2.5327667E-4,2.7006734E-3,3.997668E-2,-5.4209824E-3,-3.5412624E-4,3.7994442E-4,-2.9234579E-2,1.3440578E-4,-1.7174363E-2,-1.0710784E-2,2.6154343E-2,2.1205315E-2,-1.6975567E-3,1.0947223E-2,-7.5496687E-3,1.1318263E-3,-1.0079518E-3,5.9350673E-3,2.3626902E-3,-1.5808132E-3,-3.09553E-4,-1.3671261E-3,1.6111474E-6,-1.5145327E-3,1.0698464E-3,-3.3928528E-3,-3.843222E-4,1.7175995E-5,-1.5454584E-3,-4.1122125E-3,-8.4847177E-4,-3.1360344E-4,-1.2190356E-3,8.8807056E-4,3.906892E-3,4.108773E-4,2.9906672E-3,6.912777E-4,-1.9782323E-3,-1.492288E-3,1.681424E-3,-5.458593E-5,-1.9192359E-3],"categories":[],"categories_nodes":[],"categories_segments":[],"categories_sizes":[],"default_left":[0,0,0,0,0,0,0,0,0,0,0,0,0,0,0,0,0,0,0,0,0,0,0,0,0,0,0,0,0,0,0,0,0,0,0,0,0,0,0,0,0,0,0,0,0,0,0,0,0,0,0,0,0,0,0,0,0],"id":23,"left_children":[1,3,5,7,9,11,13,15,17,19,-1,21,23,25,27,29,31,33,35,37,39,41,43,45,47,49,51,53,55,-1,-1,-1,-1,-1,-1,-1,-1,-1,-1,-1,-1,-1,-1,-1,-1,-1,-1,-1,-1,-1,-1,-1,-1,-1,-1,-1,-1],"loss_changes":[2.880408E-3,1.1072865E-2,5.288879E-3,5.4363506E-3,1.032404E-2,4.2274278E-3,6.255653E-3,8.364892E-3,4.737052E-3,6.3233958E-3,0E0,4.7827195E-3,3.7010158E-3,7.971065E-3,6.925079E-3,2.9775784E-3,1.1318121E-3,5.265127E-3,5.6505795E-3,3.20579E-3,1.2998348E-3,4.141159E-3,2.9806509E-3,6.6001667E-6,2.10694E-3,6.4226966E-3,3.873931E-3,5.5632275E-3,3.9035964E-3,0E0,0E0,0E0,0E0,0E0,0E0,0E0,0E0,0E0,0E0,0E0,0E0,0E0,0E0,0E0,0E0,0E0,0E0,0E0,0E0,0E0,0E0,0E0,0E0,0E0,0E0,0E0,0E0],"parents":[2147483647,0,0,1,1,2,2,3,3,4,4,5,5,6,6,7,7,8,8,9,9,11,11,12,12,13,13,14,14,15,15,16,16,17,17,18,18,19,19,20,20,21,21,22,22,23,23,24,24,25,25,26,26,27,27,28,28],"right_children":[2,4,6,8,10,12,14,16,18,20,-1,22,24,26,28,30,32,34,36,38,40,42,44,46,48,50,52,54,56,-1,-1,-1,-1,-1,-1,-1,-1,-1,-1,-1,-1,-1,-1,-1,-1,-1,-1,-1,-1,-1,-1,-1,-1,-1,-1,-1,-1],"split_conditions":[-5.335386E4,2.2903922E0,6.5510764E0,-4.954786E-2,1.5766205E5,3.831878E0,-9.365025E3,1.06598195E-2,-1.4238097E-2,3.7640627E-2,-6.137216E-3,7.299688E-2,-1.018216E5,6.953256E1,6.5466453E-4,6.961627E-3,2.5229118E0,-1.1106102E0,-1.9460415E0,-5.926094E-1,1.9721209E1,7.226378E-2,5.2688904E1,-3.1418556E5,-2.2666094E4,-7.225814E4,3.097958E4,-1.2783848E0,9.025332E-3,1.1318263E-3,-1.0079518E-3,5.9350673E-3,2.3626902E-3,-1.5808132E-3,-3.09553E-4,-1.3671261E-3,1.6111474E-6,-1.5145327E-3,1.0698464E-3,-3.3928528E-3,-3.843222E-4,1.7175995E-5,-1.5454584E-3,-4.1122125E-3,-8.4847177E-4,-3.1360344E-4,-1.2190356E-3,8.8807056E-4,3.906892E-3,4.108773E-4,2.9906672E-3,6.912777E-4,-1.9782323E-3,-1.492288E-3,1.681424E-3,-5.458593E-5,-1.9192359E-3],"split_indices":[111,295,307,286,265,306,45,44,209,275,0,198,265,281,0,198,7,86,328,31,73,132,270,1,67,1,34,53,319,0,0,0,0,0,0,0,0,0,0,0,0,0,0,0,0,0,0,0,0,0,0,0,0,0,0,0,0],"split_type":[0,0,0,0,0,0,0,0,0,0,0,0,0,0,0,0,0,0,0,0,0,0,0,0,0,0,0,0,0,0,0,0,0,0,0,0,0,0,0,0,0,0,0,0,0,0,0,0,0,0,0,0,0,0,0,0,0],"sum_hessian":[8.71E3,1.429E3,7.281E3,1.396E3,3.3E1,7.134E3,1.47E2,3.2E1,1.364E3,2.9E1,4E0,7.121E3,1.3E1,6.6E1,8.1E1,2.5E1,7E0,2.19E2,1.145E3,1.8E1,1.1E1,7.106E3,1.5E1,3E0,1E1,4.3E1,2.3E1,3.4E1,4.7E1,1.5E1,1E1,2E0,5E0,3.9E1,1.8E2,3E1,1.115E3,7E0,1.1E1,9E0,2E0,7.09E3,1.6E1,3E0,1.2E1,1E0,2E0,5E0,5E0,1.5E1,2.8E1,1.6E1,7E0,6E0,2.8E1,3E1,1.7E1],"tree_param":{"num_deleted":"0","num_feature":"330","num_nodes":"57","size_leaf_vector":"1"}},{"base_weights":[-3.049111E-6,1.3776204E-4,-2.2535513E-3,8.444306E-3,7.343243E-5,-3.3929158E-2,-1.7482974E-3,1.0595771E-2,-3.8116898E-3,-5.663533E-3,1.5855844E-4,-6.2189125E-3,-4.5353565E-3,-1.6662542E-2,-8.398008E-4,2.1655072E-2,1.7615724E-3,-4.0443994E-2,-3.1286473E-3,1.2088761E-3,-2.7130425E-4,-1.2223737E-2,4.66481E-4,-3.480268E-2,-6.7593455E-3,3.2834794E-2,-1.2651872E-3,-1.2278685E-3,2.6408404E-3,4.178288E-4,-1.8012545E-3,-6.797738E-3,-1.0328493E-3,-1.1581243E-4,-3.77482E-3,5.791647E-4,8.338639E-5,-1.6024231E-6,-4.748215E-4,-1.4826114E-3,-3.5094924E-4,-1.4556403E-3,-4.5874133E-3,-1.04527164E-4,-2.9354324E-3,3.7707486E-3,4.235671E-4,1.9662825E-3,-1.8060334E-4],"categories":[],"categories_nodes":[],"categories_segments":[],"categories_sizes":[],"default_left":[0,0,0,0,0,0,0,0,0,0,0,0,0,0,0,0,0,0,0,0,0,0,0,0,0,0,0,0,0,0,0,0,0,0,0,0,0,0,0,0,0,0,0,0,0,0,0,0,0],"id":24,"left_children":[1,3,5,7,9,11,13,15,-1,17,19,-1,21,23,25,27,29,31,33,35,37,39,-1,41,43,45,47,-1,-1,-1,-1,-1,-1,-1,-1,-1,-1,-1,-1,-1,-1,-1,-1,-1,-1,-1,-1,-1,-1],"loss_changes":[2.7607896E-3,4.380571E-3,8.150848E-3,6.7148875E-3,3.974724E-3,6.363292E-3,6.842074E-3,5.921557E-3,0E0,1.0365041E-2,3.6208455E-3,0E0,4.1069335E-4,4.9744714E-3,6.888756E-3,4.6793167E-3,1.747856E-3,5.9313495E-3,7.5967694E-3,3.9977795E-3,6.503973E-3,1.6001082E-5,0E0,1.5737945E-3,2.5515042E-3,6.7641167E-4,5.389322E-3,0E0,0E0,0E0,0E0,0E0,0E0,0E0,0E0,0E0,0E0,0E0,0E0,0E0,0E0,0E0,0E0,0E0,0E0,0E0,0E0,0E0,0E0],"parents":[2147483647,0,0,1,1,2,2,3,3,4,4,5,5,6,6,7,7,9,9,10,10,12,12,13,13,14,14,15,15,16,16,17,17,18,18,19,19,20,20,21,21,23,23,24,24,25,25,26,26],"right_children":[2,4,6,8,10,12,14,16,-1,18,20,-1,22,24,26,28,30,32,34,36,38,40,-1,42,44,46,48,-1,-1,-1,-1,-1,-1,-1,-1,-1,-1,-1,-1,-1,-1,-1,-1,-1,-1,-1,-1,-1,-1],"split_conditions":[2.628153E-2,-6.479558E-2,-6.479558E-2,2.2594727E5,2.4691442E1,-4.4224244E-3,-3.8763214E-2,-5.406278E-3,-3.8116898E-3,-1.2241463E5,-2.4429967E4,-6.2189125E-3,-1.571093E5,-8.609487E4,2.874031E1,-2.349289E-2,1.0274462E-2,-2.7152945E4,6.2873405E1,-2.1835199E-2,2.5357936E-2,6.6533843E-3,4.66481E-4,-8.314014E-3,3.299829E-1,3.731749E1,-4.954786E-2,-1.2278685E-3,2.6408404E-3,4.178288E-4,-1.8012545E-3,-6.797738E-3,-1.0328493E-3,-1.1581243E-4,-3.77482E-3,5.791647E-4,8.338639E-5,-1.6024231E-6,-4.748215E-4,-1.4826114E-3,-3.5094924E-4,-1.4556403E-3,-4.5874133E-3,-1.04527164E-4,-2.9354324E-3,3.7707486E-3,4.235671E-4,1.9662825E-3,-1.8060334E-4],"split_indices":[121,297,297,144,314,11,11,319,0,100,199,0,1,23,193,55,132,12,17,264,55,0,0,22,75,6,286,0,0,0,0,0,0,0,0,0,0,0,0,0,0,0,0,0,0,0,0,0,0],"split_type":[0,0,0,0,0,0,0,0,0,0,0,0,0,0,0,0,0,0,0,0,0,0,0,0,0,0,0,0,0,0,0,0,0,0,0,0,0,0,0,0,0,0,0,0,0,0,0,0,0],"sum_hessian":[8.71E3,8.198E3,5.12E2,6.2E1,8.136E3,7E0,5.05E2,6E1,2E0,1.18E2,8.018E3,3E0,4E0,2.8E1,4.77E2,2.6E1,3.4E1,7E0,1.11E2,2.328E3,5.69E3,2E0,2E0,9E0,1.9E1,5E0,4.72E2,3E0,2.3E1,3.1E1,3E0,3E0,4E0,1.06E2,5E0,1.75E2,2.153E3,5.384E3,3.06E2,1E0,1E0,4E0,5E0,1.6E1,3E0,4E0,1E0,1.1E1,4.61E2],"tree_param":{"num_deleted":"0","num_feature":"330","num_nodes":"49","size_leaf_vector":"1"}},{"base_weights":[-5.7296484E-6,1.5249632E-4,-1.9714774E-3,-1.057067E-4,1.858441E-3,1.818655E-2,-2.57533E-3,-1.6557128E-4,7.460923E-3,3.5985477E-2,1.6950949E-3,5.053327E-3,3.5613064E-2,-2.3826273E-2,-2.0191767E-3,-1.184399E-2,-1.0305074E-4,-1.0673477E-2,1.124099E-2,5.839901E-3,5.4135895E-3,5.9489706E-3,4.90182E-4,1.2936394E-2,-8.5702445E-4,1.4381695E-3,4.029324E-3,-9.013257E-3,-1.5915453E-3,-3.2459775E-3,6.12384E-3,-1.9105648E-3,3.0318167E-4,4.0549258E-4,-2.3902654E-5,-1.7730754E-3,-7.005055E-6,4.6872145E-5,1.593921E-3,9.3599764E-4,-6.0012466E-5,1.728357E-3,3.4385428E-4,1.1728857E-4,-8.3817024E-4,1.380784E-3,3.4181346E-4,2.3818878E-3,-8.376975E-4,-2.6526971E-4,-2.0171897E-3,-2.4153502E-4,1.3359416E-3],"categories":[],"categories_nodes":[],"categories_segments":[],"categories_sizes":[],"default_left":[0,0,0,0,0,0,0,0,0,0,0,0,0,0,0,0,0,0,0,0,0,0,0,0,0,0,0,0,0,0,0,0,0,0,0,0,0,0,0,0,0,0,0,0,0,0,0,0,0,0,0,0,0],"id":25,"left_children":[1,3,5,7,9,11,13,15,17,19,21,23,25,27,29,31,33,35,37,39,-1,41,43,45,-1,-1,-1,-1,47,49,51,-1,-1,-1,-1,-1,-1,-1,-1,-1,-1,-1,-1,-1,-1,-1,-1,-1,-1,-1,-1,-1,-1],"loss_changes":[2.7097035E-3,3.5517872E-3,7.946774E-3,3.1738596E-3,5.8479947E-3,4.1684955E-3,7.409542E-3,5.07326E-3,3.8901884E-3,2.4196259E-3,5.4096645E-3,1.3996143E-3,2.1544658E-4,2.3445388E-2,6.1736302E-3,4.0547783E-3,3.910035E-3,7.47071E-4,2.3206118E-3,7.362529E-5,0E0,6.5705134E-3,5.0006895E-3,1.9160216E-5,0E0,0E0,0E0,0E0,2.440998E-3,5.3289044E-3,5.0369306E-3,0E0,0E0,0E0,0E0,0E0,0E0,0E0,0E0,0E0,0E0,0E0,0E0,0E0,0E0,0E0,0E0,0E0,0E0,0E0,0E0,0E0,0E0],"parents":[2147483647,0,0,1,1,2,2,3,3,4,4,5,5,6,6,7,7,8,8,9,9,10,10,11,11,12,12,13,13,14,14,15,15,16,16,17,17,18,18,19,19,21,21,22,22,23,23,28,28,29,29,30,30],"right_children":[2,4,6,8,10,12,14,16,18,20,22,24,26,28,30,32,34,36,38,40,-1,42,44,46,-1,-1,-1,-1,48,50,52,-1,-1,-1,-1,-1,-1,-1,-1,-1,-1,-1,-1,-1,-1,-1,-1,-1,-1,-1,-1,-1,-1],"split_conditions":[6.729735E1,1.4828606E-2,-3.8729213E-2,4.07677E5,-4.7811397E5,1.1824553E4,-4.118478E-2,-6.479558E-2,-8.913155E4,4.7660657E-4,-1.27076255E-2,6.847675E1,3.837755E3,-2.4868067E-2,2.4688408E-2,-1.6446745E-1,-4.879503E0,2.4814193E4,-1.0864809E-2,-2.7088001E-2,5.4135895E-3,-4.735876E4,2.7250519E-2,8.660254E-1,-8.5702445E-4,1.4381695E-3,4.029324E-3,-9.013257E-3,-9.009429E-3,2.782814E5,9.589115E-1,-1.9105648E-3,3.0318167E-4,4.0549258E-4,-2.3902654E-5,-1.7730754E-3,-7.005055E-6,4.6872145E-5,1.593921E-3,9.3599764E-4,-6.0012466E-5,1.728357E-3,3.4385428E-4,1.1728857E-4,-8.3817024E-4,1.380784E-3,3.4181346E-4,2.3818878E-3,-8.376975E-4,-2.6526971E-4,-2.0171897E-3,-2.4153502E-4,1.3359416E-3],"split_indices":[72,22,264,188,309,210,286,187,67,0,319,6,12,209,11,108,250,111,165,0,0,254,264,2,0,0,0,0,44,298,10,0,0,0,0,0,0,0,0,0,0,0,0,0,0,0,0,0,0,0,0,0,0],"split_type":[0,0,0,0,0,0,0,0,0,0,0,0,0,0,0,0,0,0,0,0,0,0,0,0,0,0,0,0,0,0,0,0,0,0,0,0,0,0,0,0,0,0,0,0,0,0,0,0,0,0,0,0,0],"sum_hessian":[8.71E3,8.062E3,6.48E2,7.003E3,1.059E3,1.8E1,6.3E2,6.949E3,5.4E1,4E0,1.055E3,1.1E1,7E0,1.5E1,6.15E2,3.6E1,6.913E3,9E0,4.5E1,2E0,2E0,2.32E2,8.23E2,7E0,4E0,2E0,5E0,3E0,1.2E1,5.35E2,8E1,2.4E1,1.2E1,2.18E2,6.695E3,5E0,4E0,1.4E1,3.1E1,1E0,1E0,4.1E1,1.91E2,7.65E2,5.8E1,6E0,1E0,2E0,1E1,5.18E2,1.7E1,3.7E1,4.3E1],"tree_param":{"num_deleted":"0","num_feature":"330","num_nodes":"53","size_leaf_vector":"1"}},{"base_weights":[-4.703021E-6,8.124793E-5,-3.5361433E-3,-3.388164E-4,8.970833E-4,-1.6124202E-3,-1.8137347E-2,-2.99122E-4,-2.812224E-2,4.0698065E-3,1.7984782E-4,-4.123523E-3,9.195518E-3,-2.5031235E-2,-1.2206694E-3,-4.0795887E-4,7.5240536E-3,1.2902856E-3,-4.394775E-2,4.4347327E-3,-3.5353377E-2,-1.0949825E-2,3.6678335E-4,-1.010854E-3,-1.2374012E-2,2.0207902E-2,-3.6533538E-3,-3.0151196E-2,-8.535603E-4,-1.4956943E-2,1.0012484E-3,-5.932305E-4,-2.6237083E-5,-1.6757386E-3,1.0984206E-3,-4.971915E-3,-7.5453747E-4,1.4731874E-3,3.6529297E-4,-1.1175598E-3,-4.77467E-3,8.120523E-4,-2.0797327E-3,4.214076E-4,-1.5665797E-5,-2.1577033E-4,1.9227484E-3,-7.791887E-4,-3.7804425E-3,3.264291E-3,-9.705979E-5,9.13704E-4,-1.1460573E-3,-3.1997175E-3,-3.0767496E-4,-8.2265225E-4,4.346268E-4,-2.143585E-3,-5.652024E-4],"categories":[],"categories_nodes":[],"categories_segments":[],"categories_sizes":[],"default_left":[0,0,0,0,0,0,0,0,0,0,0,0,0,0,0,0,0,0,0,0,0,0,0,0,0,0,0,0,0,0,0,0,0,0,0,0,0,0,0,0,0,0,0,0,0,0,0,0,0,0,0,0,0,0,0,0,0,0,0],"id":26,"left_children":[1,3,5,7,9,11,13,15,17,19,21,23,25,27,29,31,33,-1,35,37,39,41,43,45,47,49,51,53,55,57,-1,-1,-1,-1,-1,-1,-1,-1,-1,-1,-1,-1,-1,-1,-1,-1,-1,-1,-1,-1,-1,-1,-1,-1,-1,-1,-1,-1,-1],"loss_changes":[2.6443424E-3,2.914996E-3,5.78511E-3,6.184071E-3,6.5779975E-3,5.031649E-3,2.7683657E-3,4.778E-3,5.760996E-3,7.824822E-3,4.91199E-3,3.839648E-3,5.026212E-3,2.0786729E-3,1.3841693E-3,4.4477135E-3,6.6534113E-3,0E0,8.854056E-4,4.2048143E-3,9.646169E-4,7.4929013E-3,4.674764E-3,2.5946228E-3,4.4829706E-3,5.0354246E-3,1.8022914E-3,6.0125533E-4,1.8910722E-4,1.19986886E-4,0E0,0E0,0E0,0E0,0E0,0E0,0E0,0E0,0E0,0E0,0E0,0E0,0E0,0E0,0E0,0E0,0E0,0E0,0E0,0E0,0E0,0E0,0E0,0E0,0E0,0E0,0E0,0E0,0E0],"parents":[2147483647,0,0,1,1,2,2,3,3,4,4,5,5,6,6,7,7,8,8,9,9,10,10,11,11,12,12,13,13,14,14,15,15,16,16,18,18,19,19,20,20,21,21,22,22,23,23,24,24,25,25,26,26,27,27,28,28,29,29],"right_children":[2,4,6,8,10,12,14,16,18,20,22,24,26,28,30,32,34,-1,36,38,40,42,44,46,48,50,52,54,56,58,-1,-1,-1,-1,-1,-1,-1,-1,-1,-1,-1,-1,-1,-1,-1,-1,-1,-1,-1,-1,-1,-1,-1,-1,-1,-1,-1,-1,-1],"split_conditions":[7.3437E1,1.7257747E-1,6.443699E1,1.5342536E0,-1.2122146E-2,4.594442E0,2.3626777E4,4.7361355E-2,-7.444203E-3,7.525546E1,-3.1580728E-2,8.3452564E-1,5.419778E3,2.2923646E4,-8.502027E-3,-1.7638828E5,-2.7110444E-2,1.2902856E-3,2.4688408E-2,-2.2706747E-2,-8.30548E2,-7.066003E4,-1.6667053E-2,1.8066047E5,7.590281E4,5.214085E1,-1.7560883E4,3.53081E-2,-1.0662706E-2,-2.4055135E-2,1.0012484E-3,-5.932305E-4,-2.6237083E-5,-1.6757386E-3,1.0984206E-3,-4.971915E-3,-7.5453747E-4,1.4731874E-3,3.6529297E-4,-1.1175598E-3,-4.77467E-3,8.120523E-4,-2.0797327E-3,4.214076E-4,-1.5665797E-5,-2.1577033E-4,1.9227484E-3,-7.791887E-4,-3.7804425E-3,3.264291E-3,-9.705979E-5,9.13704E-4,-1.1460573E-3,-3.1997175E-3,-3.0767496E-4,-8.2265225E-4,4.346268E-4,-2.143585E-3,-5.652024E-4],"split_indices":[325,229,72,251,319,84,243,286,33,83,165,317,45,1,132,309,209,0,0,165,1,276,99,122,144,39,133,55,0,0,0,0,0,0,0,0,0,0,0,0,0,0,0,0,0,0,0,0,0,0,0,0,0,0,0,0,0,0,0],"split_type":[0,0,0,0,0,0,0,0,0,0,0,0,0,0,0,0,0,0,0,0,0,0,0,0,0,0,0,0,0,0,0,0,0,0,0,0,0,0,0,0,0,0,0,0,0,0,0,0,0,0,0,0,0,0,0,0,0,0,0],"sum_hessian":[8.71E3,8.504E3,2.06E2,5.614E3,2.89E3,1.83E2,2.3E1,5.607E3,7E0,5.32E2,2.358E3,1.49E2,3.4E1,1.6E1,7E0,5.531E3,7.6E1,2E0,5E0,5.28E2,4E0,3.8E1,2.32E3,1.09E2,4E1,1.8E1,1.6E1,1.3E1,3E0,3E0,4E0,1.41E2,5.39E3,9E0,6.7E1,4E0,1E0,3.6E1,4.92E2,2E0,2E0,1.3E1,2.5E1,2.77E2,2.043E3,1.04E2,5E0,3.5E1,5E0,1.1E1,7E0,6E0,1E1,1.2E1,1E0,1E0,2E0,1E0,2E0],"tree_param":{"num_deleted":"0","num_feature":"330","num_nodes":"59","size_leaf_vector":"1"}},{"base_weights":[-6.077444E-6,1.8855672E-4,-1.4689671E-3,2.7774288E-3,-1.6762755E-5,1.1279923E-2,-2.135693E-3,-6.9036945E-3,3.027165E-3,-6.3397135E-3,9.2458344E-5,-4.3988248E-4,2.3486117E-2,-1.7603433E-3,-1.6904298E-2,-1.0447342E-2,4.2156046E-3,-9.428912E-5,-1.9978553E-2,6.9516017E-3,1.1213077E-5,2.0313447E-2,-6.079887E-3,1.1963671E-2,4.6475854E-2,2.7823558E-2,-1.9463148E-3,-4.3021236E-2,-9.5298495E-3,-1.6134642E-3,5.2307773E-4,1.9027622E-3,3.0391067E-4,1.5760448E-3,-4.056587E-4,-4.570803E-3,-1.2111557E-4,2.3849553E-3,1.8264037E-4,-2.2361006E-5,2.3332122E-4,2.2436273E-3,4.8496595E-4,5.1227206E-4,-9.676108E-4,4.132058E-4,2.123668E-3,5.008959E-3,1.0589849E-3,5.1866187E-4,3.7845373E-3,2.1767055E-3,-2.1464862E-4,-4.7574686E-3,-1.2403722E-3,-3.1983198E-4,-2.3770367E-3],"categories":[],"categories_nodes":[],"categories_segments":[],"categories_sizes":[],"default_left":[0,0,0,0,0,0,0,0,0,0,0,0,0,0,0,0,0,0,0,0,0,0,0,0,0,0,0,0,0,0,0,0,0,0,0,0,0,0,0,0,0,0,0,0,0,0,0,0,0,0,0,0,0,0,0,0,0],"id":27,"left_children":[1,3,5,7,9,11,13,-1,15,17,19,21,23,25,27,29,31,33,35,37,39,41,43,45,47,49,51,53,55,-1,-1,-1,-1,-1,-1,-1,-1,-1,-1,-1,-1,-1,-1,-1,-1,-1,-1,-1,-1,-1,-1,-1,-1,-1,-1,-1,-1],"loss_changes":[2.480545E-3,4.0871026E-3,8.719608E-3,1.0342071E-2,4.921109E-3,7.306097E-3,5.363962E-3,0E0,9.075735E-3,1.0304939E-2,3.903619E-3,3.2838231E-3,6.0664285E-3,5.280828E-3,4.2123664E-3,4.1860403E-3,8.986431E-3,5.340913E-3,1.8293902E-2,7.05808E-3,3.7758958E-3,8.815294E-5,9.3588314E-4,1.2194561E-3,5.0701946E-4,1.1648899E-3,4.5323884E-3,1.0697264E-4,1.7272597E-3,0E0,0E0,0E0,0E0,0E0,0E0,0E0,0E0,0E0,0E0,0E0,0E0,0E0,0E0,0E0,0E0,0E0,0E0,0E0,0E0,0E0,0E0,0E0,0E0,0E0,0E0,0E0,0E0],"parents":[2147483647,0,0,1,1,2,2,3,3,4,4,5,5,6,6,8,8,9,9,10,10,11,11,12,12,13,13,14,14,15,15,16,16,17,17,18,18,19,19,20,20,21,21,22,22,23,23,24,24,25,25,26,26,27,27,28,28],"right_children":[2,4,6,8,10,12,14,-1,16,18,20,22,24,26,28,30,32,34,36,38,40,42,44,46,48,50,52,54,56,-1,-1,-1,-1,-1,-1,-1,-1,-1,-1,-1,-1,-1,-1,-1,-1,-1,-1,-1,-1,-1,-1,-1,-1,-1,-1,-1,-1],"split_conditions":[1.7268008E-2,-2.1835199E-2,-3.646559E-2,7.1126574E-1,-1.7281786E0,-1.9519936E4,2.5423477E0,-6.9036945E-3,-1.3347039E0,-2.8116233E-3,-4.954786E-2,-2.1810643E-2,6.2133675E1,-8.211169E-2,-6.5553625E4,4.6699154E1,-3.3248194E-2,-1.1891845E-2,-4.42045E4,-1.9303365E-2,2.177546E0,7.085408E4,-1.2918228E5,5.6715216E-3,3.172317E-3,-3.6345342E-1,-4.9450264E0,1.3094499E0,1.4243292E-2,-1.6134642E-3,5.2307773E-4,1.9027622E-3,3.0391067E-4,1.5760448E-3,-4.056587E-4,-4.570803E-3,-1.2111557E-4,2.3849553E-3,1.8264037E-4,-2.2361006E-5,2.3332122E-4,2.2436273E-3,4.8496595E-4,5.1227206E-4,-9.676108E-4,4.132058E-4,2.123668E-3,5.008959E-3,1.0589849E-3,5.1866187E-4,3.7845373E-3,2.1767055E-3,-2.1464862E-4,-4.7574686E-3,-1.2403722E-3,-3.1983198E-4,-2.3770367E-3],"split_indices":[198,264,209,7,317,133,141,0,97,198,143,231,83,275,12,204,99,264,320,286,21,12,133,110,22,20,64,9,44,0,0,0,0,0,0,0,0,0,0,0,0,0,0,0,0,0,0,0,0,0,0,0,0,0,0,0,0],"split_type":[0,0,0,0,0,0,0,0,0,0,0,0,0,0,0,0,0,0,0,0,0,0,0,0,0,0,0,0,0,0,0,0,0,0,0,0,0,0,0,0,0,0,0,0,0,0,0,0,0,0,0,0,0,0,0,0,0],"sum_hessian":[8.71E3,7.688E3,1.022E3,5.64E2,7.124E3,5E1,9.72E2,1E0,5.63E2,1.2E2,7.004E3,2.6E1,2.4E1,9.49E2,2.3E1,4.5E1,5.18E2,8.3E1,3.7E1,8.1E1,6.923E3,5E0,2.1E1,1.7E1,7E0,5E0,9.44E2,4E0,1.9E1,3.3E1,1.2E1,3.7E1,4.81E2,1.6E1,6.7E1,1.5E1,2.2E1,1.8E1,6.3E1,6.288E3,6.35E2,4E0,1E0,5E0,1.6E1,1E1,7E0,6E0,1E0,2E0,3E0,7E0,9.37E2,3E0,1E0,1.4E1,5E0],"tree_param":{"num_deleted":"0","num_feature":"330","num_nodes":"57","size_leaf_vector":"1"}},{"base_weights":[-5.2494916E-6,3.796198E-4,-7.5314235E-4,4.3233653E-4,-1.2770226E-2,-3.332003E-3,-1.8541895E-4,3.5901356E-4,1.1405898E-2,-2.501322E-2,-3.113073E-3,-1.5510488E-2,-2.5763183E-3,2.9067518E-4,-4.5859963E-3,-7.371697E-4,1.0359293E-3,2.8197788E-2,3.5203956E-3,-3.6911652E-3,-1.4640798E-3,-7.7106296E-3,1.6314844E-3,-3.264908E-2,-2.967741E-3,-3.238867E-3,1.2816534E-2,6.753944E-5,1.1435512E-2,-6.367504E-5,-1.4744859E-2,-2.3621331E-4,5.788257E-5,8.088071E-5,9.489908E-4,1.3678664E-3,3.6614498E-3,-9.1045185E-5,1.4157465E-3,-3.8227072E-4,-1.238918E-3,-4.923225E-3,-1.1401757E-3,-2.580562E-3,4.8427345E-4,-1.9379772E-4,-9.236731E-4,-5.614536E-5,2.5029383E-3,9.1924623E-4,-1.4975279E-5,3.1207872E-3,4.4981958E-4,-2.4495297E-4,8.256297E-4,-1.1184396E-3,-3.8820996E-3],"categories":[],"categories_nodes":[],"categories_segments":[],"categories_sizes":[],"default_left":[0,0,0,0,0,0,0,0,0,0,0,0,0,0,0,0,0,0,0,0,0,0,0,0,0,0,0,0,0,0,0,0,0,0,0,0,0,0,0,0,0,0,0,0,0,0,0,0,0,0,0,0,0,0,0,0,0],"id":28,"left_children":[1,3,5,7,9,11,13,15,17,19,21,23,25,27,29,31,33,35,37,-1,-1,39,-1,41,43,45,47,49,51,53,55,-1,-1,-1,-1,-1,-1,-1,-1,-1,-1,-1,-1,-1,-1,-1,-1,-1,-1,-1,-1,-1,-1,-1,-1,-1,-1],"loss_changes":[2.5076687E-3,3.992905E-3,4.3330574E-3,4.6063443E-3,2.641478E-3,4.8744925E-3,5.086114E-3,4.225104E-3,4.9324064E-3,6.937394E-4,1.376291E-3,6.5670223E-3,5.181562E-3,5.447831E-3,1.0887228E-2,4.6503446E-3,6.751027E-3,9.6560176E-4,1.285433E-3,0E0,0E0,1.7091789E-4,0E0,4.0191887E-3,3.5140887E-3,3.7585385E-3,3.445103E-3,4.26236E-3,5.757807E-3,3.2955145E-3,5.823534E-3,0E0,0E0,0E0,0E0,0E0,0E0,0E0,0E0,0E0,0E0,0E0,0E0,0E0,0E0,0E0,0E0,0E0,0E0,0E0,0E0,0E0,0E0,0E0,0E0,0E0,0E0],"parents":[2147483647,0,0,1,1,2,2,3,3,4,4,5,5,6,6,7,7,8,8,9,9,10,10,11,11,12,12,13,13,14,14,15,15,16,16,17,17,18,18,21,21,23,23,24,24,25,25,26,26,27,27,28,28,29,29,30,30],"right_children":[2,4,6,8,10,12,14,16,18,20,22,24,26,28,30,32,34,36,38,-1,-1,40,-1,42,44,46,48,50,52,54,56,-1,-1,-1,-1,-1,-1,-1,-1,-1,-1,-1,-1,-1,-1,-1,-1,-1,-1,-1,-1,-1,-1,-1,-1,-1,-1],"split_conditions":[1.4666152E4,1.3289338E1,-1.1866668E-2,9.018709E0,2.6871418E-3,-3.4474958E-2,6.5448105E1,-2.8999536E-3,-3.3402396E-3,-9.338405E3,7.299688E-2,-6.758654E-3,8.249846E0,1.9647709E0,1.0472718E0,-6.5341346E-2,1.9096233E5,-2.2244996E-1,1.7796322E0,-3.6911652E-3,-1.4640798E-3,9.4315484E4,1.6314844E-3,1.8370885E4,-2.0339685E-2,1.7809913E0,-3.4814723E4,-4.118478E-2,-1.5701955E5,3.4453984E4,7.65981E1,-2.3621331E-4,5.788257E-5,8.088071E-5,9.489908E-4,1.3678664E-3,3.6614498E-3,-9.1045185E-5,1.4157465E-3,-3.8227072E-4,-1.238918E-3,-4.923225E-3,-1.1401757E-3,-2.580562E-3,4.8427345E-4,-1.9379772E-4,-9.236731E-4,-5.614536E-5,2.5029383E-3,9.1924623E-4,-1.4975279E-5,3.1207872E-3,4.4981958E-4,-2.4495297E-4,8.256297E-4,-1.1184396E-3,-3.8820996E-3],"split_indices":[1,329,209,283,88,319,160,77,0,122,187,253,206,108,8,196,320,141,229,0,0,221,0,45,242,250,276,264,144,221,138,0,0,0,0,0,0,0,0,0,0,0,0,0,0,0,0,0,0,0,0,0,0,0,0,0,0],"split_type":[0,0,0,0,0,0,0,0,0,0,0,0,0,0,0,0,0,0,0,0,0,0,0,0,0,0,0,0,0,0,0,0,0,0,0,0,0,0,0,0,0,0,0,0,0,0,0,0,0,0,0,0,0,0,0,0,0],"sum_hessian":[8.71E3,5.751E3,2.959E3,5.729E3,2.2E1,5.33E2,2.426E3,5.692E3,3.7E1,9E0,1.3E1,3E1,5.03E2,2.19E3,2.36E2,2.173E3,3.519E3,1.1E1,2.6E1,3E0,6E0,1.1E1,2E0,1.2E1,1.8E1,4.83E2,2E1,2.148E3,4.2E1,1.64E2,7.2E1,9.72E2,1.201E3,3.428E3,9.1E1,5E0,6E0,1.9E1,7E0,7E0,4E0,6E0,6E0,4E0,1.4E1,3.98E2,8.5E1,1E1,1E1,4.9E1,2.099E3,1E1,3.2E1,1.28E2,3.6E1,6.4E1,8E0],"tree_param":{"num_deleted":"0","num_feature":"330","num_nodes":"57","size_leaf_vector":"1"}},{"base_weights":[-5.2657842E-6,1.2655281E-4,-2.1120405E-3,7.496152E-3,6.9478796E-5,-2.3996858E-2,-1.5399554E-3,-9.246349E-3,1.2920816E-2,1.7567736E-4,-3.5498112E-3,1.6570257E-3,-4.622262E-2,-1.4891598E-2,-7.181E-4,-1.725425E-3,-3.1377766E-2,2.1308575E-2,4.351736E-3,-4.958167E-3,2.5409952E-4,-4.5641446E-3,2.2090247E-2,-2.4067666E-3,5.3065614E-4,-2.1674584E-3,-5.9215E-3,-3.111988E-2,-6.032879E-3,5.909185E-3,-2.6952396E-3,5.727832E-4,-5.6744093E-4,-3.5503923E-3,-9.499647E-4,2.685592E-3,-5.142519E-4,1.24751E-3,-5.488166E-4,-3.6670042E-3,-2.6487643E-4,1.6559243E-5,5.0879334E-4,-1.19742086E-4,-1.0728417E-3,3.7678212E-3,8.0165634E-4,-8.9843146E-5,-3.4658864E-4,-1.3116825E-3,-4.0935776E-3,-1.8719811E-3,2.238532E-4,1.3343208E-4,1.791185E-3,-3.7146144E-4,1.5074706E-3],"categories":[],"categories_nodes":[],"categories_segments":[],"categories_sizes":[],"default_left":[0,0,0,0,0,0,0,0,0,0,0,0,0,0,0,0,0,0,0,0,0,0,0,0,0,0,0,0,0,0,0,0,0,0,0,0,0,0,0,0,0,0,0,0,0,0,0,0,0,0,0,0,0,0,0,0,0],"id":29,"left_children":[1,3,5,7,9,11,13,15,17,19,21,23,25,27,29,31,33,35,37,39,41,43,45,47,-1,-1,-1,49,51,53,55,-1,-1,-1,-1,-1,-1,-1,-1,-1,-1,-1,-1,-1,-1,-1,-1,-1,-1,-1,-1,-1,-1,-1,-1,-1,-1],"loss_changes":[2.4194175E-3,3.4480824E-3,6.385795E-3,5.841286E-3,3.1281884E-3,7.4888943E-3,5.4868395E-3,2.6090397E-3,3.3572884E-3,3.184273E-3,6.13458E-3,1.16588344E-4,9.491006E-4,3.981349E-3,6.213678E-3,4.151284E-4,2.3815315E-5,3.6597075E-3,2.0667927E-3,8.617893E-3,3.3310866E-3,4.6359147E-3,1.6723713E-3,3.276169E-6,0E0,0E0,0E0,1.2302138E-3,2.1406817E-3,5.961351E-3,6.667692E-3,0E0,0E0,0E0,0E0,0E0,0E0,0E0,0E0,0E0,0E0,0E0,0E0,0E0,0E0,0E0,0E0,0E0,0E0,0E0,0E0,0E0,0E0,0E0,0E0,0E0,0E0],"parents":[2147483647,0,0,1,1,2,2,3,3,4,4,5,5,6,6,7,7,8,8,9,9,10,10,11,11,12,12,13,13,14,14,15,15,16,16,17,17,18,18,19,19,20,20,21,21,22,22,23,23,27,27,28,28,29,29,30,30],"right_children":[2,4,6,8,10,12,14,16,18,20,22,24,26,28,30,32,34,36,38,40,42,44,46,48,-1,-1,-1,50,52,54,56,-1,-1,-1,-1,-1,-1,-1,-1,-1,-1,-1,-1,-1,-1,-1,-1,-1,-1,-1,-1,-1,-1,-1,-1,-1,-1],"split_conditions":[2.628153E-2,-6.479558E-2,-4.954786E-2,-4.270931E4,1.6470169E0,-4.3388373E-1,-3.8763214E-2,3.0991824E4,-5.406278E-3,2.4691442E1,4.010823E5,-1.3347039E0,-5.065607E4,-8.609487E4,4.552734E1,-4.426019E4,2.0470062E-2,1.8479628E1,3.5256216E3,-1.2241463E5,2.2438962E5,1.701223E4,-4.432754E-3,3.6275736E-3,5.3065614E-4,-2.1674584E-3,-5.9215E-3,-8.314014E-3,-3.035005E0,1.2631747E-2,1.8017172E5,5.727832E-4,-5.6744093E-4,-3.5503923E-3,-9.499647E-4,2.685592E-3,-5.142519E-4,1.24751E-3,-5.488166E-4,-3.6670042E-3,-2.6487643E-4,1.6559243E-5,5.0879334E-4,-1.19742086E-4,-1.0728417E-3,3.7678212E-3,8.0165634E-4,-8.9843146E-5,-3.4658864E-4,-1.3116825E-3,-4.0935776E-3,-1.8719811E-3,2.238532E-4,1.3343208E-4,1.791185E-3,-3.7146144E-4,1.5074706E-3],"split_indices":[121,297,297,111,295,4,11,78,319,314,23,9,210,23,325,155,0,216,210,100,309,67,165,0,0,0,0,22,10,220,298,0,0,0,0,0,0,0,0,0,0,0,0,0,0,0,0,0,0,0,0,0,0,0,0,0,0],"split_type":[0,0,0,0,0,0,0,0,0,0,0,0,0,0,0,0,0,0,0,0,0,0,0,0,0,0,0,0,0,0,0,0,0,0,0,0,0,0,0,0,0,0,0,0,0,0,0,0,0,0,0,0,0,0,0,0,0],"sum_hessian":[8.71E3,8.198E3,5.12E2,6.2E1,8.136E3,1.2E1,5E2,1.5E1,4.7E1,7.905E3,2.31E2,6E0,6E0,2.8E1,4.72E2,1.2E1,3E0,2.3E1,2.4E1,1.18E2,7.787E3,2.23E2,8E0,3E0,3E0,3E0,3E0,9E0,1.9E1,1.08E2,3.64E2,4E0,8E0,2E0,1E0,1.9E1,4E0,1.3E1,1.1E1,7E0,1.11E2,7.648E3,1.39E2,1.45E2,7.8E1,3E0,5E0,2E0,1E0,4E0,5E0,7E0,1.2E1,7.9E1,2.9E1,3.45E2,1.9E1],"tree_param":{"num_deleted":"0","num_feature":"330","num_nodes":"57","size_leaf_vector":"1"}},{"base_weights":[-6.305281E-6,8.13792E-3,-4.009802E-5,4.254753E-3,3.1362604E-2,-4.631218E-3,2.3746732E-5,1.02879E-2,-5.3543025E-3,3.6665995E-3,5.074527E-4,-8.32081E-3,1.032012E-2,-1.8867176E-2,5.0266834E-5,4.429331E-3,2.0535341E-3,1.0229106E-3,-9.467924E-3,-1.1499175E-2,7.1256566E-3,4.6726357E-4,2.6689628E-2,-4.9780426E-3,-4.5400932E-3,1.8770846E-4,-2.1250893E-3,9.914427E-4,-2.4721122E-4,-1.1118306E-4,2.3682388E-4,-1.1153879E-3,-2.94004E-4,-6.54931E-3,-9.986681E-4,1.7247001E-3,-6.4167305E-4,-6.585668E-4,1.7300847E-3,3.26307E-3,1.1105611E-3,-7.8789884E-4,3.450178E-4,7.5841637E-4,1.3860983E-5,-2.1978288E-3,-1.4764558E-4],"categories":[],"categories_nodes":[],"categories_segments":[],"categories_sizes":[],"default_left":[0,0,0,0,0,0,0,0,0,0,0,0,0,0,0,0,0,0,0,0,0,0,0,0,0,0,0,0,0,0,0,0,0,0,0,0,0,0,0,0,0,0,0,0,0,0,0],"id":30,"left_children":[1,3,5,7,9,11,13,15,17,-1,-1,19,21,23,25,27,-1,29,31,33,35,37,39,41,-1,43,45,-1,-1,-1,-1,-1,-1,-1,-1,-1,-1,-1,-1,-1,-1,-1,-1,-1,-1,-1,-1],"loss_changes":[2.3977302E-3,3.113232E-3,2.5432096E-3,1.910216E-3,5.110167E-4,6.650429E-3,4.2884136E-3,1.1097491E-3,3.5071964E-4,0E0,0E0,4.7950107E-3,3.8584026E-3,4.196363E-3,2.555819E-3,5.544807E-4,0E0,1.9864643E-5,5.5252865E-5,5.8791805E-3,2.4408107E-3,2.013555E-3,4.7088834E-4,2.4723215E-4,0E0,2.9187212E-3,6.5092933E-3,0E0,0E0,0E0,0E0,0E0,0E0,0E0,0E0,0E0,0E0,0E0,0E0,0E0,0E0,0E0,0E0,0E0,0E0,0E0,0E0],"parents":[2147483647,0,0,1,1,2,2,3,3,4,4,5,5,6,6,7,7,8,8,11,11,12,12,13,13,14,14,15,15,17,17,18,18,19,19,20,20,21,21,22,22,23,23,25,25,26,26],"right_children":[2,4,6,8,10,12,14,16,18,-1,-1,20,22,24,26,28,-1,30,32,34,36,38,40,42,-1,44,46,-1,-1,-1,-1,-1,-1,-1,-1,-1,-1,-1,-1,-1,-1,-1,-1,-1,-1,-1,-1],"split_conditions":[1.7757896E1,1.1410751E5,2.4691442E1,-1.8308981E-1,2.9945122E-3,1.6795364E5,1.7757896E1,1.3621425E-2,8.568815E-1,3.6665995E-3,5.074527E-4,7.3070806E-3,-4.735876E4,2.4415245E0,2.628153E-2,1.2246469E-16,2.0535341E-3,-1.594028E3,1.7790764E4,6.2998664E-1,3.8323596E0,2.7229975E1,-4.1020033E-4,-1.2096667E-1,-4.5400932E-3,-6.479558E-2,3.3948143E1,9.914427E-4,-2.4721122E-4,-1.1118306E-4,2.3682388E-4,-1.1153879E-3,-2.94004E-4,-6.54931E-3,-9.986681E-4,1.7247001E-3,-6.4167305E-4,-6.585668E-4,1.7300847E-3,3.26307E-3,1.1105611E-3,-7.8789884E-4,3.450178E-4,7.5841637E-4,1.3860983E-5,-2.1978288E-3,-1.4764558E-4],"split_indices":[171,221,248,31,0,232,215,264,29,0,0,121,254,7,121,2,0,1,45,62,161,270,88,9,0,275,303,0,0,0,0,0,0,0,0,0,0,0,0,0,0,0,0,0,0,0,0],"split_type":[0,0,0,0,0,0,0,0,0,0,0,0,0,0,0,0,0,0,0,0,0,0,0,0,0,0,0,0,0,0,0,0,0,0,0,0,0,0,0,0,0,0,0,0,0,0,0],"sum_hessian":[8.71E3,3.5E1,8.675E3,3.1E1,4E0,1.18E2,8.557E3,1.9E1,1.2E1,3E0,1E0,9.5E1,2.3E1,1.1E1,8.546E3,1.3E1,6E0,5E0,7E0,7.9E1,1.6E1,1.5E1,8E0,8E0,3E0,8.039E3,5.07E2,7E0,6E0,2E0,3E0,5E0,2E0,1E0,7.8E1,9E0,7E0,1.1E1,4E0,5E0,3E0,6E0,2E0,5.2E1,7.987E3,1.5E1,4.92E2],"tree_param":{"num_deleted":"0","num_feature":"330","num_nodes":"47","size_leaf_vector":"1"}},{"base_weights":[-5.8914866E-6,3.3083272E-3,-8.575618E-5,1.8535574E-3,1.8318795E-2,-6.02225E-3,-3.152824E-5,6.5567065E-3,-1.0565306E-3,3.293465E-2,4.3530665E-5,-1.6570609E-3,-2.395456E-2,-2.1625225E-2,-1.1017663E-5,1.30072795E-2,1.3621936E-3,1.0549586E-2,-3.2732952E-3,4.270205E-3,7.608049E-3,-4.406768E-3,6.7080962E-3,4.1294666E-3,-1.3426757E-2,-6.3152947E-3,-8.892219E-3,-1.0036676E-3,-4.1995864E-2,1.8339844E-4,-1.6928269E-3,7.607827E-4,2.4125292E-3,-9.309011E-4,3.8330007E-4,2.9441158E-3,